,106,122,133,17,2,218,254,282,294,30,301,302,33,335,339,341,362,5,6,106,122,133,17,2,218,254,282,294,30,301,302,33,335,339,341,362,5,6
0,0.02530466,-1.5186667e-05,-0.00018290333,-4.585147e-05,0.0023804754,0.006727673,-0.00018198258,0.016319543,0.022397004,0.025078766,0.020812482,-0.00016852029,0.020774536,-0.00013362177,-0.00046029247,-0.00020449347,0.02917464,0.007890344,0.027808264,0.02530466,-1.5186667e-05,-0.00018290333,-4.585147e-05,0.0023804754,0.006727673,-0.00018198258,0.016319543,0.022397004,0.025078766,0.020812482,-0.00016852029,0.020774536,-0.00013362177,-0.00046029247,-0.00020449347,0.02917464,0.007890344,0.027808264
1,0.012022413,-0.00014800958,-0.00031572618,-0.00017867393,-0.000109017565,-6.554596e-05,-0.00031480528,0.003037274,0.009114735,0.011796549,0.0075301975,-0.00030134356,0.0074922517,-0.00026644446,-0.0005931156,-0.00033731616,0.015892386,-5.3919477e-05,0.01452601,0.012022413,-0.00014800958,-0.00031572618,-0.00017867393,-0.000109017565,-6.554596e-05,-0.00031480528,0.003037274,0.009114735,0.011796549,0.0075301975,-0.00030134356,0.0074922517,-0.00026644446,-0.0005931156,-0.00033731616,0.015892386,-5.3919477e-05,0.01452601
2,0.011613071,-0.00015210277,-0.00031981952,-0.00018276743,-0.00011311061,-6.9639456e-05,-0.00031889862,0.0026279315,0.008705422,0.011387207,0.0071208924,-0.00030543603,0.007082969,-0.00027053736,-0.0005972086,-0.00034140935,0.015483059,-5.8012232e-05,0.014116682,0.011613071,-0.00015210277,-0.00031981952,-0.00018276743,-0.00011311061,-6.9639456e-05,-0.00031889862,0.0026279315,0.008705422,0.011387207,0.0071208924,-0.00030543603,0.007082969,-0.00027053736,-0.0005972086,-0.00034140935,0.015483059,-5.8012232e-05,0.014116682
3,0.011196524,-0.00015626795,-0.00032398468,-0.0001869329,-0.000117275784,-7.3804484e-05,-0.00032306396,0.0022113994,0.008288905,0.01097066,0.0067043826,-0.00030960148,0.006666422,-0.00027470267,-0.00060137396,-0.00034557437,0.015066564,-6.21777e-05,0.01370018,0.011196524,-0.00015626795,-0.00032398468,-0.0001869329,-0.000117275784,-7.3804484e-05,-0.00032306396,0.0022113994,0.008288905,0.01097066,0.0067043826,-0.00030960148,0.006666422,-0.00027470267,-0.00060137396,-0.00034557437,0.015066564,-6.21777e-05,0.01370018
4,0.010814466,-0.00016008862,-0.00032780535,-0.00019075342,-0.000121097044,-7.7625285e-05,-0.00032688462,0.0018293709,0.007906787,0.010588571,0.006322317,-0.00031342244,0.006284274,-0.00027852392,-0.0006051945,-0.00034939536,0.014684483,-6.5998356e-05,0.013318047,0.010814466,-0.00016008862,-0.00032780535,-0.00019075342,-0.000121097044,-7.7625285e-05,-0.00032688462,0.0018293709,0.007906787,0.010588571,0.006322317,-0.00031342244,0.006284274,-0.00027852392,-0.0006051945,-0.00034939536,0.014684483,-6.5998654e-05,0.013318047
5,0.010481283,-0.00016342051,-0.0003311371,-0.00019408531,-0.00012442864,-8.095704e-05,-0.0003302165,0.0014961809,0.0075736344,0.010255389,0.005989097,-0.0003167542,0.005951181,-0.00028185538,-0.0006085262,-0.00035272725,0.014351271,-6.933011e-05,0.012984894,0.010481283,-0.00016342051,-0.0003311371,-0.00019408531,-0.00012442864,-8.095704e-05,-0.0003302165,0.0014961809,0.0075736344,0.010255389,0.005989097,-0.0003167542,0.005951181,-0.00028185538,-0.0006085262,-0.00035272725,0.014351271,-6.933011e-05,0.012984894
6,0.010199733,-0.00016623683,-0.00033395342,-0.00019690074,-0.00012724481,-8.377291e-05,-0.00033303237,0.0012145564,0.0072920322,0.009973824,0.0057075173,-0.00031957068,0.005669549,-0.0002846714,-0.0006113427,-0.00035554296,0.014069684,-7.214673e-05,0.012703262,0.010199733,-0.00016623683,-0.00033395342,-0.00019690074,-0.00012724481,-8.377291e-05,-0.00033303237,0.0012145564,0.0072920322,0.009973824,0.0057075173,-0.00031957068,0.005669549,-0.0002846714,-0.0006113427,-0.00035554296,0.014069684,-7.214673e-05,0.012703262
7,0.009967074,-0.0001685626,-0.0003362798,-0.0001992274,-0.00012957059,-8.609928e-05,-0.00033535875,0.0009819418,0.0070594475,0.009741202,0.005474925,-0.000321896,0.005436972,-0.00028699747,-0.00061366847,-0.00035786934,0.013837099,-7.447235e-05,0.01247073,0.009967074,-0.0001685626,-0.0003362798,-0.0001992274,-0.00012957059,-8.609928e-05,-0.00033535875,0.0009819418,0.0070594475,0.009741202,0.005474925,-0.000321896,0.005436972,-0.00028699747,-0.00061366847,-0.00035786934,0.013837099,-7.447235e-05,0.01247073
8,0.009778872,-0.00017044507,-0.0003381618,-0.00020110956,-0.00013145349,-8.798145e-05,-0.00033724075,0.0007937476,0.0068712384,0.0095529705,0.005286716,-0.0003237786,0.0052486956,-0.0002888798,-0.0006155506,-0.0003597515,0.013648815,-7.6355114e-05,0.012282439,0.009778872,-0.00017044507,-0.0003381618,-0.00020110956,-0.00013145349,-8.798145e-05,-0.00033724075,0.0007937476,0.0068712384,0.0095529705,0.005286716,-0.0003237786,0.0052486956,-0.0002888798,-0.0006155506,-0.0003597515,0.013648815,-7.6355114e-05,0.012282439
9,0.0096297115,-0.00017193638,-0.0003396531,-0.00020260087,-0.00013294465,-8.9473055e-05,-0.00033873238,0.000644587,0.0067221075,0.009403825,0.005137585,-0.00032527006,0.005099565,-0.0002903711,-0.00061704224,-0.00036124294,0.013499744,-7.7846125e-05,0.012133367,0.0096297115,-0.00017193638,-0.0003396531,-0.00020260087,-0.00013294465,-8.9473055e-05,-0.00033873238,0.000644587,0.0067221075,0.009403825,0.005137585,-0.00032527006,0.005099565,-0.0002903711,-0.00061704224,-0.00036124294,0.013499744,-7.7846125e-05,0.012133367
10,0.009514548,-0.00017308824,-0.00034080498,-0.00020375258,-0.00013409622,-9.062491e-05,-0.00033988408,0.000529401,0.006606929,0.009288661,0.0050223917,-0.00032642178,0.004984401,-0.0002915225,-0.0006181941,-0.00036239452,0.013384558,-7.899798e-05,0.012018144,0.009514548,-0.00017308824,-0.00034080498,-0.00020375258,-0.00013409622,-9.062491e-05,-0.00033988408,0.000529401,0.006606929,0.009288661,0.0050223917,-0.00032642178,0.004984401,-0.0002915225,-0.0006181941,-0.00036239452,0.013384558,-7.899798e-05,0.012018144
11,0.009428598,-0.00017394773,-0.00034166448,-0.00020461193,-0.00013495586,-9.1484115e-05,-0.00034074328,0.0004434511,0.006520912,0.009202674,0.004936449,-0.00032728157,0.004898466,-0.00029238232,-0.0006190536,-0.00036325402,0.013298556,-7.985763e-05,0.011932172,0.009428598,-0.00017394773,-0.00034166448,-0.00020461193,-0.00013495586,-9.1484115e-05,-0.00034074328,0.0004434511,0.006520912,0.009202674,0.004936449,-0.00032728157,0.004898466,-0.00029238232,-0.0006190536,-0.00036325402,0.013298556,-7.985763e-05,0.011932172
12,0.0093676,-0.0001745572,-0.00034227394,-0.00020522185,-0.00013556563,-9.209372e-05,-0.00034135333,0.00038247555,0.0064599738,0.009141706,0.004875444,-0.00032789103,0.004837431,-0.0002929925,-0.0006196629,-0.00036386377,0.013237603,-8.046724e-05,0.0118711665,0.0093676,-0.0001745572,-0.00034227394,-0.00020522185,-0.00013556563,-9.209372e-05,-0.00034135333,0.00038247555,0.0064599738,0.009141706,0.004875444,-0.00032789103,0.004837431,-0.0002929925,-0.0006196629,-0.00036386377,0.013237603,-8.046724e-05,0.0118711665
13,0.009327963,-0.00017495416,-0.0003426709,-0.0002056185,-0.00013596169,-9.249039e-05,-0.00034175016,0.00034276396,0.006420262,0.009102099,0.0048357323,-0.000328288,0.0047978014,-0.00029338888,-0.0006200603,-0.0003642606,0.013197891,-8.086391e-05,0.011831515,0.009327963,-0.00017495416,-0.0003426709,-0.0002056185,-0.00013596169,-9.249039e-05,-0.00034175016,0.00034276396,0.006420262,0.009102099,0.0048357323,-0.000328288,0.0047978014,-0.00029338888,-0.0006200603,-0.0003642606,0.013197891,-8.086391e-05,0.011831515
14,0.009306423,-0.00017516948,-0.00034288623,-0.00020583383,-0.00013617761,-9.270571e-05,-0.00034196532,0.00032122433,0.0063986927,0.009080529,0.004814215,-0.00032850346,0.004776232,-0.00029360436,-0.0006202753,-0.00036447606,0.013176382,-8.1079525e-05,0.011810005,0.009306423,-0.00017516948,-0.00034288623,-0.00020583383,-0.00013617761,-9.270571e-05,-0.00034196532,0.00032122433,0.0063986927,0.009080529,0.004814215,-0.00032850346,0.004776232,-0.00029360436,-0.0006202753,-0.00036447606,0.013176382,-8.1079525e-05,0.011810005
15,0.009300247,-0.00017523087,-0.0003429476,-0.00020589553,-0.000136239,-9.276695e-05,-0.00034202717,0.0003151372,0.0063925833,0.0090743825,0.004808061,-0.00032856487,0.0047701,-0.00029366603,-0.000620337,-0.00036453747,0.01317022,-8.1141065e-05,0.011803843,0.009300247,-0.00017523087,-0.0003429476,-0.00020589553,-0.000136239,-9.276695e-05,-0.00034202717,0.0003151372,0.0063925833,0.0090743825,0.004808061,-0.00032856487,0.0047701,-0.00029366603,-0.000620337,-0.00036453747,0.01317022,-8.1141065e-05,0.011803843
16,0.009307131,-0.00017516217,-0.00034287892,-0.00020582683,-0.0001361697,-9.2698705e-05,-0.00034195816,0.00032200664,0.0063995197,0.009081267,0.0048149824,-0.00032849572,0.004777029,-0.0002935969,-0.0006202679,-0.0003644686,0.013177171,-8.107163e-05,0.0118107945,0.009361759,-0.0001746156,-0.00034233235,-0.00020527995,-0.00013562344,-9.215228e-05,-0.00034141174,0.00037661195,0.0064541027,0.009135954,0.0048695803,-0.00032794915,0.004831657,-0.00029305049,-0.0006197218,-0.0003639219,0.013231739,-8.052565e-05,0.0118653625
17,0.0093250945,-0.00017498262,-0.0003426995,-0.00020564742,-0.00013599046,-9.251885e-05,-0.00034177862,0.0003399551,0.006417446,0.0090992,0.0048329234,-0.00032831615,0.0047949627,-0.00029341748,-0.0006200882,-0.00036428907,0.013195075,-8.0892365e-05,0.011828706,0.009386852,-0.00017436511,-0.0003420823,-0.00020502991,-0.00013537325,-9.1901646e-05,-0.00034116127,0.00040165335,0.0064791143,0.009160958,0.004894644,-0.0003276991,0.0048566684,-0.00029280043,-0.00061947096,-0.00036367154,0.013256758,-8.027531e-05,0.011890374
18,0.009352371,-0.00017470993,-0.00034242697,-0.00020537442,-0.00013571806,-9.224645e-05,-0.00034150577,0.00036718696,0.0064446703,0.009126484,0.004860215,-0.00032804377,0.004822187,-0.0002931445,-0.0006198158,-0.00036401636,0.013222314,-8.061982e-05,0.011855893,0.009410836,-0.0001741255,-0.0003418421,-0.00020478955,-0.00013513319,-9.1661735e-05,-0.00034092148,0.00042565167,0.006503135,0.009184949,0.00491862,-0.0003274589,0.0048806965,-0.0002925601,-0.00061923167,-0.00036343193,0.013280787,-8.00354e-05,0.011914402
19,0.009387493,-0.0001743587,-0.0003420753,-0.00020502305,-0.00013536669,-9.189494e-05,-0.00034115455,0.00040234625,0.0064797625,0.009161599,0.004895292,-0.0003276927,0.004857309,-0.00029279388,-0.0006194647,-0.00036366528,0.013257392,-8.02689e-05,0.011891022,0.009440146,-0.00017383255,-0.00034154957,-0.0002044969,-0.00013484037,-9.1368776e-05,-0.00034062855,0.00045496225,0.006532438,0.00921423,0.0049479753,-0.0003271667,0.0049099624,-0.00029226727,-0.00061893824,-0.00036313868,0.013310097,-7.97426e-05,0.011943713
20,0.009429164,-0.00017394192,-0.0003416585,-0.00020460582,-0.00013495005,-9.147845e-05,-0.0003407376,0.0004440248,0.006521493,0.009203248,0.0049370155,-0.00032727592,0.0048989877,-0.00029237694,-0.0006190478,-0.00036324852,0.0132991895,-7.985197e-05,0.0119327605,0.009586446,-0.00017236955,-0.0003400863,-0.00020303375,-0.00013337769,-8.9905785e-05,-0.0003391654,0.0006012395,0.00667876,0.009360574,0.00509423,-0.00032570324,0.0050562844,-0.00029080428,-0.00061747513,-0.0003616757,0.013456397,-7.82793e-05,0.01209002
21,0.009476349,-0.00017347044,-0.00034118735,-0.00020413466,-0.00013447843,-9.1007125e-05,-0.0003402663,0.0004911423,0.0065686405,0.009250455,0.004984103,-0.0003268043,0.0049461424,-0.0002919053,-0.0006185766,-0.00036277703,0.013346277,-7.938035e-05,0.011979848,0.009641118,-0.00017182209,-0.00033953926,-0.00020248689,-0.00013283007,-8.9359055e-05,-0.00033861838,0.00065600127,0.006733477,0.009415254,0.005148962,-0.00032515547,0.0051110163,-0.00029025695,-0.0006169283,-0.00036112865,0.013511136,-7.773168e-05,0.012144752
22,0.009527966,-0.00017295398,-0.00034067055,-0.00020361818,-0.00013396211,-9.04905e-05,-0.00033974982,0.00054284185,0.0066203102,0.00930205,0.00503584,-0.00032628767,0.004997812,-0.0002913887,-0.0006180597,-0.00036226056,0.013397969,-7.8863726e-05,0.0120315775,0.009681322,-0.00017142079,-0.0003391374,-0.0002020847,-0.00013242863,-8.895702e-05,-0.00033821663,0.00069613755,0.0067736283,0.00945545,0.005189106,-0.00032475477,0.005151175,-0.00028985538,-0.0006165268,-0.00036072722,0.013551265,-7.7330544e-05,0.012184888
23,0.009583242,-0.00017240069,-0.00034011743,-0.0002030655,-0.00013340898,-8.993737e-05,-0.00033919685,0.0005981624,0.0066756085,0.009357378,0.0050910786,-0.00032573438,0.0050530955,-0.00029083586,-0.00061750656,-0.00036170744,0.013453238,-7.831089e-05,0.012086801,0.009857334,-0.00016966037,-0.0003373774,-0.00020032472,-0.0001306688,-8.719675e-05,-0.00033645652,0.00087213516,0.006949596,0.00963144,0.0053651854,-0.00032299437,0.005327143,-0.00028809524,-0.00061476626,-0.00035896664,0.013727292,-7.557042e-05,0.012360916
24,0.009641521,-0.00017181851,-0.00033953553,-0.00020248316,-0.00013282635,-8.935459e-05,-0.0003386142,0.000656344,0.00673379,0.009415634,0.0051493943,-0.00032515236,0.005111359,-0.00029025323,-0.00061692426,-0.00036112464,0.013511449,-7.7728255e-05,0.012145065,0.009915955,-0.00016907357,-0.0003367903,-0.00019973851,-0.0001300817,-8.660994e-05,-0.0003358694,0.00093081594,0.007008344,0.009690091,0.005423814,-0.0003224071,0.0053858534,-0.00028750845,-0.0006141794,-0.00035838014,0.013785981,-7.498346e-05,0.012419604
25,0.009722605,-0.00017100759,-0.0003387246,-0.00020167208,-0.00013201586,-8.8544264e-05,-0.0003378036,0.0007374063,0.006814897,0.009496696,0.0052304342,-0.00032434112,0.005192399,-0.0002894426,-0.0006161135,-0.00036031433,0.013592534,-7.691778e-05,0.012226112,0.009955525,-0.00016867898,-0.00033639543,-0.00019934289,-0.00012968712,-8.621506e-05,-0.00033547467,0.0009703189,0.0070477873,0.009729587,0.005463265,-0.0003220128,0.0054252893,-0.000287114,-0.00061378453,-0.00035798526,0.0138254315,-7.458903e-05,0.012459062
26,0.009786777,-0.00017036534,-0.00033808194,-0.00020103014,-0.00013137363,-8.790187e-05,-0.00033716118,0.00080165267,0.006879151,0.009560905,0.0052946135,-0.00032369903,0.0052566677,-0.0002888005,-0.00061547104,-0.00035967206,0.01365678,-7.6275246e-05,0.012290403,0.009993963,-0.00016829393,-0.00033601111,-0.00019895844,-0.00012930222,-8.583061e-05,-0.00033508992,0.0010087788,0.0070862547,0.009768054,0.0055017993,-0.00032162762,0.005463749,-0.0002867288,-0.0006133998,-0.00035760066,0.013863854,-7.420413e-05,0.012497485
27,0.00984896,-0.00016974456,-0.00033746116,-0.00020040847,-0.0001307527,-8.7280794e-05,-0.00033654025,0.0008637607,0.0069412217,0.009623021,0.0053567514,-0.00032307854,0.005318731,-0.0002881793,-0.0006148506,-0.00035905113,0.013718873,-7.565461e-05,0.012352496,0.0101704,-0.00016652948,-0.00033424623,-0.00019719369,-0.00012753792,-8.406587e-05,-0.00033332547,0.0011852458,0.0072627664,0.009944536,0.0056782514,-0.0003198636,0.0056402385,-0.00028496407,-0.00061163533,-0.00035583606,0.014040358,-7.2439834e-05,0.0126739815
28,0.010044783,-0.0001677861,-0.00033550328,-0.00019845061,-0.00012879408,-8.532233e-05,-0.00033458165,0.0010595769,0.0071370453,0.009818889,0.005552627,-0.0003211198,0.005514592,-0.0002862207,-0.0006128918,-0.00035709224,0.0139146745,-7.36957e-05,0.012548305,0.0102281645,-0.00016595206,-0.0003336688,-0.00019661643,-0.00012695976,-8.348845e-05,-0.00033274805,0.0012429655,0.0073204935,0.010002308,0.005736023,-0.0003192859,0.0056980103,-0.0002843868,-0.0006110579,-0.00035525835,0.01409813,-7.186182e-05,0.012731746
29,0.010119572,-0.00016703851,-0.00033475496,-0.00019770242,-0.00012804664,-8.4574596e-05,-0.0003338342,0.0011343732,0.007211834,0.009893656,0.005627364,-0.00032037235,0.005589336,-0.00028547324,-0.00061214436,-0.00035634494,0.013989463,-7.294826e-05,0.012623109,0.010475017,-0.00016348324,-0.00033119967,-0.0001941479,-0.00012449092,-8.1019476e-05,-0.0003302788,0.0014898926,0.0075673983,0.010249153,0.005982876,-0.00031681694,0.005944915,-0.00028191766,-0.0006085891,-0.00035278968,0.014345042,-6.9392845e-05,0.012978673
30,0.010174207,-0.0001664912,-0.00033420822,-0.00019715555,-0.00012749962,-8.4027866e-05,-0.00033328688,0.0011890754,0.0072665513,0.009948343,0.005682029,-0.00031982487,0.005644046,-0.00028492592,-0.0006115969,-0.00035579794,0.014044158,-7.2401235e-05,0.0126777515,0.01053258,-0.0001629079,-0.00033062496,-0.00019357227,-0.00012391605,-8.0444435e-05,-0.00032970362,0.0015473813,0.0076249093,0.010306694,0.0060404316,-0.0003162416,0.006002426,-0.00028134233,-0.00060801394,-0.0003522145,0.014402539,-6.881766e-05,0.013036169
31,0.010225892,-0.00016597472,-0.00033369145,-0.00019663892,-0.0001269827,-8.3510946e-05,-0.00033277072,0.0012407079,0.007318169,0.01000002,0.005733706,-0.00031930854,0.005695723,-0.00028440988,-0.0006110806,-0.00035528114,0.014095806,-7.188491e-05,0.012729429,0.010560885,-0.00016262494,-0.0003303415,-0.00019328929,-0.00012363293,-8.0161466e-05,-0.00032942064,0.0015757456,0.0076532364,0.010334946,0.0060687065,-0.00031595863,0.0060307384,-0.0002810595,-0.00060773065,-0.00035193167,0.014430836,-6.853454e-05,0.013064444
32,0.010277651,-0.00016545645,-0.00033317305,-0.0001961214,-0.00012646458,-8.299328e-05,-0.0003322523,0.0012925714,0.0073700473,0.010051779,0.005785525,-0.0003187903,0.005747564,-0.00028389148,-0.00061056245,-0.0003547635,0.0141476765,-7.13665e-05,0.012781307,0.010586664,-0.0001623667,-0.00033008374,-0.00019303134,-0.00012337469,-7.990338e-05,-0.00032916284,0.0016015247,0.0076790154,0.010360807,0.006094493,-0.0003157001,0.0060565695,-0.00028080159,-0.0006074727,-0.00035167328,0.014456674,-6.82763e-05,0.013090275
33,0.010329902,-0.00016493446,-0.00033265105,-0.00019559912,-0.0001259423,-8.247099e-05,-0.00033173017,0.0013447627,0.007422261,0.010103986,0.0058377236,-0.00031826802,0.005799778,-0.0002833689,-0.0006100405,-0.0003542409,0.014199898,-7.084422e-05,0.012833513,0.01061476,-0.00016208626,-0.00032980286,-0.00019275046,-0.0001230941,-7.962264e-05,-0.00032888196,0.0016296208,0.007707149,0.010388903,0.0061226115,-0.00031541934,0.006084606,-0.00028052068,-0.0006071918,-0.0003513927,0.014484718,-6.799586e-05,0.013118349
34,0.010382235,-0.00016441129,-0.00033212788,-0.00019507579,-0.00012541897,-8.194767e-05,-0.00033120712,0.0013970956,0.0074745566,0.010156341,0.0058900937,-0.00031774468,0.0058521032,-0.00028284616,-0.000609517,-0.0003537177,0.014252193,-7.032059e-05,0.012885816,0.010645315,-0.00016178048,-0.00032949768,-0.0001924453,-0.00012278846,-7.9316866e-05,-0.00032857634,0.0016601309,0.007737577,0.010419421,0.0061531886,-0.00031511387,0.006115146,-0.00028021538,-0.00060688605,-0.00035108664,0.014515229,-6.769039e-05,0.013148852
35,0.010434382,-0.00016389019,-0.00033160692,-0.00019455425,-0.00012489817,-8.142657e-05,-0.00033068605,0.0014491826,0.007526703,0.010208473,0.0059421733,-0.00031722404,0.005904183,-0.00028232505,-0.0006089964,-0.00035319693,0.014304332,-6.980039e-05,0.012937918,0.010825351,-0.00015997983,-0.00032769673,-0.00019064463,-0.00012098782,-7.751636e-05,-0.00032677583,0.0018402115,0.007917687,0.010599479,0.0063331723,-0.00031331382,0.0062951893,-0.00027841487,-0.00060508586,-0.00034928627,0.014695294,-6.5890024e-05,0.013328917
36,0.010668904,-0.00016154475,-0.00032926165,-0.00019220896,-0.00012255303,-7.908128e-05,-0.0003283409,0.0016837046,0.0077611953,0.010442995,0.0061767325,-0.00031487874,0.0061387047,-0.00027997978,-0.0006066508,-0.0003508512,0.014538787,-6.74551e-05,0.01317241,0.010870732,-0.00015952624,-0.00032724283,-0.00019019074,-0.000120534074,-7.706262e-05,-0.00032632193,0.0018856227,0.007963121,0.010644846,0.006378591,-0.00031285992,0.0063406304,-0.00027796067,-0.00060463196,-0.00034883266,0.014740758,-6.543599e-05,0.013374373
37,0.010732383,-0.00016090967,-0.00032862654,-0.00019157417,-0.000121917794,-7.8446195e-05,-0.00032770567,0.0017471984,0.007824697,0.010506503,0.006240219,-0.00031424305,0.006202206,-0.00027934468,-0.0006060157,-0.00035021608,0.014602333,-6.681941e-05,0.013235949,0.010898136,-0.0001592522,-0.0003269691,-0.00018991671,-0.000120260636,-7.678874e-05,-0.0003260482,0.0019129962,0.007990487,0.010672271,0.006405957,-0.00031258576,0.0063679814,-0.00027768692,-0.0006043579,-0.00034855865,0.014768064,-6.516211e-05,0.013401687
38,0.011028193,-0.00015795133,-0.00032566837,-0.00018861613,-0.00011895977,-7.548772e-05,-0.00032474703,0.002043061,0.008120537,0.010802299,0.0065360367,-0.00031128517,0.0064980164,-0.00027638636,-0.0006030573,-0.0003472579,0.014898136,-6.3861386e-05,0.013531759,0.010924041,-0.00015899279,-0.00032670982,-0.00018965773,-0.000120000914,-7.652931e-05,-0.00032578906,0.0019389093,0.00801634,0.010698177,0.0064318255,-0.0003123269,0.0063938946,-0.0002774281,-0.0006040985,-0.00034829922,0.014793992,-6.490312e-05,0.013427615
39,0.011082388,-0.00015740983,-0.00032512657,-0.00018807418,-0.000118417964,-7.494636e-05,-0.00032420567,0.002097264,0.00817471,0.010856472,0.0065902546,-0.00031074366,0.006552212,-0.00027584424,-0.00060251553,-0.0003467164,0.014952421,-6.3319574e-05,0.013586,0.010950759,-0.00015872545,-0.00032644233,-0.00018938996,-0.00011973359,-7.626183e-05,-0.00032552145,0.001965627,0.008043073,0.010724917,0.006458625,-0.0003120596,0.006420642,-0.00027716032,-0.0006038315,-0.00034803204,0.014820792,-6.46355e-05,0.013454415
40,0.011336878,-0.000154865,-0.0003225819,-0.00018552937,-0.00011587359,-7.240153e-05,-0.00032166086,0.002351679,0.00842914,0.011110939,0.006844729,-0.0003081993,0.0068066493,-0.00027330004,-0.00059997104,-0.00034417174,0.015206724,-6.0775204e-05,0.013840415,0.010978296,-0.00015845067,-0.00032616727,-0.00018911518,-0.00011945866,-7.598691e-05,-0.00032524636,0.001993142,0.008070588,0.010752402,0.006486118,-0.00031178465,0.006448105,-0.00027688584,-0.0006035564,-0.0003477571,0.014848217,-6.436087e-05,0.013481848
41,0.011373326,-0.00015449992,-0.00032221637,-0.00018516413,-0.00011550776,-7.203616e-05,-0.0003212955,0.0023882538,0.008465722,0.011147499,0.006881155,-0.00030783378,0.006843202,-0.00027293497,-0.0005996058,-0.00034380637,0.015243329,-6.0409977e-05,0.013876952,0.011006251,-0.00015817158,-0.0003258883,-0.00018883593,-0.00011917941,-7.5707656e-05,-0.00032496772,0.002021052,0.00809852,0.010780357,0.006513983,-0.0003115051,0.0064760596,-0.00027660644,-0.0006032771,-0.00034747756,0.014876157,-6.4081476e-05,0.013509773
42,0.011384815,-0.00015438623,-0.00032210298,-0.00018505029,-0.00011539377,-7.1922164e-05,-0.00032118193,0.0023996085,0.008477077,0.011158891,0.006892547,-0.00030771992,0.0068546236,-0.00027282067,-0.00059949193,-0.00034369252,0.015254714,-6.0295984e-05,0.013888329,0.011140898,-0.00015682422,-0.00032454124,-0.00018748916,-0.000117832344,-7.436089e-05,-0.00032362036,0.0021557584,0.008233279,0.0109150335,0.006648749,-0.00031015775,0.0066107363,-0.00027525923,-0.0006019301,-0.00034613095,0.015010864,-6.273426e-05,0.013644494
43,0.011775918,-0.00015047468,-0.00031819157,-0.00018113918,-0.00011148266,-6.801091e-05,-0.00031727098,0.0027907193,0.0088682175,0.011550024,0.0072837397,-0.00030380837,0.007245727,-0.0002689094,-0.0005955804,-0.00033978082,0.015645854,-5.6384873e-05,0.01427947,0.011175089,-0.00015648268,-0.0003241994,-0.00018714734,-0.00011749051,-7.401906e-05,-0.00032327854,0.0021899715,0.008267462,0.010949217,0.0066829324,-0.00030981592,0.006644979,-0.00027491755,-0.0006015882,-0.00034578895,0.015045099,-6.239243e-05,0.013678722
44,0.011810996,-0.0001501239,-0.00031784078,-0.0001807881,-0.00011113204,-6.766043e-05,-0.0003169199,0.0028257966,0.008903295,0.0115851015,0.0073187575,-0.0003034576,0.007280834,-0.00026855862,-0.0005952299,-0.00033943035,0.015680932,-5.6033805e-05,0.014314555,0.01119791,-0.0001562547,-0.0003239716,-0.00018691905,-0.000117263124,-7.379122e-05,-0.0003230504,0.0022127256,0.008290231,0.010972023,0.006705761,-0.00030958897,0.006667748,-0.0002746891,-0.0006013607,-0.00034556098,0.01506789,-6.2164436e-05,0.013701461
45,0.0121155605,-0.00014707752,-0.0003147941,-0.00017774246,-0.00010808579,-6.461434e-05,-0.0003138732,0.0031304657,0.009207964,0.011889666,0.007623382,-0.0003004115,0.0075854585,-0.0002655121,-0.00059218355,-0.0003363844,0.015985556,-5.298741e-05,0.014619164,0.01121942,-0.00015603937,-0.00032375654,-0.00018670387,-0.000117047355,-7.3575895e-05,-0.00032283567,0.0022342354,0.008311711,0.010993555,0.0067272484,-0.0003093732,0.006689258,-0.00027447424,-0.0006011454,-0.0003453458,0.015089355,-6.194942e-05,0.013722986
46,0.012130827,-0.00014692597,-0.0003146424,-0.00017758987,-0.00010793395,-6.446205e-05,-0.0003137215,0.0031456202,0.009223118,0.01190491,0.0076385885,-0.0003002598,0.0076005906,-0.00026536084,-0.00059203187,-0.00033623254,0.016000748,-5.2835865e-05,0.014634326,0.011240676,-0.00015582658,-0.00032354362,-0.00018649138,-0.00011683456,-7.336296e-05,-0.00032262257,0.0022555515,0.008333042,0.011014797,0.00674852,-0.00030916027,0.0067105666,-0.00027426175,-0.00060093217,-0.00034513316,0.015110679,-6.173648e-05,0.013744302
47,0.03491626,0.008092903,-8.678786e-05,0.0050264597,0.011992104,0.016339228,-8.586682e-05,0.02593112,0.03200864,0.03469038,0.03042411,-7.240496e-05,0.030386165,-3.7505328e-05,-0.000364177,-0.00010837771,0.038786277,0.017501943,0.0374199,0.011261679,-0.00015561737,-0.00032333395,-0.00018628128,-0.00011662505,-7.3153744e-05,-0.0003224129,0.002276495,0.008353941,0.011035763,0.006769471,-0.0003089509,0.0067314953,-0.0002740521,-0.00060072326,-0.00034492364,0.015131593,-6.1527266e-05,0.013765216
48,0.035533667,0.00871034,-8.0614016e-05,0.0056438595,0.012609512,0.016956672,-7.969312e-05,0.026548482,0.032625996,0.035307802,0.031041518,-6.623037e-05,0.031003512,-3.1331852e-05,-0.00035800284,-0.00010220326,0.039403647,0.018119372,0.03803727,0.011353634,-0.00015469753,-0.0003224141,-0.00018536173,-0.000115705654,-7.223405e-05,-0.00032149293,0.0023684949,0.008446023,0.011127718,0.0068614855,-0.00030803122,0.0068234876,-0.00027313194,-0.0005998032,-0.0003440041,0.01522366,-6.0607268e-05,0.013857231
49,0.03349658,0.006673187,-0.000100984944,0.003606744,0.010572366,0.014919549,-0.000100063604,0.024511442,0.03058891,0.033270642,0.029004432,-8.66016e-05,0.028966404,-5.170293e-05,-0.00037837378,-0.00012257464,0.037366547,0.016082205,0.036000118,0.011376627,-0.00015446715,-0.0003221836,-0.0001851321,-0.00011547513,-7.200368e-05,-0.00032126298,0.0023915023,0.008468948,0.011150733,0.006884493,-0.00030780083,0.00684651,-0.00027290202,-0.000599573,-0.00034377357,0.015246607,-6.0377046e-05,0.013880223
50,0.03141368,0.00459031,-0.00012181334,0.0015238672,0.008489452,0.01283665,-0.000120892444,0.022428542,0.02850601,0.031187765,0.02692154,-0.00010743074,0.02688355,-7.2531475e-05,-0.00039920278,-0.00014340348,0.035283692,0.013999343,0.03391733,0.011392951,-0.00015430442,-0.00032202055,-0.00018496893,-0.000115312556,-7.1840805e-05,-0.00032109983,0.0024078116,0.0084852725,0.011167012,0.0069008023,-0.00030763797,0.0068627745,-0.000272739,-0.00059941,-0.000343611,0.015262909,-6.0214472e-05,0.01389648
51,0.07062739,0.043804057,0.027032375,0.040737614,0.04770323,0.05205039,0.027124465,0.06164228,0.06771971,0.07040153,0.06613524,0.028470747,0.06609724,0.03196059,-7.0653855e-06,0.024873406,0.074497364,0.053213105,0.073130965,0.011656456,-0.0001516693,-0.0003193862,-0.0001823335,-0.00011267759,-6.9205686e-05,-0.000318465,0.0026712716,0.008748718,0.011430539,0.007164307,-0.000305003,0.0071262643,-0.0002701039,-0.00059677503,-0.0003409756,0.015526377,-5.7579204e-05,0.014159948
52,0.07122514,0.044401802,0.027630106,0.041335337,0.048301004,0.052648164,0.027722195,0.062239986,0.06831749,0.07099928,0.066733,0.02906838,0.06669499,0.032558292,-1.0878592e-06,0.025471158,0.07509512,0.053810783,0.073728755,0.011680789,-0.00015142522,-0.00031914227,-0.00018209047,-0.000112433205,-6.896175e-05,-0.00031822108,0.0026956648,0.008773111,0.011454895,0.0071886405,-0.00030475922,0.0071506575,-0.0002698604,-0.00059653126,-0.0003407318,0.015550762,-5.733542e-05,0.014184363
53,0.121594764,0.094771415,0.077999726,0.09170496,0.09867059,0.10301777,0.078091815,0.11260967,0.118687175,0.12136891,0.11710262,0.079438016,0.11706461,0.08292794,0.050260857,0.07584076,0.1254648,0.10418045,0.124098346,0.011991538,-0.00014831833,-0.00031603506,-0.0001789827,-0.000109326465,-6.585501e-05,-0.0003151142,0.0030063987,0.009083889,0.011765651,0.0074993595,-0.00030165218,0.007461436,-0.0002667529,-0.0005934242,-0.00033762478,0.015861541,-5.4227785e-05,0.014495149
54,0.17813897,0.15131567,0.13454399,0.1482492,0.15521488,0.159562,0.13463609,0.16915388,0.17523138,0.17791311,0.17364685,0.13598226,0.17360888,0.13947219,0.106805086,0.132385,0.18200903,0.16072468,0.18064263,0.012007661,-0.00014815695,-0.00031587353,-0.00017882146,-0.000109165085,-6.569333e-05,-0.00031495266,0.0030225366,0.0091000125,0.011781745,0.0075154975,-0.00030149048,0.007477559,-0.00026659138,-0.00059326284,-0.00033746325,0.015877657,-5.4066702e-05,0.014511287
55,0.17854299,0.15171964,0.134948,0.14865321,0.15561885,0.15996604,0.13504006,0.16955784,0.17563535,0.17831713,0.1740508,0.13638622,0.17401282,0.13987616,0.10720909,0.13278903,0.18241295,0.16112863,0.18104656,0.012002565,-0.00014820791,-0.00031592464,-0.00017887227,-0.000109216046,-6.5743996e-05,-0.0003150039,0.0030173808,0.009094842,0.011776671,0.007510379,-0.00030154205,0.007472396,-0.00026664324,-0.0005933135,-0.0003375142,0.015872538,-5.411796e-05,0.014506161
56,0.17489964,0.14807625,0.13130458,0.14500983,0.15197545,0.15632261,0.13139665,0.1659145,0.17199197,0.17467374,0.17040747,0.13274293,0.17036948,0.13623275,0.103565685,0.12914562,0.17876966,0.15748534,0.17740327,0.012143411,-0.00014679931,-0.0003145159,-0.00017746352,-0.000107807144,-6.433569e-05,-0.000313595,0.0031582639,0.009235784,0.011917599,0.0076512545,-0.000300133,0.0076133087,-0.00026523403,-0.0005919052,-0.00033610573,0.016013429,-5.2709056e-05,0.014647044
57,0.22265033,0.19582704,0.17905536,0.19276056,0.1997262,0.20407334,0.1791474,0.21366525,0.21974276,0.22242448,0.21815822,0.18049362,0.21812025,0.18398353,0.15131645,0.17689635,0.22652036,0.20523605,0.22515398,0.012143396,-0.0001467996,-0.00031451648,-0.00017746411,-0.00010780759,-6.4336135e-05,-0.00031359575,0.0031582043,0.009235725,0.011917539,0.0076512545,-0.0003001336,0.007613249,-0.00026523447,-0.0005919056,-0.00033610588,0.016013384,-5.2709504e-05,0.014646985
58,0.22231713,0.19549373,0.17872205,0.1924273,0.19939296,0.20374008,0.17881414,0.21333197,0.21940938,0.22209123,0.21782486,0.18016036,0.21778691,0.18365024,0.15098315,0.17656305,0.22618705,0.20490274,0.22482064,0.03375934,0.0069359913,-9.835698e-05,0.0038694963,0.0108351335,0.015182331,-9.7435935e-05,0.024774194,0.030851655,0.03353344,0.0292672,-8.397363e-05,0.029229209,-4.9074963e-05,-0.00037574596,-0.00011994667,0.03762929,0.016344994,0.036262915
59,0.2188128,0.19198947,0.17521778,0.18892302,0.19588865,0.2002358,0.17530987,0.20982772,0.21590522,0.21858694,0.21432066,0.17665608,0.21428263,0.18014598,0.1474789,0.17305881,0.2226828,0.20139852,0.22131644,0.03386598,0.007042587,-9.7291246e-05,0.0039761364,0.010941759,0.015288949,-9.637035e-05,0.02488079,0.030958243,0.033640034,0.029373825,-8.290775e-05,0.029335737,-4.800923e-05,-0.00037467977,-0.00011888064,0.037735894,0.016451605,0.036369458
60,0.25015005,0.22332668,0.20655504,0.22026028,0.2272259,0.23157309,0.20664713,0.2411649,0.24724242,0.24992418,0.24565786,0.20799327,0.2456199,0.21148321,0.17881614,0.20439607,0.25402,0.2327357,0.25265363,0.032370977,0.0055476055,-0.00011224068,0.0024811625,0.00944677,0.013793968,-0.000111319794,0.023385867,0.02946335,0.03214509,0.027878828,-9.785779e-05,0.027840875,-6.295852e-05,-0.0003896295,-0.00013383022,0.036240995,0.014956616,0.034874566
61,0.29405582,0.26723248,0.25046077,0.26416603,0.27113163,0.27547878,0.25055286,0.2850707,0.29114813,0.29382992,0.2895636,0.2518991,0.28952563,0.25538898,0.22272184,0.24830177,0.29792574,0.2766415,0.2965594,0.06593421,0.039110795,0.022339113,0.036044374,0.04301002,0.04735715,0.022431202,0.056948982,0.06302647,0.065708295,0.061442014,0.023777403,0.06140403,0.02726733,-5.3998006e-05,0.020180196,0.06980413,0.048519805,0.068437725
62,0.2934771,0.2666538,0.24988213,0.26358733,0.27055293,0.2749001,0.24997419,0.284492,0.29056948,0.29325128,0.28898495,0.25132048,0.28894702,0.2548103,0.2221432,0.24772313,0.2973471,0.27606282,0.29598075,0.065684766,0.038861424,0.022089772,0.03579498,0.042760625,0.047107816,0.022181839,0.056699656,0.0627771,0.0654589,0.061192553,0.023528054,0.061154597,0.027017914,-5.6491717e-05,0.019930772,0.06955474,0.048270434,0.06818834
63,0.29038894,0.26356563,0.24679393,0.26049915,0.2674648,0.271812,0.24688601,0.2814038,0.28748134,0.29016313,0.2858968,0.24823222,0.2858588,0.25172213,0.21905506,0.24463496,0.29425895,0.27297467,0.2928926,0.063713,0.036889642,0.020117931,0.033823185,0.040788777,0.045135975,0.02021002,0.054727875,0.06080539,0.06348705,0.059220858,0.021556243,0.05918278,0.025046147,-7.620953e-05,0.017958961,0.06758292,0.046298645,0.06621653
64,0.2873599,0.2605365,0.2437648,0.25747007,0.26443568,0.26878282,0.24385688,0.27837473,0.28445217,0.287134,0.28286764,0.24520306,0.28282967,0.24869299,0.21602589,0.24160585,0.29122978,0.26994547,0.2898634,0.061748132,0.03492473,0.018153086,0.031858332,0.038823932,0.04317113,0.018245175,0.052762963,0.058840454,0.061522227,0.05725588,0.019591376,0.05721795,0.02308125,-9.58585e-05,0.015994087,0.065618046,0.04433374,0.06425166
65,0.31328243,0.28645906,0.26968735,0.2833926,0.29035822,0.29470542,0.26977947,0.30429724,0.31037477,0.31305656,0.3087902,0.27112558,0.30875227,0.27461553,0.24194843,0.26752844,0.31715235,0.29586807,0.31578597,0.07213092,0.0453076,0.028535925,0.04224117,0.049206793,0.05355393,0.028628007,0.0631458,0.069223315,0.07190509,0.067638785,0.02997417,0.067600794,0.03346411,0.00079698116,0.026376918,0.076000914,0.05471658,0.07463453
66,0.31205952,0.2852361,0.26846445,0.2821697,0.28913534,0.2934825,0.26855657,0.30307436,0.3091518,0.31183362,0.3075673,0.2699027,0.30752936,0.27339262,0.24072552,0.26630548,0.3159294,0.2946451,0.31456304,0.07067147,0.043848187,0.027076475,0.040781654,0.0477473,0.05209449,0.027168564,0.061686385,0.067763805,0.07044557,0.06617932,0.028514758,0.06614134,0.03200464,-6.6243856e-06,0.024917476,0.07454151,0.053257167,0.07317505
67,0.3095516,0.28272828,0.26595664,0.27966177,0.28662744,0.29097462,0.2660487,0.3005665,0.306644,0.30932575,0.30505946,0.26739487,0.3050215,0.2708848,0.23821771,0.2637976,0.31342164,0.29213732,0.31205523,0.06873977,0.041916475,0.025144793,0.038849995,0.04581564,0.050162815,0.02523686,0.059754703,0.06583217,0.068513915,0.06424765,0.026583128,0.064209685,0.03007298,-2.5941208e-05,0.022985816,0.07260981,0.051325507,0.07124343
68,0.3071411,0.28031772,0.263546,0.27725127,0.28421688,0.28856406,0.2636381,0.29815593,0.30423343,0.3069152,0.30264887,0.2649843,0.30261087,0.26847425,0.23580715,0.26138705,0.31101105,0.28972676,0.3096447,0.066854,0.040030614,0.02325897,0.036964193,0.043929838,0.048277013,0.023351036,0.05786884,0.063946314,0.06662813,0.06236184,0.024697289,0.062323827,0.028187126,-4.4799446e-05,0.021100014,0.07072395,0.049439646,0.069357574
69,0.30487177,0.2780484,0.2612767,0.27498195,0.28194758,0.28629473,0.2613688,0.2958866,0.30196413,0.30464587,0.3003796,0.26271495,0.3003416,0.2662049,0.23353784,0.25911772,0.30874175,0.28745744,0.3073753,0.0964213,0.06959796,0.052826285,0.066531494,0.07349719,0.077844314,0.052918375,0.087436154,0.09351362,0.096195415,0.09192909,0.054264598,0.09189114,0.05775448,0.025087364,0.05066728,0.10029128,0.07900697,0.09892488
70,0.3027376,0.27591428,0.2591426,0.2728478,0.27981347,0.2841606,0.2592347,0.29375246,0.29982993,0.30251172,0.29824546,0.26058087,0.2982075,0.26407078,0.23140368,0.2569836,0.30660763,0.2853233,0.30524126,0.0954412,0.06861782,0.05184617,0.065551385,0.07251701,0.076864175,0.0519382,0.08645606,0.092533454,0.0952153,0.090948984,0.05328449,0.09091097,0.056774333,0.024107225,0.0496872,0.09931116,0.07802686,0.097944714
71,0.35747898,0.32532763,0.31388393,0.32758915,0.3345548,0.33890194,0.31397602,0.3484938,0.35457128,0.35725304,0.3529868,0.31532216,0.3529488,0.3188121,0.28614503,0.31172493,0.3613489,0.34006453,0.35998252,0.09344787,0.06662451,0.049852826,0.06355809,0.07052368,0.07487084,0.049944922,0.08446275,0.09054018,0.09322201,0.088955685,0.051291145,0.08891766,0.05478102,0.022113927,0.047693834,0.097317874,0.07603344,0.09595137
72,0.3579226,0.325661,0.31432757,0.32803282,0.3349984,0.33934557,0.31441966,0.34893745,0.3550149,0.35769674,0.35343045,0.31576586,0.35339245,0.31925574,0.28658864,0.3121686,0.36179253,0.34050825,0.36042616,0.11290504,0.08608176,0.06931008,0.08301523,0.08998097,0.09432812,0.06940217,0.103920005,0.10999744,0.11267918,0.1084129,0.07074834,0.108374946,0.07423827,0.041571178,0.067151085,0.11677507,0.09549073,0.11540863
73,0.40999037,0.3647848,0.36639532,0.38010058,0.38706622,0.3895576,0.3538386,0.4010052,0.4070827,0.4097645,0.4054982,0.36783358,0.4054602,0.36061975,0.3376232,0.3515843,0.41386035,0.39257604,0.41249397,0.1115693,0.08474602,0.06797433,0.08167949,0.08864516,0.09299232,0.06806637,0.102584206,0.10866168,0.111343436,0.10707715,0.069412604,0.10703919,0.07290253,0.040235393,0.0658153,0.11543934,0.094154984,0.11407288
74,0.41060507,0.36524668,0.36701003,0.38071525,0.38768086,0.39001942,0.3543005,0.40161988,0.40769732,0.41037917,0.40611294,0.3684483,0.4060749,0.36108163,0.338085,0.3520461,0.41447502,0.39319068,0.41310865,0.10968636,0.08286305,0.066091396,0.07979655,0.08676228,0.09110941,0.06618346,0.10070126,0.10677873,0.109460555,0.1051942,0.06752971,0.10515625,0.07101959,0.03835246,0.06393239,0.11355639,0.09227204,0.11218999
75,0.45632434,0.39960027,0.41272932,0.42643455,0.4334002,0.42437303,0.38865405,0.44733915,0.45341668,0.45609853,0.4518322,0.41416767,0.4517942,0.3954352,0.37243858,0.38639975,0.46019432,0.43891,0.45882794,0.13335246,0.10652915,0.089757435,0.10346266,0.11042829,0.11477545,0.08984953,0.12436734,0.13044488,0.13312662,0.12886034,0.09119572,0.12882231,0.09468565,0.06201853,0.08759844,0.1372225,0.11593813,0.13585605
76,0.45693558,0.40005958,0.4133405,0.42704576,0.43401134,0.42483228,0.3891133,0.44795045,0.4540279,0.45670974,0.45244342,0.41477883,0.45240542,0.3958945,0.3728979,0.38685897,0.46080557,0.43952122,0.45943913,0.13220663,0.10538327,0.08861156,0.10231681,0.109282404,0.113629594,0.08870365,0.12322151,0.12929903,0.13198073,0.1277145,0.09004987,0.12767646,0.09353977,0.060872648,0.08645259,0.1360766,0.1147923,0.1347102
77,0.45615676,0.39947438,0.4125618,0.42626703,0.43323267,0.42424715,0.38852817,0.44717163,0.45324916,0.45593092,0.4516647,0.4140001,0.4516267,0.39530933,0.3723127,0.38627377,0.4600268,0.4387424,0.4586604,0.13053094,0.103707545,0.08693586,0.100641064,0.107606746,0.11195391,0.08702793,0.12154575,0.12762322,0.13030504,0.12603867,0.08837417,0.12600072,0.09186406,0.059196927,0.084776916,0.13440086,0.11311655,0.13303447
78,0.486928,0.42259595,0.44333288,0.45703813,0.46400377,0.44736862,0.4116497,0.47794285,0.48402032,0.48670214,0.48243585,0.44477126,0.48239782,0.41843086,0.39543426,0.4093954,0.49079797,0.46951365,0.48943156,0.18054077,0.1537174,0.13694572,0.15065095,0.15761659,0.16196373,0.1370378,0.17155558,0.17763309,0.1803149,0.17604856,0.13838398,0.17601061,0.14187391,0.10920677,0.13478674,0.18441072,0.16312641,0.18304434
79,0.48735675,0.42291805,0.44376165,0.4574669,0.46443254,0.44769078,0.4119718,0.47837162,0.48444906,0.48713085,0.48286453,0.4452,0.4828266,0.418753,0.39575642,0.4097175,0.49122673,0.46994236,0.48986027,0.1801629,0.15333958,0.13656788,0.1502731,0.15723874,0.16158591,0.13665994,0.1711778,0.1772553,0.17993706,0.17567076,0.13800621,0.17563276,0.14149606,0.108829,0.1344089,0.18403293,0.16274862,0.18266657
80,0.4870129,0.4226597,0.4434178,0.45712304,0.46408868,0.44743243,0.4117135,0.47802773,0.4841052,0.48678705,0.4825208,0.44485614,0.4824828,0.41849467,0.39549804,0.4094592,0.49088284,0.46959853,0.48951644,0.17884755,0.15202428,0.13525261,0.14895776,0.15592344,0.16027059,0.1353447,0.16986251,0.17593998,0.17862171,0.17435543,0.13669088,0.17431746,0.1401808,0.107513666,0.13309358,0.18271759,0.1614333,0.18135121
81,0.48683423,0.42252553,0.4432392,0.4569444,0.46391007,0.4472982,0.41157928,0.47784913,0.48392662,0.48660842,0.48234215,0.4446775,0.48230416,0.41836047,0.3953638,0.40932497,0.49070427,0.46941996,0.48933786,0.17768736,0.15086398,0.13409227,0.14779754,0.15476316,0.15911031,0.13418438,0.16870224,0.1747797,0.17746146,0.17319515,0.13553065,0.17315713,0.1390205,0.10635338,0.13193332,0.18155733,0.16027305,0.18019095
82,0.5321602,0.45658347,0.48230258,0.5022704,0.50923604,0.48135623,0.4456373,0.52317506,0.5292525,0.5319343,0.52766806,0.49000353,0.5276301,0.45241842,0.42942178,0.44338298,0.5360302,0.51474583,0.5346638,0.2374183,0.21059495,0.19382325,0.20752847,0.2144941,0.21884128,0.19391537,0.22843322,0.23451066,0.23719239,0.23292613,0.1952616,0.2328881,0.19875145,0.16608436,0.19166428,0.2412883,0.22000399,0.23992188
83,0.53320485,0.45736837,0.4830875,0.5033151,0.5102806,0.48214117,0.44642216,0.5242197,0.53029716,0.53297895,0.5287127,0.49104813,0.52867466,0.45320335,0.43020678,0.44416788,0.5370748,0.51579046,0.5357083,0.23778614,0.21096277,0.1941911,0.20789632,0.214862,0.21920915,0.19428319,0.22880098,0.23487845,0.23756027,0.23329394,0.19562936,0.23325598,0.19911928,0.16645218,0.19203213,0.24165612,0.22037184,0.24028972
84,0.5332903,0.45743266,0.4831518,0.50340056,0.5103662,0.48220542,0.44648644,0.52430516,0.5303827,0.5330645,0.52879816,0.49113363,0.52876025,0.45326763,0.43027097,0.44423214,0.5371603,0.515876,0.53579396,0.23732018,0.21049684,0.19372517,0.2074303,0.21439606,0.21874318,0.19381726,0.22833508,0.23441249,0.23709434,0.23282796,0.19516346,0.23279002,0.19865334,0.16598621,0.19156617,0.24119017,0.21990585,0.23982376
85,0.58031666,0.4927684,0.51848745,0.55042696,0.55739254,0.5175411,0.4818222,0.5713316,0.5774091,0.5800909,0.57582456,0.53816,0.5757866,0.48860332,0.46560672,0.4795679,0.5841867,0.56290233,0.58282024,0.23705694,0.21023357,0.19346187,0.20716715,0.21413273,0.21847989,0.19355397,0.22807182,0.23414928,0.23683104,0.23256475,0.1949002,0.23252672,0.1983901,0.16572297,0.19130287,0.2409269,0.2196426,0.23956053
86,0.5812723,0.4934865,0.51920563,0.5513826,0.55834824,0.5182593,0.4825403,0.5722873,0.57836473,0.5810466,0.57678026,0.5391158,0.5767423,0.48932144,0.46632484,0.480286,0.5851424,0.5638581,0.583776,0.23699945,0.21017607,0.1934044,0.20710966,0.21407528,0.21842244,0.19349648,0.2280143,0.23409174,0.23677358,0.23250718,0.1948427,0.23246926,0.19833258,0.1656655,0.19124544,0.24086937,0.21958508,0.239503
87,0.62884265,0.52923083,0.55494994,0.5989529,0.60531914,0.5540036,0.5182846,0.61985755,0.625935,0.62861675,0.6243505,0.58668596,0.62431246,0.5250658,0.5020691,0.5160303,0.6327126,0.60908765,0.63134617,0.23714757,0.21032414,0.19355246,0.20725775,0.21422336,0.2185705,0.19364455,0.22816238,0.2342399,0.23692165,0.2326553,0.19499075,0.23261733,0.1984807,0.1658136,0.1913935,0.24101749,0.21973321,0.2396511
88,0.6292834,0.52956206,0.55528116,0.5993936,0.60565037,0.55433476,0.5186158,0.6202983,0.62637573,0.6290575,0.62479126,0.58712673,0.62475336,0.525397,0.50240034,0.51636153,0.63315344,0.60941887,0.631787,0.23750573,0.2106824,0.19391073,0.20761591,0.21458158,0.21892872,0.19400279,0.2285206,0.2345981,0.23727986,0.23301357,0.19534904,0.23297563,0.19883893,0.16617179,0.1917517,0.24137574,0.22009143,0.24000935
89,0.6289216,0.5292902,0.5550093,0.59903187,0.60537857,0.55406296,0.518344,0.61993647,0.626014,0.6286958,0.62442946,0.58676493,0.6243915,0.52512515,0.50212854,0.5160897,0.63279164,0.609147,0.6314252,0.23808172,0.21125835,0.1944867,0.20819193,0.21515757,0.21950468,0.19457877,0.22909656,0.23517409,0.23785588,0.23358952,0.19592495,0.23355156,0.19941488,0.1667478,0.19232771,0.2419517,0.22066738,0.24058531
90,0.6287366,0.52915126,0.5548703,0.5988469,0.60523957,0.55392396,0.518205,0.6197516,0.625829,0.62851083,0.6242446,0.58658,0.6242066,0.52498615,0.5019895,0.5159507,0.6326066,0.609008,0.63124025,0.23888484,0.21206142,0.19528975,0.20899504,0.21596062,0.22030778,0.19538184,0.22989964,0.23597717,0.23865893,0.23439258,0.19672804,0.2343546,0.20021793,0.16755086,0.19313078,0.24275471,0.22147049,0.24138835
91,0.6287489,0.52916044,0.5548795,0.59885913,0.6052487,0.5539331,0.5182142,0.61976373,0.62584126,0.62852305,0.62425673,0.58659214,0.62421876,0.5249954,0.5019987,0.5159599,0.6326189,0.60901725,0.63125247,0.28147572,0.25465235,0.23788065,0.25158593,0.25855157,0.26289874,0.23797275,0.27249053,0.2785681,0.28124982,0.27698356,0.23931894,0.27694553,0.24280888,0.21014181,0.23572174,0.2853457,0.26406142,0.28397936
92,0.68675524,0.57274646,0.59846556,0.6568655,0.6488348,0.5975193,0.56180024,0.6777702,0.68384755,0.67382795,0.68226314,0.64459854,0.6822251,0.5685814,0.5455848,0.55954593,0.6906252,0.65260327,0.6892588,0.2832944,0.25647107,0.2396994,0.25340462,0.26037028,0.2647174,0.23979147,0.27430928,0.28038675,0.28306854,0.27880222,0.24113765,0.27876428,0.24462758,0.21196046,0.2375404,0.2871644,0.26588014,0.28579804
93,0.6866554,0.5726714,0.5983905,0.6567656,0.6487597,0.5974442,0.5617252,0.6776703,0.68374765,0.6737529,0.6821632,0.64449865,0.6821252,0.56850636,0.54550976,0.5594709,0.6905253,0.6525282,0.6891589,0.28505835,0.258235,0.2414633,0.25516856,0.2621342,0.26648137,0.24155542,0.27607325,0.28215075,0.28483245,0.2805662,0.24290162,0.2805282,0.2463915,0.21372445,0.23930436,0.28892833,0.26764405,0.28756198
94,0.7339349,0.6081973,0.63391644,0.7040451,0.6842857,0.6329701,0.59725106,0.7232194,0.73102725,0.70927876,0.72944266,0.6917781,0.7294047,0.6040323,0.5810357,0.59499675,0.73780483,0.6880542,0.7364384,0.28711528,0.26029196,0.24352029,0.25722548,0.2641911,0.26853827,0.24361235,0.27813014,0.28420764,0.28688937,0.2826231,0.24495856,0.28258514,0.24844846,0.21578133,0.24136129,0.29098532,0.26970097,0.2896189
95,0.732475,0.60710037,0.6328195,0.7025852,0.68318874,0.63187313,0.59615415,0.7221225,0.72956735,0.7081819,0.7279828,0.69031835,0.72794485,0.6029354,0.57993877,0.59389985,0.736345,0.6869573,0.73497856,0.28947023,0.26264685,0.24587518,0.25958043,0.26654604,0.27089322,0.24596727,0.28048503,0.2865625,0.28924432,0.284978,0.24731344,0.28494003,0.25080335,0.21813625,0.24371624,0.2933402,0.27205586,0.2919738
96,0.76961243,0.63500553,0.6607246,0.7397226,0.7110939,0.6597783,0.62405926,0.7500276,0.7667047,0.73608696,0.76512027,0.72745574,0.7650823,0.6308404,0.6078438,0.621805,0.7734823,0.7148623,0.77211595,0.2921298,0.26530647,0.24853477,0.26224002,0.26920563,0.27355283,0.24862692,0.2831447,0.28922218,0.29190394,0.28763768,0.24997312,0.28759968,0.253463,0.22079593,0.24637583,0.29599985,0.2747155,0.2946335
97,0.76697695,0.6330253,0.65874434,0.7370872,0.7091136,0.657798,0.622079,0.74804735,0.7640693,0.7341067,0.7624848,0.72482026,0.7624468,0.6288602,0.6058635,0.6198247,0.7708469,0.71288204,0.7694805,0.32908756,0.30226412,0.28549245,0.29919767,0.30616334,0.31051052,0.28558454,0.32010236,0.3261798,0.32886162,0.32459527,0.28693074,0.3245573,0.29042062,0.25775352,0.28333348,0.33295745,0.31167313,0.33159104
98,0.7641129,0.6308732,0.65659225,0.7342231,0.7069615,0.6556459,0.619927,0.74589527,0.7612053,0.73195463,0.7596207,0.7219562,0.75958276,0.62670815,0.60371155,0.6176727,0.7679829,0.71072996,0.76661646,0.33264804,0.3058246,0.28905296,0.30275822,0.30972385,0.31407103,0.28914505,0.32366285,0.32974032,0.33242214,0.32815585,0.29049122,0.32811788,0.2939811,0.26131403,0.286894,0.336518,0.31523362,0.3351516
99,0.8005987,0.65828866,0.6840077,0.76951253,0.734377,0.68306136,0.64734244,0.7733107,0.79769105,0.75937015,0.7961065,0.75844204,0.79606855,0.6541236,0.631127,0.64508814,0.8044687,0.73814553,0.80310225,0.33642402,0.30950692,0.292829,0.3065342,0.31349984,0.31784704,0.2929211,0.32743883,0.33351642,0.33619818,0.33193186,0.2942673,0.33189386,0.29775715,0.26509014,0.29067004,0.340294,0.31900975,0.3389277
100,0.79708505,0.6556485,0.6813675,0.7668724,0.73173684,0.68042123,0.64470226,0.7706706,0.79417735,0.75672996,0.7925929,0.75492835,0.7925549,0.6514834,0.6284868,0.64244795,0.800955,0.73550534,0.79958856,0.3405525,0.3126091,0.2969575,0.3106627,0.31762826,0.32197547,0.29704955,0.33156738,0.33764482,0.3403266,0.3360603,0.29839578,0.33602235,0.30188566,0.26921853,0.29479846,0.34442246,0.3231382,0.3430561
101,0.7935053,0.6529587,0.67867786,0.76361555,0.72904706,0.6777315,0.64201254,0.7679808,0.7905977,0.7540402,0.78901315,0.7513487,0.7889752,0.64879364,0.62579703,0.63975817,0.79737526,0.7328155,0.79600894,0.34503987,0.31598088,0.30144477,0.31515005,0.3221156,0.32646284,0.30153686,0.33605468,0.34213218,0.34481394,0.34054765,0.30288306,0.34050965,0.30637297,0.27370587,0.2992858,0.34890983,0.32762557,0.3475435
102,0.8272875,0.6720989,0.70406187,0.7895665,0.75443107,0.7031155,0.66739655,0.7933648,0.8243799,0.7794242,0.82279533,0.7851308,0.81652373,0.67417765,0.65118104,0.6651422,0.8311575,0.7581996,0.8297911,0.34989205,0.3196268,0.30629697,0.32000223,0.32696778,0.331315,0.3063891,0.34090686,0.34698433,0.34966615,0.34539986,0.3077353,0.3453619,0.31122518,0.27855808,0.304138,0.35376194,0.33247778,0.35239568
103,0.82296807,0.6704704,0.7008162,0.7863209,0.7511854,0.69986993,0.6641509,0.79011923,0.8200605,0.7761786,0.8184759,0.78081137,0.8132781,0.67093205,0.6479354,0.6618965,0.826838,0.7549539,0.8254717,0.3551163,0.3235524,0.31152132,0.32522652,0.33219212,0.3365393,0.3116134,0.3461312,0.35220867,0.35489047,0.3506242,0.31295955,0.3505862,0.3164495,0.28378236,0.3093623,0.3589863,0.33770204,0.35761994
104,0.8187602,0.668884,0.69765437,0.7831592,0.7480237,0.6967081,0.66098905,0.7869574,0.8158526,0.77301675,0.81426805,0.7766035,0.81011635,0.6677702,0.6447736,0.65873474,0.82263017,0.75179213,0.82126373,0.36072037,0.32776323,0.3171253,0.33083054,0.33779606,0.34214327,0.316817,0.35173517,0.3578126,0.36049443,0.35622814,0.31856355,0.35619015,0.32205346,0.28938633,0.31456265,0.36459026,0.34330592,0.36322385
105,0.81488466,0.66742295,0.6947423,0.78024703,0.7451115,0.693796,0.658077,0.78404534,0.811977,0.77010465,0.8103925,0.77272797,0.80720425,0.66485816,0.64186156,0.6558227,0.8187547,0.74887997,0.81738824,0.39942807,0.35684833,0.355833,0.36953828,0.37650388,0.38085106,0.34590203,0.39044297,0.3965204,0.3992022,0.39493594,0.35727137,0.39489794,0.35268328,0.32809415,0.34364775,0.40329805,0.38201377,0.40193167
106,0.84197325,0.6786703,0.7171595,0.8026643,0.7675288,0.71115977,0.6804942,0.80646247,0.84181094,0.79252183,0.84022635,0.8023874,0.8296215,0.68727535,0.6642788,0.6782399,0.84858847,0.7712973,0.8472221,0.4057764,0.3616185,0.3621813,0.3758866,0.3828522,0.38639116,0.3506722,0.39679128,0.40286872,0.40555048,0.4012842,0.3636197,0.40124622,0.3574534,0.33444244,0.34841785,0.4096464,0.38836208,0.40827996
107,0.8385084,0.676932,0.7136947,0.79919946,0.76406395,0.7094214,0.6770294,0.8029977,0.8371998,0.7890571,0.83561534,0.79795074,0.82615674,0.68381053,0.660814,0.6747751,0.8439774,0.76783246,0.84261096,0.4606351,0.4028394,0.41704002,0.43074527,0.43771094,0.42761207,0.39189312,0.45164996,0.4577274,0.4604092,0.45614293,0.41847837,0.4561049,0.39867425,0.3756777,0.38963878,0.46450508,0.44322067,0.46313858
108,0.8352648,0.67530453,0.7104511,0.79595584,0.7608203,0.707794,0.6737858,0.79975414,0.8328831,0.7858135,0.83129853,0.793634,0.82291305,0.680567,0.65757036,0.6715315,0.83966064,0.76458883,0.8382942,0.4675128,0.4080073,0.42391774,0.43762302,0.44458866,0.43278006,0.39706108,0.45852765,0.46460515,0.46728694,0.46302068,0.4253561,0.46298268,0.40384227,0.3808456,0.3948067,0.4713828,0.45009843,0.47001636
109,0.8503682,0.68288237,0.7255546,0.81105924,0.7759238,0.7153718,0.68888927,0.81485754,0.8529835,0.80091697,0.8513989,0.8107825,0.8380165,0.6956704,0.6726738,0.686635,0.859761,0.7796923,0.8583946,0.47478107,0.4134687,0.43118605,0.44489136,0.45185694,0.43824145,0.40252247,0.46579596,0.47187343,0.47455525,0.47028893,0.43262443,0.47025093,0.40930367,0.386307,0.4002681,0.47865105,0.45736673,0.47728467
110,0.8468077,0.6810959,0.7219939,0.8074988,0.7723633,0.7135854,0.6853286,0.811297,0.8482449,0.7973563,0.8466604,0.8072219,0.834456,0.6921098,0.6691133,0.6830744,0.8550225,0.77613175,0.8536561,0.48238853,0.41918492,0.4387935,0.45249873,0.45946437,0.44395772,0.40823874,0.47340336,0.47948086,0.4821627,0.4778964,0.44023183,0.47785845,0.41501987,0.39202327,0.40598443,0.4862585,0.4649742,0.4848921
111,0.8435523,0.67946255,0.7187386,0.8042433,0.7691079,0.7119521,0.6820733,0.80804163,0.8439124,0.794101,0.8423279,0.80396646,0.83120054,0.68885446,0.6658578,0.6798189,0.85068995,0.7728763,0.84932363,0.4903334,0.42515478,0.4467384,0.46044365,0.46740928,0.44992754,0.41420856,0.4813483,0.4874258,0.4901076,0.4858413,0.44817674,0.48580334,0.42098972,0.3979931,0.41195425,0.49420345,0.47291908,0.49283707
112,0.84057915,0.6779708,0.7157655,0.8012702,0.76613474,0.7104603,0.67910016,0.8050684,0.8399557,0.7911278,0.8383711,0.80070657,0.82822746,0.6858813,0.6628848,0.67684585,0.8467332,0.76990324,0.84536684,0.49860406,0.43136936,0.45500904,0.46871433,0.4756799,0.45614207,0.42042318,0.48961896,0.4956964,0.49837828,0.49411198,0.45644733,0.49407396,0.4272043,0.4042077,0.41816887,0.50247407,0.48118976,0.50110763
113,0.8378985,0.6766259,0.7130849,0.7985895,0.7634541,0.7091154,0.67641956,0.80238783,0.8363882,0.7884472,0.83480364,0.79713905,0.8255468,0.6832007,0.66020405,0.67416525,0.8431657,0.7672226,0.8417994,0.5608469,0.47813877,0.50385785,0.53095716,0.5379228,0.5029115,0.46719253,0.55186176,0.5579393,0.5606211,0.5563548,0.5186902,0.5563168,0.47397372,0.4509771,0.46493825,0.56471694,0.5434326,0.5633505
114,0.8355056,0.6754253,0.71069187,0.7961966,0.76106113,0.7079148,0.6740266,0.79999495,0.83320355,0.7860543,0.831619,0.7939545,0.82315385,0.68080777,0.6578111,0.6717723,0.83998114,0.76482964,0.8386147,0.5686611,0.48401037,0.50972944,0.53877133,0.54573697,0.50878304,0.4730641,0.55967593,0.56575346,0.56843525,0.564169,0.5265044,0.564131,0.4798453,0.45684865,0.47080982,0.57253104,0.5512467,0.57116467
115,0.833301,0.67436594,0.7085804,0.794085,0.7589496,0.70685536,0.67191505,0.79788333,0.83039343,0.78394276,0.8288089,0.7911444,0.8210423,0.6786963,0.6556996,0.66966075,0.83717096,0.7627181,0.83580464,0.5768224,0.4901427,0.51586175,0.54693264,0.5538982,0.51491547,0.4791965,0.56783724,0.57391477,0.5765965,0.57233024,0.53466564,0.57229227,0.48597768,0.46298108,0.47694218,0.5806924,0.55940795,0.5793259
116,0.83085537,0.6734439,0.7067427,0.7922474,0.75711197,0.70579636,0.6700774,0.79604566,0.8279478,0.7821051,0.82636327,0.78869873,0.81920475,0.6768586,0.653862,0.66782314,0.8347254,0.7608805,0.83335894,0.6367443,0.5351682,0.5608873,0.60685456,0.61125654,0.55994093,0.52422196,0.6277592,0.63383675,0.63624966,0.6322522,0.5945876,0.6322143,0.5310031,0.5080066,0.52196765,0.6406144,0.615025,0.63924795
117,0.82876366,0.67265534,0.705171,0.7906757,0.75554025,0.70422465,0.66850567,0.79447395,0.82585615,0.7805334,0.8242715,0.786607,0.817633,0.6752868,0.6522903,0.6662514,0.8326337,0.75930876,0.83126724,0.6927542,0.5772542,0.6029733,0.66286445,0.6533425,0.6020269,0.56630796,0.68376917,0.6898466,0.6783356,0.6882621,0.6505975,0.68822414,0.5730891,0.55009246,0.56405365,0.6966242,0.657111,0.69525784
118,0.8487495,0.6820702,0.7239358,0.8094406,0.7743051,0.7145597,0.68727046,0.8132388,0.8508291,0.79929817,0.84924465,0.8091637,0.8363979,0.6940517,0.6710551,0.6850162,0.8576067,0.77807355,0.85624033,0.6978898,0.581113,0.606832,0.668,0.6572013,0.60588574,0.5701667,0.6889047,0.69498205,0.6821945,0.69339764,0.6557331,0.69335973,0.5769479,0.55395126,0.5679124,0.70175976,0.6609698,0.7003933
119,0.8464636,0.6809233,0.72164994,0.80715466,0.7720192,0.71341276,0.6849847,0.8109529,0.8477871,0.7970123,0.8462025,0.80687785,0.8341119,0.6917658,0.66876924,0.6827304,0.8545646,0.7757877,0.8531982,0.731506,0.60637224,0.63209134,0.7016162,0.6824606,0.63114506,0.59542596,0.72139436,0.7285983,0.7074537,0.72701377,0.6893493,0.7269758,0.6022072,0.5792106,0.5931717,0.73537594,0.6862291,0.7340095
120,0.86471754,0.69008183,0.7399039,0.82540864,0.79027313,0.72257125,0.70323855,0.82920694,0.87208027,0.8152663,0.8704956,0.8251318,0.85236585,0.7088852,0.68702316,0.7009843,0.8788578,0.7940417,0.87749135,0.76734495,0.6333017,0.6590208,0.7374551,0.7093901,0.6580745,0.6223555,0.74832386,0.76443726,0.7343832,0.76285267,0.72518826,0.76281476,0.6291367,0.6061401,0.62010115,0.7712149,0.7131586,0.76984847
121,0.8617837,0.6886098,0.73697,0.8224747,0.78733927,0.7210992,0.7003046,0.8262729,0.8681756,0.8123323,0.86659104,0.8221978,0.84943193,0.7070857,0.6840893,0.6980504,0.87495315,0.7911077,0.8735868,0.76977444,0.63512725,0.66084635,0.7398846,0.7112156,0.6599,0.62418103,0.7501493,0.7668668,0.73620874,0.7652822,0.7276177,0.76524425,0.6309622,0.6079656,0.62192667,0.7736444,0.7149841,0.7722779
122,0.88000697,0.69775295,0.7551933,0.840698,0.80556256,0.73024243,0.71099263,0.8444963,0.892428,0.8305557,0.8908434,0.84042114,0.8676552,0.7165563,0.70231247,0.7104475,0.8992056,0.809331,0.89783925,0.81342447,0.6668725,0.6936451,0.77914983,0.7440143,0.69269884,0.6569798,0.78294814,0.81051683,0.7690075,0.8089324,0.77126783,0.8061071,0.66376096,0.6407643,0.6547255,0.8172945,0.7477828,0.8159281
123,0.87642634,0.6959564,0.7516127,0.8371174,0.8019819,0.7284459,0.70919615,0.8409156,0.88766277,0.82697505,0.88607824,0.8368405,0.86407465,0.7147598,0.69873196,0.708651,0.8944403,0.8057504,0.8930739,0.8136556,0.6669596,0.6938187,0.7793235,0.7441881,0.69287246,0.6571534,0.78312176,0.8107479,0.76918113,0.80916345,0.7714989,0.80628073,0.6639346,0.640938,0.6548991,0.81752557,0.7479565,0.8161591
124,0.89189106,0.70371556,0.76707745,0.8525821,0.81744665,0.736205,0.71695524,0.8563804,0.90824395,0.84243983,0.9032527,0.8523053,0.8795394,0.722519,0.7141967,0.71641016,0.9150215,0.82121515,0.91365516,0.8485957,0.68199295,0.7237819,0.8092867,0.77415127,0.7144825,0.6871166,0.81308496,0.8506243,0.7991443,0.84903985,0.80900985,0.836244,0.6938978,0.6709012,0.6848623,0.8574019,0.7779197,0.8560356
125,0.88787705,0.7017016,0.7630634,0.8485681,0.81343263,0.73419106,0.71494126,0.8523663,0.9029018,0.8384257,0.89923877,0.8482912,0.87552536,0.72050494,0.7101826,0.7143961,0.90967935,0.8172011,0.90831304,0.8472193,0.6813024,0.7224056,0.8079104,0.7727749,0.7137919,0.68574035,0.8117087,0.8487928,0.797768,0.8472082,0.8076336,0.8348676,0.6925215,0.6695249,0.68348604,0.8555703,0.77654344,0.854204
126,0.88448334,0.69999886,0.7596697,0.8451744,0.810039,0.73248833,0.7132386,0.8489727,0.8983854,0.8350321,0.89584506,0.84489757,0.87213165,0.7188023,0.7067889,0.7126934,0.905163,0.8138075,0.9037966,0.87363565,0.6945563,0.74882203,0.83432674,0.79919124,0.7270457,0.70779604,0.83812505,0.8839489,0.8241845,0.88236433,0.83405,0.861284,0.7133597,0.69594127,0.70725083,0.89072645,0.8029598,0.8893601
127,0.90164834,0.7086111,0.7768348,0.86233944,0.827204,0.7411005,0.72185075,0.8661377,0.9212295,0.8521971,0.9130101,0.8620626,0.8892967,0.7274145,0.72395396,0.72130567,0.928007,0.8309725,0.9259078,0.8709399,0.6932037,0.74612623,0.831631,0.79649544,0.72569317,0.70644337,0.83542925,0.88036114,0.82148856,0.8787766,0.83135414,0.8585882,0.71200716,0.6932455,0.7058983,0.88713866,0.800264,0.88577235
128,0.89737946,0.7064692,0.77256584,0.8580705,0.82293504,0.73895866,0.7197089,0.86186874,0.9155481,0.84792817,0.9087412,0.85779357,0.88502777,0.7252726,0.719685,0.7191637,0.9223256,0.82670355,0.9209593,0.88538206,0.7004498,0.7605684,0.84607315,0.81093764,0.7329393,0.7136895,0.8498714,0.89958143,0.8359308,0.8967437,0.8457963,0.87303036,0.7192532,0.7076877,0.71314436,0.906359,0.81470627,0.9049927
129,0.91168857,0.7136485,0.7868749,0.8723796,0.8372441,0.746138,0.7268882,0.8761779,0.93459135,0.8622372,0.9230502,0.8721027,0.8993368,0.7324519,0.7339941,0.7263431,0.9413689,0.8410126,0.9359479,0.88230777,0.6989073,0.7574941,0.8429988,0.8078633,0.7313968,0.712147,0.8467971,0.89549,0.8328565,0.8936695,0.84272194,0.869956,0.71771073,0.70461327,0.71160185,0.9022675,0.8116319,0.9009012
130,0.90710074,0.7113467,0.7822872,0.86779183,0.8326564,0.74383616,0.7245864,0.8715901,0.92848575,0.8576495,0.9184625,0.86751497,0.89474905,0.7301501,0.7294063,0.7240412,0.9352633,0.8364249,0.9313601,0.8934707,0.704508,0.768657,0.8541618,0.8190263,0.73699754,0.71774775,0.85796,0.9103461,0.8440194,0.9048324,0.8538849,0.88111895,0.7233114,0.71577626,0.71720254,0.9171237,0.8227948,0.9157574
131,0.90327793,0.7094286,0.77846426,0.86396897,0.82883346,0.7419181,0.7226683,0.86776733,0.9233981,0.8538267,0.91463965,0.86369216,0.8909262,0.728232,0.7255835,0.72212315,0.9301756,0.832602,0.9275373,0.8901784,0.70285624,0.7653647,0.8508694,0.81573397,0.7353457,0.7160959,0.8546677,0.9059646,0.8407271,0.90154004,0.8505926,0.87782663,0.7216596,0.71248394,0.7155508,0.91274214,0.81950253,0.9113759
132,0.8997586,0.70766294,0.77494496,0.8604496,0.82531416,0.74015236,0.72090256,0.8642479,0.91871434,0.8503073,0.9111203,0.8601728,0.88740695,0.7264663,0.72206414,0.7203574,0.92549187,0.82908267,0.9240179,0.8874734,0.70149904,0.7626597,0.8481645,0.813029,0.7339885,0.7147387,0.8519628,0.90236473,0.8380222,0.8988351,0.8478877,0.8751217,0.7203025,0.709779,0.71419364,0.9091423,0.81679755,0.90777606
133,0.8965685,0.7060623,0.77175486,0.8572596,0.82212406,0.73855174,0.719302,0.8610578,0.91446894,0.84711725,0.90793025,0.85698277,0.88421685,0.7248658,0.7188741,0.7187569,0.92124647,0.82589257,0.9198801,0.8988913,0.70722765,0.77407765,0.8595824,0.82444686,0.7397172,0.72046745,0.8633807,0.91756016,0.84944004,0.91025305,0.8593055,0.88653964,0.7260311,0.7211969,0.71992224,0.9243377,0.8282155,0.9229714
134,0.89370626,0.7046262,0.7688926,0.8543973,0.8192618,0.73711574,0.71786594,0.8581956,0.9106597,0.844255,0.9050679,0.8541205,0.8813545,0.7234296,0.71601176,0.71732074,0.9174372,0.8230303,0.9160708,0.89562905,0.7055909,0.7708154,0.8563201,0.82118464,0.7380804,0.71883065,0.8601184,0.91321856,0.84617776,0.90699077,0.8560433,0.88327736,0.7243943,0.7179346,0.71828544,0.9199961,0.8249532,0.9186299
135,0.89116675,0.7033521,0.76635313,0.85185784,0.81672233,0.7358415,0.7165918,0.85565615,0.90728,0.8417155,0.90252846,0.85158104,0.87881505,0.7221556,0.71347237,0.7160467,0.9140576,0.82049084,0.91269124,0.90999067,0.71279657,0.78517705,0.8706817,0.83554626,0.74528605,0.7260363,0.87447995,0.9323317,0.8605394,0.9213524,0.8704048,0.8976389,0.7316,0.7322962,0.7254911,0.9391092,0.83931476,0.93425006
136,0.8889414,0.7022355,0.7641277,0.8496325,0.814497,0.734725,0.7154752,0.8534307,0.90431833,0.8394901,0.9003031,0.8493556,0.87658966,0.72103894,0.7112469,0.71493006,0.9110959,0.8182655,0.9097295,0.906192,0.71089065,0.78137845,0.8668831,0.83174765,0.7433801,0.7241304,0.8706813,0.92727625,0.8567407,0.9175537,0.86660624,0.8938403,0.72969407,0.72849756,0.7235852,0.9340538,0.8355162,0.9304515
137,0.8870196,0.70127136,0.76220596,0.84771067,0.8125752,0.7337608,0.71451104,0.85150886,0.90176076,0.8375683,0.8983813,0.84743375,0.8746679,0.72007465,0.7093252,0.71396583,0.9085383,0.8163437,0.90717196,0.903176,0.70937747,0.77836233,0.86386704,0.82873166,0.74186695,0.7226172,0.86766535,0.9232625,0.8537247,0.9145377,0.86359024,0.8908243,0.7281809,0.72548157,0.72207206,0.93004,0.83250004,0.9274354
138,0.8853889,0.7004531,0.76057523,0.84608006,0.8109445,0.7329426,0.7136928,0.84987825,0.8995905,0.8359377,0.8967506,0.84580314,0.8730372,0.7192566,0.70769453,0.7131477,0.90636814,0.81471306,0.9050017,0.9153058,0.71546334,0.79049224,0.8759969,0.84086144,0.7479529,0.72870314,0.8797952,0.93940544,0.8658545,0.9266676,0.87571996,0.9029541,0.7342668,0.7376114,0.72815794,0.94618297,0.84462994,0.93956524
139,0.8840361,0.69977444,0.75922245,0.8447272,0.80959177,0.7322639,0.7130142,0.8485255,0.8977903,0.8345849,0.89539784,0.84445035,0.87168443,0.71857786,0.70634174,0.71246904,0.90456784,0.8133602,0.9032015,0.91155696,0.7135824,0.7867433,0.872248,0.83711255,0.7460719,0.72682214,0.87604624,0.9344162,0.86210567,0.9229187,0.8719712,0.89920527,0.7323858,0.7338625,0.72627693,0.9411937,0.8408811,0.9358164
140,0.882947,0.699228,0.7581333,0.84363806,0.8085026,0.73171747,0.71246773,0.84743637,0.89634085,0.83349574,0.8943087,0.8433612,0.8705953,0.7180314,0.7052526,0.7119226,0.9031184,0.81227106,0.901752,0.9085884,0.712093,0.78377473,0.86927944,0.83414394,0.7445825,0.7253327,0.87307775,0.9304655,0.85913706,0.91995007,0.86900264,0.89623666,0.7308965,0.73089397,0.7247876,0.93724304,0.83791244,0.93284774
141,0.8821071,0.6988065,0.75729346,0.8427982,0.80766267,0.73129594,0.7120462,0.8465964,0.89522296,0.83265585,0.89346886,0.84252125,0.8697554,0.71761,0.7044127,0.7115011,0.9020005,0.8114312,0.90063417,0.90591323,0.7107508,0.7810996,0.86660427,0.8314688,0.7432403,0.72399056,0.8704026,0.92690533,0.85646194,0.91727495,0.8663276,0.8935616,0.7295543,0.72821885,0.7234454,0.93368286,0.83523744,0.9301727
142,0.88150185,0.69850284,0.7566882,0.8421929,0.8070574,0.7309923,0.7117426,0.8459912,0.89441746,0.83205056,0.8928329,0.841916,0.8691501,0.7173063,0.7038074,0.71119744,0.901195,0.81082594,0.8998286,0.9035489,0.70956457,0.77873534,0.86424,0.82910454,0.74205405,0.7228043,0.86803824,0.92375875,0.85409766,0.9149106,0.8639631,0.8911972,0.728368,0.72585446,0.7222591,0.9305363,0.83287305,0.9278083
143,0.8811164,0.69830954,0.7563028,0.8418074,0.80667204,0.730799,0.7115493,0.84560573,0.89390457,0.8316651,0.89232,0.8415306,0.8687647,0.71711296,0.70342195,0.7110041,0.9006821,0.81044054,0.8993158,0.901488,0.7085306,0.7766744,0.86217904,0.82704365,0.74102,0.7217703,0.86597735,0.92101604,0.8520367,0.9128497,0.86190224,0.8891364,0.72733396,0.7237936,0.72122514,0.92779356,0.8308122,0.92574745
144,0.8809364,0.6982192,0.7561228,0.8416275,0.80649203,0.73070866,0.7114589,0.8454258,0.8936651,0.83148515,0.8920804,0.8413506,0.8685847,0.7170226,0.703242,0.7109138,0.9004426,0.81026053,0.8990763,0.89972055,0.7076437,0.77490693,0.8604116,0.82527614,0.7401332,0.7208834,0.86420983,0.9186637,0.8502692,0.9110822,0.8601347,0.8873688,0.7264471,0.7220261,0.7203383,0.9254412,0.82904464,0.9239798
145,0.88094735,0.6982247,0.7561337,0.84163845,0.80650294,0.73071414,0.71146435,0.84543675,0.89367956,0.8314961,0.892095,0.8413616,0.86859566,0.71702814,0.7032529,0.71091926,0.90045714,0.81027144,0.8990908,0.91632247,0.7159734,0.79150885,0.87701344,0.84187806,0.7484629,0.7292131,0.8808118,0.94075835,0.8668711,0.9276841,0.87673664,0.9039707,0.73477685,0.738628,0.728668,0.9475359,0.8456465,0.9405818
146,0.8811354,0.6983191,0.7563218,0.84182644,0.806691,0.7308085,0.71155876,0.84562474,0.8939299,0.8316842,0.8923452,0.8415496,0.86878365,0.7171225,0.703441,0.7110137,0.9007074,0.8104595,0.89934105,0.9132511,0.7144324,0.7884374,0.87394214,0.8388067,0.7469219,0.72767216,0.87774044,0.9366709,0.86379975,0.9246128,0.8736652,0.90089935,0.7332358,0.73555666,0.727127,0.9434484,0.8425752,0.9375105
147,0.88148683,0.6984954,0.7566732,0.84217787,0.8070424,0.73098487,0.7117351,0.8459762,0.89439756,0.83203554,0.89281285,0.841901,0.8691351,0.71729875,0.7037924,0.7111899,0.9011751,0.81081086,0.8998087,0.91109174,0.713349,0.78627807,0.8717828,0.83664733,0.74583846,0.7265887,0.875581,0.933797,0.8616404,0.92245346,0.87150586,0.89874,0.7321524,0.7333973,0.7260435,0.9405746,0.84041584,0.9353511
148,0.88198847,0.698747,0.75717485,0.8426795,0.80754405,0.73123646,0.7119867,0.84647775,0.89506507,0.8325371,0.8933501,0.8424026,0.8696367,0.7175504,0.704294,0.7114416,0.9018426,0.81131256,0.9004763,0.9091921,0.7123959,0.78437847,0.8698831,0.8347477,0.7448853,0.7256356,0.8736814,0.931269,0.85974073,0.9205538,0.8696062,0.8968404,0.7311993,0.7314977,0.7250905,0.9380465,0.8385162,0.9334515
149,0.88262737,0.6990676,0.7578137,0.8433184,0.808183,0.7315571,0.71230733,0.8471167,0.89591545,0.83317614,0.8939891,0.84304166,0.8702757,0.71787107,0.7049329,0.7117622,0.902693,0.81195146,0.9013266,0.92484117,0.72024757,0.80002755,0.88553226,0.85039675,0.752737,0.73348725,0.8893305,0.9513208,0.87214285,0.93620294,0.88525534,0.9124895,0.7390509,0.7471468,0.7329421,0.95887303,0.8541653,0.9491006
150,0.8833917,0.69945115,0.758578,0.84408283,0.8089473,0.73194057,0.71269083,0.8478811,0.8969326,0.83394045,0.89475346,0.84380597,0.87104005,0.7182545,0.70569724,0.7121456,0.90371025,0.8127158,0.90234387,0.9216145,0.7186285,0.7968008,0.88230556,0.84717005,0.751118,0.73186827,0.8861038,0.94780123,0.8705239,0.9329762,0.88202864,0.9092627,0.737432,0.74392,0.7313231,0.95457876,0.85093856,0.94587386
151,0.8842697,0.69989157,0.75945604,0.84496075,0.80982524,0.73238105,0.71313125,0.848759,0.898101,0.83481836,0.8956314,0.8446838,0.87191796,0.7186949,0.7065752,0.71258605,0.9048785,0.81359375,0.9035122,0.9193752,0.7175051,0.7945615,0.8800662,0.84493077,0.7499945,0.7307447,0.88386446,0.94482106,0.8694004,0.9307369,0.87978935,0.9070235,0.73630846,0.74168074,0.73019964,0.9515986,0.8486992,0.9436345
152,0.88525003,0.70038337,0.7604364,0.84594107,0.8108056,0.7328729,0.71362317,0.8497393,0.8994057,0.8357987,0.8966117,0.84566414,0.8728983,0.7191868,0.7075556,0.71307796,0.90618324,0.8145741,0.90481687,0.91739213,0.71651006,0.7925786,0.87808317,0.8429478,0.74899954,0.7297498,0.8818814,0.9421819,0.86794084,0.92875385,0.87780637,0.90504044,0.7353135,0.7396977,0.7292046,0.9489594,0.8467163,0.94165146
153,0.88632214,0.70092136,0.7615085,0.8470132,0.8118777,0.73341084,0.7141611,0.85081154,0.9008326,0.8368709,0.89768386,0.84673643,0.87397045,0.71972483,0.7086277,0.71361595,0.9076101,0.81564623,0.9062438,0.9156868,0.7156545,0.7908731,0.8763778,0.8412423,0.7481439,0.7288941,0.88017607,0.9399123,0.86623544,0.9270485,0.87610096,0.90333515,0.73445785,0.73799235,0.728349,0.94668984,0.8450108,0.93994606
154,0.8874761,0.7015003,0.7626624,0.8481672,0.8130317,0.7339898,0.71474004,0.8519654,0.90236825,0.8380248,0.8988378,0.84789026,0.8751244,0.7203037,0.70978165,0.71419483,0.90914583,0.8168002,0.9077795,0.928346,0.7220059,0.80353236,0.889037,0.85390157,0.75449544,0.73524565,0.8928353,0.9548256,0.8739013,0.9397077,0.88876015,0.9159942,0.7408093,0.75065154,0.7347005,0.96260655,0.85767007,0.9526053
155,0.88870245,0.70211565,0.76388884,0.8493935,0.8142581,0.7346051,0.71535534,0.85319173,0.9040004,0.8392511,0.90006423,0.8491167,0.8763508,0.7209191,0.7110081,0.71481025,0.9107779,0.8180266,0.9094116,0.9255188,0.7205875,0.80070513,0.8862099,0.85107434,0.753077,0.7338272,0.89000815,0.9519984,0.87248284,0.9368805,0.885933,0.9131671,0.7393909,0.7478244,0.733282,0.95977485,0.8548429,0.9497782
156,0.88999236,0.7027628,0.7651786,0.85068333,0.8155479,0.7352523,0.7160025,0.8544817,0.905717,0.84054106,0.901354,0.8504066,0.8776406,0.7215662,0.71229786,0.7154574,0.91249454,0.8193164,0.91112816,0.9370133,0.72635466,0.8121997,0.89770436,0.8625689,0.75884414,0.7395944,0.9015026,0.963493,0.87824994,0.94837505,0.8974275,0.92466164,0.745158,0.7593189,0.7390492,0.97127396,0.8663374,0.9612727
157,0.8913373,0.7034376,0.7665236,0.8520283,0.81689286,0.7359271,0.7166773,0.8558266,0.90750694,0.841886,0.902699,0.85175145,0.8789856,0.722241,0.71364284,0.71613216,0.9142845,0.8206613,0.9129182,0.9337439,0.7247142,0.80893016,0.8944349,0.8592994,0.75720376,0.73795396,0.8982332,0.96022344,0.87660956,0.9451056,0.894158,0.92139214,0.74351764,0.7560494,0.73740876,0.9680044,0.8630679,0.9580032
158,0.89272976,0.70413625,0.7679161,0.8534208,0.81828535,0.7366257,0.7173759,0.85721904,0.90936005,0.8432784,0.9040914,0.8531439,0.88037807,0.7229396,0.7150353,0.7168308,0.91613764,0.8220538,0.91477126,0.9314635,0.72357005,0.80664986,0.8921545,0.85701907,0.7560595,0.7368098,0.89595276,0.9579431,0.87546545,0.9428252,0.89187765,0.9191118,0.74237347,0.75376904,0.7362646,0.96572405,0.8607876,0.9557228
159,0.8941621,0.7048549,0.76934856,0.8548533,0.81971776,0.7373443,0.7180946,0.8586515,0.91126645,0.8447109,0.90552396,0.8545764,0.8818105,0.7236584,0.7164678,0.7175495,0.91804403,0.82348627,0.91667765,0.9401169,0.7279117,0.81528705,0.900808,0.86567247,0.76040125,0.74115145,0.90460616,0.9665965,0.8798071,0.9514786,0.90053105,0.92776513,0.7467151,0.7624224,0.74060625,0.97437745,0.86838037,0.9643762
160,0.8956282,0.7055905,0.7708146,0.85631925,0.82118386,0.73807997,0.7188302,0.86011755,0.91321754,0.846177,0.90698993,0.85604244,0.8832765,0.7243939,0.7179338,0.718285,0.91999507,0.82495236,0.91862875,0.9370309,0.7263635,0.81221724,0.89772195,0.8625865,0.7588529,0.7396031,0.9015202,0.9635106,0.87825876,0.9483926,0.897445,0.9246792,0.7451668,0.7593365,0.73905796,0.97129154,0.86635494,0.9612903
161,0.8971215,0.70633966,0.7723078,0.8578126,0.822677,0.73882914,0.71957934,0.8616108,0.91520476,0.84767014,0.9084832,0.85753566,0.88476974,0.7251431,0.71942705,0.71903425,0.9219823,0.8264455,0.9206159,0.9435942,0.72965646,0.8170317,0.90428525,0.8691498,0.76214594,0.74289614,0.9080835,0.9700738,0.8815518,0.9549559,0.9040084,0.93124247,0.7484599,0.76574844,0.742351,0.9778548,0.870125,0.96785355
162,0.8986361,0.7070997,0.7738225,0.85932714,0.8241917,0.7395891,0.72033936,0.86312544,0.9172206,0.8491849,0.9099978,0.8590504,0.8862845,0.7259031,0.7209417,0.7197942,0.9239982,0.8279602,0.9226318,0.9405361,0.7281221,0.81549734,0.9012272,0.8660917,0.76061153,0.7413618,0.9050254,0.96701574,0.88001746,0.95189786,0.9009504,0.92818445,0.74692553,0.7628417,0.74081665,0.9747967,0.86859065,0.96479553
163,0.9001671,0.7078678,0.7753535,0.8608582,0.82572275,0.7403572,0.7211074,0.8646564,0.919258,0.85071576,0.9115288,0.8605813,0.8878155,0.72667116,0.72247267,0.72056234,0.9260355,0.8294912,0.9244264,0.93829983,0.7270001,0.81348616,0.89899087,0.8638554,0.75948954,0.7402398,0.9027891,0.9647795,0.8788954,0.94966155,0.89871395,0.92594814,0.7458035,0.76060545,0.7396947,0.97256047,0.8674686,0.9625592
164,0.90170956,0.70864165,0.7768958,0.8624006,0.8272651,0.7411311,0.72188145,0.8661989,0.92131084,0.85225827,0.9130713,0.8621237,0.8893578,0.72744507,0.7240151,0.72133625,0.92808837,0.8310336,0.92596895,0.9363089,0.7260012,0.81149536,0.8970001,0.86186457,0.7584906,0.7392409,0.9007983,0.96278864,0.87789655,0.94767076,0.89672315,0.9239573,0.7448046,0.7586146,0.7386958,0.9705696,0.8656331,0.9605684
165,0.90325904,0.7094191,0.7784455,0.8639502,0.8288147,0.7419085,0.72265875,0.86774844,0.923373,0.85380775,0.9146208,0.8636733,0.8909074,0.72822255,0.72556466,0.72211367,0.9301505,0.8325831,0.9275184,0.93457764,0.7251325,0.80976397,0.8952687,0.8601332,0.757622,0.7383722,0.899067,0.96105725,0.8770278,0.94593936,0.8949918,0.92222595,0.74393594,0.7568832,0.73782706,0.9688382,0.8639017,0.958837
166,0.9048117,0.7101981,0.77999806,0.8655028,0.83036727,0.7426876,0.72343785,0.8693011,0.92543936,0.8553605,0.91617346,0.86522603,0.89246005,0.7290016,0.7271173,0.7228927,0.93221694,0.83413583,0.9290711,0.9330973,0.72438985,0.80828375,0.8937884,0.85865295,0.75687927,0.73762953,0.89758664,0.95957696,0.87628514,0.9444591,0.89351153,0.9207457,0.74319327,0.7554029,0.7370844,0.967358,0.86242145,0.9573567
167,0.9063638,0.71097684,0.78155017,0.8670549,0.8319194,0.7434663,0.7242166,0.8708532,0.92750496,0.8569125,0.91772556,0.866778,0.8940121,0.72978026,0.7286694,0.72367144,0.93428254,0.83568794,0.93062323,0.93185747,0.7237677,0.80704385,0.89254856,0.8574131,0.7562572,0.7370074,0.89634675,0.95833707,0.8756631,0.94321924,0.89227164,0.9195058,0.7425711,0.75416297,0.7364623,0.9661181,0.86118156,0.95611686
168,0.90791225,0.7117538,0.7830987,0.8686034,0.8334679,0.7442432,0.72499347,0.8724016,0.9295658,0.858461,0.91927403,0.8683266,0.8955606,0.73055726,0.7302179,0.7244484,0.9363434,0.8372364,0.93217164,0.93084496,0.7232597,0.80603135,0.891536,0.85640055,0.75574917,0.7364994,0.89533424,0.95732456,0.8751551,0.9422067,0.8912591,0.9184933,0.7420631,0.7531506,0.7359543,0.96510553,0.86016905,0.9551043
169,0.9094542,0.71252733,0.78464055,0.8701453,0.8350098,0.74501693,0.72576714,0.87394357,0.93161774,0.8600029,0.9208159,0.8698684,0.8971025,0.7313308,0.7317597,0.72522193,0.9383953,0.83877826,0.93371356,0.93004566,0.7228587,0.80523205,0.8907367,0.85560125,0.75534815,0.7360984,0.89453495,0.9565253,0.874754,0.94140744,0.8904599,0.91769403,0.74166214,0.7523513,0.7355533,0.9643063,0.85936975,0.95430505
