,106,122,133,17,2,218,254,282,294,30,301,302,33,335,339,341,362,5,6
0,0.09805934,0.05484987,0.057057828,0.058261916,0.052144915,0.06671846,0.045639396,0.07232001,0.10192189,0.076364286,0.09758962,0.049689025,0.08719267,0.05597175,0.022277802,0.041006938,0.112961836,0.073448956,0.11499816
1,-0.001977377,-0.0015319918,-0.001681587,-0.001930841,-0.0018158124,-0.0015677861,-0.0015904935,-0.0018995578,-0.0019820968,-0.00203116,-0.0019817783,-0.001984164,-0.001964809,-0.0015837629,-0.0016461964,-0.0015907912,-0.0019825022,-0.0017744325,-0.001981124
2,-0.0027641933,-0.0023188086,-0.002468403,-0.002717657,-0.0026026284,-0.0023546023,-0.0023773096,-0.0026863741,-0.0027689135,-0.0028179765,-0.0027685945,-0.00277098,-0.0027516251,-0.0023705796,-0.0024330122,-0.002377607,-0.0027693186,-0.0025612484,-0.00276794
3,-0.003122177,-0.0026767915,-0.0028263861,-0.0030756406,-0.002960612,-0.002712586,-0.0027352935,-0.0030443578,-0.0031268972,-0.0031759602,-0.0031265782,-0.0031289635,-0.0031096088,-0.0027285623,-0.0027909959,-0.0027355908,-0.0031273025,-0.0029192322,-0.0031259237
4,-0.0032920283,-0.0028466438,-0.0029962377,-0.0032454932,-0.0031304639,-0.0028824382,-0.0029051453,-0.0032142096,-0.003296749,-0.0033458124,-0.0032964307,-0.0032988153,-0.0032794606,-0.0028984146,-0.0029608475,-0.0029054426,-0.0032971543,-0.003089084,-0.0032957767
5,-0.003374734,-0.0029293478,-0.0030789422,-0.0033281976,-0.0032131684,-0.0029651416,-0.002987849,-0.003296914,-0.0033794527,-0.0034285157,-0.0033791345,-0.0033815193,-0.003362165,-0.0029811184,-0.003043552,-0.002988147,-0.003379858,-0.0031717878,-0.00337848
6,-0.0034128474,-0.0029674624,-0.003117057,-0.0033663118,-0.0032512832,-0.0030032562,-0.003025964,-0.0033350282,-0.003417568,-0.0034666306,-0.0034172486,-0.0034196347,-0.00340028,-0.0030192332,-0.003081666,-0.0030262612,-0.0034179734,-0.0032099027,-0.0034165941
7,-0.0034256899,-0.0029803037,-0.0031298988,-0.0033791529,-0.0032641243,-0.0030160982,-0.0030388057,-0.0033478695,-0.0034304094,-0.0034794717,-0.0034300904,-0.003432476,-0.0034131217,-0.0030320745,-0.003094508,-0.0030391025,-0.0034308136,-0.0032227444,-0.0034294361
8,-0.0034227548,-0.0029773694,-0.003126964,-0.0033762185,-0.00326119,-0.003013163,-0.0030358701,-0.0033449356,-0.0034274745,-0.0034765368,-0.0034271562,-0.0034295416,-0.0034101866,-0.0030291402,-0.0030915737,-0.0030361682,-0.0034278797,-0.0032198094,-0.003426501
9,-0.0034089945,-0.0029636095,-0.0031132041,-0.0033624582,-0.0032474303,-0.0029994035,-0.003022111,-0.003331176,-0.0034137147,-0.0034627782,-0.0034133957,-0.0034157818,-0.003396427,-0.0030153804,-0.0030778134,-0.0030224083,-0.0034141205,-0.0032060498,-0.0034127412
10,-0.0033870218,-0.0029416364,-0.0030912315,-0.0033404855,-0.003225457,-0.0029774301,-0.0030001376,-0.0033092026,-0.003391742,-0.0034408043,-0.0033914233,-0.0033938086,-0.0033744536,-0.0029934072,-0.0030558407,-0.0030004357,-0.0033921467,-0.0031840764,-0.003390768
11,-0.003358041,-0.0029126555,-0.0030622506,-0.0033115046,-0.003196476,-0.0029484497,-0.0029711574,-0.0032802217,-0.003362761,-0.0034118241,-0.0033624421,-0.0033648275,-0.0033454727,-0.0029644268,-0.0030268596,-0.0029714548,-0.0033631658,-0.0031550962,-0.0033617876
12,-0.0033221815,-0.002876796,-0.0030263907,-0.0032756452,-0.0031606166,-0.0029125898,-0.0029352973,-0.0032443618,-0.0033269012,-0.0033759647,-0.0033265827,-0.0033289676,-0.0033096129,-0.002928567,-0.0029910004,-0.0029355953,-0.0033273064,-0.003119236,-0.0033259285
13,-0.0032784706,-0.0028330856,-0.0029826802,-0.0032319347,-0.0031169062,-0.0028688794,-0.0028915869,-0.0032006518,-0.0032831905,-0.0033322542,-0.0032828723,-0.0032852578,-0.0032659029,-0.0028848564,-0.00294729,-0.0028918844,-0.003283596,-0.0030755256,-0.003282218
14,-0.003224585,-0.0027791995,-0.0029287946,-0.0031780486,-0.00306302,-0.0028149937,-0.0028377015,-0.0031467658,-0.0032293051,-0.0032783682,-0.0032289862,-0.0032313715,-0.0032120168,-0.0028309708,-0.0028934036,-0.0028379988,-0.0032297103,-0.00302164,-0.0032283317
15,-0.0031565642,-0.0027111792,-0.0028607738,-0.0031100283,-0.0029949993,-0.002746973,-0.0027696805,-0.003078745,-0.0031612841,-0.0032103471,-0.0031609654,-0.0031633507,-0.003143996,-0.00276295,-0.0028253836,-0.002769978,-0.003161689,-0.0029536192,-0.0031603116
16,-0.0030690515,-0.0026236658,-0.002773261,-0.0030225157,-0.002907487,-0.0026594603,-0.0026821678,-0.0029912328,-0.0030737715,-0.0031228345,-0.0030734532,-0.003075838,-0.003056483,-0.0026754374,-0.0027378707,-0.0026824654,-0.0030741768,-0.0028661066,-0.0030727987
17,-0.0029568868,-0.0025115018,-0.0026610964,-0.0029103504,-0.0027953219,-0.0025472955,-0.0025700033,-0.0028790676,-0.002961607,-0.00301067,-0.002961288,-0.0029636729,-0.0029443186,-0.0025632721,-0.0026257054,-0.0025703006,-0.0029620116,-0.002753942,-0.0029606335
18,-0.0028183002,-0.0023729152,-0.0025225095,-0.0027717643,-0.0026567357,-0.0024087094,-0.0024314164,-0.002740481,-0.00282302,-0.0028720838,-0.0028227018,-0.0028250872,-0.0028057324,-0.002424686,-0.0024871193,-0.002431714,-0.0028234255,-0.0026153552,-0.0028220473
19,-0.0026576524,-0.0022122676,-0.0023618622,-0.0026111167,-0.002496088,-0.0022480616,-0.002270769,-0.0025798338,-0.0026623725,-0.0027114355,-0.0026620536,-0.0026644396,-0.0026450849,-0.0022640384,-0.0023264715,-0.0022710662,-0.002662778,-0.002454708,-0.002661399
20,-0.0024847712,-0.0020393862,-0.0021889806,-0.0024382349,-0.002323206,-0.00207518,-0.0020978875,-0.0024069522,-0.002489491,-0.002538554,-0.0024891726,-0.0024915575,-0.0024722028,-0.002091157,-0.0021535899,-0.002098185,-0.0024898963,-0.0022818262,-0.002488518
21,-0.0023111019,-0.001865717,-0.0020153113,-0.002264566,-0.0021495372,-0.0019015113,-0.0019242184,-0.0022332834,-0.002315822,-0.0023648853,-0.0023155038,-0.002317889,-0.002298534,-0.0019174875,-0.0019799212,-0.0019245158,-0.0023162274,-0.0021081571,-0.0023148493
22,-0.0021459307,-0.0017005457,-0.0018501402,-0.0020993948,-0.001984366,-0.0017363398,-0.0017590473,-0.002068112,-0.0021506513,-0.0021997136,-0.0021503323,-0.0021527174,-0.0021333627,-0.0017523167,-0.0018147499,-0.0017593451,-0.002151056,-0.001942986,-0.0021496776
23,-0.0019948184,-0.0015494336,-0.0016990281,-0.0019482828,-0.0018332539,-0.0015852277,-0.0016079346,-0.0019169993,-0.0019995389,-0.0020486019,-0.0019992196,-0.0020016055,-0.0019822507,-0.0016012047,-0.0016636376,-0.0016082324,-0.0019999437,-0.001791874,-0.0019985656
24,-0.0018599514,-0.0014145662,-0.001564161,-0.0018134157,-0.0016983867,-0.0014503603,-0.0014730676,-0.0017821325,-0.0018646718,-0.0019137348,-0.0018643526,-0.0018667383,-0.0018473834,-0.0014663376,-0.0015287708,-0.0014733656,-0.0018650765,-0.0016570068,-0.0018636988
25,-0.0016993259,-0.0012539409,-0.0014035357,-0.0016527905,-0.0015377615,-0.001289735,-0.0013124422,-0.0016215072,-0.0017040463,-0.0017531095,-0.0017037276,-0.0017061128,-0.0016867585,-0.0013057117,-0.0013681449,-0.0013127397,-0.0017044513,-0.0014963812,-0.0017030732
26,-0.0016043128,-0.0011589275,-0.0013085221,-0.0015577767,-0.0014427481,-0.0011947213,-0.0012174288,-0.0015264938,-0.0016090329,-0.0016580961,-0.0016087142,-0.0016110991,-0.0015917448,-0.0012106983,-0.0012731315,-0.0012177263,-0.0016094379,-0.001401368,-0.0016080601
27,-0.0015172426,-0.0010718573,-0.0012214519,-0.0014707069,-0.001355678,-0.0011076517,-0.0011303592,-0.001439424,-0.0015219627,-0.0015710259,-0.0015216444,-0.0015240292,-0.0015046747,-0.0011236285,-0.0011860617,-0.0011306567,-0.001522368,-0.0013142978,-0.0015209897
28,-0.0014406434,-0.0009952586,-0.0011448527,-0.0013941077,-0.0012790789,-0.0010310526,-0.0010537602,-0.0013628248,-0.0014453639,-0.0014944269,-0.0014450456,-0.0014474313,-0.0014280762,-0.0010470293,-0.0011094625,-0.0010540573,-0.0014457692,-0.0012376992,-0.0014443911
29,-0.0013732759,-0.00092789094,-0.0010774855,-0.0013267399,-0.001211711,-0.00096368475,-0.0009863924,-0.0012954567,-0.0013779966,-0.0014270596,-0.0013776774,-0.0013800634,-0.0013607083,-0.000979662,-0.0010420947,-0.00098669,-0.0013784011,-0.0011703316,-0.0013770229
30,-0.0012946657,-0.0008685918,-0.0010181867,-0.0012674404,-0.0011524118,-0.0009043859,-0.00092709315,-0.0012361582,-0.0013186975,-0.0013677595,-0.0013183786,-0.0013207642,-0.0013014094,-0.0009203629,-0.0009827957,-0.0009273906,-0.0012679566,-0.0010694755,-0.0012698163
31,-0.0011796515,-0.0008163883,-0.0009659834,-0.0012152366,-0.001100208,-0.00085218233,-0.0008748893,-0.0011839543,-0.0012157429,-0.001315556,-0.0012392447,-0.0012685604,-0.0012050912,-0.00086815935,-0.00093059195,-0.00087518705,-0.0011529417,-0.00095446064,-0.0011548002
32,-0.001078497,-0.0007704751,-0.0009200705,-0.001169324,-0.0010542955,-0.0008062692,-0.00082897645,-0.0011152683,-0.001114589,-0.0012696431,-0.0011380903,-0.0012226475,-0.0011039372,-0.0008222465,-0.0008846791,-0.0008292745,-0.0010517873,-0.0008533059,-0.0010536469
33,-0.0009768711,-0.0007235424,-0.0008681531,-0.0011223911,-0.0009791069,-0.00073300285,-0.0007820438,-0.0010136424,-0.0010129629,-0.0012227101,-0.0010364644,-0.0011757149,-0.0010023107,-0.0007753135,-0.00083774637,-0.00078234146,-0.00095016166,-0.00075168,-0.0009520201
34,-0.0009008948,-0.0006893362,-0.00079217687,-0.0010589922,-0.0009031306,-0.0006570268,-0.0007478379,-0.0009376658,-0.00093698606,-0.0011819471,-0.0009604879,-0.0011415089,-0.0009263341,-0.0007411073,-0.0008035399,-0.00074813527,-0.0008741851,-0.0006757036,-0.0008760436
35,-0.0008340521,-0.00065904733,-0.0007253344,-0.0009921502,-0.00083628786,-0.000590184,-0.0007175489,-0.0008708231,-0.0008701436,-0.0011151038,-0.0008936454,-0.0011112196,-0.00085949164,-0.0006948343,-0.00077325146,-0.00071784656,-0.00080734264,-0.000608861,-0.00080920116
36,-0.00077606394,-0.0006321876,-0.0006673458,-0.0009341611,-0.0007782994,-0.00053219555,-0.00069119927,-0.00081283465,-0.0008121554,-0.0010571156,-0.00083565695,-0.0010599612,-0.0008015029,-0.0006368458,-0.0007469018,-0.0006914969,-0.0007493542,-0.000550873,-0.00075121236
37,-0.0007259755,-0.00058209954,-0.00061725796,-0.0008840732,-0.00072821154,-0.0004821074,-0.0006683847,-0.0007627468,-0.00076206727,-0.0010070275,-0.0007855691,-0.001009873,-0.0007514153,-0.0005867578,-0.0007240872,-0.0006686823,-0.00069926603,-0.0005007842,-0.0007011242
38,-0.0006828524,-0.00053897616,-0.0005741347,-0.00084094953,-0.00068508845,-0.00043898387,-0.0006486998,-0.0007196234,-0.0007189439,-0.0009639041,-0.0007424454,-0.0009667502,-0.00070829154,-0.0005436344,-0.00070440216,-0.00064899743,-0.00065614283,-0.00045766114,-0.00065800175
39,-0.00064579694,-0.000501921,-0.0005370791,-0.00080389454,-0.0006480329,-0.0004019287,-0.0006129597,-0.00068256765,-0.0006818884,-0.0009268488,-0.00070538966,-0.0009296946,-0.0006712365,-0.0005065793,-0.00068745465,-0.00063204987,-0.0006190871,-0.00042060597,-0.0006209463
40,-0.0004432912,-0.0002994153,-0.00033457353,-0.0006013891,-0.00044552743,-0.00019942313,-0.00041045411,-0.0004800625,-0.00047938272,-0.00072434347,-0.0005028842,-0.0007271893,-0.00046873107,-0.00030407382,-0.0005850522,-0.00045815096,-0.00041658164,-0.00021810025,-0.00041844085
41,-0.00043407842,-0.0002902025,-0.00032536074,-0.0005921763,-0.00043631493,-0.00019021034,-0.00040124133,-0.0004708491,-0.0004701699,-0.0007151307,-0.00049367145,-0.00071797596,-0.00045951782,-0.00029486103,-0.00058504165,-0.00044893785,-0.00040736867,-0.00020888745,-0.00040922745
42,-0.00041834786,-0.0002744718,-0.00030963018,-0.0005764454,-0.00042058347,-0.00017447963,-0.00038551033,-0.00045511857,-0.00045443937,-0.00069939985,-0.00047794057,-0.0007022455,-0.0004437874,-0.00027913018,-0.00057952135,-0.0004332073,-0.00039163796,-0.00019315674,-0.0003934966
43,-0.00040434077,-0.00026046514,-0.00029562353,-0.0005624387,-0.00040657728,-0.00016047299,-0.00037150367,-0.00044111206,-0.00044043228,-0.00068539305,-0.0004639341,-0.000688239,-0.00042978063,-0.0002651237,-0.00057408214,-0.00041920066,-0.00037763148,-0.00017914995,-0.00037948994
44,-0.000111982525,-2.204597e-05,-5.7204365e-05,-0.00029553397,-0.0001681581,0.0077946037,-0.0001330845,-0.00017900422,-0.00014340042,-0.0003804256,-0.00016831055,-0.00040831193,-0.00014508291,-2.670437e-05,-0.00038483768,-0.00018078163,-7.722646e-05,0.005926892,-7.8235564e-05
45,-0.00012995228,-3.3504813e-05,-6.8663205e-05,-0.00031350373,-0.00017961695,0.006648734,-0.00014454349,-0.00019697353,-0.00016136988,-0.0003983952,-0.00018628016,-0.00042628153,-0.00016305283,-3.816351e-05,-0.00039629653,-0.00019224048,-9.519607e-05,0.0047810078,-9.620517e-05
46,-0.00013122201,-3.350839e-05,-6.866664e-05,-0.00031477376,-0.00017962039,0.0066483915,-0.00014454692,-0.0001982434,-0.00016263992,-0.00039966492,-0.00018754989,-0.00042755157,-0.00016432241,-3.816664e-05,-0.00039630025,-0.0001922439,-9.646564e-05,0.004780665,-9.747505e-05
47,0.027929187,0.027497455,0.025884151,0.009574056,0.020971239,0.037496656,0.016393587,0.021227047,0.024787396,0.0010849088,0.022296384,-1.7037391e-05,0.024619132,0.027031586,-8.781731e-05,0.011623874,0.03140481,0.042275295,0.031303883
48,0.024022594,0.024834022,0.021977544,0.005667448,0.017064631,0.034833223,0.013730153,0.01732044,0.020880789,-2.8217286e-05,0.018389776,-5.6103465e-05,0.02071254,0.024368152,-0.00011445164,0.008960441,0.0274982,0.038368672,0.0273972
49,0.035662025,0.033684313,0.033616975,0.01730688,0.028704077,0.04368353,0.022580445,0.02895987,0.032520235,0.008817732,0.030029207,0.0060290843,0.03235197,0.03321846,-1.1630356e-05,0.017810732,0.039137647,0.05000812,0.039036676
50,0.033291265,0.03204511,0.031246215,0.014936119,0.026333287,0.04204431,0.020941243,0.026589096,0.03014946,0.0064469427,0.027658433,0.0036583245,0.02998121,0.03157924,-3.5337955e-05,0.01617153,0.03676687,0.047637343,0.036665887
51,0.031887487,0.031057328,0.029842451,0.0135323405,0.024929538,0.041056544,0.01995346,0.025185347,0.028745681,0.005043179,0.026254669,0.0022545457,0.028577447,0.030591473,-4.937574e-05,0.015183762,0.035363108,0.046233565,0.035262138
52,0.03077747,0.030258268,0.028732449,0.012422338,0.023819536,0.04025747,0.0191544,0.02407533,0.027635679,0.0039331913,0.025144681,0.0011445582,0.02746743,0.029792398,-6.020933e-05,0.014384687,0.034253106,0.045123577,0.03415209
53,0.029885039,0.029604688,0.027840003,0.011529893,0.02292709,0.039603904,0.018500835,0.023182884,0.026743248,0.003040716,0.024252236,0.00025209785,0.026575,0.029138848,-6.674483e-05,0.013731137,0.033360675,0.04423113,0.033259645
54,0.029178202,0.029080749,0.027133167,0.010823041,0.022220239,0.039079964,0.017976895,0.022476047,0.026036397,0.0023338944,0.023545384,-4.547387e-06,0.025868163,0.028614894,-7.198438e-05,0.013207197,0.032653823,0.04352428,0.03255281
55,0.028642401,0.028680205,0.02659738,0.01028727,0.021684453,0.03867942,0.017576352,0.021940246,0.02550061,0.0017980933,0.023009613,-9.905249e-06,0.025332361,0.028214365,-7.598981e-05,0.012806654,0.032118022,0.042988494,0.032016948
56,0.028271496,0.028401256,0.026226461,0.00991635,0.021313548,0.03840047,0.017297402,0.021569341,0.025129706,0.0014271885,0.022638693,-1.3614445e-05,0.024961442,0.0279354,-7.877931e-05,0.012527704,0.031747103,0.04261759,0.031646073
57,0.05975955,0.05550655,0.05771453,0.04140441,0.052801594,0.067375146,0.046296075,0.053057387,0.056617737,0.03291525,0.054126747,0.030126616,0.056449503,0.05662843,0.022934496,0.041663617,0.06323517,0.07410563,0.06313421
58,0.056918032,0.05266504,0.054873012,0.038562894,0.049960107,0.064533636,0.043454558,0.050215885,0.05377622,0.030073732,0.051285237,0.027285099,0.053607985,0.05378692,0.02009298,0.0388221,0.060393654,0.07126412,0.06029266
59,0.060898602,0.056645624,0.05885358,0.042543456,0.05394066,0.068514206,0.047435135,0.05419644,0.057756804,0.03405431,0.05526579,0.031265676,0.057588555,0.057767488,0.024073541,0.04280269,0.06437422,0.0752447,0.06427317
60,0.059880212,0.055627234,0.057835184,0.041525066,0.052922264,0.067495815,0.04641676,0.053178057,0.056738414,0.033035904,0.05424741,0.030247271,0.056570172,0.056749113,0.023055166,0.041784286,0.06335585,0.07422633,0.06325489
61,0.059415646,0.055162646,0.05737061,0.041060507,0.05245769,0.06703123,0.04595217,0.052713484,0.056273833,0.032571316,0.053782836,0.029782683,0.05610557,0.056284525,0.022590578,0.041319713,0.06289127,0.073761724,0.06279025
62,0.05923175,0.054978758,0.05718673,0.040876612,0.05227381,0.06684734,0.045768276,0.052529603,0.056089938,0.032387435,0.05359894,0.029598802,0.05592169,0.056100637,0.022406682,0.041135818,0.06270737,0.073577836,0.062606335
63,0.059281603,0.05502861,0.057236575,0.040926456,0.052323654,0.066897206,0.04581812,0.052579433,0.05613979,0.032437295,0.053648785,0.029648662,0.055971563,0.05615049,0.022456542,0.041185677,0.06275724,0.07362769,0.06265618
64,0.05954048,0.055287503,0.057495445,0.041185334,0.052582547,0.067156084,0.046077013,0.05283834,0.056398697,0.032696173,0.05390767,0.02990754,0.056230433,0.05640936,0.022715405,0.04144454,0.06301612,0.073886596,0.06291501
65,0.07728399,0.07303101,0.07523896,0.058928855,0.07032607,0.0848996,0.063820526,0.070581846,0.07414221,0.0504397,0.07165117,0.047651052,0.073973946,0.07415287,0.040458933,0.059188083,0.08075963,0.09163011,0.08065856
66,0.10046184,0.09620886,0.098416805,0.08210671,0.093503915,0.108077444,0.08699838,0.09375968,0.0979465,0.073617555,0.09482904,0.0708289,0.09715179,0.097330734,0.06363678,0.08236593,0.10898645,0.11480794,0.11102265
67,0.0988706,0.094617635,0.09682558,0.08051547,0.09191266,0.106486216,0.085407145,0.09216845,0.0957288,0.07202633,0.09323779,0.06923767,0.095560566,0.09573949,0.06204555,0.08077469,0.10545496,0.11321671,0.107491024
68,0.13318351,0.12484139,0.12704936,0.11073924,0.122136444,0.13670997,0.11563091,0.122392215,0.13704604,0.111488424,0.1327138,0.099461436,0.12578432,0.12596326,0.09226931,0.11099847,0.14808601,0.14344047,0.15012209
69,0.12891574,0.12294848,0.12515643,0.10884633,0.120243534,0.13481708,0.113738015,0.1204993,0.13277829,0.107220665,0.12844604,0.09756854,0.12389143,0.12407036,0.0903764,0.10910555,0.14381823,0.14154756,0.14585435
70,0.12793005,0.12279168,0.12499964,0.108689524,0.12008673,0.13466027,0.11358121,0.1203425,0.13179258,0.10623497,0.12746033,0.09741174,0.12373462,0.12391354,0.090219595,0.108948745,0.14283255,0.14139076,0.14486861
71,0.1279299,0.1231139,0.12532184,0.10901174,0.12040892,0.13498247,0.11390341,0.120664716,0.13179247,0.10623485,0.12746018,0.09773394,0.12405682,0.12423577,0.09054181,0.10927097,0.1428324,0.14171298,0.14486842
72,0.16930099,0.1522319,0.15443982,0.13812974,0.14952695,0.16410048,0.14302143,0.14978273,0.17316352,0.14760593,0.16883126,0.12685195,0.15843432,0.1533538,0.11965981,0.13838896,0.18420349,0.17083097,0.18623962
73,0.16655995,0.15124753,0.1534555,0.1371454,0.1485426,0.16311611,0.14203708,0.14879838,0.17042252,0.14486489,0.16609025,0.12586758,0.15569326,0.15236942,0.118675485,0.1374046,0.18146248,0.16984662,0.1834985
74,0.21877034,0.18816483,0.19037277,0.1789729,0.18545988,0.20003343,0.17895436,0.193031,0.22263286,0.19707525,0.21830058,0.17040001,0.20790365,0.1892867,0.15559275,0.17432189,0.23367284,0.20676392,0.23570889
75,0.21503595,0.18687834,0.18908629,0.17523852,0.18417339,0.19874693,0.17766789,0.18929662,0.21889848,0.19334087,0.2145662,0.16666563,0.20416927,0.18800022,0.15430628,0.17303541,0.22993845,0.20547742,0.23197453
76,0.25207597,0.21340126,0.2156092,0.21227854,0.2106963,0.22526984,0.2041908,0.22633664,0.2559385,0.23038088,0.25160623,0.20370565,0.2412093,0.21452312,0.18082917,0.1995583,0.26697847,0.23200034,0.2690146
77,0.24990195,0.21304384,0.21525179,0.21010453,0.21033892,0.22491243,0.20383339,0.22416261,0.2537645,0.22820687,0.24943224,0.20153163,0.2390353,0.21416575,0.1804718,0.19920093,0.26480448,0.23164295,0.2668405
78,0.2505597,0.21412233,0.21633026,0.21076226,0.21141736,0.2259909,0.20491184,0.22482036,0.25442222,0.22886461,0.25008994,0.20218934,0.239693,0.21524419,0.18155023,0.20027938,0.2654622,0.23272139,0.26749825
79,0.28701788,0.2399697,0.24217764,0.24722046,0.23726475,0.2518383,0.23075925,0.26127854,0.29088038,0.2653228,0.28654814,0.23864754,0.2761512,0.24109158,0.20739762,0.22612676,0.30192038,0.2585688,0.3039564
80,0.28653392,0.24062051,0.24282844,0.2467365,0.23791558,0.25248912,0.23141004,0.26079458,0.29039648,0.26483884,0.2860642,0.2381636,0.27566725,0.2417424,0.20804843,0.22677758,0.30143645,0.2592196,0.3034725
81,0.32328102,0.26679665,0.26900458,0.28348356,0.26716715,0.27866524,0.25758618,0.29754168,0.32714355,0.3015859,0.32281125,0.2749107,0.31241435,0.26791856,0.23422456,0.2529537,0.33818352,0.2853957,0.34021956
82,0.32338184,0.26795924,0.2701672,0.28358442,0.267268,0.27982783,0.25874877,0.29764253,0.3272444,0.30168676,0.3229121,0.27501154,0.3125152,0.26908115,0.23538718,0.25411633,0.33828434,0.28655833,0.3403204
83,0.35953355,0.2937807,0.29598865,0.3197361,0.30341965,0.3056493,0.28457025,0.3337942,0.3633961,0.33783847,0.3590638,0.31116325,0.3486669,0.29490262,0.26120865,0.27993777,0.37443602,0.31237978,0.37647206
84,0.36054572,0.29562166,0.2978296,0.32074827,0.30443186,0.30749026,0.2864112,0.33480638,0.36440825,0.33885062,0.360076,0.31217542,0.34967908,0.29674357,0.26304957,0.28177872,0.37544823,0.31422073,0.3774842
85,0.3639692,0.29867387,0.3008818,0.32417178,0.3078553,0.31054246,0.2894634,0.33822986,0.36783177,0.34227413,0.36349946,0.3155989,0.35310256,0.29979575,0.26610178,0.28483093,0.3788717,0.31727293,0.38090765
86,0.4429354,0.35410932,0.35631728,0.40313798,0.38682157,0.3659779,0.34489882,0.4171961,0.44679797,0.42124033,0.44246566,0.3945651,0.43206877,0.35523123,0.32153726,0.34026638,0.45783794,0.39563847,0.4598739
87,0.44280565,0.356001,0.35820895,0.4030082,0.38669178,0.3678696,0.34679052,0.4170663,0.4466682,0.42111054,0.4423359,0.39443535,0.431939,0.3571229,0.32342893,0.34215808,0.45770812,0.3955087,0.45974404
88,0.48803008,0.38853967,0.39074764,0.44823265,0.43191618,0.40040827,0.3793292,0.4622907,0.49189264,0.466335,0.48756033,0.43965977,0.47716343,0.38966158,0.35596758,0.37469673,0.50293255,0.44073313,0.50496846
89,0.49094832,0.39222825,0.39443618,0.4511509,0.43483448,0.4040968,0.38301775,0.465209,0.49481088,0.46925324,0.49047858,0.44257802,0.48008168,0.39335012,0.35965616,0.37838528,0.5058508,0.44365138,0.5078867
90,0.5437768,0.42993015,0.43889862,0.5039793,0.4876629,0.44179875,0.42071968,0.51803744,0.5476393,0.5220817,0.543307,0.49540645,0.5329101,0.4310521,0.3973581,0.4160872,0.5586793,0.49647987,0.56071514
91,0.5480181,0.43466878,0.4431399,0.5082207,0.49190426,0.44653744,0.4254583,0.5222787,0.55188066,0.52632296,0.54754835,0.4996478,0.5371514,0.43579072,0.40209675,0.42082587,0.5629206,0.50072116,0.5649565
92,0.55536723,0.44088542,0.4504891,0.5155698,0.4992534,0.45275408,0.43167502,0.52962786,0.5592298,0.53367215,0.5548975,0.5069969,0.5445006,0.44200736,0.4083134,0.42704254,0.57026976,0.50807035,0.57230556
93,0.56407666,0.44777584,0.45919853,0.52427924,0.5079628,0.45964444,0.43856537,0.5383373,0.5679392,0.5423815,0.5636069,0.51570636,0.55320996,0.44889772,0.41520378,0.4339329,0.57897913,0.5167797,0.581015
94,0.5737348,0.45518404,0.4688567,0.5339374,0.517621,0.46705264,0.44597358,0.5479955,0.5775974,0.55203974,0.57326514,0.5253645,0.5628682,0.45630598,0.422612,0.44134116,0.5886373,0.52643794,0.5906732
95,0.6206984,0.48837686,0.51582026,0.58090097,0.56458455,0.5036001,0.4791664,0.594959,0.62456095,0.5990033,0.62022865,0.5723281,0.60983175,0.48949873,0.4678104,0.47641844,0.6356009,0.5734015,0.6376368
96,0.62954384,0.4959522,0.5246657,0.5897464,0.57343,0.5124455,0.48674172,0.60380447,0.6334064,0.60784876,0.6290741,0.58117354,0.61867714,0.49707413,0.4766559,0.48526388,0.6444464,0.58224696,0.6464823
97,0.6340317,0.49935097,0.5291536,0.5942343,0.5779179,0.5169334,0.49105078,0.60829234,0.6378942,0.61233664,0.63356197,0.5856614,0.6231651,0.5004729,0.4811437,0.48975176,0.6489342,0.5867348,0.65097046
98,0.63606215,0.50050586,0.531184,0.5962647,0.5799483,0.5189638,0.4930812,0.6103228,0.6399247,0.61436707,0.6355924,0.58769184,0.6251955,0.5016278,0.48317415,0.4917822,0.6509647,0.5887652,0.6530009
99,0.63875926,0.5020321,0.5338811,0.59896183,0.5826454,0.5216609,0.49577832,0.6130199,0.64262176,0.6170642,0.6382895,0.59038895,0.6278926,0.50315404,0.48587126,0.4944793,0.6536618,0.5914623,0.65569794
100,0.6627637,0.5183979,0.5578855,0.6229663,0.6066499,0.5456654,0.5197828,0.63702434,0.6666262,0.6410686,0.662294,0.6143934,0.651897,0.52530974,0.5098757,0.5184837,0.6776662,0.6154668,0.6797024
101,0.6607343,0.5163685,0.55585617,0.6209369,0.60462046,0.54363596,0.51775336,0.6349949,0.66459686,0.6390392,0.66026455,0.612364,0.64986765,0.5232803,0.5078463,0.51645434,0.67563677,0.61343735,0.677673
102,0.6857272,0.5413614,0.58084905,0.64592975,0.62961334,0.56862885,0.54274625,0.6599878,0.6895897,0.6640321,0.68525743,0.6373569,0.67486054,0.5482732,0.5328392,0.5414472,0.70062965,0.63843024,0.70266587
103,0.6821288,0.537763,0.57725066,0.64233136,0.62601495,0.56503046,0.53914785,0.6563894,0.6859913,0.6604337,0.681659,0.6337585,0.6712621,0.5446748,0.5292408,0.53784883,0.69703126,0.63483185,0.6990675
104,0.70998836,0.56562257,0.6051102,0.67019093,0.6538745,0.59289,0.5670074,0.68424904,0.7138509,0.6882933,0.7095186,0.66161805,0.69912165,0.5725344,0.55710036,0.5657084,0.7248908,0.6626914,0.72692704
105,0.70530754,0.56094176,0.60042936,0.6655101,0.6491937,0.5882092,0.5623266,0.6795682,0.70917004,0.6836124,0.7048378,0.6569372,0.69444084,0.56785357,0.55241954,0.5610276,0.72021,0.6580106,0.7222462
106,0.7056758,0.56131,0.60079765,0.66587836,0.64956194,0.58857745,0.56269485,0.67993647,0.70953834,0.68398064,0.70520604,0.6573055,0.69480914,0.5682218,0.5527878,0.5613958,0.72057825,0.65837884,0.72261447
107,0.7374705,0.5931048,0.6325924,0.697673,0.6813566,0.6203722,0.5944896,0.7117312,0.741333,0.7157754,0.73700076,0.6891002,0.7266038,0.60001653,0.5845825,0.59319055,0.752373,0.6901735,0.7544092
108,0.7334513,0.5890856,0.6285732,0.6936539,0.67733747,0.616353,0.5904704,0.707712,0.7373138,0.71175617,0.73298156,0.685081,0.7225846,0.59599733,0.5805633,0.58917135,0.7483538,0.68615437,0.75039
109,0.7725246,0.62226766,0.6676465,0.7327272,0.71641076,0.6533871,0.6295164,0.74678534,0.77638716,0.7508295,0.7720549,0.72415435,0.76165795,0.6344256,0.61963665,0.6282341,0.7874271,0.72522765,0.7894633
110,0.76518583,0.6169193,0.6603077,0.72538835,0.70907193,0.64803874,0.6222049,0.7394465,0.76904833,0.7434907,0.7647161,0.71681553,0.75431913,0.62773186,0.61229783,0.6209059,0.7800883,0.71788883,0.7821245
111,0.80347353,0.64485484,0.69859535,0.76367605,0.7473597,0.67597425,0.65210354,0.77773416,0.80733603,0.7817784,0.8030038,0.75510323,0.79260683,0.65701276,0.6476676,0.65082127,0.818376,0.7561766,0.82041216
112,0.7948676,0.6385824,0.6899894,0.75507015,0.7387537,0.6697019,0.64583117,0.7691282,0.7987301,0.77317244,0.79439783,0.7464973,0.7840009,0.6507403,0.64139515,0.6445489,0.80977005,0.74757063,0.8118062
113,0.79348654,0.63757885,0.6886084,0.7536891,0.73737264,0.66869825,0.64482754,0.7677472,0.79734904,0.77179146,0.7930168,0.74511623,0.78261983,0.64973676,0.6403916,0.64354527,0.808389,0.7461896,0.8104252
114,0.8287045,0.6632737,0.71811545,0.788907,0.77259064,0.6943931,0.6705224,0.8029651,0.832567,0.80700934,0.82823473,0.7803342,0.8178378,0.6754316,0.6660865,0.6692402,0.8436069,0.7814075,0.84564316
115,0.82277244,0.6589511,0.71379286,0.78297496,0.76665854,0.69007057,0.66619986,0.7970331,0.82663494,0.8010773,0.82230264,0.7744021,0.81190574,0.6711091,0.6617639,0.6649176,0.83767486,0.77547544,0.83971107
116,0.85821736,0.6848115,0.7396532,0.8184199,0.80210346,0.71593094,0.69206023,0.832478,0.8620798,0.8365222,0.85774755,0.809847,0.8473506,0.6969694,0.6876242,0.6907779,0.8731198,0.8070946,0.875156
117,0.84995115,0.6787864,0.73362815,0.8101537,0.7938373,0.70990586,0.68603516,0.82421184,0.8538137,0.828256,0.8494814,0.80158085,0.83908445,0.6909443,0.6815992,0.6847529,0.8648536,0.80106956,0.86688983
118,0.88843155,0.7068606,0.76170236,0.84863406,0.82437664,0.73798007,0.7141094,0.86269224,0.89229405,0.8667365,0.8879618,0.84006125,0.87756485,0.7190186,0.7096734,0.71282715,0.903334,0.82914376,0.90537024
119,0.8773279,0.6987658,0.7536076,0.83753043,0.8162818,0.7298853,0.70601463,0.85158855,0.8811904,0.8556328,0.8768582,0.8289576,0.8664612,0.7109238,0.7015786,0.7047323,0.8922304,0.821049,0.89426655
120,0.873585,0.6960386,0.75088036,0.83378756,0.81355464,0.7271581,0.7032874,0.8478457,0.87744755,0.85188985,0.87311524,0.8252147,0.8627183,0.7081966,0.6988514,0.70200515,0.88848746,0.8183218,0.8905237
121,0.9127444,0.72460663,0.7794484,0.87010485,0.8421226,0.7557261,0.73185545,0.8811753,0.91660684,0.89104927,0.9122746,0.86437404,0.90187764,0.7367646,0.72741944,0.7305731,0.9276468,0.8468898,0.929683
122,0.9019937,0.7167686,0.7716104,0.8621962,0.8342846,0.7478881,0.7240173,0.8733372,0.9058562,0.8802985,0.9015239,0.8536234,0.891127,0.72892654,0.71958137,0.7227351,0.91689616,0.8390518,0.9189324
123,0.9205813,0.73033243,0.7851742,0.87583065,0.8478485,0.76145196,0.73758125,0.8869011,0.9244438,0.89888614,0.92011154,0.872211,0.9084475,0.7424904,0.73314524,0.736299,0.93548375,0.8526156,0.93752
124,0.9205707,0.7303274,0.7851692,0.8758256,0.8478434,0.7614469,0.7375762,0.8868961,0.9244331,0.89887553,0.92010087,0.8722003,0.9084425,0.7424854,0.73314023,0.7362939,0.9354731,0.8526106,0.9375094
125,0.92122495,0.7308778,0.7857196,0.87637603,0.84839386,0.7619973,0.73812664,0.88744646,0.92517924,0.89962155,0.92084694,0.8729464,0.9089929,0.7430358,0.7336906,0.7368443,0.9362192,0.853161,0.9382555
126,0.92117804,0.73083085,0.7856726,0.87632906,0.8483468,0.7619503,0.73807967,0.8873995,0.9251116,0.89955395,0.92077935,0.8728788,0.9089459,0.7429888,0.7336436,0.73679733,0.93615156,0.853114,0.9381879
127,0.9211501,0.73080295,0.7856447,0.87630117,0.84831893,0.7619224,0.7380517,0.8873716,0.92507184,0.89951414,0.92073953,0.872839,0.9089181,0.74296093,0.73361576,0.7367695,0.9361118,0.8530861,0.9381481
128,0.9215566,0.73120946,0.7860512,0.8767076,0.84872544,0.7623289,0.7384582,0.8877781,0.9256235,0.9000659,0.9212913,0.8733813,0.9093245,0.7433674,0.7340222,0.73717594,0.93666345,0.85349256,0.9386998
129,0.92150354,0.7311564,0.78599817,0.8766546,0.84867245,0.76227593,0.7384052,0.8877251,0.92554885,0.8999913,0.9212166,0.87331605,0.90927154,0.7433144,0.7339692,0.73712295,0.9365889,0.8534396,0.9386251
130,0.9218461,0.731499,0.7863407,0.87699723,0.849015,0.7626185,0.7387478,0.88806766,0.9260139,0.9004562,0.9216816,0.8736709,0.909614,0.74365693,0.73431176,0.7374655,0.93705386,0.8537821,0.93909013
131,0.9217683,0.7314211,0.78626287,0.8769193,0.84893715,0.76254064,0.7386699,0.8879898,0.9259056,0.9003479,0.9215733,0.873593,0.90953624,0.7435791,0.7342339,0.7373876,0.93694556,0.8537043,0.93898183
132,0.92170864,0.7313615,0.78620327,0.8768597,0.84887755,0.762481,0.7386103,0.88793015,0.9258235,0.90026593,0.9214912,0.8735334,0.9094766,0.7435195,0.73417425,0.737328,0.9368634,0.85364467,0.9388998
133,0.9216725,0.7313254,0.78616714,0.8768236,0.84884137,0.76244485,0.73857415,0.88789403,0.92577386,0.9002162,0.9214416,0.87349725,0.90944046,0.7434833,0.73413813,0.7372919,0.93681383,0.85360855,0.93885016
134,0.9220659,0.7317188,0.78656054,0.877217,0.84923476,0.76283824,0.73896754,0.8882874,0.9263093,0.90075165,0.921977,0.87389064,0.90983385,0.74387676,0.7345316,0.73768526,0.9373492,0.85400194,0.93938553
135,0.9219839,0.73163676,0.7864785,0.8771349,0.84915274,0.7627562,0.7388855,0.88820535,0.9261957,0.90063804,0.9218634,0.8738086,0.9097518,0.7437947,0.7344495,0.73760325,0.9372356,0.8539199,0.9392719
136,0.9219143,0.7315671,0.78640884,0.8770653,0.8490831,0.76268655,0.73881584,0.88813573,0.92610025,0.9005426,0.921768,0.87373894,0.90968215,0.74372506,0.7343798,0.73753357,0.93714017,0.85385025,0.9391765
137,0.92214656,0.73179936,0.7866411,0.8772976,0.84931535,0.76291883,0.7390481,0.888368,0.9264164,0.90085876,0.92208415,0.8739712,0.90991443,0.74395734,0.7346121,0.73776585,0.93745637,0.8540825,0.93949264
138,0.92206675,0.7317197,0.78656137,0.8772178,0.8492356,0.76283914,0.73896843,0.88828826,0.92630655,0.90074897,0.92197436,0.8738915,0.9098347,0.7438776,0.7345324,0.73768616,0.9373466,0.8540028,0.93938285
139,0.9223371,0.73199,0.78683174,0.8774882,0.84950596,0.76310945,0.7392388,0.8885587,0.9266746,0.90111697,0.92230284,0.87416184,0.91010505,0.74414796,0.7348028,0.73795646,0.9377146,0.85427314,0.93975085
140,0.92223406,0.73188686,0.7867286,0.8773851,0.8494029,0.7630064,0.7391357,0.88845557,0.9265326,0.90097505,0.9221997,0.8740588,0.91000193,0.74404484,0.73469967,0.7378534,0.9375726,0.85417,0.93960893
141,0.92214817,0.73180103,0.7866428,0.8772992,0.849317,0.7629205,0.7390498,0.8883697,0.9264155,0.90085787,0.9220832,0.8739729,0.90991604,0.743959,0.73461384,0.7377675,0.9374554,0.8540842,0.93949175
142,0.92241126,0.7320641,0.7869059,0.87756234,0.8495801,0.7631836,0.7393129,0.8886327,0.92677397,0.9012163,0.922377,0.874236,0.9101792,0.74422204,0.7348769,0.7380306,0.93781394,0.8543473,0.9398503
143,0.92230976,0.7319626,0.7868044,0.87746084,0.8494786,0.7630821,0.7392114,0.88853127,0.9266345,0.9010768,0.9222755,0.8741345,0.9100777,0.7441206,0.73477536,0.7379291,0.93767434,0.8542458,0.93971074
144,0.9222233,0.7318762,0.78671795,0.8773744,0.8493922,0.7629957,0.739125,0.8884449,0.9265167,0.900959,0.92218435,0.8740481,0.90999126,0.7440342,0.734689,0.7378427,0.93755656,0.85415936,0.93959296
145,0.92216027,0.7318132,0.7866549,0.87731135,0.8493291,0.76293266,0.73906195,0.8883818,0.926431,0.90087336,0.92209876,0.87398505,0.90992826,0.7439711,0.73462594,0.7377797,0.937471,0.8540963,0.93950725
146,0.92242855,0.7320814,0.78692317,0.8775796,0.8495974,0.7632009,0.7393302,0.88865006,0.9267968,0.90123916,0.9223943,0.8742533,0.9101965,0.7442394,0.73489416,0.7380479,0.93783677,0.8543646,0.93987304
147,0.92233527,0.73198813,0.7868299,0.87748635,0.8495041,0.7631076,0.7392369,0.8885568,0.92666864,0.901111,0.922301,0.87416,0.9101032,0.7441461,0.73480093,0.7379546,0.9377086,0.8542713,0.9397449
148,0.92225415,0.73190695,0.78674877,0.8774052,0.849423,0.7630264,0.73915577,0.88847566,0.9265581,0.9010005,0.9222199,0.87407887,0.910022,0.744065,0.73471975,0.7378735,0.9375981,0.8541901,0.9396343
149,0.9221944,0.7318473,0.78668904,0.8773455,0.84936327,0.76296675,0.73909605,0.88841593,0.926477,0.9009194,0.9221447,0.87401915,0.90996236,0.7440052,0.73466,0.7378138,0.937517,0.8541305,0.93955326
150,0.92214817,0.73180103,0.7866428,0.87729925,0.8493171,0.7629205,0.7390498,0.8883697,0.92641443,0.9008568,0.9220821,0.8739729,0.9099161,0.743959,0.73461384,0.7377675,0.93745434,0.85408425,0.9394907
151,0.922381,0.7320338,0.7868756,0.877532,0.84954983,0.76315325,0.7392826,0.8886025,0.9267319,0.9011743,0.92234665,0.8742057,0.91014886,0.74419177,0.7348466,0.73800033,0.93777186,0.85431695,0.93980813
152,0.9223035,0.73195636,0.7867981,0.8774546,0.84947234,0.7630758,0.7392051,0.888525,0.9266255,0.90106785,0.9222692,0.8741282,0.91007143,0.7441143,0.7347691,0.73792285,0.9376655,0.8542395,0.9397018
153,0.9225442,0.7321971,0.78703886,0.8776953,0.8497131,0.7633166,0.73944587,0.8887658,0.92691743,0.9013959,0.9225099,0.87436897,0.9103122,0.744355,0.73500985,0.7381636,0.9379936,0.85448027,0.9400271
154,0.92244107,0.73209393,0.7869357,0.87759215,0.8496099,0.7632134,0.7393427,0.8886626,0.9268118,0.90125424,0.9224068,0.8742658,0.91020894,0.7442519,0.7349067,0.7380604,0.9378518,0.8543771,0.9398881
155,0.9223537,0.73200655,0.7868483,0.87750477,0.8495226,0.763126,0.73925537,0.8885752,0.9266927,0.9011351,0.92231935,0.8741784,0.9101216,0.7441645,0.73481935,0.73797303,0.93773264,0.85428977,0.93976897
156,0.9226742,0.73232704,0.7871688,0.87782526,0.849843,0.76344645,0.73957586,0.8888957,0.9270473,0.90157205,0.9226399,0.87449896,0.9104421,0.744485,0.73513985,0.7382935,0.93816966,0.8546102,0.94015706
157,0.92255926,0.73221207,0.7870538,0.8777103,0.8497281,0.76333153,0.7394608,0.8887808,0.9269324,0.901414,0.9225249,0.8743839,0.9103272,0.74437004,0.73502487,0.73817855,0.9380116,0.8544952,0.9400421
158,0.92282426,0.7324771,0.7873189,0.87797534,0.8499931,0.7635966,0.7397259,0.8890458,0.92719746,0.9017752,0.92279,0.874649,0.9105922,0.7446351,0.73528993,0.7384436,0.9383728,0.8547603,0.94030714
159,0.922688,0.7323409,0.78718257,0.877839,0.8498568,0.76346034,0.73958963,0.88890946,0.92706114,0.90158796,0.9226537,0.87451273,0.9104559,0.7444988,0.7351536,0.73830736,0.9381856,0.854624,0.9401709
160,0.92296356,0.7326164,0.7874582,0.87811464,0.8501324,0.7637359,0.7398652,0.8891851,0.9273367,0.9019637,0.9229293,0.8747883,0.9107315,0.7447744,0.7354292,0.7385829,0.9385276,0.8548996,0.94044644
161,0.9228113,0.7324642,0.78730595,0.8779624,0.84998024,0.76358366,0.73971295,0.88903284,0.9271845,0.9017546,0.9227771,0.87463605,0.91057926,0.7446222,0.735277,0.7384307,0.9383522,0.85474735,0.9402942
162,0.9226812,0.732334,0.7871758,0.87783223,0.84985006,0.7634535,0.73958284,0.8889027,0.92705435,0.90157723,0.9226469,0.8745059,0.9104491,0.744492,0.7351468,0.7383005,0.9381748,0.85461724,0.940164
163,0.9225861,0.73223895,0.78708065,0.8777371,0.8497549,0.7633584,0.73948777,0.8888076,0.9269593,0.901448,0.92255175,0.8744108,0.910354,0.7443969,0.7350517,0.73820543,0.93804556,0.8545221,0.94006896
164,0.92284685,0.7324997,0.7873415,0.877998,0.8500157,0.7636192,0.73974854,0.88906837,0.92722005,0.90180415,0.9228126,0.87467164,0.9106148,0.7446577,0.7353125,0.7384662,0.93840176,0.8547829,0.94032973
165,0.9227287,0.7323816,0.78722334,0.8778798,0.84989756,0.76350105,0.7396304,0.8889502,0.92710185,0.90164214,0.92269444,0.8745535,0.91049665,0.7445395,0.7351943,0.73834807,0.9382397,0.8546647,0.9402116
166,0.92262447,0.7322773,0.7871191,0.8777755,0.84979326,0.76339674,0.73952603,0.8888459,0.9269976,0.90150017,0.92259014,0.87444913,0.91039234,0.74443525,0.7350901,0.73824376,0.9380978,0.85456043,0.9401073
167,0.92254645,0.73219925,0.787041,0.87769747,0.84971523,0.7633188,0.739448,0.8887679,0.9269196,0.90139425,0.9225121,0.8743711,0.9103143,0.7443572,0.73501205,0.73816574,0.9379919,0.8544824,0.9400282
168,0.9224851,0.7321379,0.78697973,0.87763613,0.84965396,0.7632574,0.73938674,0.88870656,0.92685825,0.90131134,0.9224508,0.87430984,0.910253,0.74429595,0.7349507,0.73810446,0.93790895,0.8544211,0.9399452
169,0.92243516,0.73208797,0.7869298,0.8775862,0.84960395,0.7632075,0.7393368,0.8886566,0.9268015,0.90124387,0.92240083,0.8742599,0.91020304,0.74424595,0.7349008,0.7380545,0.9378415,0.85437113,0.93987775
