,106,122,133,17,2,218,254,282,294,30,301,302,33,335,339,341,362,5,6
0,0.02362505,0.00694339,0.004749112,-4.8791168e-05,0.0069653243,0.013186462,-3.582552e-05,0.012881104,0.01362915,0.036018625,0.013727214,-0.00021663375,0.016746636,0.012595046,-0.0003324101,-0.00012598798,0.022442222,0.023653481,0.033851683
1,0.017023705,0.00034207106,-1.8522218e-05,-0.00011480421,0.00036400557,0.0065851547,-0.00010183856,0.0062797554,0.0070278496,0.029417295,0.0071258694,-0.00028264686,0.010145318,0.005993739,-0.00039842314,-0.00019200094,0.015840925,0.017052177,0.027250338
2,0.011795353,-4.8862843e-05,-7.080577e-05,-0.00016708806,-4.86435e-05,0.0013567954,-0.00015412226,0.0010514036,0.0017995015,0.024188958,0.0018975288,-0.0003349304,0.004916966,0.00076538324,-0.0004507067,-0.00024428457,0.010612544,0.011823818,0.022021953
3,0.007832892,-0.00011267624,-0.00011042997,-0.00020671233,-8.826807e-05,-2.6056618e-05,-0.00021104388,-2.9110386e-05,-2.1629929e-05,0.020226482,-2.0648986e-05,-0.00037455498,0.0009545088,-5.088918e-05,-0.00050463044,-0.00029849214,0.0066500865,0.007861357,0.01805953
4,0.0048609413,-0.00016221471,-0.00014014944,-0.0002364315,-0.000117987394,-6.790883e-05,-0.00026058234,-5.8829934e-05,-5.1348805e-05,0.01725455,-5.036853e-05,-0.00040427395,-2.0174235e-05,-0.00010042757,-0.00055416883,-0.00034803047,0.0036781617,0.0048894435,0.0150876045
5,0.002611015,-0.0001998908,-0.00016735784,-0.00025893076,-0.00014048658,-0.00010558478,-0.0002982582,-8.132882e-05,-7.384792e-05,0.015004687,-7.286787e-05,-0.00042677327,-4.26732e-05,-0.00013810373,-0.0005918449,-0.00038570663,0.001428254,0.002639521,0.012837727
6,0.00087317824,-0.000229244,-0.00019671126,-0.00027630947,-0.00015786491,-0.00013493799,-0.0003276115,-9.870767e-05,-9.1226546e-05,0.013266817,-9.024597e-05,-0.00044415198,-6.0051454e-05,-0.00016745686,-0.0006211983,-0.00041505977,-3.0958652e-06,0.00090166926,0.01109983
7,-5.011931e-06,-0.00025274022,-0.0002202075,-0.00029005334,-0.00017160899,-0.00015843436,-0.00035110785,-0.000112451235,-0.00010497063,0.011892397,-0.00010398999,-0.0004578957,-7.379591e-05,-0.00019095323,-0.0006446943,-0.000438556,-1.6839578e-05,-4.7273934e-06,0.009725425
8,-1.6115904e-05,-0.00027201234,-0.00023947938,-0.000301157,-0.00018271252,-0.00017770618,-0.00037037983,-0.0001235552,-0.00011607401,0.0107820295,-0.00011509366,-0.00046899935,-8.4899286e-05,-0.00021022528,-0.00066396646,-0.00045782802,-2.7943626e-05,-1.583092e-05,0.008615054
9,-2.522446e-05,-0.00028811052,-0.00025557764,-0.0003102663,-0.00019182198,-0.0001938048,-0.000386478,-0.00013266437,-0.00012518346,0.009871114,-0.00012420349,-0.00047810868,-9.400844e-05,-0.00022632338,-0.0006800645,-0.00047392628,-3.7053003e-05,-2.4940222e-05,0.0077041686
10,-3.27532e-05,-0.00030170468,-0.00026917175,-0.00031779445,-0.00019935027,-0.00020739883,-0.00040007202,-0.0001401928,-0.0001327116,0.009118259,-0.00013173126,-0.0004856371,-0.00010153688,-0.00023991756,-0.00069365866,-0.00048752024,-4.4581146e-05,-3.2468513e-05,0.0069512986
11,-3.8971008e-05,-0.00031322739,-0.0002806948,-0.0003240122,-0.00020556792,-0.0002189216,-0.0004115951,-0.00014641046,-0.00013892933,0.008496497,-0.00013794906,-0.00049185444,-0.00010775499,-0.0002514404,-0.00070518174,-0.0004990433,-5.0798877e-05,-3.8686318e-05,0.0063295215
12,-4.406348e-05,-0.00032297507,-0.0002904424,-0.00032910472,-0.00021066077,-0.00022866904,-0.0004213427,-0.00015150293,-0.00014402211,0.007987246,-0.00014304183,-0.0004969477,-0.00011284716,-0.00026118814,-0.0007149295,-0.00050879095,-5.589142e-05,-4.3779164e-05,0.0058202706
13,-4.817173e-05,-0.00033116853,-0.00029863566,-0.00033321313,-0.00021622136,-0.00023686282,-0.00042953616,-0.00015561118,-0.00014813044,0.0075763874,-0.00014714978,-0.0005010555,-0.000116956006,-0.0002693814,-0.00072312274,-0.0005169844,-5.9999675e-05,-4.788719e-05,0.0054094456
14,-5.1414296e-05,-0.00033799207,-0.0003054592,-0.00033645556,-0.00022304474,-0.00024368614,-0.0004363594,-0.00015885405,-0.000151373,0.007252164,-0.00015039265,-0.00050429837,-0.000120198274,-0.0002762051,-0.0007299461,-0.0005238077,-6.324224e-05,-5.3360385e-05,0.005085189
15,-5.3901225e-05,-0.00034361338,-0.0003110808,-0.0003389422,-0.00022866613,-0.00024930746,-0.00044198087,-0.00016134053,-0.00015385963,0.007003516,-0.00015287899,-0.000506785,-0.00012268491,-0.00028182624,-0.0007355676,-0.0005294292,-6.572857e-05,-5.898185e-05,0.0048365556
16,-5.5737943e-05,-0.00034819343,-0.00031566067,-0.00034077876,-0.00023324623,-0.00025388747,-0.00044656105,-0.00016317725,-0.00015569634,0.0068198256,-0.0001547157,-0.0005086217,-0.00012452163,-0.00028640628,-0.0007401477,-0.0005340093,-6.756529e-05,-6.356187e-05,0.004652884
17,-5.702883e-05,-0.00035188757,-0.00031935482,-0.00034206978,-0.00023694067,-0.000257582,-0.0004502552,-0.00016446828,-0.00015698723,0.006690722,-0.00015600696,-0.00050991273,-0.00012581251,-0.00029010058,-0.00074384187,-0.0005377036,-6.8856774e-05,-6.7256165e-05,0.004523732
18,-5.7874397e-05,-0.00035484447,-0.00032231188,-0.00034291536,-0.00023989729,-0.00026053868,-0.00045321224,-0.0001653137,-0.00015783272,0.006606184,-0.00015685245,-0.00051075843,-0.00012665837,-0.00029305756,-0.0007467989,-0.0005406604,-6.970197e-05,-7.021308e-05,0.0044392124
19,-5.836725e-05,-0.000357202,-0.00032466918,-0.00034340806,-0.00024225487,-0.00026289598,-0.00045556953,-0.00016580656,-0.00015832565,0.0065568797,-0.00015734501,-0.0005112504,-0.00012715094,-0.00029541485,-0.0007491562,-0.0005430177,-7.0195274e-05,-7.257052e-05,0.0043898895
20,-5.8592334e-05,-0.00035908556,-0.00032655284,-0.0003436333,-0.00024413831,-0.00026477984,-0.00045745334,-0.0001660318,-0.00015855134,0.0065343603,-0.00015757068,-0.00051147636,-0.00012737632,-0.00029729857,-0.00075103977,-0.00054490124,-7.0420574e-05,-7.4454096e-05,0.004367389
21,-5.862355e-05,-0.00036060438,-0.00032807156,-0.00034366487,-0.00024565734,-0.0002662987,-0.00045897215,-0.00016606323,-0.00015858225,0.006531235,-0.00015760228,-0.0005115073,-0.00012740724,-0.00029881738,-0.00075255847,-0.0005464203,-7.045187e-05,-7.5972974e-05,0.0043642595
22,-5.852334e-05,-0.0003618516,-0.000329319,-0.00034356458,-0.00024690418,-0.00026754572,-0.00046021907,-0.00016596264,-0.00015848166,0.006541308,-0.0001575011,-0.0005114068,-0.00012730733,-0.00030006445,-0.0007538057,-0.00054766727,-7.035121e-05,-7.7220124e-05,0.004374318
23,-5.8341247e-05,-0.0003629028,-0.00033036992,-0.0003433825,-0.00024795538,-0.000268597,-0.00046127042,-0.00016578086,-0.00015829995,0.006559454,-0.0001573196,-0.000511225,-0.00012712523,-0.00030111565,-0.0007548568,-0.0005487185,-7.01692e-05,-7.827118e-05,0.0043924637
24,-5.8117956e-05,-0.0003638185,-0.00033128558,-0.00034315922,-0.000248871,-0.00026951253,-0.00046218594,-0.00016555718,-0.00015807628,0.006581813,-0.00015709623,-0.0005110014,-0.00012690164,-0.00030203126,-0.0007557725,-0.0005496341,-6.99459e-05,-7.918678e-05,0.0044148266
25,-5.5131313e-05,-0.00036055854,-0.0003280258,-0.0003401727,-0.0002456112,-0.00026625252,-0.00045892602,-0.00016257077,-0.00015509002,0.0068804584,-0.00015410967,-0.00050801504,-0.00012391529,-0.0002987714,-0.0007525129,-0.00054637424,-6.695926e-05,-7.5927004e-05,0.004713487
26,-5.5746284e-05,-0.0003628423,-0.0003303094,-0.00034078755,-0.00024789525,-0.00026853665,-0.0004612101,-0.00016318589,-0.00015570498,0.00681895,-0.00015472404,-0.0005086297,-0.00012453027,-0.00030105538,-0.0007547965,-0.0005486581,-6.7574234e-05,-7.8210905e-05,0.00465199
27,-5.5910197e-05,-0.00036417335,-0.00033164083,-0.00034095146,-0.00024922617,-0.00026986748,-0.0004625412,-0.00016334966,-0.00015586853,0.0068026073,-0.00015488855,-0.0005087941,-0.00012469418,-0.0003023864,-0.0007561279,-0.0005499894,-6.773815e-05,-7.954203e-05,0.004635632
28,-5.5965258e-05,-0.00036523512,-0.00033270215,-0.00034100658,-0.00025028794,-0.00027092948,-0.00046360292,-0.00016340494,-0.00015592336,0.006797079,-0.0001549434,-0.0005088487,-0.00012474894,-0.00030344797,-0.0007571892,-0.0005510509,-6.779298e-05,-8.0603735e-05,0.0046301186
29,-5.6000576e-05,-0.0003661961,-0.00033366322,-0.00034104145,-0.00025124886,-0.00027189037,-0.00046456404,-0.0001634398,-0.0001559589,0.0067319833,-0.00015497855,-0.0005088838,-0.00012478426,-0.0003044091,-0.0007581503,-0.00055201194,-6.782845e-05,-8.156478e-05,0.004626598
30,-5.603887e-05,-0.00036710253,-0.00033456972,-0.00034108027,-0.0002521553,-0.00027279666,-0.00046547025,-0.00016347833,-0.00015599787,0.006641332,-0.00015501722,-0.0005089226,-0.00012482256,-0.00030531554,-0.0007590567,-0.00055291824,-6.7867186e-05,-8.2470695e-05,0.0046227276
31,-5.609028e-05,-0.00036797338,-0.00033544048,-0.00034113115,-0.00025302597,-0.00027366748,-0.00046634092,-0.0001635295,-0.00015604861,0.006554272,-0.00015506796,-0.000508974,-0.00012487396,-0.0003061862,-0.0007599274,-0.0005537889,-6.7917856e-05,-8.33416e-05,0.004617624
32,-5.615726e-05,-0.00036881832,-0.00033628554,-0.00034119881,-0.0002538707,-0.0002745124,-0.0004671858,-0.00016359672,-0.00015611596,0.0064697973,-0.00015513561,-0.000509041,-0.00012494125,-0.00030703118,-0.00076077256,-0.000554634,-6.79855e-05,-8.418679e-05,0.0046108887
33,-5.5825112e-05,-0.00036902472,-0.00033649206,-0.00034086607,-0.0002540773,-0.0002747187,-0.00046739227,-0.00016326427,-0.00015578352,0.006449148,-0.00015480317,-0.0005087087,-0.0001246091,-0.00030723764,-0.00076097896,-0.0005548405,-6.765306e-05,-8.439347e-05,0.004644107
34,-5.606048e-05,-0.00037007598,-0.0003375431,-0.00034110202,-0.00025512857,-0.00027577011,-0.0004684437,-0.00016349994,-0.00015601917,0.006343983,-0.00015503913,-0.0005089442,-0.00012484415,-0.00030828908,-0.00076203025,-0.0005558916,-6.788872e-05,-8.54443e-05,0.0046205707
35,-5.6222452e-05,-0.00037094063,-0.00033840776,-0.000341264,-0.00025599322,-0.0002766349,-0.0004693084,-0.00016366206,-0.00015618137,0.0062575415,-0.0001552014,-0.0005091065,-0.00012500637,-0.0003091535,-0.00076289463,-0.00055675633,-6.805099e-05,-8.630916e-05,0.004604377
36,-5.637772e-05,-0.00037175065,-0.00033921778,-0.00034141899,-0.0002568034,-0.00027744472,-0.00047011828,-0.00016381733,-0.00015633673,0.006176524,-0.00015535638,-0.0005092618,-0.0001251614,-0.00030996365,-0.0007637048,-0.0005575663,-6.820597e-05,-8.711897e-05,0.004588876
37,-5.6537017e-05,-0.00037253022,-0.00033999732,-0.00034157827,-0.00025758267,-0.0002782242,-0.0004708977,-0.00016397647,-0.00015649505,0.0060985945,-0.00015551507,-0.00050942064,-0.0001253207,-0.00031074308,-0.00076448417,-0.00055834575,-6.8364665e-05,-8.789852e-05,0.0045729503
38,-5.6700334e-05,-0.0003732828,-0.00034074998,-0.0003417415,-0.00025833555,-0.00027897692,-0.00047165027,-0.00016413964,-0.00015665866,0.0060233288,-0.00015567869,-0.0005095839,-0.00012548402,-0.00031149565,-0.00076523697,-0.00055909844,-6.852821e-05,-8.865118e-05,0.0045566186
39,-5.686611e-05,-0.00037400893,-0.00034147606,-0.00034190735,-0.00025906152,-0.0002797033,-0.0004723768,-0.00016430556,-0.00015682443,0.005950704,-0.00015584446,-0.00050974987,-0.00012565008,-0.00031222188,-0.00076596293,-0.0005598247,-6.8694055e-05,-8.9377536e-05,0.004540041
40,-2.9016881e-05,-0.0003442761,-0.00031174318,-0.00031405798,-0.0002293288,-0.00024997024,-0.00044264382,-0.00013645634,-0.00012897499,0.008923989,-0.00012799464,-0.00048190064,-9.780056e-05,-0.00028248897,-0.0007362302,-0.000530092,-4.084453e-05,-5.964443e-05,0.0073249564
41,-4.002355e-05,-0.0003572791,-0.0003247465,-0.0003250651,-0.000242332,-0.00026297307,-0.00045564672,-0.00014746316,-0.00013998218,0.00762368,-0.0001390019,-0.00049290777,-0.00010880716,-0.0002954921,-0.0007492334,-0.00054309494,-5.185179e-05,-7.264763e-05,0.0062242374
42,-5.4021326e-05,-0.00037188813,-0.00033935532,-0.00033906227,-0.00025694087,-0.00027758226,-0.0004702559,-0.00016146063,-0.00015397996,0.0061627775,-0.00015299968,-0.0005069049,-0.00012280472,-0.0003101012,-0.00076384237,-0.0005577039,-6.584957e-05,-8.7256725e-05,0.0048245154
43,-5.4503307e-05,-0.00037299847,-0.00034046583,-0.0003395447,-0.00025805124,-0.0002786926,-0.00047136625,-0.00016194291,-0.000154462,0.0060517564,-0.00015348196,-0.00050738704,-0.00012328729,-0.00031121157,-0.0007649527,-0.00055881427,-6.633117e-05,-8.8366716e-05,0.0047762915
44,0.01683814,-0.00015104435,-0.00011851169,-0.000116659925,-3.6097317e-05,-5.6738703e-05,-0.0002494121,0.0060942136,0.006842278,0.028247159,0.006940309,-0.0002845022,0.00995978,-8.925736e-05,-0.00054299855,-0.00033686025,0.01565532,0.013358697,0.027064793
45,0.013573557,-0.00018591441,-0.00015338152,-0.00014930584,-7.096715e-05,-9.1608534e-05,-0.00028428173,0.00282963,0.0035776906,0.024760157,0.0036757253,-0.00031714787,0.0066951886,-0.00012412749,-0.0005778686,-0.00037173,0.0123907365,0.00987174,0.02380021
46,0.0095017925,-0.00022681213,-0.00019427948,-0.00019002362,-0.000111865025,-0.00013250648,-0.00032517992,-1.2421533e-05,-4.94048e-06,0.020670388,-3.9604306e-06,-0.00035786582,0.0026233941,-0.00016502514,-0.0006187666,-0.00041262835,0.008318994,0.0057819113,0.019728377
47,0.04248336,0.010147888,0.013401158,0.013979219,0.021642633,0.019578483,0.00031115115,0.031739414,0.032487474,0.05349952,0.03258554,-2.8050317e-05,0.03560496,0.016326599,-0.0002904754,-8.433692e-05,0.04130055,0.038611043,0.052709997
48,0.036925636,0.0043106414,0.007563919,0.008282796,0.015805375,0.01374124,-5.526118e-05,0.025977839,0.026929766,0.04766225,0.027027797,-8.362725e-05,0.030047253,0.010489345,-0.00034884794,-0.00014270924,0.03574284,0.032773804,0.04715225
49,0.041207805,0.008559637,0.011812929,0.012531813,0.020054378,0.017990213,-1.2771115e-05,0.03022689,0.031211969,0.051911235,0.031310033,-4.0805862e-05,0.034329437,0.01473834,-0.0003063578,-0.000100219324,0.04002501,0.037022777,0.051434457
50,0.03511745,0.0024153814,0.0056686737,0.006387558,0.013910122,0.0118459575,-7.421359e-05,0.024082635,0.025121596,0.04576698,0.02521969,-0.00010170914,0.028239083,0.008594099,-0.00036780036,-0.00016166172,0.033934668,0.030878551,0.045344085
51,0.029499289,-3.170818e-05,8.242577e-05,0.00080133975,0.008323908,0.006259743,-0.00013007589,0.018496405,0.019503418,0.040180795,0.01960145,-0.00015789091,0.02262092,0.0030078776,-0.0004236625,-0.0002175241,0.02831649,0.025292318,0.039725922
52,0.024744846,-7.888615e-05,-4.6353263e-05,-3.9164424e-05,0.003606122,0.0015419573,-0.00017725363,0.013778605,0.014748994,0.035462983,0.014847025,-0.00020543515,0.017866481,-1.7099157e-05,-0.0004708403,-0.00026470184,0.023562036,0.020574521,0.03497151
53,0.020714894,-0.000118867305,-8.6334716e-05,-7.914595e-05,-3.9201227e-06,-2.456136e-05,-0.00021723479,0.009780481,0.010719027,0.031464875,0.010817058,-0.00024573467,0.013836499,-5.7080313e-05,-0.00051082164,-0.00030468314,0.01953207,0.016576413,0.030941512
54,0.01728614,-0.00015289038,-0.000120357494,-0.00011316865,-3.79429e-05,-5.8584286e-05,-0.00025125756,0.006378211,0.0072903335,0.028062604,0.0073883645,-0.00028002216,0.010407805,-9.110317e-05,-0.00054484454,-0.00033870578,0.01610338,0.013174124,0.027512822
55,0.014360659,-0.00018193215,-0.00014939933,-0.00014221043,-6.6984816e-05,-8.7626126e-05,-0.0002802997,0.0034740306,0.0043647587,0.025158424,0.0044628195,-0.00030927703,0.0074822605,-0.000120144934,-0.00057388644,-0.0003677479,0.013177831,0.010269947,0.024587244
56,0.011859763,-0.00020677305,-0.0001742404,-0.00016705126,-9.182565e-05,-0.00011246711,-0.0003051406,0.0009899512,0.0018638968,0.022674326,0.0019619018,-0.00033428654,0.004981369,-0.00014498606,-0.0005987274,-0.0003925889,0.010676943,0.0077858493,0.022086386
57,0.037024103,0.004404437,0.007657714,0.008376613,0.015899193,0.013835032,-5.4323224e-05,0.026071675,0.027028263,0.04775607,0.027126327,-8.264244e-05,0.030145735,0.010583155,-0.00034790978,-0.00014177128,0.03584134,0.03286762,0.047250737
58,0.033278506,0.00043274462,0.0036859997,0.004404906,0.011927471,0.009863324,-9.404011e-05,0.022099983,0.023282636,0.043784358,0.023380667,-0.00012009837,0.026400123,0.0066114403,-0.00038762702,-0.00018148846,0.032095682,0.028895885,0.043505125
59,0.037165727,0.004307959,0.007561233,0.008280121,0.0158027,0.013738528,-5.5287925e-05,0.025975179,0.02716989,0.04765959,0.027267952,-8.1225706e-05,0.030287392,0.01048667,-0.0003488747,-0.00014273621,0.035982937,0.03277108,0.04739239
60,0.036566347,0.003695596,0.006948862,0.0076677725,0.015190337,0.013126187,-6.141171e-05,0.02536283,0.026570525,0.047047228,0.026668526,-8.722014e-05,0.029687975,0.009874307,-0.0003549984,-0.00014885984,0.035383567,0.032158747,0.046792995
61,0.035642464,0.002793543,0.0060468353,0.0067657195,0.014288284,0.012224145,-7.043205e-05,0.024460796,0.025646623,0.046145126,0.025744658,-9.645879e-05,0.02876408,0.008972257,-0.00036401852,-0.0001578801,0.03445961,0.031256728,0.045869116
62,0.034748252,0.0019220263,0.005175311,0.0058942065,0.013416786,0.011352636,-7.9147365e-05,0.023589265,0.024752434,0.045273643,0.024850402,-0.00010540105,0.027869869,0.008100726,-0.00037273392,-0.00016659542,0.033565506,0.030385196,0.044974905
63,0.03394589,0.0011391118,0.0043924004,0.0051112883,0.012633838,0.010569688,-8.697636e-05,0.022806332,0.023950066,0.044490725,0.024048068,-0.00011342473,0.027067523,0.007317815,-0.00038056305,-0.00017442471,0.032763112,0.029602248,0.044172525
64,0.03327442,0.00048348308,0.0037367456,0.004455637,0.01197822,0.009914085,-9.353257e-05,0.022150684,0.023278594,0.04383511,0.023376595,-0.000120139564,0.026396066,0.006662205,-0.00038711933,-0.00018098079,0.03209164,0.02894665,0.043501034
65,0.050642498,0.017820168,0.021073446,0.021792337,0.02931492,0.027250756,0.007983409,0.0394874,0.040646657,0.061171774,0.040744722,0.005354136,0.043764114,0.023998886,-0.0002137526,-7.614344e-06,0.049459703,0.04628333,0.060869146
66,0.07668207,0.04367263,0.046925906,0.04764479,0.055167355,0.053103216,0.03383588,0.065339886,0.06668619,0.08702426,0.06678421,0.031393703,0.0698037,0.049851358,0.0044772252,0.025091048,0.07549929,0.07213577,0.0869087
67,0.07838294,0.0451824,0.048435688,0.049154557,0.056677125,0.054612983,0.03534565,0.06684966,0.06838701,0.08853401,0.06848506,0.033094566,0.07150454,0.051361125,0.0059869774,0.026600815,0.0772001,0.07364553,0.08860956
68,0.11019166,0.0769187,0.08017197,0.080890864,0.08841343,0.0863493,0.06708195,0.09858596,0.10019577,0.12027033,0.100293785,0.0649033,0.103313275,0.083097406,0.037723295,0.05833712,0.10900882,0.10538185,0.12041828
69,0.112688124,0.079191394,0.08244467,0.08316357,0.09068609,0.08862197,0.06935463,0.10085864,0.10269221,0.12254298,0.102790274,0.06733497,0.105809726,0.08537009,0.039995972,0.060609806,0.111505285,0.10765456,0.12291473
70,0.11302146,0.079533264,0.08278652,0.083505414,0.091027975,0.08896383,0.069696486,0.10120048,0.10302558,0.12288484,0.10312364,0.06767682,0.10614308,0.08571194,0.040337827,0.060951654,0.111838624,0.10799639,0.1232481
71,0.11317566,0.07971942,0.082972705,0.08369159,0.09121412,0.08914999,0.06988265,0.10138667,0.10317979,0.12307103,0.103277825,0.067862995,0.10629728,0.08589812,0.040524,0.06113783,0.111992836,0.10818255,0.12340231
72,0.1426053,0.109116934,0.11237021,0.1130891,0.12061162,0.11854751,0.09928016,0.13078418,0.1326094,0.15246853,0.13270748,0.09726052,0.13572691,0.11529563,0.06992151,0.09053534,0.14142248,0.1375801,0.15283191
73,0.14531116,0.111614585,0.11486786,0.115586735,0.123109296,0.12104516,0.101777814,0.13328181,0.13531524,0.1549662,0.13541332,0.0997582,0.13843274,0.117793284,0.07241917,0.09303299,0.14412835,0.14007774,0.15553777
74,0.18361212,0.14984462,0.15309788,0.15381679,0.16133931,0.15927519,0.14000785,0.17151186,0.1736162,0.19319618,0.17371428,0.13798818,0.1767337,0.15602331,0.1106492,0.13126302,0.18242928,0.17830777,0.19383875
75,0.18770948,0.15366086,0.15691411,0.15763304,0.16515559,0.16309142,0.1438241,0.17532809,0.17771357,0.19701245,0.17781162,0.14180443,0.18083104,0.15983954,0.114465445,0.13507925,0.18652666,0.18212402,0.19793612
76,0.21481577,0.18072386,0.18397713,0.18469602,0.19221854,0.19015443,0.17088708,0.20239109,0.20481989,0.22407544,0.20491791,0.16886741,0.20793739,0.18690255,0.14152844,0.16214225,0.21363291,0.209187,0.22504237
77,0.21849886,0.1842203,0.18747355,0.18819246,0.19571501,0.19365087,0.17438352,0.2058875,0.20850298,0.2275719,0.208601,0.17236385,0.21162045,0.19039899,0.14502487,0.16563869,0.217316,0.21268341,0.22872543
78,0.22027528,0.18600723,0.18926051,0.18997943,0.19750196,0.19543782,0.17617048,0.20767447,0.2102794,0.22935882,0.21037745,0.17415084,0.21339688,0.19218594,0.14681183,0.16742563,0.21909246,0.21447036,0.23050195
79,0.24542123,0.21114829,0.21440157,0.2151205,0.22264299,0.22057888,0.20131153,0.2328155,0.23542532,0.25449988,0.23552334,0.19929188,0.23854282,0.217327,0.1719529,0.19256672,0.24423838,0.23961145,0.25564784
80,0.24930519,0.21485656,0.21810985,0.21882874,0.22635126,0.22428715,0.2050198,0.2365238,0.23930931,0.25820816,0.23940736,0.20300016,0.24242678,0.22103527,0.17566116,0.19627497,0.24812236,0.24331969,0.25953183
81,0.27467355,0.24019921,0.24345249,0.24417138,0.2516939,0.24962977,0.23036242,0.26186645,0.26467767,0.28355077,0.26477572,0.2283428,0.26779515,0.24637789,0.20100379,0.22161761,0.2734907,0.26866233,0.2849002
82,0.27911496,0.24445614,0.2477094,0.24842826,0.25595087,0.2538867,0.23461935,0.26612335,0.2691191,0.2878077,0.26921713,0.23259968,0.2722366,0.25063485,0.2052607,0.22587451,0.2779322,0.2729193,0.28934166
83,0.30379233,0.2691077,0.27236095,0.27307987,0.28060243,0.27853826,0.25927094,0.29077494,0.29379642,0.3124593,0.2938945,0.25725126,0.2969139,0.2752864,0.22991225,0.2505261,0.30260947,0.29757085,0.314019
84,0.30869582,0.27382794,0.27708122,0.2778001,0.28532267,0.2832585,0.26399118,0.29549518,0.29869998,0.3171795,0.29879797,0.26197153,0.30181742,0.28000665,0.23463252,0.25524634,0.307513,0.3022911,0.31892246
85,0.31198007,0.27710503,0.2803583,0.2810772,0.28859976,0.28653562,0.26726824,0.29877228,0.30198416,0.3204566,0.30208224,0.2652486,0.30510163,0.2832837,0.23790962,0.25852346,0.31079724,0.30556816,0.32220668
86,0.36583954,0.33092108,0.3341744,0.3348933,0.3424158,0.3403517,0.32108435,0.35258836,0.35584366,0.37427267,0.3559417,0.31906468,0.35896116,0.3370998,0.2917257,0.3123395,0.36465672,0.35938424,0.37606624
87,0.3744344,0.33905402,0.34230733,0.34302622,0.35054874,0.34848464,0.32921726,0.3607213,0.36443853,0.3824056,0.36453658,0.3271976,0.36750934,0.34523273,0.29985863,0.32047245,0.37325162,0.36751717,0.38466108
88,0.40467632,0.3692368,0.37249005,0.37320897,0.38073152,0.37866735,0.35940003,0.39090404,0.3946804,0.4125884,0.3947785,0.3573804,0.39769205,0.37541547,0.33004138,0.35065517,0.40349346,0.39769995,0.414903
89,0.41181093,0.37611952,0.37937278,0.3800917,0.38761422,0.38555008,0.36628276,0.39778674,0.40181506,0.4194711,0.4019131,0.36426312,0.4045748,0.3822982,0.33692408,0.3575379,0.4106281,0.40458268,0.4220376
90,0.4454727,0.4097519,0.4130052,0.4137241,0.42124662,0.4191825,0.39991513,0.43141916,0.4354768,0.45310348,0.4355749,0.3978955,0.4382072,0.4159306,0.3705565,0.39117032,0.44428986,0.43821508,0.4556994
91,0.45327097,0.41725805,0.42051136,0.42123026,0.42875278,0.42668867,0.4074213,0.43892533,0.44327515,0.46060964,0.4433732,0.40540168,0.44571337,0.42343676,0.37806264,0.39867648,0.45208818,0.4457212,0.46349773
92,0.4587896,0.42273572,0.42598903,0.42670792,0.43423045,0.43216634,0.41289896,0.44440302,0.44879377,0.4660873,0.44889182,0.4108793,0.45119104,0.42891443,0.3835403,0.40415415,0.4576068,0.4511989,0.46901637
93,0.4640826,0.42802003,0.4312733,0.43199223,0.43951473,0.4374506,0.41818327,0.4496873,0.45408678,0.4713716,0.4541848,0.41616362,0.45647535,0.4341987,0.3888246,0.40943846,0.46289977,0.4564832,0.47430936
94,0.46928638,0.43321833,0.43647158,0.4371905,0.44471306,0.44264886,0.42338157,0.45488557,0.45929053,0.4765699,0.45938855,0.4213619,0.46167362,0.439397,0.39402288,0.4146367,0.46810356,0.4616815,0.47951314
95,0.49547526,0.4526547,0.46266752,0.46338648,0.470909,0.46884483,0.4495775,0.48108155,0.4854794,0.5027659,0.4855774,0.44755787,0.48786956,0.4590553,0.42021888,0.4408327,0.49429244,0.48787743,0.50570196
96,0.502704,0.45750657,0.46965992,0.47037888,0.4779014,0.47583726,0.4565699,0.48807395,0.49270818,0.5097583,0.4928062,0.45455027,0.494862,0.46390718,0.42721125,0.4478251,0.5015212,0.49486983,0.51293075
97,0.5083597,0.4611649,0.47526774,0.47598666,0.48350918,0.48144507,0.4621777,0.49368173,0.4983638,0.5153661,0.49846184,0.46015808,0.5004698,0.4675655,0.43281907,0.4534329,0.5071768,0.5004776,0.51858646
98,0.51396537,0.46472213,0.4808481,0.48156705,0.4890896,0.48702544,0.4677581,0.49926215,0.50396955,0.52094644,0.50406754,0.46573845,0.50605017,0.4711227,0.43839943,0.45901325,0.5127826,0.50605804,0.52419215
99,0.51959807,0.46825454,0.48645708,0.48717597,0.49469852,0.49263442,0.47270527,0.5048711,0.5096022,0.5265554,0.5097003,0.4713474,0.51165915,0.47465515,0.44400835,0.4646222,0.5184153,0.51166695,0.5298248
100,0.55061364,0.4858295,0.51748276,0.51820165,0.52572423,0.5168238,0.49028024,0.5358968,0.5406178,0.5575811,0.5407159,0.5023731,0.5426848,0.4922301,0.47503406,0.49069792,0.54943085,0.5426926,0.56084037
101,0.5584744,0.49115348,0.52518773,0.5259066,0.53342915,0.52214783,0.49560422,0.5436017,0.54863757,0.56528604,0.5487356,0.5100781,0.55038977,0.49755406,0.482739,0.4960219,0.5574506,0.5503976,0.5688601
102,0.5921312,0.5102704,0.5588445,0.5595634,0.5670859,0.5412648,0.51472116,0.57725847,0.5823096,0.5989428,0.5824077,0.54373485,0.58404654,0.516671,0.51131743,0.51513886,0.5911227,0.58405435,0.60253215
103,0.60009116,0.51587737,0.56653804,0.5675234,0.57504594,0.54687166,0.5203281,0.5852185,0.59063756,0.6069028,0.5907356,0.5516948,0.5920065,0.52227795,0.5169244,0.5207458,0.59945065,0.5920143,0.61086017
104,0.6364055,0.536442,0.58710265,0.6038377,0.6113603,0.5674362,0.5408927,0.6215328,0.6269483,0.6432172,0.62704635,0.5880092,0.6283209,0.54284257,0.53748894,0.54131037,0.6357613,0.6283287,0.64717084
105,0.64425355,0.54210675,0.59276736,0.61168575,0.61920834,0.573101,0.5465574,0.6293808,0.6352171,0.65106523,0.6353151,0.5958572,0.6361689,0.5485073,0.5431537,0.5469751,0.64403015,0.63617676,0.655369
106,0.65002376,0.5459134,0.596574,0.61745596,0.62497854,0.57690763,0.5503641,0.635151,0.6410863,0.65683544,0.64118433,0.6016274,0.6419391,0.552314,0.54696035,0.5507817,0.6498993,0.6419469,0.6611391
107,0.6860677,0.5661135,0.6167741,0.6534999,0.6610225,0.5971077,0.57056415,0.671195,0.6770473,0.6928794,0.67714536,0.63767135,0.67798305,0.572514,0.5671604,0.5709818,0.68586034,0.67653626,0.6971831
108,0.6930735,0.5712874,0.621948,0.6605057,0.6680283,0.60228163,0.5757381,0.6782008,0.6844903,0.69988513,0.6845883,0.64467716,0.68498886,0.5776879,0.57233435,0.5761557,0.69330335,0.6817101,0.7041889
109,0.736103,0.59524363,0.6459043,0.7035352,0.7032329,0.626238,0.5996944,0.7212303,0.72740024,0.7241225,0.7274983,0.68770665,0.72801834,0.6016442,0.5962906,0.600112,0.7362133,0.7056665,0.7472184
110,0.7423804,0.6002951,0.6509558,0.7098126,0.70828444,0.6312895,0.60474586,0.72750765,0.73425645,0.729174,0.7343545,0.69398403,0.7342957,0.6066957,0.60134214,0.6051635,0.74306947,0.710718,0.7534957
111,0.78204596,0.622303,0.6729636,0.74947816,0.7302922,0.6532973,0.6267536,0.76717323,0.7737677,0.7511819,0.7738657,0.7336496,0.7739613,0.62870353,0.6233499,0.62717134,0.78258073,0.7327258,0.79316133
112,0.7865633,0.62636817,0.67702883,0.7539955,0.7343574,0.6573625,0.6308189,0.77169055,0.77887857,0.75524706,0.77870625,0.7381669,0.7784786,0.63276875,0.6274151,0.63123655,0.78769165,0.73679096,0.79767865
113,0.78890973,0.6282165,0.6788772,0.756342,0.73620576,0.65921086,0.63266724,0.774037,0.78135175,0.75709546,0.78105277,0.74051344,0.78082514,0.6346171,0.62926346,0.6330849,0.7901648,0.7386393,0.80002517
114,0.8189132,0.6446456,0.6953062,0.7863454,0.75263476,0.67563987,0.64909625,0.7940153,0.81111705,0.7735244,0.81105626,0.7705169,0.81082857,0.65104604,0.64569247,0.6495139,0.81993014,0.7550683,0.83002853
115,0.82130605,0.64719826,0.6978588,0.78873813,0.75518745,0.67819256,0.65164894,0.796568,0.81398714,0.7760771,0.813449,0.77290964,0.81322134,0.6535987,0.64824516,0.6520666,0.82280016,0.75762093,0.8324213
116,0.8503893,0.66303885,0.71369946,0.8103729,0.77102804,0.6940331,0.66748947,0.81240857,0.84282035,0.7919177,0.8425323,0.80199295,0.84083223,0.6694394,0.6640858,0.6679072,0.8516334,0.7734616,0.8615046
117,0.85127455,0.6648022,0.7154628,0.8121363,0.7727914,0.6957965,0.6692529,0.8141719,0.8442301,0.7936811,0.8434175,0.80287814,0.8425956,0.6712028,0.66584915,0.6696705,0.8530432,0.7752249,0.86238986
118,0.86982244,0.68091536,0.7315759,0.82824934,0.7889045,0.7119096,0.685366,0.830285,0.8738574,0.8097942,0.87338346,0.83284414,0.8587087,0.6873158,0.68196225,0.6857836,0.8826704,0.791338,0.8828665
119,0.8708394,0.6819322,0.7325928,0.82926625,0.7899214,0.7129265,0.68638283,0.8313019,0.87378407,0.81081104,0.8727077,0.8321684,0.85972553,0.68833274,0.68297917,0.6868006,0.8825971,0.79235494,0.8838834
120,0.8702155,0.68130827,0.7319689,0.82864237,0.7892975,0.71230257,0.6857589,0.830678,0.87211907,0.81018716,0.87092805,0.8303887,0.85910165,0.68770885,0.6823552,0.68617666,0.88093215,0.791731,0.8832595
121,0.8840964,0.6951892,0.7458498,0.8425232,0.80317837,0.7261834,0.6996398,0.8445589,0.89806014,0.824068,0.8973224,0.85090953,0.8729825,0.7015897,0.69623613,0.7000575,0.90687317,0.8056119,0.8971403
122,0.88418597,0.6952788,0.74593943,0.84261286,0.80326796,0.72627306,0.69972944,0.8446485,0.89650357,0.82415766,0.8952006,0.8509991,0.87307215,0.7016793,0.6963257,0.7001471,0.9053166,0.8057015,0.89722997
123,0.89901567,0.71010846,0.76076907,0.85744256,0.8180977,0.7411028,0.71455914,0.8594782,0.9244055,0.8389874,0.91768616,0.8658288,0.88790184,0.71650904,0.7111554,0.71497685,0.9332186,0.82053125,0.9120597
124,0.898505,0.7095979,0.76025844,0.8569319,0.817587,0.7405921,0.7140485,0.85896754,0.9214627,0.8384767,0.9171755,0.8653182,0.8873912,0.71599835,0.7106448,0.71446615,0.93027574,0.82002056,0.91154903
125,0.9125953,0.72368807,0.7743487,0.87102216,0.83167726,0.75468236,0.7281387,0.8730578,0.94825095,0.85256696,0.9312657,0.8794084,0.9014814,0.7300886,0.724735,0.7285564,0.957064,0.8341108,0.9256393
126,0.9113419,0.7224347,0.7730953,0.8697688,0.8304239,0.753429,0.7268853,0.8718044,0.9438187,0.85131353,0.93001235,0.87815505,0.9002281,0.7288353,0.72348166,0.727303,0.9526317,0.83285743,0.9243859
127,0.908668,0.71976084,0.77042145,0.8670949,0.82774997,0.7507551,0.72421145,0.86913055,0.93843967,0.84863967,0.9273384,0.8754811,0.89755416,0.72616136,0.72080773,0.72462916,0.9473599,0.83018357,0.921712
128,0.9178409,0.72893375,0.77959436,0.8762678,0.8369229,0.759928,0.7333844,0.8783034,0.95541495,0.8578126,0.9365114,0.88465405,0.9067271,0.7353343,0.7299807,0.7338021,0.96515,0.8393565,0.9308849
129,0.9158256,0.72691846,0.77757907,0.8742525,0.83490765,0.7579127,0.7313691,0.8762882,0.9510349,0.8557973,0.93449605,0.88263875,0.90471184,0.733319,0.72796535,0.7317868,0.95994854,0.8373412,0.9288696
130,0.9235648,0.7346576,0.7853182,0.8819917,0.8426468,0.7656519,0.7391082,0.8840273,0.96120757,0.8635364,0.94223523,0.89037794,0.91245097,0.7410581,0.73570454,0.7395259,0.9710395,0.8450803,0.9366088
131,0.9211566,0.7322494,0.78291,0.8795834,0.8402386,0.7632437,0.7367,0.8816191,0.95919496,0.8611282,0.939827,0.88796973,0.91004276,0.7386499,0.73329633,0.7371177,0.9691694,0.8426721,0.9342005
132,0.91803026,0.72912306,0.77978367,0.87645715,0.83711225,0.76011735,0.73357373,0.8784928,0.9542041,0.85800195,0.9367007,0.88484335,0.90691644,0.7355236,0.73017,0.73399144,0.96327204,0.8395458,0.93107426
133,0.9151285,0.7262213,0.77688193,0.8735554,0.8342105,0.7572156,0.730672,0.87559104,0.9489222,0.85510015,0.93379897,0.8819417,0.90401465,0.73262185,0.7272683,0.73108965,0.95798016,0.83664405,0.9281725
134,0.9246233,0.73571616,0.7863767,0.8830502,0.8437053,0.7667104,0.7401668,0.8850858,0.9621976,0.864595,0.9432938,0.89143646,0.9135095,0.74211663,0.7367631,0.7405845,0.9720295,0.8461389,0.9376673
135,0.92239165,0.73348457,0.7841451,0.8808186,0.8414737,0.7644788,0.7379352,0.8828542,0.9604301,0.86236334,0.94106215,0.88920486,0.9112779,0.73988503,0.73453146,0.7383529,0.97039324,0.84390724,0.9354357
136,0.9193218,0.73041457,0.7810752,0.87774867,0.83840376,0.76140887,0.73486525,0.8797843,0.9563137,0.8592934,0.9379922,0.8861349,0.90820795,0.7368151,0.7314615,0.7352829,0.9653488,0.8408373,0.9323658
137,0.9242678,0.7353607,0.78602123,0.8826947,0.8433498,0.7663549,0.7398113,0.88473034,0.96206945,0.86423945,0.9429382,0.891081,0.913154,0.74176115,0.7364076,0.74022895,0.9719013,0.84578335,0.9373118
138,0.9217653,0.7328581,0.78351873,0.88019216,0.8408473,0.7638524,0.7373088,0.88222784,0.9598037,0.86173695,0.94043577,0.8885785,0.9106515,0.73925865,0.7339051,0.73772645,0.9697477,0.84328085,0.93480927
139,0.9284052,0.7394981,0.7901586,0.8868321,0.8474872,0.7704923,0.7439487,0.88886774,0.96606576,0.8683769,0.94707566,0.8952184,0.9172914,0.7458986,0.740545,0.74436635,0.97589767,0.8499208,0.9414492
140,0.9258843,0.73697716,0.78763777,0.8843112,0.84496635,0.7679714,0.7414278,0.8863468,0.96392274,0.865856,0.94455475,0.8926975,0.9147705,0.7433777,0.7380241,0.7418455,0.9738906,0.84739983,0.93892837
141,0.9228345,0.7339273,0.7845879,0.88126135,0.8419165,0.7649216,0.738378,0.883297,0.9608729,0.86280614,0.94150496,0.88964766,0.9117207,0.74032784,0.73497427,0.73879564,0.97092205,0.84435004,0.93587846
142,0.9292404,0.74033326,0.79099387,0.8876673,0.84832245,0.7713275,0.7447839,0.8897029,0.96692103,0.8692121,0.94791085,0.8960536,0.9181266,0.7467338,0.74138016,0.7452016,0.97675294,0.85075593,0.9422844
143,0.9267448,0.7378376,0.78849816,0.88517165,0.8458268,0.7688319,0.7422883,0.8872073,0.9647832,0.8667165,0.94541526,0.89355797,0.915631,0.74423814,0.7388845,0.74270594,0.97474325,0.84826034,0.9397888
144,0.9237683,0.7348611,0.7855217,0.8821952,0.84285027,0.7658554,0.7393117,0.8842308,0.96180665,0.8637399,0.9424387,0.8905814,0.91265446,0.7412616,0.73590803,0.7397294,0.97183853,0.8452838,0.9368123
145,0.92105335,0.73214614,0.7828068,0.87948024,0.84013534,0.76314044,0.7365968,0.88151586,0.9590622,0.86102504,0.9397238,0.8878665,0.9099395,0.73854667,0.7331931,0.73701453,0.9680605,0.8425689,0.93409735
146,0.92763764,0.7387305,0.7893911,0.8860645,0.8467197,0.7697248,0.74318117,0.8881002,0.96526915,0.8676094,0.94630814,0.89445084,0.9165238,0.745131,0.7397774,0.7435988,0.975101,0.8491532,0.9406817
147,0.9253891,0.73648196,0.7871425,0.883816,0.84447116,0.7674762,0.7409326,0.8858516,0.9634275,0.8653608,0.94405955,0.8922023,0.9142753,0.74288243,0.73752886,0.74135023,0.97331583,0.84690464,0.9384331
148,0.9226789,0.7337717,0.7844323,0.8811058,0.84176093,0.76476604,0.7382223,0.8831414,0.96071726,0.8626506,0.9413493,0.88949203,0.91156507,0.7401722,0.73481864,0.73864007,0.9706712,0.8441944,0.93572295
149,0.92022544,0.73131824,0.78197885,0.8786523,0.8393074,0.76231253,0.7357689,0.88068795,0.9576488,0.86019707,0.9388959,0.8870386,0.9091116,0.73771876,0.7323652,0.73618656,0.9665692,0.8417409,0.9332694
150,0.9179645,0.72905743,0.77971804,0.8763914,0.83704656,0.76005167,0.73350805,0.8784271,0.95365405,0.85793626,0.936635,0.8847777,0.90685076,0.7354579,0.73010427,0.7339257,0.9625365,0.8394801,0.9310086
151,0.9236376,0.7347304,0.78539103,0.8820645,0.8427197,0.7657247,0.7391811,0.88410014,0.9612376,0.8636093,0.94230807,0.8904508,0.9125238,0.741131,0.73577744,0.7395988,0.9710695,0.84515315,0.9366816
152,0.9217655,0.73285836,0.78351897,0.8801924,0.84084755,0.76385266,0.73730904,0.882228,0.9597464,0.86173725,0.940436,0.8885787,0.9106517,0.7392589,0.73390526,0.7377267,0.96955115,0.8432811,0.93480957
153,0.92839116,0.73948395,0.79014456,0.88681805,0.8474732,0.7704783,0.74393463,0.8888537,0.96586335,0.86836284,0.94706166,0.89520437,0.91727734,0.7458845,0.7405309,0.74435234,0.97569525,0.8499067,0.94143516
154,0.9263906,0.7374834,0.788144,0.8848175,0.84547263,0.7684777,0.74193406,0.8868531,0.96435827,0.8663622,0.945061,0.89320374,0.91527677,0.7438839,0.73853034,0.7423518,0.9741901,0.8479061,0.9394346
155,0.9239664,0.73505926,0.7857198,0.8823933,0.84304845,0.7660535,0.7395099,0.8844289,0.9620048,0.8639381,0.94263685,0.89077955,0.9128526,0.7414597,0.73610616,0.7399276,0.9718543,0.84548193,0.9370104
156,0.9330551,0.74414796,0.79480857,0.89148206,0.85213715,0.7751422,0.7485986,0.8935177,0.9703742,0.8730268,0.95172554,0.89986825,0.9219413,0.7505485,0.7451949,0.74901634,0.98020613,0.8545706,0.94609916
157,0.9310494,0.7421422,0.79280275,0.88947624,0.8501314,0.7731365,0.7465929,0.8915119,0.96900463,0.87102103,0.94971985,0.89786255,0.9199356,0.7485427,0.74318916,0.7470105,0.9788366,0.85256493,0.94409335
158,0.93869764,0.7497905,0.8004511,0.8971245,0.8577797,0.7807847,0.7542411,0.89916015,0.9760326,0.8786694,0.9573681,0.9055108,0.9275838,0.756191,0.7508374,0.7546588,0.9858646,0.8602132,0.95174164
159,0.93629247,0.7473853,0.7980459,0.89471936,0.85537446,0.77837956,0.75183594,0.896755,0.97428447,0.8762641,0.9549629,0.9031056,0.92517865,0.75378585,0.7484322,0.75225365,0.9841164,0.857808,0.9493365
160,0.9442279,0.75532067,0.8059813,0.9026547,0.86330986,0.78631496,0.75977135,0.90469044,0.9815146,0.8841995,0.9628983,0.911041,0.93311405,0.7617212,0.7563676,0.760189,0.9913464,0.8657434,0.9572718
161,0.9415451,0.752638,0.8032986,0.8999721,0.8606271,0.7836323,0.7570886,0.9020077,0.9795651,0.8815168,0.96021557,0.90835834,0.93043137,0.7590385,0.7536849,0.7575063,0.9893969,0.86306065,0.9545892
162,0.9383907,0.7494836,0.80014414,0.89681756,0.85747266,0.7804778,0.7539342,0.8988532,0.9764291,0.87836236,0.9570611,0.9052039,0.92727685,0.755884,0.7505304,0.75435185,0.9864051,0.85990626,0.95143473
163,0.93554956,0.74664235,0.7973029,0.8939764,0.85463154,0.77763665,0.75109303,0.896012,0.97358793,0.8755212,0.95422,0.9023627,0.9244357,0.7530429,0.74768925,0.7515107,0.98358935,0.8570651,0.9485935
164,0.94188935,0.7529822,0.80364275,0.90031624,0.86097133,0.78397644,0.7574328,0.90235186,0.97938126,0.881861,0.9605597,0.9087025,0.9307755,0.75938267,0.7540291,0.75785047,0.9892131,0.86340487,0.95493335
165,0.9393134,0.75040627,0.8010669,0.89774036,0.85839546,0.78140056,0.75485694,0.899776,0.97735184,0.8792851,0.9579839,0.9061266,0.92819965,0.7568068,0.7514532,0.75527465,0.98718613,0.860829,0.9523575
166,0.93643993,0.7475327,0.79819334,0.89486676,0.8555219,0.778527,0.7519834,0.89690244,0.9744783,0.8764116,0.9551104,0.9032531,0.9253261,0.75393325,0.7485797,0.75240105,0.98440975,0.85795546,0.94948393
167,0.9338668,0.74495965,0.79562026,0.8922937,0.85294884,0.7759539,0.74941033,0.8943293,0.9719052,0.8738385,0.9525373,0.90068,0.922753,0.7513602,0.7460066,0.749828,0.98183537,0.8553824,0.9469108
168,0.9314977,0.7425905,0.7932511,0.8899245,0.8505797,0.7735848,0.74704117,0.8919602,0.969536,0.8714693,0.95016813,0.89831084,0.9203839,0.748991,0.74363744,0.7474588,0.9794342,0.8530132,0.9445417
169,0.92932713,0.74042,0.7910806,0.887754,0.8484092,0.7714143,0.74487066,0.8897897,0.9673655,0.8692989,0.9479976,0.89614034,0.9182133,0.7468205,0.7414669,0.7452883,0.97721803,0.8508427,0.9423712
