,106,122,133,17,2,218,254,282,294,30,301,302,33,335,339,341,362,5,6
0,0.047190037,0.013729755,0.0066820756,0.025189124,0.017406441,0.031565476,0.014277771,0.03807454,0.045269527,0.052467074,0.04388528,0.0038663298,0.04326285,0.021750618,0.0015983768,0.006817125,0.05444068,0.039603826,0.057278123
1,-0.00037697787,-0.0006876391,-0.00078205747,-0.000596987,-0.0006748137,-0.0005163646,-0.0006172641,-0.00046813296,-0.00039618288,-0.0003242075,-0.00041002536,-0.0008102147,-0.00041624982,-0.00060917693,-0.00071159215,-0.0007574415,-0.0003044715,-0.00045284012,-0.0002760968
2,-0.0011287506,-0.0014158665,-0.0015153316,-0.0013487596,-0.0014265865,-0.001244592,-0.0013454915,-0.0012199056,-0.0011479554,-0.0010759801,-0.0011617978,-0.0015501238,-0.0011680223,-0.0013374041,-0.0014398197,-0.0014856689,-0.0010562439,-0.001204613,-0.0010278698
3,-0.001714805,-0.0018845691,-0.0018494324,-0.0019244197,-0.001844211,-0.0018111608,-0.0018815178,-0.0017999491,-0.0016965043,-0.0015932306,-0.0017478527,-0.0019462557,-0.0017540769,-0.0018243808,-0.0018242382,-0.0018886238,-0.0016319008,-0.0017102159,-0.0016139237
4,-0.0020385797,-0.0020769967,-0.0019552025,-0.0022248079,-0.0019499814,-0.0020418763,-0.0020739455,-0.0020840045,-0.0019034172,-0.0017856583,-0.00208116,-0.0020600301,-0.0020337128,-0.0020168084,-0.0020166659,-0.0020545558,-0.0018388139,-0.0019026436,-0.0020365492
5,-0.0021719767,-0.0021895177,-0.0020278185,-0.0023200351,-0.0020225968,-0.0021739344,-0.0022060038,-0.0022160623,-0.0020080232,-0.0019177163,-0.0022173724,-0.0021326456,-0.0021657713,-0.0021488667,-0.0021038793,-0.0021271715,-0.0019807357,-0.0020347019,-0.0023265756
6,-0.0022589625,-0.0022374035,-0.002075704,-0.0023679212,-0.0020704828,-0.0022609206,-0.0022929895,-0.0023030485,-0.0020619854,-0.0020047026,-0.002291147,-0.0021805312,-0.0022527569,-0.0022343043,-0.002151765,-0.002175057,-0.0020553342,-0.0021191207,-0.0025158587
7,-0.0023043007,-0.0022671975,-0.0021054978,-0.0023977149,-0.0021002768,-0.0023149075,-0.0023384935,-0.0023339838,-0.0020935903,-0.002058689,-0.0023209408,-0.0022103253,-0.0022828458,-0.0022640987,-0.002181559,-0.0022048512,-0.002088243,-0.002148915,-0.0026309453
8,-0.0023206258,-0.002283522,-0.0021218227,-0.0024140398,-0.0021166012,-0.0023443145,-0.0023548184,-0.0023503085,-0.002109915,-0.0020880965,-0.0023372658,-0.0022266502,-0.0022991705,-0.0022804234,-0.0021978836,-0.002221176,-0.0021053855,-0.0021652398,-0.0026941556
9,-0.0023265455,-0.0022894416,-0.0021277422,-0.0024199593,-0.002122521,-0.0023547313,-0.002360738,-0.002356228,-0.002115835,-0.0020985133,-0.0023431852,-0.00223257,-0.0023050902,-0.0022863431,-0.0022038035,-0.0022270957,-0.0021103248,-0.0021711595,-0.0027172994
10,-0.0023240915,-0.002286988,-0.0021252884,-0.0024175055,-0.002120067,-0.0023498705,-0.002358284,-0.0023537742,-0.0021121157,-0.0020936523,-0.0023407314,-0.0022301157,-0.002302636,-0.0022838889,-0.0022013492,-0.0022246419,-0.002105465,-0.0021687052,-0.0027081969
11,-0.0023146803,-0.0022775768,-0.002115877,-0.0024080942,-0.0021106557,-0.0023323249,-0.002348873,-0.002344363,-0.0020991594,-0.002076107,-0.0023313204,-0.0022207047,-0.002293225,-0.0022744779,-0.0021919382,-0.0022152308,-0.0020925081,-0.002159294,-0.0026708872
12,-0.0022994021,-0.002262299,-0.0021005992,-0.0023928157,-0.0020953778,-0.0023040941,-0.0023335947,-0.0023290846,-0.0020794298,-0.002047876,-0.0023160423,-0.002205426,-0.0022779468,-0.0022591997,-0.0021766599,-0.0021999525,-0.0020727785,-0.0021440159,-0.0026079249
13,-0.0022649614,-0.0022421032,-0.0020804037,-0.0023726209,-0.0020751825,-0.002266919,-0.0022989884,-0.0023088898,-0.0020540813,-0.0020107008,-0.002295029,-0.0021852313,-0.002257752,-0.0022390047,-0.0021564648,-0.0021797572,-0.0020474307,-0.0021238213,-0.0025253033
14,-0.0022168483,-0.0022179037,-0.0020562045,-0.002348421,-0.0020509835,-0.0022224726,-0.002254542,-0.0022646007,-0.0020242182,-0.0019662546,-0.0022594286,-0.0021610318,-0.002214309,-0.0021974046,-0.0021322654,-0.0021555577,-0.0020170824,-0.0020832396,-0.0024267228
15,-0.0021608227,-0.0021906206,-0.002028921,-0.0023211383,-0.0020237,-0.0021724382,-0.0022045074,-0.0022145663,-0.001990944,-0.0019162202,-0.0022034035,-0.0021319108,-0.002162882,-0.0021473707,-0.0021049823,-0.0021282742,-0.0019610568,-0.0020332055,-0.0023159059
16,-0.0021007492,-0.0021536276,-0.0019994797,-0.0022916964,-0.0019942585,-0.0021185074,-0.0021505768,-0.0021606358,-0.0019553597,-0.0018622896,-0.0021433297,-0.0020963266,-0.002102808,-0.0020934397,-0.0020755406,-0.0020988332,-0.0019009833,-0.001979275,-0.0021965874
17,-0.0020384318,-0.0020974432,-0.0019687803,-0.002245254,-0.001963559,-0.0020623233,-0.0020943922,-0.0021043522,-0.0019032691,-0.0018038446,-0.0020810117,-0.0020594937,-0.0020404905,-0.0020372556,-0.0020371121,-0.0020681338,-0.0018386656,-0.0019230902,-0.0020723925
18,-0.0019755287,-0.002040524,-0.0019376563,-0.0021866362,-0.0019324353,-0.0020054036,-0.002037473,-0.0020414493,-0.0018403663,-0.0017409418,-0.002018109,-0.0020223865,-0.0019775874,-0.001980336,-0.0019801934,-0.00203701,-0.001775763,-0.0018661711,-0.0019466688
19,-0.0019134822,-0.0019841988,-0.0019068383,-0.0021245899,-0.0018966885,-0.0019490785,-0.0019811476,-0.0019794025,-0.0017783197,-0.0016788952,-0.0019560624,-0.0019858473,-0.0019155411,-0.0019240106,-0.0019238679,-0.0019882538,-0.0017137162,-0.0018064216,-0.0018223409
20,-0.001802705,-0.0019295668,-0.001876931,-0.002022714,-0.0018614049,-0.0018944467,-0.001926516,-0.0018938596,-0.0017183112,-0.0016188868,-0.0018357525,-0.0019505633,-0.0018419769,-0.0018693786,-0.001869236,-0.0019336218,-0.001653708,-0.0017464134,-0.0017018239
21,-0.0016878803,-0.0018774865,-0.0018484072,-0.0019078891,-0.001822482,-0.0018124043,-0.0018744357,-0.0017790351,-0.0016612539,-0.0015618292,-0.0017209278,-0.0019170622,-0.0017271522,-0.0018172985,-0.0018171559,-0.0018815415,-0.0015966503,-0.0016893555,-0.0015869995
22,-0.001580124,-0.0018285882,-0.0018179562,-0.0018001331,-0.0017690342,-0.0017091978,-0.001810097,-0.0016712788,-0.0015993289,-0.0015083813,-0.0016131717,-0.0018857213,-0.0016193957,-0.0017684002,-0.0017682575,-0.0018326429,-0.0015076175,-0.0016359076,-0.0014792432
23,-0.001480371,-0.0017833016,-0.0017726695,-0.0017003798,-0.0017196345,-0.0016135573,-0.0017144568,-0.0015715257,-0.0014995759,-0.0014276005,-0.0015134184,-0.0018301598,-0.0015196428,-0.0017063693,-0.0017229707,-0.0017873562,-0.0014078642,-0.0015562332,-0.00137949
24,-0.0013891862,-0.0016973291,-0.0017287292,-0.0016091955,-0.0016745403,-0.0015260546,-0.0016269541,-0.0014803411,-0.0014083912,-0.0013364161,-0.0014222339,-0.0017576843,-0.001428458,-0.0016188665,-0.0016815583,-0.0017459438,-0.0013166794,-0.0014650486,-0.0012883054
25,-0.001285155,-0.0015976096,-0.0016771875,-0.0015051641,-0.001582991,-0.0014263351,-0.0015272347,-0.00137631,-0.0013043599,-0.0012323848,-0.0013182025,-0.0016750108,-0.0013244268,-0.0015191471,-0.0016215631,-0.0016674123,-0.0012126481,-0.0013610173,-0.0011842741
26,-0.0011976846,-0.0015132737,-0.0016027644,-0.0014176933,-0.0014955205,-0.0013419992,-0.0014428986,-0.0012888394,-0.0012168895,-0.001144914,-0.0012307317,-0.001605491,-0.0012369562,-0.0014348112,-0.0015372268,-0.0015830761,-0.0011251777,-0.001273547,-0.0010968031
27,-0.0011256683,-0.0014438962,-0.001530748,-0.0013456773,-0.001423504,-0.0012726217,-0.0013735214,-0.0012168231,-0.0011448732,-0.0010728979,-0.0011587153,-0.0015482535,-0.0011649401,-0.0013654338,-0.0014678497,-0.0015136987,-0.0010531615,-0.0012015306,-0.0010247872
28,-0.0009956607,-0.0013241352,-0.0014007402,-0.0012156698,-0.0012934965,-0.0011519062,-0.0012537604,-0.0010868154,-0.0010148655,-0.0009428902,-0.0010287081,-0.0014288974,-0.0010349324,-0.0012456728,-0.0013480886,-0.0013939379,-0.0009231539,-0.001071523,-0.0008947797
29,-0.000880809,-0.0012154117,-0.0012858887,-0.001100818,-0.0011786448,-0.0010370545,-0.0011482262,-0.00097196415,-0.0009000139,-0.0008280386,-0.00091385614,-0.0013140457,-0.0009200807,-0.0011352032,-0.0012425545,-0.0012845381,-0.00080830243,-0.00095667137,-0.0007799281
30,-0.00078143086,-0.0011160339,-0.0011865108,-0.0010014401,-0.0010792668,-0.0009376764,-0.0010501519,-0.00087258604,-0.00080063596,-0.00072866067,-0.0008144782,-0.0012146677,-0.00082070276,-0.0010358249,-0.001145994,-0.0011851599,-0.0007089244,-0.0008572933,-0.00068055
31,-0.00069619145,-0.0010307942,-0.0011012714,-0.0009162007,-0.0009940274,-0.00085243717,-0.0009649126,-0.0007873468,-0.00071539637,-0.00064342126,-0.00072923896,-0.0011294284,-0.00073546334,-0.00095058576,-0.0010607545,-0.0010999204,-0.00062368513,-0.000772054,-0.0005953106
32,-0.0006238495,-0.00095845206,-0.001028929,-0.0008438587,-0.00092168537,-0.0007800952,-0.0008925706,-0.0007150045,-0.00064305455,-0.00057107944,-0.00065689697,-0.0010570865,-0.00066312164,-0.0008782437,-0.0009884125,-0.0010275785,-0.0005513433,-0.00069971173,-0.00052296836
33,-0.00055230106,-0.00088690396,-0.000957381,-0.0007723103,-0.00085013703,-0.0007085466,-0.0008210221,-0.0006434561,-0.0005715062,-0.0004995308,-0.00058534846,-0.0009855379,-0.000591573,-0.0008066954,-0.0009168641,-0.00095603004,-0.00047979463,-0.0006281635,-0.0004514201
34,-0.000499532,-0.00083413464,-0.0009046115,-0.000719541,-0.00079736765,-0.0006557773,-0.0007682529,-0.0005906872,-0.00051873684,-0.00044676158,-0.0005325793,-0.0009327687,-0.0005388038,-0.000753926,-0.00086409465,-0.00090326084,-0.00042702528,-0.0005753941,-0.00039865103
35,-0.0004579066,-0.0007925092,-0.00086298597,-0.00067791564,-0.0007557425,-0.000614152,-0.00072662754,-0.00054906117,-0.00047711137,-0.00040513623,-0.000490954,-0.0008911432,-0.0004971784,-0.00071230053,-0.0008224694,-0.0008616353,-0.00038539985,-0.00053376873,-0.00035702536
36,-0.0004250534,-0.00075965596,-0.0008301331,-0.0006450625,-0.00072288926,-0.0005812991,-0.0006937744,-0.0005162083,-0.00044425833,-0.00037228334,-0.00045810099,-0.00085829035,-0.00046432536,-0.0006794475,-0.00078961655,-0.00082878233,-0.0003525469,-0.0005009157,-0.00032417278
37,-0.0003997374,-0.0007343404,-0.0008048172,-0.0006197466,-0.00069757353,-0.00055598305,-0.00066845864,-0.0004908926,-0.00041894268,-0.0003469673,-0.00043278496,-0.00083297427,-0.00043900954,-0.00065413176,-0.0007643005,-0.00080346625,-0.00032723087,-0.00047559972,-0.00029885667
38,-0.00038095805,-0.00071556057,-0.0007860377,-0.00060096715,-0.00067879405,-0.00053720357,-0.00064967887,-0.0004721129,-0.00040016297,-0.00032818783,-0.00041400548,-0.0008141947,-0.00042022983,-0.000635352,-0.00074552104,-0.00078468694,-0.0003084513,-0.00045682045,-0.0002800772
39,-0.00036778557,-0.00070238794,-0.0007728651,-0.00058779464,-0.0006656214,-0.0005240311,-0.00063650653,-0.00045894028,-0.00038699034,-0.0003150152,-0.0004008329,-0.00080102216,-0.00040705735,-0.00062217953,-0.0007323484,-0.00077151443,-0.0002952789,-0.00044364782,-0.00026690448
40,-0.00022839624,-0.000562999,-0.00063347607,-0.00044840554,-0.0005262321,-0.00038464175,-0.00049711735,-0.00031955118,-0.0002476013,-0.00017562602,-0.00026144373,-0.0006616333,-0.0002676681,-0.0004827905,-0.00059295923,-0.0006321253,-0.00015588965,-0.0003042585,-0.00012751523
41,-0.0001959214,-0.0005305241,-0.0006010011,-0.00041593055,-0.0004937573,-0.000352167,-0.0004646425,-0.00028707625,-0.00021512646,-0.00014315109,-0.00022896889,-0.0006291583,-0.00023519325,-0.00045031542,-0.00056048424,-0.0005996505,-0.0001234151,-0.0002717836,-9.5040385e-05
42,-0.00018360394,-0.0005182064,-0.0005886835,-0.0004036131,-0.00048143964,-0.0003398494,-0.00045232507,-0.00027475858,-0.0002028087,-0.0001308336,-0.0002166513,-0.00061684067,-0.00022287581,-0.00043799775,-0.0005481668,-0.0005873329,-0.00011109728,-0.00025946606,-8.272264e-05
43,-0.00017690379,-0.0005115068,-0.00058198365,-0.00039691303,-0.00047473985,-0.00033314925,-0.00044562476,-0.00026805897,-0.000196109,-0.00012413367,-0.00020995137,-0.00061014073,-0.00021617564,-0.00043129805,-0.0005414668,-0.0005806327,-0.000104397346,-0.00025276633,-7.602293e-05
44,-6.536469e-06,-0.00034113938,-0.00041161638,-0.00022654551,-0.0003043725,-0.00016278196,-0.00027525748,-9.7691634e-05,-2.5741718e-05,0.004623357,-3.9584003e-05,-0.00043977337,-4.5808254e-05,-0.00026093068,-0.00037109974,-0.00041026535,0.006597016,-8.239884e-05,0.009434458
45,0.0026996322,-0.00030760647,-0.0003780836,-0.00019301298,-0.0002708399,-0.0001292495,-0.00024172488,-6.4158776e-05,0.0007791221,0.007976633,-6.0512125e-06,-0.00040624078,-1.2275837e-05,-0.000227398,-0.00033756692,-0.00037673282,0.009950269,-4.8866234e-05,0.012787711
46,0.0039259307,-0.00029534358,-0.0003658204,-0.00018075008,-0.00025857682,-0.00011698652,-0.00022946174,-5.1895753e-05,0.002005428,0.0092029385,0.0006211847,-0.0003939775,-1.26659865e-08,-0.00021513466,-0.00032530384,-0.00036446963,0.011176575,-3.6603098e-05,0.014014017
47,0.026518393,-6.94187e-05,-0.00013989568,0.0045174845,-3.2652133e-05,0.010893848,-3.5370513e-06,0.017402899,0.024597902,0.03179541,0.023213658,-0.0001680528,0.022591222,0.0010789894,-9.937908e-05,-0.00013854496,0.03376903,0.018932167,0.036606517
48,0.031193357,-2.266936e-05,-9.314623e-05,0.009192437,0.0014097579,0.015568804,0.0043212436,0.02207784,0.029272832,0.036470372,0.027888607,-0.000121303274,0.02726617,0.005753938,-5.262956e-05,-9.1795475e-05,0.038444,0.023607109,0.041281443
49,0.04078127,0.007321026,0.00027332455,0.018780377,0.01099769,0.025156725,0.01390918,0.031665783,0.038860787,0.046058316,0.037476536,-2.5424062e-05,0.0368541,0.015341874,0.0043249913,0.00040838495,0.04803193,0.03319506,0.050869387
50,0.043761898,0.010301631,0.0032539368,0.021760989,0.013978314,0.028137352,0.016889822,0.034646403,0.041841406,0.04903892,0.04045717,0.00043822825,0.039834727,0.018322501,0.0073056035,0.0033890046,0.051012572,0.03617568,0.05384999
51,0.045756485,0.0122962035,0.005248487,0.023755576,0.015972883,0.030131932,0.01888438,0.036640976,0.043835964,0.051033508,0.042451743,0.002432786,0.041829307,0.020317059,0.009300169,0.005383592,0.053007137,0.038170237,0.055844586
52,0.047400426,0.013940167,0.006892469,0.025399502,0.017616827,0.031775873,0.020528328,0.03828493,0.04547995,0.052677464,0.04409569,0.004076749,0.043473255,0.021961015,0.010944139,0.0070275217,0.054651078,0.0398142,0.057488542
53,0.048760246,0.015299972,0.008252278,0.026759345,0.01897664,0.033135686,0.021888155,0.03964476,0.046839748,0.05403727,0.045455497,0.0054365806,0.044833075,0.02332085,0.012303945,0.00838735,0.0560109,0.041174028,0.058848377
54,0.049871724,0.016411427,0.009363756,0.027870808,0.020088125,0.034247164,0.022999618,0.040756214,0.047951203,0.05514874,0.04656699,0.006548032,0.04594453,0.024432298,0.013415415,0.009498827,0.057122376,0.042285483,0.059959795
55,0.050783765,0.01732349,0.010275774,0.02878284,0.021000162,0.03515921,0.023911651,0.041668262,0.04886325,0.056060787,0.047479015,0.0074600615,0.046856564,0.025344346,0.014327455,0.010410856,0.0580344,0.043197524,0.060871836
56,0.05155233,0.018092033,0.0110443495,0.02955142,0.021768734,0.035927784,0.024680223,0.042436805,0.049631815,0.05682933,0.048247587,0.008228634,0.04762515,0.026112895,0.01509602,0.011179417,0.05880298,0.043966096,0.061640408
57,0.06831288,0.034852583,0.027804889,0.046311956,0.03852928,0.05268831,0.04144078,0.05919737,0.06639238,0.07358988,0.06500815,0.024989191,0.06438568,0.04287346,0.031856563,0.027939986,0.075563535,0.06072664,0.07840097
58,0.07102087,0.037560616,0.030512929,0.049019966,0.0412373,0.055396322,0.044148784,0.061905395,0.069100395,0.07629791,0.067716144,0.02769721,0.0670937,0.045581494,0.03456459,0.030647982,0.07827152,0.063434646,0.08110899
59,0.07531414,0.041853834,0.034806162,0.053313207,0.04553054,0.059689578,0.048442025,0.06619862,0.07339361,0.08059114,0.0720094,0.031990446,0.07138695,0.04987471,0.038857844,0.03494123,0.082564786,0.06772789,0.08540222
60,0.077294305,0.043834012,0.036786307,0.0552934,0.047510702,0.06166975,0.050422195,0.06817879,0.07537378,0.08257132,0.07398957,0.0339706,0.073367134,0.051854875,0.040837992,0.036921415,0.08454497,0.069708064,0.08738239
61,0.07920795,0.045747656,0.038699955,0.057207037,0.049424347,0.063583404,0.052335862,0.07009244,0.077287436,0.08448498,0.07590321,0.03588426,0.075280756,0.053768527,0.04275163,0.038835052,0.08645861,0.0716217,0.08929603
62,0.081193626,0.047733355,0.04068566,0.059192702,0.05141002,0.06556906,0.054321524,0.07207812,0.07927312,0.08647065,0.077888876,0.037869956,0.07726643,0.05575422,0.044737328,0.04082072,0.08844426,0.0736074,0.09128174
63,0.08323912,0.04977886,0.04273116,0.06123821,0.05345552,0.067614555,0.05636702,0.074123636,0.08131863,0.08851614,0.07993436,0.039915446,0.07931194,0.057799716,0.046782825,0.042866226,0.09048979,0.0756529,0.09332721
64,0.08533937,0.05187911,0.044831414,0.06333844,0.055555772,0.069714814,0.05846725,0.07622388,0.08341886,0.090616405,0.08203462,0.042015698,0.08141218,0.059899967,0.04888307,0.044966463,0.09259002,0.07775314,0.09542747
65,0.09605995,0.062599674,0.055551965,0.074059024,0.06627633,0.08043538,0.069187835,0.086944446,0.09413944,0.101336956,0.09275518,0.05273628,0.09213275,0.07062055,0.059603628,0.055687044,0.103310585,0.08847368,0.106148034
66,0.110471234,0.07701096,0.06996326,0.088470325,0.08068766,0.09484668,0.083599135,0.10135573,0.10855072,0.11574824,0.1071665,0.06714755,0.10654406,0.08503182,0.07204908,0.07009834,0.1177219,0.10288501,0.12055935
67,0.113999724,0.08053945,0.073491774,0.091998816,0.08421613,0.09837519,0.08712764,0.10488427,0.11207925,0.11927676,0.11069499,0.070676066,0.11007255,0.088560335,0.07499093,0.073626846,0.12125039,0.10641351,0.12408784
68,0.13130268,0.09784239,0.0907947,0.10930176,0.10151908,0.11567812,0.10238465,0.12218715,0.12938213,0.13657968,0.12799793,0.087978974,0.12737548,0.10586324,0.08955388,0.09092976,0.13855332,0.12371643,0.14139076
69,0.13584659,0.102386296,0.09533861,0.113845676,0.10606301,0.12022205,0.10609871,0.12673108,0.1339261,0.14112361,0.13254184,0.09252292,0.1319194,0.11040719,0.09326792,0.09547371,0.14309725,0.12826034,0.1459347
70,0.14005433,0.10659404,0.09954633,0.11805339,0.11027072,0.12442976,0.10966934,0.13093883,0.13813382,0.14533134,0.13674958,0.096730635,0.13612713,0.114614904,0.096838534,0.09968142,0.14730498,0.13246806,0.15014242
71,0.14455329,0.111093014,0.10404531,0.12255235,0.11476967,0.12892874,0.11351018,0.1354378,0.14263277,0.1498303,0.14124854,0.10122961,0.14062609,0.11911388,0.10067938,0.10418038,0.15180394,0.13696703,0.15464137
72,0.16212425,0.12866397,0.12161626,0.14012334,0.13234065,0.1464997,0.12828052,0.15300873,0.16020373,0.16740124,0.15881951,0.11880058,0.15819706,0.13668483,0.1154497,0.12175134,0.1693749,0.154538,0.17221235
73,0.16772182,0.13426153,0.12721385,0.14572091,0.13793822,0.15209728,0.13286543,0.15860634,0.16580133,0.17299886,0.16441709,0.12439816,0.16379462,0.14164619,0.120034605,0.12734893,0.17497249,0.16013558,0.17780992
74,0.18883328,0.15439636,0.14832534,0.16683239,0.15904972,0.17320874,0.15051343,0.17971781,0.18691282,0.19411035,0.18552856,0.14550963,0.1849061,0.1592942,0.13768262,0.14846042,0.19608398,0.18124707,0.19892141
75,0.19528851,0.15959154,0.15478054,0.1732876,0.16550492,0.17966397,0.15570857,0.18617305,0.19336803,0.20056555,0.19198377,0.15196484,0.19136135,0.16448936,0.14287776,0.15491563,0.20253918,0.1877023,0.20537664
76,0.21282065,0.17416936,0.17231268,0.19081974,0.18303706,0.19701074,0.17028639,0.20370518,0.21090014,0.21809767,0.20951591,0.16949697,0.20889346,0.17906721,0.1574556,0.17094876,0.22007129,0.20523445,0.22290877
77,0.21996431,0.17993695,0.17945635,0.1979634,0.19018072,0.20277834,0.17605399,0.21084881,0.21804382,0.22524135,0.21665958,0.17664063,0.21603714,0.1848348,0.16322319,0.17671637,0.22721495,0.21237807,0.2300524
78,0.22710054,0.18580957,0.1865926,0.20509964,0.19731696,0.20865096,0.18192661,0.21798508,0.22518004,0.23237759,0.22379582,0.18377687,0.22317336,0.1907074,0.16909581,0.18258898,0.2343512,0.21951434,0.23718864
79,0.24497883,0.20064603,0.20447087,0.22297792,0.21519525,0.22348744,0.19676307,0.23586334,0.24305834,0.25025585,0.24167408,0.20165516,0.24105166,0.20554386,0.1839323,0.19742547,0.25222948,0.23739259,0.2550669
80,0.2531785,0.20727262,0.21267055,0.23117761,0.22339495,0.23011403,0.20338969,0.24406302,0.251258,0.25845551,0.24987377,0.20985486,0.24925132,0.21217047,0.1905589,0.20405205,0.26042917,0.2455923,0.26326656
81,0.2715684,0.22246669,0.23106043,0.24956746,0.24178477,0.24530809,0.21858375,0.26245287,0.26964787,0.2768454,0.2682636,0.2282447,0.2676412,0.22736453,0.20575297,0.21924616,0.27881902,0.26398215,0.28165647
82,0.28051254,0.22965781,0.24000458,0.2585116,0.25072894,0.25249922,0.22577487,0.27139702,0.27859205,0.28578955,0.2772078,0.23718883,0.27658534,0.23455568,0.21294408,0.22643726,0.28776318,0.27292627,0.2906006
83,0.29924327,0.24506642,0.25873527,0.27724236,0.26945966,0.26790783,0.24118344,0.29012775,0.29732275,0.30452025,0.29593852,0.25591958,0.29531607,0.24996428,0.22835271,0.24184589,0.30649388,0.291657,0.30933133
84,0.3090918,0.25295663,0.2685838,0.28709087,0.2793082,0.27579802,0.24907368,0.29997626,0.3071713,0.3143688,0.30578706,0.26576808,0.30516458,0.2578545,0.23624288,0.24973606,0.31634244,0.3015055,0.31917986
85,0.31914645,0.2610974,0.27863848,0.29714555,0.28936285,0.2839388,0.25721443,0.310031,0.31722596,0.3244235,0.31584173,0.2758228,0.31521928,0.26599526,0.24438371,0.25787684,0.32639712,0.3115602,0.3292345
86,0.34933004,0.28592128,0.30882207,0.32732916,0.31954646,0.30876267,0.28203833,0.34021455,0.3474095,0.35460705,0.3460253,0.30600634,0.34540287,0.29081908,0.26920754,0.28270072,0.35658067,0.3417438,0.35941815
87,0.36122647,0.29528877,0.3207185,0.33922553,0.3314429,0.3181302,0.29140583,0.35211098,0.35930598,0.3665035,0.35792172,0.3179028,0.35729927,0.30018663,0.27857506,0.29206824,0.36847714,0.35364026,0.3713146
88,0.38437742,0.31410435,0.34386945,0.3623765,0.35459387,0.33694577,0.31022143,0.3752619,0.38245693,0.38965443,0.3810727,0.34105372,0.38045025,0.31900224,0.29739064,0.31088382,0.39162806,0.37679118,0.3944655
89,0.3976298,0.3245746,0.3571218,0.37562886,0.3678462,0.347416,0.32069162,0.3885143,0.39570928,0.40290678,0.39432505,0.3543061,0.3937026,0.32947245,0.30786085,0.32135403,0.4048804,0.39004356,0.40771782
90,0.42381448,0.34579018,0.38330644,0.40181354,0.39403084,0.3686316,0.34190726,0.414699,0.42189395,0.4290915,0.4205097,0.38049078,0.4198873,0.35068804,0.32907647,0.34256965,0.43106508,0.4162282,0.4339025
91,0.4390391,0.35778028,0.39853114,0.4170382,0.4092555,0.3806217,0.35389733,0.4299236,0.4371186,0.44431612,0.43573433,0.39571542,0.4351119,0.36267814,0.34106657,0.35455975,0.44628978,0.43145287,0.4491272
92,0.4517393,0.36737427,0.41123134,0.42973837,0.42195567,0.3902157,0.36349136,0.44262382,0.4498188,0.45701635,0.44843453,0.40841562,0.4478121,0.37227216,0.35066056,0.36415374,0.45898995,0.44415307,0.46182737
93,0.4647242,0.37710875,0.4242162,0.4427232,0.43494058,0.39995015,0.3732258,0.45560873,0.46280366,0.47000122,0.4614194,0.4214005,0.46079698,0.3820066,0.36039504,0.3738882,0.47197482,0.45713794,0.4748123
94,0.47848076,0.3874377,0.43472925,0.45647976,0.44869706,0.4102791,0.3835547,0.46936518,0.47656012,0.4837577,0.47517592,0.43515703,0.47455353,0.3923355,0.3707239,0.38421708,0.48573133,0.47089446,0.48856878
95,0.50040424,0.4041643,0.45145592,0.4784033,0.47062066,0.4270057,0.40028137,0.49128878,0.49848375,0.5056812,0.49709946,0.45708054,0.49647704,0.40906215,0.3874506,0.40094376,0.5076549,0.492818,0.5104923
96,0.5157768,0.41554183,0.4628334,0.49377584,0.48599324,0.4383832,0.41165885,0.50666136,0.51385635,0.52105385,0.51247203,0.4724531,0.5118496,0.42043963,0.3988281,0.4123212,0.5230275,0.5081905,0.5258649
97,0.53180265,0.427437,0.47472858,0.5098017,0.50201905,0.45027837,0.42355403,0.52268714,0.52988213,0.5370797,0.5284979,0.4884789,0.5278754,0.43233478,0.41072327,0.42421642,0.5390533,0.52421635,0.54189074
98,0.54879266,0.4400556,0.48734722,0.52679175,0.519009,0.46289703,0.43617266,0.5396772,0.54687214,0.5540697,0.54548794,0.505469,0.5448655,0.44495347,0.42334187,0.43683505,0.5560433,0.5412064,0.55888075
99,0.5667257,0.45336652,0.50065815,0.54472476,0.53694206,0.47620794,0.44948357,0.55761015,0.56480515,0.5720027,0.5634209,0.52340204,0.5627985,0.4582644,0.43665278,0.45014596,0.57397634,0.5558246,0.57681376
100,0.5941332,0.4739871,0.5212787,0.5721323,0.5643496,0.49682844,0.47010416,0.5850177,0.5922127,0.59711486,0.5908284,0.5508095,0.59020597,0.4788849,0.4572733,0.47076654,0.60138386,0.57644516,0.6042213
101,0.6142504,0.48873776,0.5360294,0.59224945,0.5844668,0.5115792,0.48485485,0.6051349,0.61232984,0.6118655,0.61094564,0.5709267,0.61032325,0.4936356,0.47202402,0.48551726,0.621501,0.5911959,0.62433845
102,0.6442943,0.5111201,0.5584117,0.6222935,0.6095718,0.53396153,0.5072372,0.6351788,0.6423738,0.63424784,0.6409896,0.6009706,0.64036715,0.516018,0.49440637,0.5078996,0.651545,0.6135782,0.6543824
103,0.66159976,0.52431875,0.5716104,0.6395988,0.6227704,0.54716015,0.5204358,0.6522421,0.65967923,0.64744645,0.658295,0.61827606,0.6576726,0.5292166,0.507605,0.5210982,0.6688505,0.62677675,0.6716878
104,0.6808968,0.5403326,0.58762413,0.65889597,0.6387842,0.56317395,0.5364497,0.6682559,0.67897636,0.6634603,0.6775921,0.6375732,0.67696965,0.54523045,0.5236188,0.53711206,0.6881475,0.6427906,0.69098496
105,0.69382644,0.5510575,0.59834915,0.67097884,0.64950925,0.573899,0.5471746,0.6789809,0.69190586,0.6741852,0.69052166,0.65050274,0.68989927,0.55595535,0.53434384,0.547837,0.70107704,0.6535156,0.70391446
106,0.70702547,0.5620058,0.60929745,0.6819272,0.66045755,0.5848473,0.5581229,0.6899291,0.7051049,0.6851335,0.7037206,0.6637017,0.70309824,0.56690365,0.54529214,0.55878526,0.714276,0.6644638,0.71711344
107,0.7271324,0.5786893,0.6259809,0.69861066,0.6771411,0.60153073,0.57480633,0.70661265,0.7252118,0.70181704,0.72382766,0.68380874,0.72320515,0.58358717,0.5619756,0.5754688,0.73438305,0.6811474,0.7372204
108,0.7412542,0.59040314,0.6376948,0.71032447,0.6888549,0.6132446,0.5865202,0.7183265,0.7393336,0.7135309,0.7379494,0.69793046,0.737327,0.595301,0.57368946,0.58718264,0.7485048,0.6928612,0.75134224
109,0.76199204,0.6076084,0.6549,0.72752976,0.7060601,0.63044983,0.60372543,0.73553175,0.76007146,0.73073614,0.7586872,0.71866834,0.7580648,0.6125063,0.5908947,0.6043879,0.76924264,0.7100665,0.77208
110,0.7760181,0.61924267,0.6665343,0.73916405,0.71769434,0.64208406,0.6153597,0.74716604,0.7740976,0.7423704,0.7727134,0.7326944,0.77209085,0.62414056,0.602529,0.6160221,0.78326875,0.7217008,0.78610617
111,0.795279,0.63522094,0.6825126,0.75514233,0.7336726,0.65806234,0.63133806,0.7631443,0.7933585,0.7583487,0.79197425,0.75195533,0.78824466,0.6401189,0.6185072,0.6320004,0.80252963,0.73767906,0.8053672
112,0.8084833,0.64617395,0.69346565,0.76609534,0.7446257,0.66901535,0.642291,0.7740973,0.8065627,0.7693017,0.8051786,0.76515955,0.79919773,0.65107185,0.6294603,0.64295346,0.8157339,0.748632,0.81857127
113,0.8202562,0.65593797,0.7032296,0.77585936,0.7543897,0.6787794,0.6520551,0.78386134,0.81833565,0.7790657,0.81695145,0.7769325,0.80896175,0.6608359,0.63922423,0.6527175,0.82750684,0.7583961,0.83034426
114,0.83615655,0.6691283,0.71641994,0.7890497,0.76758003,0.6919697,0.66524535,0.7970517,0.83423597,0.792256,0.8328517,0.7928328,0.8221521,0.6740262,0.6524146,0.6659078,0.8434072,0.77158636,0.8462446
115,0.8472509,0.6783327,0.7256244,0.79825413,0.7767844,0.70117414,0.67444974,0.8062561,0.8453303,0.80146044,0.8439461,0.8039272,0.8313565,0.6832306,0.661619,0.6751122,0.8545015,0.78079075,0.8573389
116,0.86064583,0.68952715,0.7368188,0.8094485,0.7879788,0.71236855,0.6856441,0.8174505,0.858825,0.8126549,0.8574409,0.817422,0.8425509,0.6944249,0.67281336,0.68630654,0.8679963,0.79198515,0.87083364
117,0.8681999,0.6970812,0.7443727,0.8170026,0.7955329,0.71992254,0.6931982,0.8250045,0.8679288,0.82020885,0.86654466,0.8265256,0.85010487,0.701979,0.6803674,0.6938606,0.8771,0.79953915,0.8799374
118,0.8776248,0.7065061,0.7537977,0.82642746,0.8049578,0.7293475,0.70262307,0.83442944,0.8792907,0.8296338,0.8779065,0.8378875,0.85952985,0.7114039,0.68979234,0.7032855,0.8884619,0.80896413,0.8912993
119,0.8835975,0.7124787,0.75977033,0.8324,0.8109304,0.73532003,0.70859575,0.84040207,0.88648707,0.8356064,0.8851029,0.8450839,0.8655024,0.7173765,0.69576496,0.70925814,0.89565825,0.8149367,0.8984957
120,0.88795716,0.71683836,0.76413,0.8367598,0.8152901,0.7396798,0.7129555,0.8447618,0.89174336,0.83996624,0.8903591,0.8503402,0.86986214,0.72173625,0.7001247,0.71361786,0.9009145,0.8192965,0.9037519
121,0.89500636,0.7238877,0.7711792,0.84380907,0.82233936,0.74672896,0.72000474,0.85181093,0.90024096,0.8470153,0.8988567,0.8588378,0.87691134,0.7287855,0.7071738,0.720667,0.9094121,0.8263457,0.9122495
122,0.8991279,0.72800916,0.7753007,0.8479305,0.8264608,0.7508505,0.72412616,0.8559325,0.9052052,0.8511369,0.90382093,0.863802,0.8810329,0.73290694,0.7112954,0.7247886,0.9143763,0.8304672,0.9172138
123,0.9048939,0.7337751,0.7810667,0.8536965,0.8322269,0.75661653,0.7298922,0.86169845,0.91215676,0.85690284,0.91058594,0.8707536,0.8867989,0.738673,0.7170614,0.7305546,0.921328,0.8362332,0.9241654
124,0.907965,0.7368463,0.78413785,0.85676765,0.835298,0.75968766,0.7329633,0.8647696,0.9158544,0.85997397,0.913657,0.8744512,0.88987,0.7417441,0.7201325,0.7336257,0.92502564,0.8393043,0.927863
125,0.91262764,0.7415088,0.7888004,0.8614302,0.8399606,0.76435024,0.7376259,0.86943215,0.9214766,0.86463654,0.91831964,0.8800734,0.8945325,0.7464067,0.7247951,0.7382883,0.9306478,0.8439669,0.93348515
126,0.9148493,0.7437306,0.7910221,0.8636518,0.8421823,0.766572,0.7398476,0.87165385,0.92415,0.8668583,0.92054135,0.8827469,0.8967542,0.74862844,0.7270168,0.74051,0.9333212,0.84618866,0.93615866
127,0.9156242,0.7445056,0.79179704,0.8644268,0.8429572,0.7673469,0.7406226,0.87242883,0.92508537,0.8676333,0.9213163,0.8836822,0.8975292,0.74940336,0.7277917,0.7412849,0.9342566,0.8469636,0.93709403
128,0.91897917,0.7478605,0.795152,0.8677818,0.84631217,0.7707019,0.7439775,0.87578386,0.92913085,0.8709882,0.92467135,0.8877277,0.9008841,0.7527583,0.7311467,0.7446399,0.938302,0.8503185,0.94113946
129,0.9203985,0.7492798,0.7965714,0.8692011,0.8477315,0.7721212,0.7453968,0.8772031,0.9308378,0.8724075,0.92609054,0.88943464,0.9023035,0.75417763,0.73256606,0.74605924,0.94000894,0.8517378,0.9428464
130,0.9229143,0.7517957,0.7990872,0.87171704,0.8502474,0.7746371,0.7479127,0.8797191,0.9338724,0.8749234,0.92860657,0.8924692,0.9048193,0.75669354,0.735082,0.7485751,0.9430436,0.8542537,0.94588095
131,0.923886,0.7527674,0.8000589,0.8726887,0.85121906,0.7756087,0.7488843,0.88069075,0.93504006,0.8758951,0.9295781,0.8936369,0.905791,0.7576651,0.73605365,0.74954677,0.9442112,0.8552254,0.94704866
132,0.92387366,0.75275487,0.80004656,0.8726762,0.8512066,0.7755963,0.748872,0.88067824,0.93502617,0.8758826,0.9295657,0.8936231,0.9057787,0.75765276,0.73604125,0.74953437,0.94419736,0.855213,0.94703484
133,0.92413783,0.75301915,0.80031073,0.8729405,0.85147077,0.77586055,0.74913615,0.8809425,0.9353452,0.87614685,0.92982996,0.89394206,0.90604275,0.757917,0.7363054,0.74979854,0.94451636,0.8554772,0.9473538
134,0.9268103,0.7556916,0.80298316,0.87561303,0.8541433,0.778533,0.7518086,0.88361496,0.93856794,0.87881935,0.9325024,0.8971649,0.9087153,0.76058936,0.73897785,0.752471,0.9477391,0.85814965,0.9505765
135,0.9276671,0.75654835,0.80384,0.8764697,0.8550001,0.77938974,0.75266534,0.8844717,0.93959635,0.8796761,0.9333592,0.89819324,0.90957206,0.76144624,0.7398346,0.7533278,0.94876754,0.8590064,0.95160496
136,0.92744386,0.7563252,0.8036167,0.87624645,0.85477686,0.7791665,0.7524422,0.8842485,0.93932825,0.8794529,0.9331359,0.89792514,0.9093489,0.761223,0.7396114,0.75310457,0.9484995,0.85878325,0.9513369
137,0.92914337,0.75802475,0.80531627,0.877946,0.85647637,0.78086615,0.75414175,0.885948,0.9413782,0.88115245,0.9348355,0.899975,0.9110484,0.7629225,0.74131095,0.75480413,0.9505493,0.86048275,0.9533867
138,0.9296296,0.7585109,0.8058025,0.8784323,0.8569627,0.78135234,0.754628,0.8864343,0.94196135,0.88163865,0.9353216,0.9005583,0.9115346,0.7634087,0.74179727,0.7552904,0.95113254,0.860969,0.95397
139,0.931311,0.76019233,0.8074839,0.88011366,0.858644,0.7830338,0.75630933,0.88811564,0.94399,0.8833201,0.9370031,0.902435,0.913216,0.7650901,0.74347854,0.7569718,0.9531612,0.86265045,0.9559986
140,0.93172187,0.7606031,0.8078947,0.88052446,0.8590548,0.7834445,0.7567201,0.88852644,0.94448173,0.8837308,0.9374139,0.90284574,0.9136268,0.76550096,0.7438894,0.7573826,0.9536529,0.8630612,0.95649034
141,0.9313011,0.76018244,0.8074741,0.88010377,0.8586341,0.7830239,0.75629944,0.8881058,0.94397575,0.8833102,0.93699324,0.902425,0.9132061,0.7650803,0.7434687,0.7569619,0.95314693,0.8626405,0.95598435
142,0.93301314,0.7618944,0.8091859,0.8818157,0.86034614,0.7847358,0.7580114,0.8898178,0.9460408,0.88502216,0.93870515,0.90413696,0.914918,0.7667922,0.74518067,0.7586738,0.95521206,0.8643524,0.9580495
143,0.93338066,0.7622619,0.8095535,0.88218325,0.86071354,0.7851033,0.758379,0.89018524,0.94648045,0.8853896,0.93907267,0.9045045,0.9152855,0.76715976,0.7455482,0.7590413,0.9556517,0.86472,0.9584891
144,0.9329471,0.7618284,0.80912006,0.8817498,0.86028016,0.7846698,0.7579454,0.88975173,0.9459589,0.8849562,0.9386392,0.90407103,0.91485214,0.7667262,0.74511474,0.7586079,0.9551301,0.8642865,0.9579676
145,0.93282086,0.7617021,0.80899376,0.8816235,0.86015385,0.7845435,0.7578192,0.8896255,0.94580716,0.8848298,0.938513,0.9039448,0.91472584,0.76659995,0.7449884,0.7584816,0.9549784,0.8641602,0.95781577
146,0.93456537,0.7634467,0.81073827,0.883368,0.86189836,0.7862881,0.75956374,0.89137006,0.9479113,0.8865743,0.9402575,0.9056893,0.9164704,0.7683445,0.74673295,0.7602262,0.9570825,0.86590475,0.9599199
147,0.934978,0.7638593,0.8111509,0.88378066,0.86231095,0.7867007,0.7599763,0.89178264,0.94840527,0.886987,0.9406701,0.9061019,0.916883,0.76875716,0.74714553,0.7606387,0.95757645,0.86631733,0.9604139
148,0.934602,0.7634832,0.81077486,0.8834046,0.86193496,0.7863246,0.7596003,0.8914066,0.9479528,0.886611,0.940294,0.9057259,0.91650695,0.76838106,0.7467695,0.76026267,0.95712405,0.8659413,0.9599614
149,0.93451196,0.7633932,0.8106848,0.88331455,0.8618449,0.78623456,0.7595102,0.8913166,0.94784456,0.8865209,0.94020396,0.9056358,0.9164168,0.768291,0.7466794,0.7601726,0.9570158,0.8658512,0.9598532
150,0.9345271,0.7634084,0.8107,0.8833298,0.86186016,0.7862499,0.7595255,0.89133185,0.9478632,0.8865361,0.9402192,0.90565103,0.9164322,0.76830626,0.7466947,0.7601879,0.95703435,0.8658665,0.9598718
151,0.93610567,0.7649869,0.81227845,0.88490826,0.86343056,0.78782827,0.7611039,0.8929103,0.9497669,0.8880147,0.9417976,0.9072295,0.91801065,0.76988465,0.7482732,0.7617664,0.95893794,0.867445,0.9617755
152,0.9365268,0.76540816,0.81260675,0.8853295,0.8637563,0.78824955,0.7615252,0.8933314,0.9502716,0.8883404,0.94221884,0.90765077,0.9184318,0.770306,0.7486944,0.76218766,0.95944273,0.8678661,0.9622802
153,0.93793863,0.7668199,0.81369144,0.8867412,0.86484104,0.7896614,0.762937,0.89474326,0.95181435,0.8894252,0.94363075,0.90906256,0.9198436,0.7717178,0.75010616,0.7635994,0.9609811,0.86927795,0.9639838
154,0.93823427,0.76711553,0.8139208,0.8870368,0.8650703,0.78995687,0.7632325,0.89503884,0.9521012,0.8896545,0.94392633,0.9093582,0.92013925,0.77201337,0.75040174,0.763895,0.96126777,0.86957353,0.96433675
155,0.9377929,0.7666741,0.8135808,0.8865955,0.8647304,0.7895155,0.76279116,0.8945975,0.9516714,0.88931465,0.9434849,0.9089168,0.9196978,0.77157193,0.7499604,0.7634536,0.9608381,0.86913216,0.9638056
156,0.93964136,0.7685226,0.8150013,0.888444,0.8661509,0.791364,0.7646397,0.89644605,0.9534736,0.8907351,0.94533336,0.91076523,0.92154634,0.7734204,0.7518089,0.76530206,0.96264017,0.8709807,0.96603566
157,0.9399843,0.7688656,0.81526756,0.888787,0.8664171,0.791707,0.7649826,0.896789,0.9538061,0.8910013,0.9456764,0.9111082,0.9218893,0.7737634,0.75215185,0.7656451,0.9629728,0.8713237,0.966445
158,0.9413166,0.7701979,0.81629056,0.8901192,0.86744016,0.7930392,0.76631486,0.8981212,0.95510536,0.8920244,0.9470087,0.9124405,0.9232215,0.7750957,0.7534841,0.76697725,0.964272,0.8726559,0.9680535
159,0.94145507,0.77033633,0.8163993,0.8902577,0.8675489,0.7931778,0.7664534,0.8982597,0.955239,0.8921331,0.9471472,0.912579,0.92336005,0.7752342,0.7536226,0.76711583,0.9644056,0.8727944,0.96821684
160,0.94276965,0.77165085,0.81740856,0.89157224,0.8685581,0.7944923,0.7677679,0.8995742,0.95652103,0.8931423,0.94846165,0.9138935,0.9246746,0.7765487,0.7549371,0.7684303,0.9656877,0.87410897,0.9698042
161,0.9428312,0.7717125,0.8174583,0.89163375,0.8686078,0.7945538,0.7678295,0.89963585,0.9565795,0.893192,0.9485232,0.91395503,0.9247362,0.7766102,0.75499874,0.7684919,0.9657461,0.8741705,0.96987456
162,0.94199395,0.7708752,0.81681365,0.89079654,0.8679632,0.79371655,0.7669923,0.8987985,0.95576435,0.8925474,0.947686,0.9131178,0.9238989,0.77577305,0.75416154,0.7676547,0.96493095,0.8733333,0.96886677
163,0.94156116,0.7704425,0.81648046,0.89036375,0.86763006,0.7932839,0.76655954,0.8983658,0.95534307,0.89221424,0.9472533,0.9126851,0.92346615,0.77534026,0.7537287,0.76722187,0.9645098,0.87290055,0.96834594
164,0.9430268,0.7719081,0.8176066,0.89182943,0.8687562,0.7947495,0.7680251,0.8998314,0.956772,0.89334035,0.9487189,0.9141508,0.9249317,0.7768059,0.7551943,0.76868755,0.96593875,0.8743662,0.9701144
165,0.9432009,0.7720822,0.8177427,0.8920035,0.86889225,0.7949236,0.76819927,0.9000056,0.95694035,0.8934764,0.9488931,0.9143248,0.92510587,0.77698004,0.75536853,0.76886165,0.966107,0.8745404,0.97032076
166,0.94259626,0.7714776,0.81727713,0.8913989,0.8684267,0.7943189,0.76759464,0.89940095,0.95635164,0.89301085,0.94828826,0.9137202,0.92450124,0.77637535,0.7547638,0.76825696,0.9655183,0.87393564,0.96959287
167,0.9423182,0.7711994,0.81706303,0.8911208,0.86821264,0.79404086,0.76731646,0.8991228,0.95608103,0.8927968,0.94801027,0.9134421,0.9242232,0.7760973,0.7544858,0.76797897,0.9652477,0.8736575,0.96925825
168,0.94216377,0.771045,0.8169442,0.89096636,0.8680938,0.7938864,0.767162,0.8989684,0.9559307,0.89267796,0.9478559,0.91328764,0.92406875,0.77594286,0.7543313,0.7678245,0.96509737,0.873503,0.96907234
169,0.94210404,0.77098536,0.8168983,0.89090675,0.8680479,0.79382676,0.76710236,0.8989087,0.95587283,0.89263207,0.94779617,0.913228,0.924009,0.7758832,0.75427157,0.7677648,0.9650394,0.8734434,0.96900064
