,106,122,133,17,2,218,254,282,294,30,301,302,33,335,339,341,362,5,6,106,122,133,17,2,218,254,282,294,30,301,302,33,335,339,341,362,5,6
0,0.048516285,0.02924854,0.028010134,0.04126553,0.033492256,0.039795335,0.032905284,0.04718272,0.041264903,0.048998933,0.04714537,0.025743406,0.04748505,0.032321747,0.02758148,0.026410434,0.045859393,0.043598387,0.050108846,0.048516285,0.02924854,0.028010134,0.04126553,0.033492256,0.039795335,0.032905284,0.04718272,0.041264903,0.048998933,0.04714537,0.025743406,0.04748505,0.032321747,0.02758148,0.026410434,0.045859393,0.043598387,0.050108846
1,0.0062485225,-0.0001301922,-0.00014257636,-1.0022334e-05,-8.775515e-05,-2.472434e-05,-9.362472e-05,0.004914958,-1.0028444e-05,0.00673116,0.0048776083,-0.00016524357,0.0052172914,-9.9460165e-05,-0.00014686286,-0.00015857327,0.0035916306,0.0013306364,0.007841084,0.0062485225,-0.0001301922,-0.00014257636,-1.0022334e-05,-8.775515e-05,-2.472434e-05,-9.362472e-05,0.004914958,-1.0028444e-05,0.00673116,0.0048776083,-0.00016524357,0.0052172914,-9.9460165e-05,-0.00014686286,-0.00015857327,0.0035916306,0.0013306327,0.007841084
2,-0.00017180522,-0.0003644827,-0.0003768668,-0.0002443128,-0.0003220456,-0.0002590148,-0.00032791516,-0.00018514085,-0.0002443189,-0.00016697885,-0.00018551435,-0.0003987675,-0.00018211754,-0.00033375062,-0.00038115334,-0.00039286373,-0.00019837417,-0.0002209841,-0.00015587962,-0.00017180522,-0.0003644827,-0.0003768668,-0.0002443128,-0.0003220456,-0.0002590148,-0.00032791516,-0.00018514085,-0.0002443189,-0.00016697885,-0.00018551435,-0.0003987675,-0.00018211754,-0.00033375062,-0.00038115334,-0.00039286373,-0.00019837417,-0.00022098412,-0.00015587962
3,-0.00030185818,-0.00041409303,-0.00040868364,-0.00037436574,-0.00040349623,-0.00038906778,-0.00041404553,-0.0003151938,-0.00037437186,-0.0002970318,-0.00031556733,-0.00040168347,-0.0003121705,-0.00041329995,-0.0004148559,-0.00041376072,-0.00032842712,-0.00035103707,-0.0002859326,-0.00030185818,-0.00041409303,-0.00040868364,-0.00037436574,-0.00040349623,-0.00038906778,-0.00041404553,-0.0003151938,-0.00037437186,-0.0002970318,-0.00031556733,-0.00040168347,-0.0003121705,-0.00041329995,-0.0004148559,-0.00041376072,-0.00032842712,-0.00035103707,-0.0002859326
4,-0.0003775414,-0.00041578937,-0.00041038,-0.00040324483,-0.00040519258,-0.0004130683,-0.00041574187,-0.00039087702,-0.00039770335,-0.00037271497,-0.0003912505,-0.00040337982,-0.0003878537,-0.0004149963,-0.00041655227,-0.00041545706,-0.0003966426,-0.0004049166,-0.0003616158,-0.0003775414,-0.00041578937,-0.00041038,-0.00040324483,-0.00040519258,-0.0004130683,-0.00041574187,-0.00039087702,-0.00039770335,-0.00037271497,-0.0003912505,-0.00040337982,-0.0003878537,-0.0004149963,-0.00041655227,-0.00041545706,-0.0003966426,-0.0004049166,-0.0003616158
5,-0.0004000049,-0.0004168334,-0.00041142403,-0.00040428888,-0.00040623665,-0.00041411235,-0.00041678592,-0.00040308025,-0.0003987474,-0.00040365412,-0.00039963893,-0.0004044239,-0.00040142733,-0.00041604033,-0.0004175963,-0.0004165011,-0.00039768664,-0.00040596063,-0.00039839817,-0.0004000049,-0.0004168334,-0.00041142403,-0.00040428888,-0.00040623665,-0.00041411235,-0.00041678592,-0.00040308025,-0.0003987474,-0.00040365412,-0.00039963893,-0.0004044239,-0.00040142733,-0.00041604033,-0.0004175963,-0.0004165011,-0.00039768664,-0.00040596063,-0.00039839817
6,-0.00040068233,-0.00041751086,-0.00041210145,-0.00040496627,-0.00040691407,-0.00041478977,-0.00041746337,-0.00040375767,-0.00039942484,-0.0004043315,-0.00040031638,-0.00040510128,-0.00040210478,-0.00041671778,-0.00041827373,-0.00041717853,-0.0003983641,-0.00040663808,-0.0003990756,-0.00040068233,-0.00041751086,-0.00041210145,-0.00040496627,-0.00040691407,-0.00041478977,-0.00041746337,-0.00040375767,-0.00039942484,-0.0004043315,-0.00040031638,-0.00040510128,-0.00040210478,-0.00041671778,-0.00041827373,-0.00041717853,-0.0003983641,-0.00040663808,-0.0003990756
7,-0.00040114272,-0.00041797123,-0.0004125618,-0.00040542666,-0.0004073744,-0.00041525014,-0.00041792373,-0.00040421807,-0.00039988518,-0.0004047919,-0.00040077674,-0.00040556164,-0.00040256514,-0.00041717812,-0.0004187341,-0.0004176389,-0.00039882446,-0.0004070984,-0.00039953596,-0.00040114272,-0.00041797123,-0.0004125618,-0.00040542666,-0.0004073744,-0.00041525014,-0.00041792373,-0.00040421807,-0.00039988518,-0.0004047919,-0.00040077674,-0.00040556164,-0.00040256514,-0.00041717812,-0.0004187341,-0.0004176389,-0.00039882446,-0.0004070984,-0.00039953596
8,-0.00040146828,-0.00041829678,-0.0004128874,-0.00040575225,-0.00040770002,-0.00041557572,-0.00041824928,-0.0004045436,-0.00040021076,-0.0004051175,-0.0004011023,-0.00040588726,-0.00040289073,-0.0004175037,-0.00041905968,-0.00041796447,-0.00039915,-0.000407424,-0.00039986154,-0.00040146828,-0.00041829678,-0.0004128874,-0.00040575225,-0.00040770002,-0.00041557572,-0.00041824928,-0.0004045436,-0.00040021076,-0.0004051175,-0.0004011023,-0.00040588726,-0.00040289073,-0.0004175037,-0.00041905968,-0.00041796447,-0.00039915,-0.000407424,-0.00039986154
9,-0.0004017065,-0.00041853503,-0.00041312564,-0.00040599046,-0.00040793823,-0.00041581396,-0.00041848753,-0.00040478184,-0.000400449,-0.0004053557,-0.00040134054,-0.00040612547,-0.0004031289,-0.00041774195,-0.00041929792,-0.00041820272,-0.00039938826,-0.00040766224,-0.0004000998,-0.0004017065,-0.00041853503,-0.00041312564,-0.00040599046,-0.00040793823,-0.00041581396,-0.00041848753,-0.00040478184,-0.000400449,-0.0004053557,-0.00040134054,-0.00040612547,-0.0004031289,-0.00041774195,-0.00041929792,-0.00041820272,-0.00039938826,-0.00040766224,-0.0004000998
10,-0.00040188586,-0.0004187144,-0.00041330498,-0.0004061698,-0.0004081176,-0.00041599327,-0.0004186669,-0.0004049612,-0.00040062837,-0.00040553504,-0.0004015199,-0.0004063048,-0.0004033083,-0.0004179213,-0.00041947726,-0.00041838206,-0.00039956762,-0.00040784158,-0.00040027912,-0.00040188586,-0.0004187144,-0.00041330498,-0.0004061698,-0.0004081176,-0.00041599327,-0.0004186669,-0.0004049612,-0.00040062837,-0.00040553504,-0.0004015199,-0.0004063048,-0.0004033083,-0.0004179213,-0.00041947726,-0.00041838206,-0.00039956762,-0.00040784158,-0.00040027912
11,-0.00040202396,-0.0004188525,-0.00041344308,-0.0004063079,-0.0004082557,-0.00041613137,-0.000418805,-0.0004050993,-0.00040076647,-0.00040567314,-0.000401658,-0.0004064429,-0.0004034464,-0.0004180594,-0.00041961536,-0.00041852015,-0.00039970572,-0.0004079797,-0.00040041722,-0.00040202396,-0.0004188525,-0.00041344308,-0.0004063079,-0.0004082557,-0.00041613137,-0.000418805,-0.0004050993,-0.00040076647,-0.00040567314,-0.000401658,-0.0004064429,-0.0004034464,-0.0004180594,-0.00041961536,-0.00041852015,-0.00039970572,-0.0004079797,-0.00040041722
12,-0.00040213205,-0.00041896055,-0.00041355117,-0.000406416,-0.0004083638,-0.0004162395,-0.00041891306,-0.0004052074,-0.00040087453,-0.00040578126,-0.00040176607,-0.00040655097,-0.00040355447,-0.00041816747,-0.00041972342,-0.00041862825,-0.00039981378,-0.00040808777,-0.00040052528,-0.00040213205,-0.00041896055,-0.00041355117,-0.000406416,-0.0004083638,-0.0004162395,-0.00041891306,-0.0004052074,-0.00040087453,-0.00040578126,-0.00040176607,-0.00040655097,-0.00040355447,-0.00041816747,-0.00041972342,-0.00041862825,-0.00039981378,-0.00040808777,-0.00040052528
13,-0.0004022174,-0.00041904594,-0.00041363653,-0.00040650135,-0.00040844915,-0.00041632482,-0.00041899845,-0.00040529275,-0.00040095992,-0.0004058666,-0.00040185146,-0.00040663636,-0.00040363986,-0.00041825286,-0.0004198088,-0.0004187136,-0.00039989917,-0.00040817316,-0.00040061068,-0.0004022174,-0.00041904594,-0.00041363653,-0.00040650135,-0.00040844915,-0.00041632482,-0.00041899845,-0.00040529275,-0.00040095992,-0.0004058666,-0.00040185146,-0.00040663636,-0.00040363986,-0.00041825286,-0.0004198088,-0.0004187136,-0.00039989917,-0.00040817316,-0.00040061068
14,-0.000402285,-0.00041911352,-0.00041370408,-0.00040656893,-0.00040851673,-0.0004163924,-0.00041906603,-0.00040536033,-0.0004010275,-0.00040593417,-0.00040191904,-0.00040670394,-0.00040370744,-0.00041832044,-0.0004198764,-0.0004187812,-0.00039996675,-0.0004082407,-0.00040067825,-0.000402285,-0.00041911352,-0.00041370408,-0.00040656893,-0.00040851673,-0.0004163924,-0.00041906603,-0.00040536033,-0.0004010275,-0.00040593417,-0.00040191904,-0.00040670394,-0.00040370744,-0.00041832044,-0.0004198764,-0.0004187812,-0.00039996675,-0.0004082407,-0.00040067825
15,-0.0004023382,-0.00041916672,-0.00041375734,-0.00040662216,-0.00040856993,-0.00041644566,-0.00041911923,-0.00040541354,-0.0004010807,-0.0004059874,-0.0004019722,-0.00040675717,-0.0004037606,-0.00041837365,-0.00041992962,-0.00041883442,-0.00040001996,-0.00040829394,-0.0004007315,-0.0004023382,-0.00041916672,-0.00041375734,-0.00040662216,-0.00040856993,-0.00041644566,-0.00041911923,-0.00040541354,-0.0004010807,-0.0004059874,-0.0004019722,-0.00040675717,-0.0004037606,-0.00041837365,-0.00041992962,-0.00041883442,-0.00040001996,-0.00040829394,-0.0004007315
16,-0.00040237964,-0.00041920814,-0.00041379873,-0.00040666354,-0.00040861138,-0.00041648705,-0.00041916064,-0.00040545495,-0.00040112212,-0.00040602885,-0.00040201365,-0.00040679856,-0.00040380206,-0.00041841506,-0.000419971,-0.0004188758,-0.00040006137,-0.00040833536,-0.00040077287,-0.00040235906,-0.00041918756,-0.00041377818,-0.00040664303,-0.0004085908,-0.0004164665,-0.00041914007,-0.0004054344,-0.00040110154,-0.00040600827,-0.00040199308,-0.00040677804,-0.00040378148,-0.00041839448,-0.00041995046,-0.00041885528,-0.00040004082,-0.00040831478,-0.00040075235
17,-0.0004024113,-0.0004192398,-0.0004138304,-0.0004066952,-0.00040864304,-0.0004165187,-0.0004191923,-0.00040548661,-0.00040115378,-0.00040606048,-0.00040204532,-0.00040683022,-0.00040383372,-0.00041844673,-0.00042000267,-0.00041890747,-0.00040009303,-0.000408367,-0.00040080454,-0.0004023807,-0.00041920922,-0.0004137998,-0.00040666465,-0.00040861245,-0.00041648812,-0.00041916172,-0.00040545606,-0.0004011232,-0.0004060299,-0.00040201473,-0.00040679963,-0.00040380313,-0.00041841614,-0.0004199721,-0.00041887688,-0.00040006245,-0.00040833643,-0.00040077395
18,-0.00040243493,-0.00041926347,-0.00041385402,-0.00040671887,-0.00040866664,-0.00041654235,-0.00041921597,-0.00040551028,-0.00040117739,-0.00040608412,-0.00040206898,-0.00040685388,-0.00040385738,-0.00041847036,-0.00042002634,-0.00041893113,-0.0004001167,-0.00040839065,-0.0004008282,-0.0004023975,-0.000419226,-0.0004138166,-0.00040668144,-0.00040862925,-0.00041650492,-0.0004191785,-0.00040547285,-0.00040114,-0.0004060467,-0.00040203152,-0.00040681646,-0.00040381993,-0.00041843293,-0.00041998888,-0.00041889367,-0.00040007927,-0.00040835323,-0.00040079074
19,-0.0004024522,-0.0004192807,-0.00041387128,-0.00040673613,-0.00040868393,-0.0004165596,-0.0004192332,-0.00040552753,-0.00040119467,-0.00040610138,-0.0004020862,-0.00040687114,-0.0004038746,-0.00041848762,-0.00042004357,-0.00041894836,-0.00040013395,-0.00040840788,-0.00040084543,-0.0004021605,-0.00041898902,-0.00041357963,-0.00040644442,-0.00040839225,-0.00041626795,-0.00041894152,-0.00040523583,-0.000400903,-0.00040580973,-0.00040179453,-0.00040657943,-0.00040358293,-0.00041819594,-0.0004197519,-0.0004186567,-0.00039984225,-0.00040811623,-0.00040055375
20,-0.0004021297,-0.0004189582,-0.0004135488,-0.00040641366,-0.00040836143,-0.00041623713,-0.00041891076,-0.00040520504,-0.00040087217,-0.0004057789,-0.0004017637,-0.00040654867,-0.00040355217,-0.00041816512,-0.00041972112,-0.00041862592,-0.00039981146,-0.0004080854,-0.000400523,-0.0004010883,-0.0004179168,-0.00041250742,-0.00040537224,-0.00040732004,-0.00041519574,-0.0004178693,-0.0004041636,-0.00039983078,-0.0004047375,-0.00040072232,-0.00040550728,-0.00040251072,-0.00041712372,-0.00041867967,-0.0004175845,-0.00039877003,-0.00040704402,-0.00039948156
21,-0.00040154372,-0.00041837222,-0.00041296284,-0.00040582768,-0.00040777546,-0.00041565116,-0.00041832472,-0.00040461903,-0.0004002862,-0.00040519293,-0.00040117773,-0.0004059627,-0.00040296614,-0.00041757914,-0.00041913512,-0.0004180399,-0.00039922545,-0.00040749944,-0.00039993698,-0.00036773554,-0.00041700105,-0.00041159164,-0.00040445648,-0.0004064043,-0.00041427996,-0.00041695355,-0.00038107118,-0.00039891503,-0.00036290917,-0.0003814447,-0.00040459147,-0.0003780479,-0.00041620797,-0.00041776392,-0.0004166687,-0.0003943045,-0.00040612827,-0.00035180995
22,-0.00040098387,-0.00041781238,-0.00041240297,-0.0004052678,-0.00040721556,-0.0004150913,-0.00041776488,-0.00040405922,-0.00039972633,-0.00040463306,-0.0004006179,-0.0004054028,-0.0004024063,-0.00041701927,-0.00041857525,-0.00041748004,-0.0003986656,-0.00040693957,-0.0003993771,-0.00031228698,-0.0004162368,-0.00041082743,-0.00038479455,-0.00040564002,-0.00039949655,-0.00041618934,-0.00032562262,-0.00038480066,-0.0003074606,-0.00032599614,-0.00040382726,-0.00032259934,-0.00041544373,-0.0004169997,-0.0004159045,-0.00033885593,-0.00036146588,-0.0002963614
23,-0.00038539604,-0.00041728865,-0.00041187927,-0.0004047441,-0.00040669186,-0.0004145676,-0.00041724116,-0.00039873164,-0.00039920263,-0.0003805696,-0.00039910513,-0.0004048791,-0.00039570834,-0.00041649558,-0.00041805155,-0.00041695635,-0.00039814188,-0.00040641587,-0.00036947042,-0.00022945022,-0.0004150808,-0.00040967143,-0.0003019578,-0.00037969058,-0.0003166598,-0.00038556015,-0.00024278586,-0.00030196388,-0.00022462384,-0.00024315935,-0.00040267128,-0.00023976255,-0.00039139562,-0.0004158437,-0.00041474853,-0.00025601915,-0.0002786291,-0.00021352462
24,-0.00035026367,-0.00041680865,-0.00041139923,-0.00040426405,-0.00040621182,-0.00041408755,-0.00041676115,-0.00036359928,-0.0003987226,-0.0003454373,-0.00036397277,-0.00040439906,-0.00036057597,-0.00041601554,-0.00041757151,-0.0004164763,-0.00037683258,-0.00039944254,-0.00033433805,-0.00016322389,-0.00035590134,-0.00036828546,-0.00023573145,-0.0003134643,-0.00025043346,-0.00031933386,-0.00017655954,-0.00023573756,-0.0001583975,-0.00017693301,-0.00039095271,-0.0001735362,-0.00032516927,-0.000372572,-0.00038428238,-0.00018979283,-0.00021240278,-0.0001472983
25,-0.00031401723,-0.00041631123,-0.00041090185,-0.0003865248,-0.00040571447,-0.0004012268,-0.00041626373,-0.00032735287,-0.0003865309,-0.00030919083,-0.00032772636,-0.0004039017,-0.00032432954,-0.00041551815,-0.0004170741,-0.00041597895,-0.00034058615,-0.00036319613,-0.00029809162,-0.00011253554,-0.00030521298,-0.00031759712,-0.0001850431,-0.00026277592,-0.0001997451,-0.0002686455,-0.00012587119,-0.00018504921,-0.000107709166,-0.00012624466,-0.00034026435,-0.00012284786,-0.00027448096,-0.00032188362,-0.00033359404,-0.00013910448,-0.00016171444,-9.660995e-05
26,-0.0002825296,-0.0004158805,-0.0004104711,-0.00035503713,-0.0004052837,-0.0003697392,-0.000415833,-0.00029586523,-0.00035504324,-0.00027770322,-0.00029623872,-0.00040347094,-0.00029284193,-0.00041508742,-0.0004166434,-0.0004155482,-0.00030909854,-0.0003317085,-0.000266604,-7.421516e-05,-0.0002668926,-0.00027927675,-0.00014672271,-0.00022445554,-0.00016142474,-0.00023032512,-8.755078e-05,-0.00014672881,-6.938875e-05,-8.7924265e-05,-0.00030194398,-8.4527484e-05,-0.00023616054,-0.00028356325,-0.00029527367,-0.00010078409,-0.00012339406,-5.8289577e-05
27,-0.00025596123,-0.0004155181,-0.00041010868,-0.00032846883,-0.0004049213,-0.00034317083,-0.00041207118,-0.00026929687,-0.00032847494,-0.00025113486,-0.00026967036,-0.0004031085,-0.00026627356,-0.00041472501,-0.00041628096,-0.00041518576,-0.00028253018,-0.00030514013,-0.00024003565,-1.3454407e-05,-0.00020613185,-0.00021851598,-8.596198e-05,-0.0001636948,-0.000100663994,-0.00016956437,-2.6790052e-05,-8.596807e-05,-8.628033e-06,-2.7163513e-05,-0.00024118321,-2.376672e-05,-0.00017539981,-0.00022280251,-0.0002345129,-4.0023326e-05,-6.2633306e-05,0.00024711713
28,-0.00020686426,-0.0003995417,-0.0004094251,-0.00027937183,-0.00035710464,-0.00029407386,-0.0003629742,-0.00022019989,-0.0002793779,-0.00020203789,-0.00022057339,-0.00040242492,-0.0002171766,-0.00036880965,-0.00041559737,-0.00041450217,-0.00023343321,-0.00025604313,-0.00019093866,0.0031987466,-0.00016068996,-0.00017307412,-4.0520055e-05,-0.00011825291,-5.52221e-05,-0.00012412247,0.0018651821,-4.0526204e-05,0.0036813878,0.001827836,-0.00019574133,0.0021675155,-0.0001299579,-0.00017736062,-0.00018907101,0.00054185465,-1.7191433e-05,0.004791308
29,-0.00016758883,-0.0003602663,-0.00037265042,-0.0002400964,-0.00031782925,-0.00025479842,-0.0003236988,-0.00018092447,-0.00024010251,-0.00016276246,-0.00018129796,-0.00039531768,-0.00017790118,-0.00032953426,-0.00037693692,-0.00038864734,-0.00019415778,-0.00021676773,-0.00015166325,0.011144187,-8.1235594e-05,-9.361971e-05,0.0038934276,-3.8798564e-05,0.0024232268,-4.466813e-05,0.009810623,0.0038928203,0.011626825,0.009773269,-0.00011628697,0.010112952,-5.0503535e-05,-9.790625e-05,-0.000109616645,0.008487288,0.0062262975,0.012736745
30,-0.00013853583,-0.00033121323,-0.00034359738,-0.00021104337,-0.0002887762,-0.0002257454,-0.00029464575,-0.00015187144,-0.00021104947,-0.00013370941,-0.00015224496,-0.0003662646,-0.00014884814,-0.0003004812,-0.0003478839,-0.0003595943,-0.00016510475,-0.00018771469,-0.00012261022,0.016926844,-2.3409017e-05,-3.5793146e-05,0.009676084,0.0019028,0.008205887,0.001315847,0.015593279,0.009675477,0.017409481,0.015555929,-5.8460384e-05,0.015895609,0.00073230267,-4.007969e-05,-5.1790066e-05,0.014269952,0.012008954,0.018519402
31,-0.00011777652,-0.00031045396,-0.00032283808,-0.00019028407,-0.0002680169,-0.00020498609,-0.00027388646,-0.00013111213,-0.00019029017,-0.000112950125,-0.00013148565,-0.0003455053,-0.00012808884,-0.00027972192,-0.00032712464,-0.000338835,-0.00014434544,-0.0001669554,-0.00010185092,0.020728685,0.0014609396,0.00022252649,0.013477929,0.005704649,0.012007728,0.005117692,0.019395124,0.013477318,0.021211322,0.019357774,-2.0441972e-05,0.019697454,0.004534144,-2.0612404e-06,-1.3771616e-05,0.018071793,0.015810795,0.022321247
32,-0.00010375816,-0.0002964356,-0.00030881976,-0.00017626573,-0.00025399856,-0.00019096777,-0.00025986813,-0.000117093805,-0.00017627183,-9.8931785e-05,-0.00011746729,-0.00033148698,-0.000114070506,-0.00026570357,-0.00031310628,-0.00032481665,-0.00013032711,-0.00015293706,-8.783258e-05,0.023011982,0.0037442371,0.0025058202,0.015761223,0.007987943,0.014291022,0.007400986,0.021678418,0.015760615,0.023494616,0.021641068,0.00023909658,0.021980751,0.0068174414,0.0020771697,0.00090613216,0.020355087,0.018094093,0.024604533
33,-9.522002e-05,-0.00028789748,-0.0003002816,-0.00016772757,-0.00024546037,-0.00018242959,-0.00025132994,-0.00010855564,-0.00016773368,-9.039362e-05,-0.00010892915,-0.0003229488,-0.00010553233,-0.00025716537,-0.0003045681,-0.00031627849,-0.00012178894,-0.0001443989,-7.9294405e-05,0.024130907,0.0048631616,0.0036247484,0.01688015,0.009106867,0.015409946,0.00851991,0.022797342,0.016879544,0.02461354,0.022759996,0.0013580248,0.023099672,0.00793637,0.0031960942,0.0020250566,0.021474011,0.019213017,0.025723461
34,-9.112736e-05,-0.00028380478,-0.00029618893,-0.00016363492,-0.00024136774,-0.00017833692,-0.0002472373,-0.00010446297,-0.00016364102,-8.630097e-05,-0.00010483649,-0.00031885615,-0.00010143967,-0.00025307274,-0.00030047545,-0.00031218585,-0.000117696276,-0.00014030623,-7.5201744e-05,0.024359915,0.00509217,0.0038537532,0.01710916,0.0093358755,0.015638955,0.008748919,0.023026347,0.017108548,0.02484255,0.022989005,0.001587037,0.02332868,0.008165378,0.0034251027,0.0022540651,0.02170302,0.019442026,0.02595247
35,-9.06256e-05,-0.00028330303,-0.00029568718,-0.00016313315,-0.00024086598,-0.00017783517,-0.00024673555,-0.00010396121,-0.00016313927,-8.5799205e-05,-0.00010433472,-0.0003183544,-0.00010093791,-0.000252571,-0.00029997368,-0.00031168407,-0.00011719452,-0.00013980448,-7.469999e-05,0.026736554,0.0074688047,0.0062303916,0.019485798,0.011712514,0.018015593,0.011125557,0.02540299,0.019485183,0.027219195,0.02536564,0.0039636716,0.025705319,0.010542009,0.005801741,0.0046306998,0.024079654,0.02181866,0.028329108
36,-6.556347e-05,-0.0002582409,-0.00027062505,-0.00013807103,-0.00021580384,-0.00015277303,-0.00022167341,-7.8899095e-05,-0.00013807711,-6.0737093e-05,-7.927258e-05,-0.00029329228,-7.5875796e-05,-0.00022750886,-0.00027491155,-0.00028662197,-9.213239e-05,-0.00011474233,-4.9637852e-05,0.028065745,0.008798007,0.0075595938,0.020814996,0.013041712,0.019344795,0.012454756,0.026732188,0.020814385,0.028548393,0.026694838,0.005292874,0.027034517,0.011871211,0.0071309395,0.005959902,0.025408853,0.023147859,0.029658306
37,-4.7509966e-05,-0.00024018742,-0.00025257154,-0.000120017525,-0.00019775036,-0.00013471955,-0.00020361993,-6.0845614e-05,-0.00012002364,-4.2683594e-05,-6.121907e-05,-0.0002752388,-5.7822315e-05,-0.00020945538,-0.00025685807,-0.00026856846,-7.4078904e-05,-9.668886e-05,-3.158439e-05,0.028397601,0.009129863,0.007891446,0.021146849,0.013373565,0.019676648,0.012786608,0.027064044,0.021146238,0.028880242,0.027026694,0.0056247227,0.027366374,0.012203068,0.007462796,0.0062917583,0.025740717,0.023479719,0.029990155
38,0.00011185184,-0.00019155891,-0.00020394305,-7.138904e-05,-0.00014912184,-8.6091044e-05,-0.00015499143,-1.2217127e-05,-7.139515e-05,0.0005944893,-1.2590587e-05,-0.00022661028,-9.19383e-06,-0.00016082685,-0.00020822958,-0.00021993996,-2.5450401e-05,-4.8060378e-05,0.0017044134,0.027982477,0.008714732,0.0074763186,0.020731721,0.012958437,0.01926152,0.012371484,0.026648913,0.02073111,0.028465126,0.026611563,0.0052095987,0.026951242,0.01178794,0.0070476644,0.005876627,0.025325585,0.023064587,0.029575039
39,0.003699232,-0.00015568513,-0.00016806928,-3.5515277e-05,-0.0001132481,-5.0217284e-05,-0.00011911764,0.0023656674,-3.552135e-05,0.0041818693,0.0023283176,-0.00019073652,0.002667997,-0.00012495309,-0.00017235581,-0.0001840662,0.0010423362,-1.2186579e-05,0.00529179,0.027013864,0.0077461265,0.006507717,0.019763116,0.011989836,0.018292915,0.011402879,0.025680315,0.019762509,0.027496513,0.025642965,0.0042409934,0.025982644,0.010819335,0.0060790665,0.0049080215,0.02435698,0.022095986,0.028606426
40,0.009556077,-9.7116696e-05,-0.00010950079,0.0023053214,-5.4679585e-05,0.0008351207,-6.054919e-05,0.008222517,0.0023047104,0.010038715,0.008185163,-0.00013216803,0.008524846,-6.638464e-05,-0.00011378731,-0.00012549773,0.0068991855,0.0046381913,0.011148639,0.025643405,0.0063756555,0.0051372424,0.018392645,0.010619361,0.01692244,0.010032404,0.024309833,0.018392034,0.026126038,0.02427249,0.0028705224,0.024612162,0.00944886,0.004708588,0.0035375506,0.022986505,0.020725511,0.027235959
41,0.013790578,-5.4771637e-05,-6.715581e-05,0.0065398216,-1.2334622e-05,0.005069621,-1.820419e-05,0.012457017,0.0065392107,0.014273215,0.012419663,-8.982302e-05,0.0127593465,-2.4039597e-05,-7.1442315e-05,-8.315271e-05,0.011133682,0.008872692,0.015383139,0.023990177,0.0047224313,0.0034840181,0.016739417,0.008966137,0.01526922,0.00837918,0.022656616,0.01673881,0.024472814,0.022619262,0.0012172945,0.022958945,0.0077956356,0.0030553676,0.0018843263,0.021333281,0.019072287,0.025582734
42,0.016493332,-2.77441e-05,-4.0128267e-05,0.009242576,0.0014692917,0.007772375,0.000882335,0.015159771,0.009241965,0.01697597,0.015122417,-6.27955e-05,0.0154621005,0.00029879436,-4.4414774e-05,-5.6125147e-05,0.01383644,0.0115754455,0.018085893,0.023722358,0.0044546127,0.0032161996,0.016471598,0.008698318,0.015001398,0.008111361,0.02238879,0.016470991,0.024204995,0.022351444,0.0009494759,0.022691123,0.007527817,0.0027875453,0.0016165078,0.021065462,0.018804468,0.025314916
43,0.023753844,0.004486099,0.0032476857,0.016503092,0.008729808,0.015032887,0.008142851,0.022420287,0.016502481,0.02423649,0.022382934,0.0009809658,0.022722617,0.007559307,0.0028190352,0.0016479939,0.021096952,0.018835954,0.02534641,0.02308026,0.003812518,0.0025741048,0.015829507,0.008056223,0.014359307,0.0074692667,0.021746699,0.015828896,0.023562904,0.021709353,0.00030738488,0.022049032,0.006885726,0.0021454506,0.000974413,0.020423371,0.018162373,0.024672825
44,0.029152084,0.00988435,0.008645937,0.02190134,0.014128059,0.020431139,0.013541102,0.027818535,0.021900728,0.02963474,0.027781177,0.006379213,0.028120864,0.012957554,0.008217286,0.007046245,0.0264952,0.02423421,0.030744646,0.022041846,0.0027741008,0.0015356876,0.01479109,0.00701781,0.013320889,0.006430853,0.020708282,0.014790479,0.022524484,0.020670936,-7.3103606e-06,0.021010615,0.005847305,0.0011070371,-6.400421e-07,0.019384954,0.017123956,0.023634404
45,0.038776267,0.01950853,0.018270116,0.03152551,0.023752235,0.030055325,0.023165282,0.03744271,0.0315249,0.039258923,0.037405353,0.016003396,0.03774504,0.02258173,0.017841462,0.016670424,0.036119383,0.033858377,0.04036883,0.020729095,0.0014613494,0.00022293627,0.013478335,0.005705051,0.012008138,0.0051180944,0.01939553,0.013477728,0.021211732,0.01935818,-2.0437874e-05,0.01969786,0.0045345537,-2.0571797e-06,-1.3767555e-05,0.0180722,0.015811205,0.022321653
46,0.04707372,0.027805973,0.026567567,0.039822955,0.03204969,0.03835277,0.031462718,0.045740154,0.039822336,0.04755636,0.045702804,0.024300847,0.046042483,0.03087918,0.026138913,0.024967868,0.04441682,0.042155813,0.048666272,0.019236114,-3.1631438e-07,-1.2700446e-05,0.011985358,0.004212074,0.010515157,0.0036251172,0.01790255,0.011984747,0.019718751,0.017865203,-3.536768e-05,0.018204883,0.0030415729,-1.6986987e-05,-2.8697363e-05,0.016579222,0.014318224,0.020828672
47,0.059493523,0.040225778,0.038987372,0.052242767,0.044469494,0.05077258,0.04388253,0.058159966,0.05224215,0.05997618,0.05812261,0.036720645,0.058462296,0.043298986,0.038558718,0.03738768,0.05683664,0.054575633,0.061086085,0.01763641,-1.6313381e-05,-2.8697475e-05,0.010385651,0.0026123673,0.00891545,0.0020254105,0.016302846,0.010385044,0.018119048,0.016265497,-5.136471e-05,0.016605176,0.0014418699,-3.298402e-05,-4.469443e-05,0.0149795115,0.012718521,0.019228969
48,0.06856428,0.049296524,0.04805812,0.061313514,0.05354025,0.059843335,0.052953284,0.06723072,0.06131291,0.06904693,0.06719336,0.0457914,0.067533046,0.052369747,0.047629472,0.046458434,0.06590739,0.06364639,0.07015683,0.016841419,-2.4263225e-05,-3.6647394e-05,0.009590663,0.0018173791,0.008120462,0.0012304224,0.015507858,0.009590052,0.017324056,0.015470505,-5.931463e-05,0.015810188,0.00064688176,-4.0933897e-05,-5.2644275e-05,0.014184527,0.011923533,0.01843398
49,0.07467757,0.05540983,0.054171424,0.067426816,0.05965353,0.06595662,0.059066575,0.07334401,0.067426205,0.07516022,0.07330665,0.051904697,0.07364634,0.05848303,0.053742763,0.052571725,0.07202068,0.06975968,0.07627013,0.01591888,-3.3488646e-05,-4.5872777e-05,0.008668125,0.0008948408,0.007197924,0.00030788407,0.014585316,0.008667514,0.016401518,0.014547966,-6.8540015e-05,0.014887646,-2.756603e-06,-5.015928e-05,-6.186966e-05,0.013261985,0.011000991,0.017511442
50,0.07852778,0.059260037,0.058021624,0.07127702,0.06350374,0.06980683,0.062916785,0.077194214,0.07127641,0.07901043,0.07715687,0.055754896,0.07749654,0.062333237,0.057592977,0.056421924,0.07587089,0.07360987,0.08012034,0.014844015,-4.42373e-05,-5.662143e-05,0.007593259,-1.8002465e-06,0.0061230585,-7.669813e-06,0.013510454,0.0075926483,0.015326656,0.013473105,-7.928865e-05,0.013812784,-1.35052205e-05,-6.0907973e-05,-7.261835e-05,0.012187123,0.009926125,0.016436573
51,0.0892328,0.069965065,0.06872666,0.08198205,0.07420878,0.08051185,0.07362181,0.08789925,0.08198145,0.089715466,0.08786191,0.06645994,0.08820157,0.07303828,0.068298,0.067126974,0.086575925,0.08431491,0.090825364,0.016403414,-2.864331e-05,-4.102744e-05,0.009152655,0.0013793744,0.0076824576,0.0007924177,0.01506985,0.009152047,0.016886052,0.015032504,-6.369468e-05,0.015372179,0.0002088733,-4.5313984e-05,-5.7024357e-05,0.013746522,0.0114855245,0.017995972
52,0.09710868,0.07784094,0.07660253,0.089857936,0.08208464,0.08838773,0.081497684,0.09577511,0.089857325,0.097591326,0.09573777,0.07433581,0.09607746,0.08091414,0.07617387,0.075002834,0.094451785,0.0921908,0.09870124,0.017547987,-1.7197579e-05,-2.958171e-05,0.010297231,0.0025239512,0.008827031,0.0019369908,0.016214423,0.01029662,0.018030625,0.016177077,-5.2248946e-05,0.016516753,0.0013534464,-3.3868215e-05,-4.557863e-05,0.014891095,0.012630098,0.019140545
53,0.1136896,0.09442186,0.09318344,0.10643883,0.098665565,0.10496865,0.09807861,0.11235604,0.106438234,0.11417225,0.11231868,0.09091672,0.11265837,0.097495064,0.09275481,0.09158374,0.111032695,0.10877171,0.11528215,0.021582592,0.002314847,0.0010764338,0.0143318325,0.0065585524,0.012861632,0.005971592,0.020249028,0.014331225,0.02206523,0.020211678,-1.1902898e-05,0.020551357,0.0053880513,0.00064777955,-5.23258e-06,0.018925697,0.016664702,0.023175146
54,0.13884601,0.11957826,0.11833985,0.13159522,0.123821974,0.13012506,0.12323499,0.13751245,0.13159463,0.13932863,0.13747509,0.11607312,0.13781476,0.12265146,0.117911205,0.11674015,0.13618912,0.1339281,0.14043856,0.024712253,0.005444512,0.0042060986,0.017461497,0.009688217,0.015991297,0.00910126,0.023378693,0.01746089,0.025194895,0.023341343,0.001939375,0.023681026,0.008517716,0.0037774444,0.0026064068,0.022055361,0.019794367,0.026304815
55,0.15784948,0.13858174,0.13734333,0.15059873,0.14282545,0.14912853,0.14223848,0.15651593,0.15059812,0.15833212,0.15647857,0.13507663,0.15681827,0.14165495,0.13691469,0.13574363,0.15519258,0.15293159,0.15944205,0.026845124,0.0075773783,0.006338965,0.019594371,0.011821087,0.018124167,0.011234131,0.02551156,0.01959376,0.027327772,0.025474217,0.004072245,0.025813889,0.010650586,0.0059103146,0.004739277,0.024188232,0.021927234,0.028437685
56,0.17164713,0.1523794,0.15114099,0.16439636,0.1566231,0.1629262,0.15603614,0.17031357,0.16439576,0.17212978,0.17027622,0.14887424,0.1706159,0.15545261,0.15071233,0.14954127,0.16899022,0.16672924,0.1732397,0.029931512,0.010663774,0.009425364,0.022680767,0.014907483,0.021210562,0.014320526,0.028597962,0.022680156,0.03041416,0.028560605,0.007158641,0.028900292,0.013736982,0.008996714,0.007825669,0.027274627,0.025013637,0.031524073
57,0.19278456,0.17351682,0.1722784,0.1855338,0.17776053,0.18406361,0.17717358,0.191451,0.1855332,0.19326721,0.19141366,0.1700117,0.19175333,0.17659001,0.17184976,0.17067872,0.19012766,0.18786667,0.19437712,0.032229144,0.012961414,0.011723001,0.024978403,0.017205115,0.023508199,0.016618159,0.030895587,0.024977792,0.0327118,0.030858245,0.009456277,0.031197924,0.016034618,0.011294346,0.010123309,0.02957226,0.027311262,0.033821706
58,0.20860842,0.18934067,0.18810226,0.20135766,0.19358437,0.19988745,0.19299743,0.20727485,0.20135704,0.20909107,0.2072375,0.18583554,0.20757717,0.19241387,0.1876736,0.18650256,0.20595151,0.20369053,0.210201,0.037172247,0.017904505,0.016666092,0.02992149,0.02214821,0.028451305,0.021561254,0.03583869,0.02992088,0.037654903,0.035801332,0.014399372,0.03614102,0.02097771,0.016237438,0.0150664,0.034515355,0.03225435,0.0387648
59,0.22002514,0.2007574,0.199519,0.21277438,0.2050011,0.21130419,0.20441414,0.21869157,0.21277376,0.22050779,0.2186542,0.19725226,0.21899392,0.2038306,0.19909035,0.1979193,0.21736823,0.21510725,0.22161771,0.042183798,0.022916067,0.02167765,0.03493304,0.02715977,0.033462863,0.026572805,0.040850233,0.03493243,0.042666446,0.04081289,0.019410927,0.041152578,0.025989268,0.021248996,0.020077955,0.039526906,0.037265908,0.043776367
60,0.2355289,0.21626113,0.21502273,0.22827809,0.22050484,0.22680794,0.21991785,0.2341953,0.22827749,0.23601152,0.23415796,0.212756,0.23449762,0.21933432,0.21459408,0.21342303,0.2358176,0.23061098,0.23712145,0.045831535,0.026563797,0.025325391,0.03858077,0.030807514,0.0371106,0.030220542,0.044497978,0.038580175,0.046314184,0.04446063,0.023058668,0.044800323,0.029637005,0.024896737,0.023725692,0.043174643,0.040913645,0.047424097
61,0.25617242,0.2369047,0.23566629,0.24892165,0.24114837,0.2474515,0.24056141,0.25483882,0.25856772,0.25665507,0.2548015,0.23339956,0.25514117,0.23997788,0.23523761,0.23406659,0.26917505,0.25125453,0.2620599,0.053920794,0.034653056,0.03341465,0.04667004,0.038896773,0.04519986,0.0383098,0.052587237,0.046669435,0.05440345,0.052549887,0.03114793,0.05288958,0.037726257,0.032985996,0.03181495,0.051263902,0.049002912,0.055513363
62,0.27156955,0.25230184,0.2510634,0.26431882,0.25654554,0.26284862,0.2559586,0.270236,0.283673,0.2720522,0.27475756,0.24879672,0.27053836,0.25537506,0.25063476,0.24946372,0.29428032,0.2666517,0.28716514,0.060394157,0.04112642,0.039888013,0.0531434,0.045370128,0.051673215,0.044783156,0.059060585,0.053142782,0.060876805,0.05902325,0.037621286,0.059362937,0.04419962,0.03945936,0.038288306,0.057737257,0.05547626,0.061986726
63,0.28966808,0.26355603,0.2623176,0.275573,0.2677997,0.2741028,0.26721272,0.28149015,0.3022433,0.2833064,0.29332787,0.26005086,0.2817925,0.26662922,0.26188892,0.26071787,0.31285062,0.27790585,0.3057355,0.06528017,0.046012435,0.04477403,0.05802941,0.050256144,0.05655923,0.049669173,0.063946605,0.0580288,0.06576282,0.06390926,0.042507302,0.06424895,0.049085643,0.044345375,0.043174323,0.06262328,0.060362276,0.06687273
64,0.30329007,0.27172273,0.2704843,0.2837397,0.2759664,0.28226948,0.27537942,0.28965685,0.31586528,0.29147312,0.30694985,0.2682176,0.2899592,0.2747959,0.27005565,0.2688846,0.32647255,0.28607255,0.31935742,0.06896293,0.049695205,0.0484568,0.06171218,0.053938907,0.060242,0.05335195,0.06762938,0.061711576,0.06944558,0.06759204,0.04619007,0.06793171,0.052768413,0.048028152,0.046857093,0.066306055,0.06404506,0.07055551
65,0.32200938,0.2829622,0.28172377,0.29497916,0.2872059,0.29350895,0.2866189,0.30089635,0.3345846,0.3027126,0.32566917,0.27945706,0.30778506,0.28603536,0.28129512,0.28012407,0.34519187,0.29731205,0.33807674,0.073699966,0.05443224,0.053193834,0.066449225,0.05867594,0.06497903,0.058088984,0.07236642,0.066448614,0.07418263,0.072329074,0.050927106,0.072668746,0.057505447,0.052765187,0.051594127,0.07104309,0.06878209,0.07529254
66,0.33602172,0.2913048,0.2900664,0.30332175,0.2955485,0.30185157,0.29496154,0.30923894,0.34859693,0.31105518,0.3396815,0.29183215,0.32179743,0.29437798,0.28963774,0.28846666,0.35920426,0.30565462,0.35208908,0.07746847,0.05820073,0.056962322,0.07021771,0.062444437,0.06874752,0.061857473,0.076134905,0.0702171,0.07795112,0.07609756,0.054695595,0.076437235,0.061273936,0.05653367,0.05536263,0.07481158,0.07255058,0.07906103
67,0.34631923,0.29736534,0.29612693,0.3093823,0.301609,0.30791214,0.30102205,0.31556588,0.35889444,0.3171157,0.349979,0.30212966,0.33209497,0.30043852,0.29569826,0.2945272,0.36950177,0.3117152,0.3623866,0.0803972,0.06112947,0.059891064,0.07314645,0.06537318,0.07167627,0.06478621,0.079063654,0.07314585,0.08087985,0.0790263,0.057624344,0.07936598,0.06420268,0.05946241,0.058291372,0.07774033,0.07547933,0.081989765
68,0.3538115,0.3017295,0.30049103,0.31374642,0.30597317,0.31227624,0.30538616,0.32305816,0.3663867,0.32147986,0.35747132,0.30962196,0.3395872,0.30480266,0.30006236,0.29889137,0.376994,0.31607935,0.36987892,0.08271189,0.06344415,0.062205736,0.075461134,0.067687854,0.07399094,0.06710088,0.081378326,0.07546052,0.08319454,0.08134097,0.05993901,0.081680655,0.06651735,0.06177708,0.060606044,0.080055,0.077794,0.08430445
69,0.35917306,0.3048213,0.30358288,0.31683826,0.309065,0.3153681,0.30847803,0.32841966,0.37174827,0.3245717,0.3628328,0.3149835,0.34494877,0.3078945,0.30315423,0.30198318,0.38235557,0.31917116,0.37524042,0.08933182,0.07006407,0.06882565,0.08208105,0.074307784,0.08061086,0.07372081,0.087998256,0.08208044,0.08981447,0.0879609,0.06655893,0.08830057,0.07313727,0.068397,0.06722596,0.086674914,0.084413916,0.09092437
70,0.36293352,0.3069688,0.30573034,0.32009402,0.31121248,0.31751555,0.31062546,0.3321801,0.37550873,0.32671916,0.36659327,0.31874394,0.3487092,0.31004196,0.3053017,0.30413067,0.386116,0.32131866,0.37900087,0.09492558,0.07565783,0.07441941,0.08767483,0.079901546,0.08620463,0.079314575,0.093592,0.0876742,0.095408216,0.09355466,0.072152704,0.09389435,0.07873103,0.07399078,0.072819725,0.09226869,0.09000769,0.096518144
71,0.38054177,0.31742653,0.31618813,0.33770233,0.32167026,0.32797334,0.32108328,0.3497884,0.39311698,0.34404972,0.38420153,0.3363522,0.36631748,0.32049975,0.31575948,0.31458843,0.4037243,0.33177638,0.39660913,0.09947637,0.08020863,0.07897022,0.09222561,0.084452346,0.09075542,0.083865374,0.09814282,0.092225,0.099959016,0.098105446,0.07670349,0.09844513,0.08328183,0.07854156,0.077370524,0.096819475,0.09455849,0.10106893
72,0.39421815,0.32548174,0.32424328,0.35137868,0.3319008,0.3360285,0.32913843,0.36346477,0.40679336,0.3577261,0.39787793,0.35002857,0.37999383,0.3285549,0.32381463,0.3226436,0.41740066,0.33983156,0.41028553,0.10659428,0.08732653,0.086088106,0.09934351,0.09157024,0.09787333,0.09098327,0.105260715,0.0993429,0.10707693,0.10522336,0.0838214,0.105563045,0.09039973,0.08565946,0.08448842,0.10393737,0.10167639,0.108186826
73,0.41806504,0.3394724,0.33823395,0.37522557,0.3557477,0.35001916,0.34312913,0.38731167,0.43064025,0.38157302,0.42172483,0.37387547,0.40384075,0.3425456,0.33780533,0.33663428,0.44124755,0.3585078,0.43413243,0.11262433,0.093356594,0.092118174,0.10537358,0.09760031,0.10390338,0.09701334,0.11129078,0.105372965,0.11310698,0.11125341,0.08985147,0.1115931,0.096429795,0.09168954,0.09051849,0.10996744,0.10770644,0.114216894
74,0.43679717,0.3503163,0.34907788,0.39395773,0.37447983,0.36086306,0.35397303,0.4060438,0.44937238,0.40030512,0.44045696,0.3926076,0.4225729,0.35338947,0.34864923,0.34747815,0.45997968,0.37723988,0.4528645,0.11766091,0.09839317,0.09715475,0.110410154,0.10263686,0.10893996,0.1020499,0.116327345,0.11040954,0.11814356,0.11628999,0.09488802,0.116629675,0.10146637,0.096726105,0.09555505,0.11500402,0.11274302,0.11925347
75,0.4622456,0.36494306,0.36370468,0.4194062,0.39992833,0.37548986,0.3685998,0.4314923,0.47482082,0.42575362,0.4659054,0.4180561,0.44802138,0.36801627,0.363276,0.36210492,0.48542818,0.40268835,0.47831294,0.12592667,0.10665892,0.105420515,0.11867592,0.11090265,0.117205724,0.11031568,0.124593124,0.11867531,0.12640932,0.12455575,0.10315381,0.12489545,0.109732136,0.10499187,0.10382083,0.1232698,0.1210088,0.12751924
76,0.48245415,0.37637216,0.37513375,0.43961474,0.42013687,0.38691896,0.3800289,0.4517008,0.49502936,0.4459621,0.48611394,0.43826458,0.46822992,0.37944537,0.3747051,0.37353405,0.50563675,0.42289692,0.49852154,0.13301933,0.113751605,0.1125132,0.12576859,0.11799531,0.124298394,0.11740835,0.13168578,0.12576798,0.13350199,0.13164845,0.11024648,0.13198811,0.116824806,0.11208455,0.1109135,0.13036245,0.12810147,0.1346119
77,0.49853995,0.3853225,0.3843488,0.45570052,0.43622264,0.39586928,0.38897923,0.46778664,0.5111152,0.4620479,0.5021997,0.4543504,0.48431566,0.3883957,0.38365543,0.38248438,0.5217225,0.43898273,0.5146073,0.13903514,0.1197674,0.11852898,0.13178438,0.1240111,0.13031419,0.12342413,0.13770156,0.13178377,0.13951777,0.13766423,0.11626224,0.1380039,0.1228406,0.118100315,0.11692928,0.13637824,0.13411725,0.14062768
78,0.5181806,0.39623836,0.40398937,0.475341,0.4558632,0.40678513,0.3998951,0.48742715,0.5307557,0.48168847,0.52184033,0.47399095,0.50395626,0.39931154,0.3945713,0.39340022,0.5413631,0.45862323,0.5342479,0.15213071,0.13286297,0.13162458,0.14487997,0.13710672,0.14340979,0.13651972,0.15079717,0.14487936,0.15261336,0.1507598,0.12935786,0.1510995,0.13593619,0.13119592,0.1300249,0.14947385,0.14721285,0.15372328
79,0.5340807,0.40494034,0.4198895,0.49124113,0.47176334,0.4154871,0.4085971,0.5033273,0.54665583,0.49758855,0.5377404,0.48989102,0.5198564,0.40801355,0.4032733,0.40210223,0.5572632,0.4745234,0.550148,0.16328028,0.14401254,0.14277412,0.15602954,0.14825626,0.15455933,0.1476693,0.16194673,0.15602891,0.16376294,0.16190939,0.14050741,0.16224906,0.14708576,0.14234547,0.14117444,0.16062339,0.15836239,0.16487284
80,0.5470034,0.41191235,0.4328122,0.5041639,0.48468605,0.42245913,0.4155692,0.5162501,0.5595786,0.51051134,0.5506632,0.5028138,0.5327791,0.41498563,0.41024533,0.4090743,0.5701859,0.4874461,0.5630707,0.17259608,0.15332834,0.15208994,0.16534533,0.15757206,0.16387515,0.15698509,0.17126252,0.1653447,0.17307873,0.17122519,0.1498232,0.17156485,0.15640154,0.15166129,0.15049024,0.16993919,0.1676782,0.17418866
81,0.5576515,0.41759345,0.44346035,0.514812,0.49533418,0.42814025,0.4212502,0.52689815,0.57022667,0.5211594,0.56131124,0.5134619,0.5434272,0.42066664,0.4159264,0.4147553,0.58083403,0.49809417,0.57371885,0.18053521,0.16126746,0.16002905,0.17328446,0.16551118,0.17181426,0.16492422,0.17920165,0.17328383,0.18101786,0.17916429,0.15776233,0.17950398,0.16434066,0.15960039,0.15842935,0.1778783,0.17561734,0.18212779
82,0.5749035,0.42695525,0.4607123,0.53206396,0.5125862,0.43750203,0.43061203,0.5441501,0.58747864,0.53841144,0.5785632,0.5307139,0.5606792,0.43002847,0.42528823,0.42411712,0.598086,0.5153462,0.5909708,0.19663483,0.17736708,0.17612867,0.18938406,0.1816108,0.18791386,0.18102384,0.19530128,0.18938346,0.19711748,0.19526392,0.17386194,0.19560358,0.18044029,0.17570002,0.17452897,0.19397794,0.19171694,0.19822739
83,0.58919525,0.43459034,0.4750041,0.5463557,0.526878,0.4481209,0.4382471,0.5584419,0.60177046,0.5527032,0.59285504,0.5450057,0.574971,0.43766356,0.43292332,0.43175223,0.6123778,0.529638,0.60526264,0.21020374,0.19093598,0.18969758,0.20295298,0.1951797,0.20148277,0.19459273,0.20887017,0.20295236,0.21068639,0.20883282,0.18743084,0.2091725,0.19400918,0.18926893,0.1880979,0.20754685,0.20528586,0.21179633
84,0.60104465,0.4408338,0.48685345,0.5582052,0.53872734,0.45997027,0.44449067,0.57029134,0.61361986,0.5645526,0.6047045,0.5568551,0.58682036,0.4439071,0.43916678,0.4379958,0.62422717,0.54148746,0.617112,0.2215112,0.20224343,0.20100503,0.21426044,0.20648715,0.21279024,0.20590019,0.22017764,0.21425982,0.22199385,0.22014026,0.1987383,0.22047998,0.20531665,0.20057638,0.19940536,0.2188543,0.21659331,0.22310378
85,0.61857235,0.4502871,0.5043812,0.5757328,0.556255,0.4774979,0.45383605,0.587819,0.6311475,0.58208025,0.6222321,0.5743827,0.604348,0.45821804,0.4485122,0.45361024,0.6417548,0.55901504,0.6346396,0.23112454,0.2118568,0.21061838,0.22387375,0.2161005,0.2224036,0.21551351,0.22979094,0.22387318,0.23160715,0.22975363,0.20835166,0.23009329,0.21492998,0.21018972,0.20901868,0.22846766,0.22620665,0.23271708
86,0.63330585,0.4650207,0.51911473,0.5904663,0.57098854,0.49223152,0.46549562,0.60255253,0.64588106,0.5968138,0.63696563,0.5891163,0.6190816,0.4729515,0.45739198,0.46834376,0.65648836,0.5737486,0.6493732,0.23945893,0.22019117,0.21895276,0.23220815,0.2244349,0.23073797,0.22384791,0.23812537,0.23220755,0.23994158,0.238088,0.21668606,0.23842768,0.22326438,0.21852414,0.21735309,0.23988293,0.23454104,0.24105151
87,0.6522099,0.48392472,0.5380187,0.60937035,0.58989257,0.5111356,0.48439965,0.6214565,0.664785,0.6157178,0.6558696,0.6080203,0.6379856,0.4918556,0.47629598,0.4872478,0.6753924,0.59265256,0.6682772,0.24683674,0.227569,0.22633056,0.23958601,0.23181267,0.23811577,0.23122574,0.24550314,0.24124835,0.24731939,0.24546583,0.22406386,0.24580552,0.23064218,0.22590192,0.2247309,0.25185567,0.24191888,0.24842934
88,0.66821414,0.49992898,0.554023,0.6253746,0.60589683,0.52713984,0.500404,0.6374608,0.68078935,0.6317221,0.6718739,0.6240245,0.6539899,0.5078598,0.49230024,0.5032521,0.69139665,0.6086569,0.68428147,0.25350878,0.23424105,0.23300265,0.24625807,0.23848478,0.24478786,0.23789783,0.2521752,0.2521166,0.2539915,0.25213787,0.23073591,0.25247756,0.23731427,0.232574,0.23140295,0.2627239,0.24859099,0.25560886
89,0.68162715,0.51334196,0.567436,0.6387877,0.6193098,0.54055274,0.51381695,0.6508738,0.6942023,0.64513505,0.6852869,0.6374376,0.66740286,0.52127284,0.5057133,0.5166651,0.7048096,0.6220699,0.6976945,0.25967062,0.24040289,0.23916449,0.25241986,0.24464662,0.25094968,0.24405964,0.25833702,0.262185,0.2601533,0.2582997,0.23689775,0.25863937,0.24347608,0.23873581,0.23756479,0.27279237,0.25475273,0.26567718
90,0.6930481,0.5247629,0.578857,0.6502086,0.63073087,0.5519738,0.525238,0.66229475,0.7056233,0.65655607,0.6967079,0.6488585,0.6788239,0.5326938,0.51713425,0.52808607,0.71623063,0.63349086,0.70911545,0.26547447,0.24620678,0.24496834,0.25822368,0.25045043,0.2567535,0.24986346,0.26414087,0.2716935,0.26595715,0.26410356,0.2427016,0.26444322,0.24927993,0.24453966,0.24336861,0.2823008,0.2605566,0.27518567
91,0.7028758,0.5345906,0.5886846,0.66003627,0.6405584,0.5618014,0.53506553,0.67212236,0.7154509,0.6663836,0.70653546,0.65868616,0.68865144,0.5425214,0.5269619,0.5379136,0.72605824,0.6433185,0.7189431,0.2774519,0.25742513,0.2561867,0.2694421,0.26166883,0.26797187,0.26108187,0.27535927,0.2900271,0.27717552,0.2811117,0.25392,0.27566165,0.26049832,0.25575808,0.254587,0.3006344,0.27177498,0.29351926
92,0.717543,0.5492578,0.60335183,0.67470354,0.65522563,0.5764687,0.5497329,0.68678975,0.7301183,0.681051,0.72120285,0.67335343,0.7033187,0.55718875,0.54162914,0.552581,0.7407255,0.6579858,0.73361033,0.2936655,0.26729688,0.26605847,0.27931386,0.27154058,0.27784368,0.2709536,0.28523102,0.3062407,0.28704733,0.29732528,0.26379174,0.28553337,0.2703701,0.2656298,0.26445875,0.31684804,0.2816468,0.30973294
93,0.7303848,0.5620997,0.61619365,0.6875454,0.66806746,0.5893105,0.56257474,0.6996316,0.7429601,0.69389284,0.7340447,0.68619525,0.71616054,0.5700306,0.55447096,0.56542283,0.75356734,0.6708276,0.74645215,0.30812958,0.27603188,0.27479348,0.28804883,0.28027558,0.28657866,0.2796886,0.29396603,0.32070476,0.29578233,0.31178933,0.27252674,0.29426837,0.2791051,0.27436483,0.27319378,0.3313121,0.29038176,0.32419696
94,0.7452818,0.5769966,0.63109064,0.7024423,0.68296444,0.60420746,0.5774716,0.71452844,0.75785697,0.7087897,0.74894154,0.7010922,0.7310575,0.5849275,0.56936795,0.5803197,0.7684643,0.6857245,0.76134914,0.32130894,0.28393787,0.2826994,0.2959548,0.28818154,0.29448462,0.28759453,0.30187196,0.33388412,0.30368826,0.32496873,0.2804327,0.30708462,0.28701103,0.28227073,0.28109974,0.34449142,0.29828772,0.33737633
95,0.7583546,0.5900694,0.6441634,0.71551514,0.6960373,0.61728024,0.59054446,0.7276013,0.7709298,0.72186255,0.7620144,0.71416503,0.7441303,0.5980004,0.58244073,0.5933926,0.7815371,0.69879735,0.77442193,0.3335366,0.29122975,0.28999135,0.30324674,0.29547346,0.30177653,0.29488647,0.3091639,0.3461118,0.31098017,0.33719638,0.28934708,0.3193123,0.2943029,0.28956267,0.28839162,0.3567191,0.3055796,0.34960398
96,0.771909,0.6036238,0.6577178,0.7290695,0.7095916,0.63083464,0.60409886,0.7411557,0.78448415,0.73541695,0.7755688,0.7277194,0.75768465,0.61155474,0.59599507,0.60694695,0.7950915,0.7123518,0.7879763,0.34507188,0.298073,0.29683453,0.31008992,0.30231667,0.30861974,0.3017297,0.3160071,0.3576471,0.31782335,0.34873164,0.3008823,0.33084756,0.30114615,0.29640588,0.29523486,0.36825436,0.31242284,0.36113924
97,0.7838751,0.6155899,0.66968393,0.7410355,0.72155774,0.64280075,0.6160649,0.75312173,0.79645026,0.747383,0.78753483,0.7396854,0.7696508,0.6235208,0.6079612,0.618913,0.8070576,0.7243178,0.7999424,0.36297828,0.30871034,0.30747193,0.32072732,0.31295404,0.31925714,0.31236705,0.3322249,0.3755535,0.3284607,0.36663803,0.3187887,0.34875402,0.31178352,0.30704325,0.3058722,0.38616082,0.32306018,0.37904564
98,0.793978,0.62569284,0.6797868,0.75113845,0.73166066,0.6529036,0.6261678,0.7632246,0.8065531,0.75748587,0.7976377,0.7497884,0.7797537,0.63362366,0.6180641,0.6290159,0.8171605,0.73442066,0.81004536,0.37905705,0.31818378,0.3169454,0.3362176,0.3224275,0.32873058,0.32184052,0.34830374,0.39163226,0.3425651,0.38271683,0.33486748,0.3648328,0.32125697,0.31651673,0.31534564,0.4022396,0.3325337,0.3951245
99,0.80439246,0.63610727,0.6902012,0.7615529,0.7420751,0.6633181,0.6365822,0.7736391,0.8169675,0.76790035,0.80805206,0.76020277,0.7901681,0.64403814,0.6284785,0.63943034,0.82757497,0.7448351,0.8204597,0.3936951,0.32672665,0.3254882,0.3508556,0.3313777,0.3372734,0.3303834,0.36294168,0.4062703,0.35720304,0.39735487,0.3495055,0.37947077,0.32979983,0.3250596,0.32388854,0.41687757,0.3410765,0.4097624
100,0.8138609,0.6455757,0.6996697,0.77102137,0.7515435,0.6727865,0.6460507,0.7831075,0.82643604,0.7773688,0.8175206,0.7696713,0.79963654,0.6535066,0.637947,0.64889884,0.8370433,0.75430363,0.8299282,0.40727744,0.33459073,0.3333523,0.36443797,0.3449601,0.34513748,0.33824745,0.37652406,0.4198526,0.37078542,0.41093722,0.36308786,0.3930531,0.33766392,0.33292365,0.3317526,0.43045995,0.34894058,0.4233448
101,0.82187366,0.6535885,0.7076825,0.77903414,0.7595563,0.6807993,0.65406346,0.7911203,0.8344488,0.7853816,0.8255334,0.7776841,0.8076493,0.6615194,0.64595973,0.6569116,0.8450562,0.7623164,0.83794093,0.420074,0.34194782,0.3407094,0.37723452,0.35775664,0.35249457,0.34560457,0.38932058,0.4326492,0.38358197,0.42373377,0.3758844,0.40584967,0.345021,0.34028074,0.3391097,0.4432565,0.36051676,0.43614137
102,0.829812,0.6615268,0.7156209,0.7869726,0.7674947,0.68873763,0.66200185,0.7990587,0.8423872,0.79331994,0.8334718,0.7856225,0.8155877,0.66945773,0.6538981,0.66485,0.8529945,0.7702548,0.8458793,0.4322935,0.3489289,0.3476905,0.38945404,0.3699762,0.35947567,0.35258564,0.40154016,0.4448687,0.39580145,0.4359533,0.38810393,0.4180692,0.35200208,0.34726185,0.34609076,0.45547602,0.37273625,0.44836083
103,0.8372865,0.6690013,0.72309536,0.79444695,0.7749692,0.6962122,0.66947633,0.8065331,0.8498616,0.80079436,0.8409462,0.79309684,0.8230622,0.6769322,0.6613726,0.6723244,0.860469,0.7777292,0.8533538,0.44409803,0.35563415,0.35439575,0.40125856,0.3817807,0.3661809,0.35929087,0.41334465,0.45667323,0.407606,0.4477578,0.39990845,0.42987373,0.3587073,0.35396707,0.35279602,0.46728054,0.38454077,0.46016535
104,0.8436279,0.6753428,0.72943676,0.8007884,0.7813106,0.70255363,0.6758177,0.8128746,0.8562031,0.8071359,0.84728765,0.79943836,0.82940364,0.6832737,0.66771406,0.6786659,0.86681044,0.7840707,0.8596953,0.45561284,0.36213988,0.3609015,0.4127734,0.39329553,0.37268665,0.36579663,0.4248595,0.46818802,0.41912088,0.45927262,0.41142327,0.44138858,0.36521307,0.36047283,0.35930175,0.47879538,0.39605564,0.4716803
105,0.84914243,0.6808573,0.73495126,0.8063029,0.7868251,0.70806813,0.68133223,0.81838906,0.8617176,0.8126504,0.85280216,0.80495286,0.83491814,0.6887882,0.67322856,0.6841804,0.87232494,0.7895851,0.8652098,0.47249445,0.37171492,0.3704765,0.429655,0.4101771,0.38226166,0.37537166,0.44174105,0.48506966,0.43600246,0.47615424,0.42830488,0.45827016,0.37478808,0.37004784,0.36887679,0.49567696,0.41293722,0.4885619
106,0.85439694,0.6861118,0.7402058,0.8115575,0.7920796,0.7133226,0.6865868,0.8236436,0.8669721,0.8179049,0.8580567,0.8102074,0.84017265,0.6940427,0.6784831,0.68943495,0.87757945,0.79483974,0.8704643,0.4880145,0.38041997,0.37918156,0.44517502,0.42569715,0.3909667,0.38407668,0.45726117,0.5005897,0.45152247,0.49167427,0.44382492,0.4737902,0.38349313,0.3787529,0.37758183,0.51119703,0.42845726,0.50408185
107,0.85965073,0.69136554,0.74545956,0.8168112,0.79733336,0.7185764,0.6918406,0.8288974,0.87222594,0.8231587,0.8633105,0.81546116,0.8454264,0.6992965,0.68373686,0.6946887,0.88283324,0.80009353,0.87571806,0.5099511,0.39270097,0.39575988,0.46711156,0.4476337,0.4032477,0.39635774,0.4791977,0.52252626,0.47345904,0.51361084,0.4657615,0.49572673,0.3957742,0.3910339,0.38986284,0.53313357,0.45039383,0.5260185
108,0.8641529,0.6958677,0.7499618,0.8213135,0.8018356,0.72307855,0.69634277,0.8333996,0.8767281,0.82766086,0.8678127,0.8199634,0.8499286,0.70379865,0.68823904,0.699191,0.8873354,0.8045957,0.88022023,0.5294354,0.40344316,0.41524422,0.4865959,0.46711805,0.41398993,0.4071,0.49868205,0.5420106,0.49294338,0.5330952,0.4852458,0.5152111,0.40651646,0.40177613,0.4006051,0.5526179,0.4698781,0.5455028
109,0.86820805,0.69992286,0.7540169,0.8253686,0.80589074,0.7271337,0.7003979,0.8374547,0.8807832,0.83171594,0.8718678,0.8240185,0.85398376,0.7078538,0.6922941,0.70324606,0.8913905,0.80865085,0.88427544,0.5469862,0.4129867,0.43279508,0.5041468,0.48466888,0.4235335,0.41664353,0.51623297,0.55956143,0.51049423,0.550646,0.5027967,0.53276193,0.41606,0.41131967,0.41014868,0.57016873,0.487429,0.5630536
110,0.8723178,0.7040326,0.7581266,0.82947826,0.8100005,0.73124343,0.7045076,0.8415644,0.88489294,0.8358257,0.8759775,0.8281281,0.8580935,0.7119634,0.69640386,0.7073557,0.89550024,0.8127605,0.88838506,0.5630753,0.42163935,0.44888413,0.5202358,0.500758,0.43218616,0.4252961,0.53232193,0.57565045,0.5265832,0.566735,0.51888573,0.548851,0.42471257,0.41997233,0.41880122,0.5862578,0.50351804,0.57914263
111,0.875888,0.70760286,0.7616968,0.83304846,0.8135707,0.73481363,0.7080778,0.8451346,0.88846314,0.8393959,0.8795477,0.8316984,0.8616637,0.7155336,0.6999741,0.7109259,0.8990705,0.81633073,0.8919554,0.57801473,0.4295987,0.46382353,0.5351752,0.5156974,0.4401455,0.43325543,0.54726136,0.5905899,0.5415226,0.58167446,0.5338251,0.56379044,0.43267187,0.42793164,0.42676055,0.60119724,0.5184574,0.59408206
112,0.87908643,0.71080124,0.76489526,0.83624697,0.8167691,0.7380121,0.71127635,0.8483331,0.89166164,0.8425944,0.8827462,0.83489686,0.8648621,0.7187322,0.70317256,0.71412444,0.90226895,0.81952924,0.89515376,0.5920434,0.43701318,0.4778522,0.5492039,0.529726,0.45096898,0.44066995,0.56128997,0.6046185,0.5555513,0.5957031,0.54785377,0.57781905,0.4400864,0.43534616,0.43417507,0.61522585,0.5324861,0.60811067
113,0.8819823,0.71369714,0.7677911,0.83914274,0.81966496,0.74090797,0.71417207,0.85122895,0.89455736,0.8454902,0.88564193,0.83779263,0.8677579,0.72162795,0.7060684,0.7170202,0.9051648,0.822425,0.8980496,0.61212647,0.4477102,0.49793527,0.5692869,0.5498091,0.47105202,0.45136693,0.58137304,0.62470156,0.5756343,0.61578614,0.5679368,0.5979021,0.45177206,0.44604313,0.4471643,0.63530886,0.5525691,0.62819374
114,0.8846303,0.7163451,0.77043915,0.84179074,0.82231295,0.7435559,0.71682006,0.8538768,0.89720535,0.84813815,0.8882899,0.84044063,0.870406,0.72427595,0.7087164,0.71966815,0.9078127,0.825073,0.9006976,0.63018924,0.46190402,0.51599807,0.5873498,0.56787187,0.48911485,0.46237907,0.5994359,0.64276445,0.5936972,0.633849,0.58599967,0.6159649,0.46983495,0.4555186,0.46522716,0.65337175,0.570632,0.64625657
115,0.88707495,0.7187898,0.7728838,0.8442354,0.82475764,0.74600065,0.71926475,0.8563216,0.8996501,0.8505829,0.8907347,0.8428854,0.87285066,0.7267207,0.7111611,0.7221129,0.91025746,0.8275177,0.90314233,0.64652973,0.47824457,0.53233856,0.6036902,0.5842124,0.50545543,0.4787195,0.6157764,0.6591049,0.6100377,0.65018946,0.6023401,0.63230544,0.4861754,0.47061583,0.48156765,0.6697123,0.5869724,0.66259706
116,0.88935244,0.7210673,0.77516127,0.846513,0.8270351,0.74827814,0.72154236,0.8585992,0.9019277,0.85286045,0.8930123,0.84516287,0.87512815,0.7289982,0.7134386,0.72439045,0.91253495,0.82979524,0.9054198,0.6670907,0.49880555,0.55289954,0.6242512,0.6047734,0.52601635,0.49928048,0.6363373,0.67966586,0.6305986,0.67075044,0.6229011,0.6528664,0.5067364,0.4911768,0.50212866,0.69027317,0.6075334,0.68315804
117,0.89149207,0.7232069,0.7773009,0.8486526,0.8291747,0.7504177,0.7236819,0.8607387,0.9040672,0.85499996,0.8951518,0.8473025,0.8772677,0.73113775,0.7155782,0.7265301,0.9146745,0.8319348,0.9075594,0.69014955,0.52186435,0.57595843,0.6473101,0.62783223,0.5490752,0.52233934,0.6593962,0.7027247,0.65365744,0.6938093,0.6459599,0.67592525,0.5297952,0.5142357,0.52518743,0.71333206,0.6305923,0.70621693
118,0.8933303,0.7250451,0.7791391,0.8504908,0.83101296,0.7522559,0.72552013,0.86257696,0.9059055,0.8568382,0.89699006,0.8491407,0.8791059,0.732976,0.7174164,0.7283683,0.9165128,0.8337731,0.9093976,0.71038675,0.54210156,0.5961956,0.6675472,0.64806944,0.5693124,0.54257655,0.6796334,0.7229619,0.67389464,0.7140465,0.66619706,0.69616246,0.55003244,0.5344728,0.54542464,0.73356926,0.65082943,0.72645414
119,0.89563006,0.7273449,0.7814389,0.8527906,0.8333127,0.7545557,0.7278199,0.86487675,0.9082052,0.859138,0.89928985,0.8514405,0.8814057,0.7352758,0.7197162,0.73066807,0.9188125,0.83607286,0.9116974,0.7304145,0.5621294,0.61622334,0.687575,0.6680972,0.5893402,0.5626043,0.6996612,0.74298966,0.69392246,0.73407423,0.68622494,0.7161902,0.57006025,0.55450064,0.56545246,0.753597,0.67085725,0.74648184
120,0.8973994,0.72911423,0.78320825,0.85455996,0.8350821,0.75632507,0.7295893,0.86664605,0.9099746,0.8609073,0.90105915,0.85320985,0.88317513,0.73704517,0.7214855,0.7324374,0.9205819,0.8378422,0.9134667,0.75035024,0.5820651,0.63615906,0.70751077,0.6880329,0.60927594,0.58254015,0.719597,0.76292545,0.71385825,0.7540101,0.70616066,0.73612595,0.58999604,0.57443637,0.58538824,0.77353275,0.69079304,0.7664176
121,0.8996816,0.73139644,0.78549045,0.85684204,0.8373643,0.75860727,0.73187137,0.8689282,0.9122567,0.86318946,0.9033413,0.855492,0.8854573,0.73932725,0.72376776,0.7347196,0.92286414,0.8401243,0.91574895,0.76782924,0.59954405,0.6536381,0.7249898,0.7055119,0.62675494,0.6000191,0.7370759,0.78040445,0.7313372,0.771489,0.72363967,0.753605,0.607475,0.59191537,0.6028672,0.79101175,0.70827204,0.78389657
122,0.90129524,0.73301005,0.78710407,0.85845566,0.83897793,0.7602209,0.733485,0.8705418,0.91387033,0.8648031,0.9049549,0.8571056,0.8870709,0.74094087,0.7253814,0.7363332,0.92447776,0.8417379,0.9173626,0.78525805,0.61697286,0.6710669,0.7424185,0.7229407,0.64418364,0.61744785,0.7545047,0.7978332,0.74876595,0.7889178,0.7410685,0.7710337,0.62490374,0.6093442,0.620296,0.80844045,0.7257008,0.8013254
123,0.9035193,0.73523414,0.78932816,0.86067975,0.84120196,0.762445,0.7357091,0.87276596,0.9160944,0.8670272,0.907179,0.8593297,0.889295,0.743165,0.72760546,0.7385572,0.9267018,0.843962,0.91958666,0.8007221,0.63243693,0.6865309,0.75788254,0.73840475,0.6596477,0.63291186,0.7699686,0.81329715,0.76422995,0.8043817,0.75653243,0.7864978,0.64036775,0.6248082,0.63576,0.8239045,0.74116474,0.8167894
124,0.9050179,0.7367327,0.79082674,0.86217844,0.8427006,0.76394355,0.7372078,0.8742646,0.91759306,0.86852586,0.90867764,0.86082834,0.89079356,0.7446636,0.72910404,0.7400559,0.9282004,0.84546065,0.92108524,0.81553787,0.6472527,0.7013467,0.77269834,0.75322056,0.6744635,0.64772767,0.7847845,0.82811296,0.77904576,0.81919754,0.77134824,0.8013135,0.65518355,0.639624,0.65057576,0.8387204,0.75598055,0.8316052
125,0.9071252,0.73884,0.79293406,0.8642857,0.84480786,0.7660508,0.73931503,0.8763718,0.9197003,0.8706331,0.9107849,0.86293554,0.89290094,0.74677086,0.7312113,0.7421631,0.9303077,0.8475679,0.9231925,0.82881266,0.66052747,0.7146215,0.7859731,0.7664953,0.68773824,0.6610024,0.7980592,0.84138775,0.7923205,0.8324723,0.784623,0.8145883,0.6684583,0.6528988,0.6638505,0.8519951,0.76925534,0.84488
126,0.90898347,0.74069834,0.7947923,0.86614394,0.84666616,0.76790917,0.7411733,0.8782301,0.9215586,0.87249136,0.9126432,0.8647939,0.8947592,0.7486292,0.7330696,0.7440214,0.932166,0.84942627,0.92505085,0.84097946,0.67269427,0.7267883,0.79813987,0.7786621,0.6999051,0.67316926,0.8102261,0.8535546,0.80448735,0.8446392,0.79678977,0.82675517,0.68062514,0.6650655,0.67601734,0.86416197,0.7814222,0.8570467
127,0.9101262,0.741841,0.79593503,0.8672867,0.84780884,0.76905185,0.74231607,0.8793729,0.92270136,0.87363416,0.913786,0.86593664,0.89590186,0.74977195,0.7342123,0.74516416,0.9333087,0.850569,0.9261935,0.85206354,0.68377835,0.73787236,0.809224,0.78974617,0.7109892,0.6842533,0.82131016,0.8646386,0.8155714,0.8557232,0.8078739,0.8378392,0.6917092,0.67614967,0.6871014,0.87524605,0.7925062,0.86813086
128,0.91205406,0.7437689,0.7978629,0.8692145,0.8497367,0.7709797,0.7442438,0.8813007,0.9246291,0.87556195,0.91571367,0.8678644,0.8978297,0.75169975,0.73614013,0.74709195,0.9352366,0.85249674,0.9281213,0.8616981,0.6934129,0.7475069,0.81885856,0.7993808,0.72062373,0.6938879,0.8309447,0.8742732,0.82520604,0.86535776,0.81750846,0.84747374,0.7013438,0.6857842,0.69673604,0.8848806,0.8021408,0.8777654
129,0.9131392,0.74485403,0.7989481,0.8702997,0.850822,0.7720649,0.745329,0.88238585,0.9257144,0.8766471,0.91679895,0.8689496,0.89891493,0.7527849,0.73722535,0.7481772,0.93632174,0.85358196,0.92920655,0.87042654,0.70214134,0.7562354,0.82758707,0.8081092,0.7293522,0.7026164,0.8396732,0.8830017,0.8339345,0.8740863,0.82623696,0.85620224,0.7100723,0.6945126,0.70546454,0.89360905,0.81086934,0.8864939
130,0.914989,0.7467038,0.8007978,0.8721495,0.8526716,0.77391464,0.74717885,0.8842356,0.92756414,0.8784969,0.9186487,0.8707994,0.9007647,0.75463474,0.73907506,0.750027,0.93817145,0.8554318,0.9310564,0.8778913,0.7096062,0.7637001,0.83505183,0.81557393,0.736817,0.7100812,0.847138,0.8904665,0.8413993,0.88155115,0.8337017,0.863667,0.71753705,0.70197743,0.7129293,0.9010738,0.8183341,0.8939586
131,0.9166124,0.74832714,0.8024212,0.87377286,0.854295,0.77553797,0.7488022,0.885859,0.92918754,0.8801203,0.9202721,0.8724228,0.902388,0.756258,0.7406984,0.75165033,0.9397948,0.85705507,0.93267965,0.8847528,0.7164676,0.77056164,0.8419132,0.82243544,0.74367845,0.7169426,0.85399944,0.8973279,0.8482607,0.88841254,0.8405632,0.87052846,0.7243985,0.70883894,0.7197907,0.90793526,0.82519555,0.90082014
132,0.9181444,0.7498592,0.80395323,0.87530494,0.8558271,0.77707005,0.7503343,0.8873911,0.93071955,0.88165236,0.9218042,0.87395483,0.90392005,0.75779015,0.74223053,0.7531824,0.9413269,0.85858715,0.93421173,0.89061487,0.7223297,0.7764237,0.84777534,0.82829756,0.7495405,0.72280467,0.8598615,0.90319,0.85412276,0.8942746,0.8464252,0.8763906,0.7302605,0.71470094,0.72565275,0.9137973,0.83105755,0.90668225
133,0.91960335,0.75131816,0.8054122,0.87676376,0.857286,0.778529,0.75179315,0.88885,0.9321785,0.88311124,0.9232631,0.87541366,0.90537906,0.759249,0.7436894,0.75464123,0.94278586,0.860046,0.9356706,0.8955935,0.7273084,0.78140235,0.852754,0.8332762,0.7545192,0.7277833,0.86484015,0.9081687,0.8591014,0.89925325,0.85140395,0.88136923,0.73523927,0.71967965,0.7306315,0.91877604,0.8360362,0.9116609
134,0.92100215,0.75271696,0.806811,0.8781627,0.85868484,0.7799278,0.753192,0.8902488,0.9335773,0.88451004,0.9246619,0.8768126,0.90677786,0.7606479,0.7450882,0.75604016,0.94418466,0.86144495,0.9370694,0.9004127,0.7321275,0.7862215,0.8575732,0.83809537,0.7593383,0.73260254,0.8696593,0.9129878,0.8639206,0.9040724,0.8562231,0.8861884,0.7400584,0.72449875,0.7354506,0.9235952,0.8408555,0.91648006
135,0.92235124,0.75406605,0.80816007,0.8795117,0.8600339,0.7812769,0.75454104,0.89159787,0.9349264,0.88585913,0.92601097,0.87816155,0.90812695,0.7619969,0.7464373,0.7573891,0.94553375,0.862794,0.9384185,0.9042667,0.7359816,0.79007554,0.8614272,0.8419494,0.7631924,0.7364565,0.87351334,0.91684186,0.8677746,0.90792644,0.86007714,0.8900424,0.74391234,0.72835284,0.73930466,0.9274492,0.8447094,0.9203341
136,0.923659,0.75537384,0.80946785,0.88081956,0.8613417,0.78258467,0.7558489,0.8929057,0.9362342,0.887167,0.9273188,0.87946945,0.9094347,0.76330477,0.74774516,0.75869703,0.94684154,0.86410177,0.93972635,0.9083128,0.74002767,0.79412174,0.8654734,0.84599555,0.7672385,0.7405027,0.87755954,0.92088807,0.8718208,0.91197264,0.86412334,0.8940885,0.7479586,0.7323989,0.74335086,0.9314953,0.84875566,0.9243802
137,0.9249324,0.7566472,0.81074125,0.88209283,0.8626151,0.783858,0.75712216,0.894179,0.9375075,0.88844025,0.9285921,0.8807428,0.91070807,0.76457804,0.74901855,0.7599703,0.9481149,0.8653751,0.94099975,0.9117823,0.74349713,0.7975912,0.86894286,0.849465,0.77070796,0.7439722,0.88102895,0.9243575,0.8752903,0.91544205,0.8675927,0.89755803,0.751428,0.73586845,0.7468203,0.93496484,0.85222507,0.92784965
138,0.9261769,0.7578918,0.81198573,0.8833374,0.86385953,0.7851026,0.7583667,0.89542353,0.93875206,0.8896848,0.92983663,0.8819873,0.9119526,0.7658226,0.75026304,0.76121485,0.9493594,0.8666196,0.94224423,0.9144927,0.74620754,0.8003016,0.8716532,0.8521754,0.77341837,0.7466825,0.88373935,0.9270679,0.8780006,0.91815245,0.8703031,0.90026844,0.7541384,0.7385788,0.7495306,0.93767524,0.85493547,0.9305601
139,0.92739725,0.75911206,0.813206,0.88455766,0.8650799,0.78632283,0.759587,0.89664376,0.9399723,0.890905,0.93105686,0.88320756,0.91317284,0.7670429,0.7514833,0.7624351,0.95057964,0.86783993,0.9434645,0.9175338,0.7492486,0.8033427,0.87469435,0.8552165,0.77645946,0.7497237,0.8867805,0.930109,0.88104177,0.9211936,0.8733443,0.9033095,0.75717956,0.74161994,0.7525718,0.94071627,0.8579766,0.9336012
140,0.9285966,0.7603114,0.8144055,0.8857571,0.8662793,0.78752226,0.7607864,0.89784324,0.94117177,0.8921045,0.93225634,0.884407,0.9143723,0.7682423,0.7526827,0.7636345,0.9517791,0.86903936,0.9446639,0.9201697,0.7518846,0.80597854,0.8773302,0.85785234,0.77909535,0.7523595,0.88941634,0.93274486,0.8836776,0.92382944,0.87598014,0.9059454,0.75981534,0.74425584,0.75520766,0.9433522,0.8606124,0.9362371
141,0.92977846,0.76149327,0.8155873,0.8869389,0.8674611,0.7887041,0.7619683,0.8990251,0.9423536,0.89328635,0.9334382,0.8855889,0.91555405,0.7694242,0.7538645,0.7648164,0.95296097,0.87022126,0.9458457,0.92254794,0.7542628,0.80835676,0.8797084,0.86023057,0.78147364,0.75473785,0.8917946,0.93512315,0.88605595,0.9262077,0.87835836,0.90832365,0.7621937,0.74663407,0.75758594,0.94573045,0.86299074,0.93861526
142,0.93094504,0.76265985,0.8167538,0.88810545,0.86862767,0.7898706,0.7631348,0.90019155,0.94352007,0.8944528,0.93460464,0.88675535,0.9167206,0.77059066,0.7550311,0.76598287,0.95412743,0.8713877,0.9470123,0.9247153,0.75643015,0.8105241,0.88187575,0.86239797,0.783641,0.7569051,0.8939619,0.93729043,0.88822323,0.928375,0.8805257,0.910491,0.764361,0.7488014,0.7597532,0.9478978,0.8651581,0.94078267
143,0.9320982,0.763813,0.81790704,0.88925874,0.86978084,0.79102385,0.76428807,0.9013449,0.9446734,0.89560616,0.935758,0.88790864,0.91787386,0.77174395,0.75618434,0.7671362,0.95528066,0.872541,0.94816554,0.9267082,0.7584231,0.81251705,0.88386875,0.8643909,0.7856339,0.75889814,0.89595497,0.9392835,0.89021623,0.93036807,0.88251865,0.91248393,0.766354,0.75079435,0.7617462,0.94989073,0.867151,0.9427756
144,0.93323976,0.7649545,0.8190486,0.8904003,0.87092245,0.79216534,0.76542956,0.9024864,0.9458149,0.89674765,0.9368995,0.8890502,0.9190154,0.77288544,0.7573259,0.76827776,0.9564222,0.8736825,0.9493071,0.92855686,0.76027167,0.8143657,0.8857174,0.8662395,0.78748244,0.76074666,0.8978035,0.941132,0.89206475,0.9322166,0.8843672,0.9143325,0.76820254,0.752643,0.7635948,0.9517393,0.8689996,0.9446242
145,0.9343709,0.76608574,0.82017976,0.89153147,0.8720536,0.7932966,0.7665608,0.9036176,0.94694614,0.8978789,0.9380307,0.8901814,0.9201466,0.7740166,0.758457,0.76940894,0.9575534,0.8748137,0.95043826,0.92974806,0.76146287,0.8155569,0.8869085,0.8674307,0.7886737,0.7619378,0.8989947,0.9423231,0.8932559,0.93340766,0.88555837,0.9155237,0.7693937,0.7538341,0.76478595,0.95293057,0.87019074,0.9458153
146,0.93549275,0.7672076,0.8213016,0.8926532,0.8731754,0.79441845,0.7676827,0.90473944,0.9480679,0.89900076,0.93915254,0.8913032,0.9212684,0.7751385,0.7595789,0.77053076,0.95867527,0.87593555,0.9515601,0.9316375,0.76335233,0.81744635,0.888798,0.86932015,0.7905631,0.7638273,0.9008842,0.9442127,0.8951455,0.93529725,0.88744795,0.9174132,0.77128327,0.75572366,0.7666755,0.95482004,0.87208027,0.94770485
147,0.93660617,0.768321,0.822415,0.8937666,0.8742888,0.7955318,0.76879597,0.9058528,0.9491813,0.90011406,0.9402659,0.8924165,0.9223819,0.77625185,0.76069224,0.77164406,0.9597887,0.87704885,0.95267344,0.9332985,0.76501334,0.81910735,0.89045906,0.8709812,0.79222417,0.7654884,0.9025452,0.9458737,0.8968065,0.93695825,0.88910896,0.9190742,0.7729442,0.75738466,0.76833653,0.95648104,0.87374127,0.94936585
148,0.93771183,0.76942664,0.82352066,0.8948723,0.87539446,0.7966375,0.76990163,0.90695846,0.950287,0.9012197,0.94137156,0.89352226,0.9234874,0.7773576,0.7617979,0.7727498,0.9608943,0.8781545,0.9537791,0.9348599,0.76657474,0.8206688,0.89202046,0.8725426,0.7937856,0.7670498,0.9041066,0.94743514,0.8983679,0.9385197,0.8906703,0.9206356,0.7745056,0.758946,0.7698979,0.9580424,0.8753027,0.95092726
149,0.93881035,0.7705252,0.8246192,0.8959709,0.87649304,0.797736,0.7710002,0.908057,0.9513855,0.90231824,0.9424701,0.8946208,0.92458606,0.7784561,0.7628965,0.77384835,0.96199286,0.87925315,0.95487773,0.9357438,0.7674586,0.82155263,0.8929043,0.87342644,0.79466945,0.76793367,0.9049905,0.94831896,0.89925176,0.9394036,0.89155424,0.92151946,0.77538955,0.7598299,0.77078176,0.9589263,0.8761866,0.9518111
150,0.9399022,0.77161705,0.82571113,0.8970628,0.87758493,0.7988279,0.7720921,0.90914893,0.95247746,0.9034102,0.94356203,0.8957126,0.92567796,0.779548,0.7639884,0.7749402,0.9630847,0.88034505,0.9559696,0.9374021,0.7691169,0.82321095,0.8945626,0.87508476,0.79632777,0.7695919,0.90664876,0.9499773,0.90091,0.94106185,0.89321244,0.92317784,0.77704775,0.7614882,0.77244,0.9605846,0.8778448,0.95346946
151,0.9409878,0.77270263,0.82679665,0.8981483,0.87867045,0.79991347,0.77317774,0.9102345,0.953563,0.9044958,0.9446476,0.89679825,0.9267635,0.78063357,0.76507396,0.7760258,0.96417034,0.8814306,0.95705515,0.93886095,0.77057576,0.82466984,0.8960215,0.87654364,0.7977866,0.7710508,0.90810764,0.95143616,0.9023689,0.94252074,0.89467144,0.92463666,0.7785067,0.7629471,0.77389896,0.9620434,0.87930375,0.95492834
152,0.9420675,0.7737823,0.8278763,0.89922804,0.87975013,0.80099314,0.77425736,0.91131413,0.95464265,0.9055754,0.9457272,0.89787793,0.9278432,0.78171325,0.7661536,0.77710545,0.9652499,0.8825103,0.9581348,0.9402479,0.77196276,0.8260568,0.89740837,0.87793064,0.7991736,0.77243775,0.9094945,0.95282304,0.9037558,0.9439076,0.8960583,0.9260236,0.77989364,0.764334,0.77528584,0.9634304,0.8806907,0.9563153
153,0.9431414,0.7748562,0.8289503,0.90030193,0.8808241,0.80206704,0.77533126,0.9123881,0.9557166,0.90664935,0.9468012,0.8989519,0.9289171,0.78278714,0.76722753,0.7781794,0.96632385,0.8835842,0.9592087,0.9415771,0.7732919,0.8273859,0.89873755,0.8792597,0.8005027,0.7737668,0.9108237,0.9541521,0.90508497,0.94523674,0.8973874,0.9273527,0.78122276,0.76566315,0.77661496,0.9647596,0.88201976,0.95764434
154,0.94421005,0.77592486,0.8300189,0.9013705,0.8818927,0.80313563,0.7763998,0.91345656,0.9567851,0.9077179,0.9478697,0.90002036,0.9299857,0.7838557,0.7682961,0.77924794,0.96739256,0.88465273,0.9602773,0.9423525,0.7740673,0.8281613,0.8995129,0.88003516,0.8012781,0.7745422,0.9115991,0.95492756,0.9058604,0.94601214,0.89816284,0.9281281,0.78199816,0.7664386,0.77739036,0.96553504,0.8827952,0.9584198
155,0.9452732,0.776988,0.8310821,0.90243375,0.8829559,0.80419886,0.7774631,0.9145199,0.9578484,0.9087812,0.948933,0.90108365,0.9310489,0.78491896,0.76935935,0.7803112,0.9684557,0.885716,0.96134055,0.94378173,0.7754966,0.8295906,0.9009423,0.8814645,0.80270743,0.77597165,0.9130284,0.95635694,0.90728974,0.9474415,0.8995922,0.92955744,0.7834275,0.76786786,0.77881974,0.96696424,0.88422453,0.95984906
156,0.9463315,0.7780463,0.8321403,0.903492,0.8840141,0.8052571,0.7785213,0.91557807,0.9589066,0.90983933,0.94999117,0.90214187,0.93210715,0.7859771,0.77041763,0.7813693,0.969514,0.8867742,0.9623989,0.9445132,0.776228,0.830322,0.9016736,0.88219583,0.80343884,0.77670294,0.9137598,0.95708823,0.9080211,0.9481728,0.9003235,0.93028885,0.7841589,0.7685993,0.7795511,0.9676957,0.8849559,0.96058047
157,0.94738454,0.77909935,0.83319336,0.90454507,0.8850672,0.8063102,0.7795744,0.9166312,0.95995975,0.9108925,0.9510443,0.90319496,0.9331602,0.7870303,0.77147067,0.78242254,0.9705671,0.88782734,0.96345186,0.94594777,0.7776626,0.83175653,0.90310824,0.8836304,0.8048734,0.77813756,0.9151944,0.9585229,0.90945566,0.9496075,0.9017582,0.93172336,0.7855935,0.77003384,0.7809857,0.96913016,0.88639057,0.96201503
158,0.9482358,0.7799506,0.83404464,0.9053963,0.8859185,0.80716145,0.7804256,0.9174824,0.9608109,0.91174364,0.9518955,0.9040462,0.93401146,0.78788143,0.77232194,0.78327376,0.97141826,0.88867855,0.96430314,0.9472246,0.7789394,0.83303344,0.9043851,0.88490725,0.80615026,0.7794144,0.91647124,0.95979977,0.91073257,0.95088434,0.90303504,0.9330002,0.78687036,0.7713107,0.78226256,0.9704071,0.8876673,0.9632919
159,0.94843423,0.7801491,0.83424306,0.90559477,0.8861169,0.8073599,0.7806241,0.91768086,0.9610094,0.9119421,0.95209396,0.90424466,0.93420994,0.78808,0.77252036,0.78347224,0.97161674,0.88887703,0.9645016,0.94800174,0.7797165,0.83381057,0.9051623,0.8856844,0.8069273,0.7801916,0.91724837,0.9605769,0.91150963,0.95166147,0.90381217,0.93377745,0.7876474,0.7720879,0.78303975,0.97118413,0.88844454,0.964069
160,0.9486308,0.7803456,0.83443964,0.9057913,0.88631344,0.8075564,0.7808206,0.91787744,0.96120596,0.9121387,0.95229053,0.90444124,0.93440646,0.7882765,0.7727169,0.78366876,0.9718132,0.88907355,0.9646981,0.9484134,0.7801282,0.83422214,0.90557384,0.886096,0.807339,0.78060323,0.91766,0.9609885,0.91192126,0.9520731,0.9042238,0.93418896,0.7880591,0.77249944,0.7834513,0.9715959,0.8888562,0.96448064
161,0.9488255,0.78054035,0.8346343,0.90598595,0.88650817,0.8077511,0.7810153,0.9180721,0.9614006,0.91233337,0.9524852,0.9046359,0.9346012,0.78847116,0.7729116,0.7838634,0.972008,0.88926816,0.96489286,0.9485035,0.7802183,0.83431226,0.90566397,0.8861861,0.80742913,0.78069335,0.9177501,0.96107864,0.9120114,0.9521632,0.9043139,0.9342791,0.78814924,0.77258956,0.78354144,0.971686,0.8889463,0.96457076
162,0.9490184,0.7807332,0.83482724,0.90617883,0.88670105,0.80794406,0.78120816,0.91826504,0.9615935,0.9125263,0.9526781,0.9048288,0.93479407,0.7886641,0.77310455,0.7840563,0.9722009,0.8894611,0.96508574,0.94881606,0.7805309,0.8346249,0.90597653,0.88649875,0.80774176,0.78100586,0.9180627,0.9613912,0.912324,0.9524758,0.9046265,0.93459177,0.7884618,0.7729022,0.783854,0.9719986,0.88925874,0.96488345
163,0.9492097,0.7809245,0.8350185,0.9063701,0.8868923,0.8081353,0.7813994,0.9184562,0.9617847,0.9127175,0.9528693,0.90502,0.9349853,0.7888553,0.77329576,0.7842476,0.9723922,0.8896524,0.96527696,0.9490429,0.7807577,0.8348517,0.9062033,0.88672554,0.8079685,0.78123266,0.9182894,0.96161795,0.9125507,0.9527025,0.9048532,0.9348185,0.78868854,0.773129,0.7840808,0.9722253,0.8894856,0.9651102
164,0.9493991,0.78111386,0.8352079,0.9065595,0.88708174,0.8083247,0.78158885,0.9186456,0.96197414,0.9129069,0.9530587,0.9052094,0.9351747,0.7890447,0.7734851,0.78443694,0.9725815,0.8898418,0.9654664,0.9492594,0.7809742,0.83506817,0.9064198,0.886942,0.808185,0.78144914,0.9185059,0.96183443,0.9127672,0.952919,0.9050697,0.935035,0.788905,0.7733455,0.7842972,0.9724418,0.8897021,0.96532667
165,0.9495867,0.7813015,0.8353955,0.9067472,0.8872694,0.80851233,0.78177655,0.9188333,0.9621619,0.91309464,0.9532464,0.9053971,0.93536234,0.7892324,0.77367276,0.7846247,0.97276914,0.89002943,0.965654,0.9494684,0.78118324,0.83527726,0.90662897,0.8871511,0.8083941,0.7816583,0.9187151,0.96204364,0.9129764,0.9531282,0.9052789,0.9352441,0.7891141,0.7735545,0.7845064,0.9726509,0.8899112,0.96553576
166,0.94977266,0.78148746,0.8355815,0.9069332,0.88745534,0.8086983,0.7819625,0.91901934,0.96234787,0.9132806,0.9534324,0.9055831,0.9355483,0.7894184,0.7738588,0.78481066,0.9729551,0.8902154,0.96584,0.9496715,0.78138626,0.8354803,0.9068319,0.88735414,0.8085971,0.78186125,0.918918,0.96224654,0.9131793,0.9533311,0.9054818,0.9354471,0.7893171,0.7737576,0.7847094,0.9728539,0.8901142,0.9657388
167,0.94995713,0.78167194,0.8357659,0.90711755,0.88763976,0.8088828,0.7821469,0.91920376,0.96253216,0.913465,0.95361674,0.90576744,0.9357327,0.78960276,0.7740432,0.784995,0.97313964,0.8903998,0.9660244,0.9498693,0.78158414,0.8356781,0.90702975,0.8875519,0.80879486,0.7820591,0.9191159,0.9624444,0.91337717,0.953529,0.9056797,0.935645,0.78951496,0.7739554,0.7849073,0.97305167,0.890312,0.96593654
168,0.95013964,0.7818545,0.83594847,0.9073002,0.88782233,0.80906534,0.78232956,0.9193864,0.9627149,0.91364765,0.9537995,0.90595007,0.93591535,0.7897854,0.7742258,0.78517765,0.97332215,0.89058244,0.966207,0.9500627,0.7817775,0.8358715,0.90722317,0.8877454,0.80898833,0.7822525,0.91930926,0.9626378,0.9135705,0.95372236,0.90587306,0.93583834,0.7897083,0.7741488,0.78510064,0.97324514,0.89050543,0.96613
169,0.9503208,0.7820356,0.8361296,0.9074813,0.8880034,0.80924636,0.7825106,0.91956747,0.962896,0.91382873,0.9539805,0.9061312,0.93609643,0.7899665,0.7744069,0.7853588,0.97350323,0.8907635,0.9663881,0.9502522,0.78196704,0.836061,0.9074127,0.8879348,0.8091778,0.78244203,0.9194988,0.9628273,0.91376007,0.9539119,0.9060626,0.9360279,0.78989786,0.7743383,0.7852902,0.97343457,0.890695,0.96631944
