,106,122,133,17,2,218,254,282,294,30,301,302,33,335,339,341,362,5,6,106,122,133,17,2,218,254,282,294,30,301,302,33,335,339,341,362,5,6
0,0.011981333,-4.6607704e-05,-3.1252578e-06,0.0003172625,0.0038696881,0.012137802,-4.0152798e-05,0.008185631,0.00013054721,0.027313335,0.0037624408,-0.00016007244,0.013175098,-1.1621975e-06,-0.00015868615,-9.3325056e-05,0.0057183523,0.017782664,0.013314033,0.011981333,-4.6607704e-05,-3.1252578e-06,0.0003172625,0.0038696881,0.012137802,-4.0152798e-05,0.008185631,0.00013054721,0.027313335,0.0037624408,-0.00016007244,0.013175098,-1.1621975e-06,-0.00015868615,-9.3325056e-05,0.0057183523,0.017782664,0.013314033
1,0.01274352,-3.898585e-05,0.0004496593,0.0010794494,0.0046318714,0.012899986,-3.2530967e-05,0.008947814,0.00088061765,0.028075522,0.0045246277,-0.00015245058,0.013937285,0.00064596534,-0.00015106429,-8.570321e-05,0.0064684246,0.018544847,0.014064109,0.01274352,-3.898585e-05,0.0004496593,0.0010794494,0.0046318714,0.012899986,-3.2530967e-05,0.008947814,0.00088061765,0.028075522,0.0045246277,-0.00015245058,0.013937285,0.00064596534,-0.00015106429,-8.570321e-05,0.0064684246,0.018544847,0.014064109
2,0.003213305,-0.00013428801,-9.080555e-05,-8.450769e-05,-4.8983413e-05,0.003369769,-0.0001278331,-5.824007e-06,-9.031065e-05,0.018545305,-5.005585e-05,-0.00021045342,0.0044070724,-8.8842506e-05,-0.00022737484,-0.00018100535,-3.551358e-05,0.009014631,0.0040443223,0.003213305,-0.00013428801,-9.080555e-05,-8.450769e-05,-4.8983413e-05,0.003369769,-0.0001278331,-5.824007e-06,-9.031065e-05,0.018545305,-5.005585e-05,-0.00021045342,0.0044070724,-8.8842506e-05,-0.00022737484,-0.00018100535,-3.551358e-05,0.009014631,0.0040443186
3,-9.532477e-05,-0.00023076178,-0.00020256452,-0.00020360302,-0.00017644123,-9.3760114e-05,-0.00023064816,-0.00013328184,-0.0001989281,0.005799519,-0.00017751369,-0.00026808013,-8.338714e-05,-0.00021142497,-0.00028500153,-0.0002510705,-0.00016930934,-3.7311518e-05,-9.1218666e-05,-9.532477e-05,-0.00023076178,-0.00020256452,-0.00020360302,-0.00017644123,-9.3760114e-05,-0.00023064816,-0.00013328184,-0.0001989281,0.005799519,-0.00017751369,-0.00026808013,-8.338714e-05,-0.00021142497,-0.00028500153,-0.0002510705,-0.00016930934,-3.73115e-05,-9.121865e-05
4,-0.00014877408,-0.0002550071,-0.00022680982,-0.00022784834,-0.00020545529,-0.00014720943,-0.00025489347,-0.00018673114,-0.00022317343,0.00045458786,-0.00020906526,-0.00029153223,-0.00013683645,-0.00023567028,-0.00030664308,-0.0002753158,-0.00020171203,-9.076081e-05,-0.00014466798,-0.00014877408,-0.0002550071,-0.00022680982,-0.00022784834,-0.00020545529,-0.00014720943,-0.00025489347,-0.00018673114,-0.00022317343,0.00045458786,-0.00020906526,-0.00029153223,-0.00013683645,-0.00023567028,-0.00030664308,-0.0002753158,-0.00020171203,-9.076081e-05,-0.00014466797
5,-0.00015216784,-0.0002566712,-0.00022847395,-0.00022951244,-0.00020711939,-0.00015060317,-0.0002565576,-0.00018920004,-0.00022483752,0.000115213916,-0.00021072938,-0.00029158164,-0.00014023017,-0.00023733439,-0.00030669253,-0.00027697993,-0.00020377102,-9.415455e-05,-0.00014806172,-0.00015216784,-0.0002566712,-0.00022847395,-0.00022951244,-0.00020711939,-0.00015060317,-0.0002565576,-0.00018920004,-0.00022483752,0.000115213916,-0.00021072938,-0.00029158164,-0.00014023017,-0.00023733439,-0.00030669253,-0.00027697993,-0.00020377102,-9.415455e-05,-0.00014806172
6,-0.00015469333,-0.00025788703,-0.00022968979,-0.00023072827,-0.00020833522,-0.00015312868,-0.0002577734,-0.00019041586,-0.00022605335,-1.3733655e-06,-0.00021194521,-0.00029161843,-0.00014275569,-0.00023855023,-0.0003067293,-0.00027819574,-0.0002052799,-9.668007e-05,-0.00015058722,-0.00015469333,-0.00025788703,-0.00022968979,-0.00023072827,-0.00020833522,-0.00015312868,-0.0002577734,-0.00019041586,-0.00022605335,-1.3733655e-06,-0.00021194521,-0.00029161843,-0.00014275569,-0.00023855023,-0.0003067293,-0.00027819574,-0.0002052799,-9.668007e-05,-0.00015058722
7,-0.00015642175,-0.00025870153,-0.00023050427,-0.00023154277,-0.00020914972,-0.0001548571,-0.0002585879,-0.00019123036,-0.00022686785,-3.1018071e-06,-0.00021275971,-0.00029164358,-0.0001444841,-0.00023936473,-0.00030675443,-0.00027901024,-0.00020629595,-9.8408476e-05,-0.00015231564,-0.00015642175,-0.00025870153,-0.00023050427,-0.00023154277,-0.00020914972,-0.0001548571,-0.0002585879,-0.00019123036,-0.00022686785,-3.1018071e-06,-0.00021275971,-0.00029164358,-0.0001444841,-0.00023936473,-0.00030675443,-0.00027901024,-0.00020629595,-9.8408476e-05,-0.00015231564
8,-0.00015745299,-0.00025916816,-0.00023097088,-0.00023200938,-0.00020961632,-0.00015588832,-0.0002590545,-0.00019169699,-0.00022733446,-4.133023e-06,-0.00021322632,-0.00029165857,-0.00014551534,-0.00023983132,-0.00030676945,-0.00027947687,-0.00020688439,-9.943971e-05,-0.00015334686,-0.00015745299,-0.00025916816,-0.00023097088,-0.00023200938,-0.00020961632,-0.00015588832,-0.0002590545,-0.00019169699,-0.00022733446,-4.133023e-06,-0.00021322632,-0.00029165857,-0.00014551534,-0.00023983132,-0.00030676945,-0.00027947687,-0.00020688439,-9.943971e-05,-0.00015334686
9,-0.00015789183,-0.00025933888,-0.00023114163,-0.00023218013,-0.00020978707,-0.00015632718,-0.00025922526,-0.00019186772,-0.00022750521,-4.5718625e-06,-0.00021339707,-0.0002916649,-0.00014595418,-0.00024000206,-0.0003067758,-0.00027964762,-0.0002071086,-9.9878554e-05,-0.0001537857,-0.00015789183,-0.00025933888,-0.00023114163,-0.00023218013,-0.00020978707,-0.00015632718,-0.00025922526,-0.00019186772,-0.00022750521,-4.5718625e-06,-0.00021339707,-0.0002916649,-0.00014595418,-0.00024000206,-0.0003067758,-0.00027964762,-0.0002071086,-9.9878554e-05,-0.0001537857
10,-0.00015783825,-0.0002592621,-0.00023106483,-0.00023210332,-0.0002097103,-0.00015627361,-0.00025914848,-0.00019179092,-0.0002274284,-4.518274e-06,-0.00021332027,-0.0002916641,-0.00014590062,-0.00023992527,-0.00030677498,-0.0002795708,-0.0002070275,-9.982498e-05,-0.00015373215,-0.00015783825,-0.0002592621,-0.00023106483,-0.00023210332,-0.0002097103,-0.00015627361,-0.00025914848,-0.00019179092,-0.0002274284,-4.518274e-06,-0.00021332027,-0.0002916641,-0.00014590062,-0.00023992527,-0.00030677498,-0.0002795708,-0.0002070275,-9.982496e-05,-0.00015373215
11,-0.00015738435,-0.00025898224,-0.00023078496,-0.00023182346,-0.0002094304,-0.00015581967,-0.00025886862,-0.00019151106,-0.00022714854,-4.0643476e-06,-0.0002130404,-0.00029165743,-0.00014544667,-0.00023964541,-0.00030676828,-0.00027929092,-0.0002066953,-9.937106e-05,-0.00015327822,-0.00015738435,-0.00025898224,-0.00023078496,-0.00023182346,-0.0002094304,-0.00015581967,-0.00025886862,-0.00019151106,-0.00022714854,-4.0643476e-06,-0.0002130404,-0.00029165743,-0.00014544667,-0.00023964541,-0.00030676828,-0.00027929092,-0.0002066953,-9.937106e-05,-0.0001532782
12,-0.00015661366,-0.00025854039,-0.00023034311,-0.00023138161,-0.00020898855,-0.00015504901,-0.00025842673,-0.00019106921,-0.00022670669,-3.2936966e-06,-0.00021259855,-0.00029164614,-0.00014467601,-0.00023920355,-0.00030675702,-0.0002788491,-0.00020616215,-9.86004e-05,-0.00015250755,-0.00015661366,-0.00025854039,-0.00023034311,-0.00023138161,-0.00020898855,-0.00015504901,-0.00025842673,-0.00019106921,-0.00022670669,-3.2936966e-06,-0.00021259855,-0.00029164614,-0.00014467601,-0.00023920355,-0.00030675702,-0.0002788491,-0.00020616215,-9.860039e-05,-0.00015250755
13,-0.00015560123,-0.00025797417,-0.00022977691,-0.0002308154,-0.00020842237,-0.00015403656,-0.00025786055,-0.00019050302,-0.0002261405,-2.2812374e-06,-0.00021203235,-0.00029163132,-0.00014366356,-0.00023863737,-0.00030674218,-0.00027828288,-0.00020547408,-9.7587945e-05,-0.00015149511,-0.00015560123,-0.00025797417,-0.00022977691,-0.0002308154,-0.00020842237,-0.00015403656,-0.00025786055,-0.00019050302,-0.0002261405,-2.2812374e-06,-0.00021203235,-0.00029163132,-0.00014366356,-0.00023863737,-0.00030674218,-0.00027828288,-0.00020547408,-9.7587945e-05,-0.00015149511
14,-0.00015441306,-0.00025731762,-0.00022912036,-0.00023015885,-0.0002077658,-0.00015284841,-0.000257204,-0.00018984645,-0.00022548392,-1.0930933e-06,-0.0002113758,-0.00029161392,-0.00014247542,-0.0002379808,-0.0003067248,-0.00027762633,-0.00020467283,-9.63998e-05,-0.00015030695,-0.00015441306,-0.00025731762,-0.00022912036,-0.00023015885,-0.0002077658,-0.00015284841,-0.000257204,-0.00018984645,-0.00022548392,-1.0930933e-06,-0.0002113758,-0.00029161392,-0.00014247542,-0.0002379808,-0.0003067248,-0.00027762633,-0.00020467283,-9.639978e-05,-0.00015030695
15,-0.00015310614,-0.0002566005,-0.00022840327,-0.00022944174,-0.00020704868,-0.0001515415,-0.00025648688,-0.00018912935,-0.00022476682,2.1381304e-05,-0.00021065868,-0.00029159483,-0.00014116851,-0.0002372637,-0.00030670568,-0.0002769092,-0.00020379506,-9.509287e-05,-0.00014900003,-0.00015310614,-0.0002566005,-0.00022840327,-0.00022944174,-0.00020704868,-0.0001515415,-0.00025648688,-0.00018912935,-0.00022476682,2.1381304e-05,-0.00021065868,-0.00029159483,-0.00014116851,-0.0002372637,-0.00030670568,-0.0002769092,-0.00020379506,-9.509287e-05,-0.00014900003
16,-0.00015172825,-0.00025584828,-0.00022765103,-0.00022868953,-0.00020629648,-0.00015016361,-0.00025573466,-0.00018837712,-0.00022401461,0.00015917048,-0.00020990647,-0.00029157466,-0.00013979063,-0.00023651146,-0.0003066855,-0.00027615702,-0.00020287208,-9.3715e-05,-0.00014762215,-0.00015145866,-0.0002557056,-0.00022750837,-0.00022854687,-0.00020615381,-0.00014989401,-0.00025559202,-0.00018823447,-0.00022387193,0.0001861304,-0.00020976379,-0.00029157073,-0.00013952103,-0.00023636881,-0.00030668158,-0.00027601433,-0.0002027005,-9.34454e-05,-0.00014735255
17,-0.00015031849,-0.0002550819,-0.00022688463,-0.00022792313,-0.00020553007,-0.00014875385,-0.00025496827,-0.00018761071,-0.00022324821,0.00030014478,-0.00020914007,-0.00029155402,-0.00013838086,-0.00023574506,-0.0003066649,-0.0002753906,-0.00020192988,-9.230524e-05,-0.00014621239,-0.00014997364,-0.00025489938,-0.00022670215,-0.00022774063,-0.00020534758,-0.000148409,-0.00025478576,-0.00018742823,-0.00022306573,0.0003346298,-0.00020895756,-0.000291549,-0.00013803599,-0.00023556258,-0.00030665987,-0.00027520812,-0.00020170768,-9.196037e-05,-0.00014586753
18,-0.00014890784,-0.00025431794,-0.00022612068,-0.0002271592,-0.00020476614,-0.00014734318,-0.00025420432,-0.0001868468,-0.00022248426,0.00044121407,-0.00020837612,-0.0002915334,-0.00013697018,-0.00023498114,-0.00030664427,-0.00027462665,-0.00020098909,-9.089455e-05,-0.00014480173,-0.00014853445,-0.0002541216,-0.00022592432,-0.00022696285,-0.00020456979,-0.00014696979,-0.000254008,-0.00018649151,-0.00022228791,0.00047855265,-0.00020817976,-0.0002914399,-0.0001365968,-0.00023478478,-0.00030663883,-0.00027443032,-0.0002007487,-9.05212e-05,-0.00014442834
19,-0.00014752001,-0.00025356922,-0.00022537196,-0.00022641046,-0.0002040174,-0.00014595536,-0.0002534556,-0.00018547708,-0.00022173554,0.00057999603,-0.0002076274,-0.00029088755,-0.00013558238,-0.00023423239,-0.000306624,-0.00027387793,-0.00020006561,-8.950675e-05,-0.0001434139,-0.00014713978,-0.0002533702,-0.00022517297,-0.00022621147,-0.00020381842,-0.00014557513,-0.00025325658,-0.00018509685,-0.00022153652,0.0006180182,-0.00020742838,-0.00029068853,-0.00013520214,-0.00023403339,-0.00030661843,-0.00027367892,-0.00019982108,-8.912651e-05,-0.00014303367
20,-0.00014617275,-0.00025284506,-0.00022464781,-0.00022568631,-0.00020329325,-0.00014460809,-0.00025273144,-0.0001841298,-0.00022101137,0.00071472116,-0.00020690325,-0.00029016339,-0.0001342351,-0.00023350822,-0.00030660428,-0.00027315377,-0.00019917126,-8.815946e-05,-0.00014206664,-0.00014523463,-0.00025234718,-0.00022414993,-0.00022518843,-0.00020279537,-0.00014366998,-0.00025223356,-0.00018319172,-0.00022051351,0.0008085333,-0.00020640537,-0.00028966554,-0.000133297,-0.00023301036,-0.00030658697,-0.00027265592,-0.00019856612,-8.722137e-05,-0.00014112852
21,-0.00014487855,-0.00025215204,-0.00022395478,-0.00022499327,-0.00020260022,-0.00014331391,-0.00025203842,-0.00018283562,-0.00022031835,0.00084414147,-0.0002062102,-0.00028947036,-0.00013294091,-0.00023281522,-0.0003063918,-0.00027246075,-0.0001983143,-8.686529e-05,-0.00014077245,-0.00013632169,-0.00024822095,-0.00022002372,-0.00022106222,-0.00019866916,-0.00013475704,-0.00024810736,-0.00017427876,-0.00021638729,0.0016998295,-0.00020227916,-0.0002855393,-0.00012438405,-0.00022888414,-0.00030246074,-0.0002685297,-0.00019390552,-7.830843e-05,-0.00013221557
22,-0.00014216574,-0.0002508291,-0.00022263183,-0.00022367033,-0.0002012773,-0.00014060107,-0.00025071547,-0.0001801228,-0.00021899541,0.0011154246,-0.00020488727,-0.00028814742,-0.0001302281,-0.00023149229,-0.00030506888,-0.0002711378,-0.00019676558,-8.415246e-05,-0.00013805962,-0.00011144705,-0.00023693602,-0.00020873878,-0.00020977728,-0.00018738423,-0.00010988239,-0.00023682242,-0.00014940412,-0.00020510235,0.0041872915,-0.00019099421,-0.00027425436,-9.950941e-05,-0.00021759923,-0.0002911758,-0.00025724477,-0.0001813513,-5.3433774e-05,-0.000107340944
23,-0.00011840963,-0.00024005547,-0.00021185822,-0.00021289672,-0.00019050366,-0.000116844974,-0.00023994184,-0.0001563667,-0.0002082218,0.0034910347,-0.00019411366,-0.0002773738,-0.000106472,-0.00022071866,-0.00029429526,-0.00026036418,-0.0001847862,-6.039636e-05,-0.000114303526,-6.372718e-05,-0.00021533115,-0.0001866658,-0.00018036793,-0.00014484364,-6.216254e-05,-0.00021521754,-0.000101684236,-0.00018349748,0.00895928,-0.00014591611,-0.00025264948,-5.1789524e-05,-0.00018470275,-0.0002695709,-0.00023563988,-0.00013585309,-5.713906e-06,-5.962107e-05
24,-9.630328e-05,-0.00023003116,-0.00020183391,-0.00020287241,-0.00017741976,-9.4738636e-05,-0.00022991755,-0.00013426035,-0.0001981975,0.0057016667,-0.00017849222,-0.0002673495,-8.4365645e-05,-0.00021069437,-0.00028427094,-0.0002503399,-0.00016999539,-3.829002e-05,-9.219719e-05,-4.2028518e-05,-0.00020548239,-0.00016496713,-0.00015866928,-0.00012314499,-4.0463878e-05,-0.0002019947,-7.998559e-05,-0.00016447224,0.011129143,-0.00012421746,-0.00024280073,-3.0090883e-05,-0.0001630041,-0.00025972218,-0.00022579111,-0.000113033166,0.0015984736,-3.707636e-05
25,-7.213632e-05,-0.00021907907,-0.00019088181,-0.00018877706,-0.00015325277,-7.057166e-05,-0.00021896545,-0.00011009337,-0.00018724539,0.008118367,-0.00015432523,-0.00025639738,-6.019866e-05,-0.00019311187,-0.00027331882,-0.00023938778,-0.000144608,-1.4123041e-05,-6.8030204e-05,-2.2455137e-05,-0.0001888762,-0.00014539374,-0.00013909588,-0.0001035716,-2.0890497e-05,-0.0001824213,-6.0412192e-05,-0.00014489882,0.013086485,-0.00010464405,-0.00023392319,-1.0517463e-05,-0.00014343069,-0.00025084463,-0.00021691358,-9.24528e-05,0.00355581,-1.6495995e-05
26,-5.303552e-05,-0.00021041893,-0.00017597414,-0.00016967626,-0.00013415198,-5.1470863e-05,-0.00021030531,-9.099256e-05,-0.0001754792,0.010028446,-0.00013522444,-0.00024773725,-4.109787e-05,-0.00017401106,-0.0002646587,-0.00023072766,-0.00012453336,0.0004977789,-4.8576556e-05,-5.092472e-06,-0.00017151357,-0.0001280311,-0.000121733225,-8.620895e-05,-3.5278313e-06,-0.00016505866,-4.3049546e-05,-0.00012753619,0.014822746,-8.7281405e-05,-0.00022604968,0.00068451464,-0.00012606804,-0.00024297112,-0.00020904007,-7.419724e-05,0.0052920785,0.00017595664
27,-3.538072e-05,-0.0002018018,-0.00015831934,-0.00015202147,-0.0001164972,-3.381608e-05,-0.00019534692,-7.3337775e-05,-0.00015782444,0.0117939245,-0.00011756964,-0.00023973489,-2.3443085e-05,-0.00015635628,-0.00025665632,-0.00022272528,-0.00010597897,0.0022632517,-3.0022169e-05,0.00334006,-0.00013302048,-8.9538e-05,-8.324014e-05,-4.7715865e-05,0.003496522,-0.00012656557,-4.5564584e-06,-8.904312e-05,0.018672058,-4.878832e-05,-0.00020862691,0.0045338254,-8.757496e-05,-0.00022554833,-0.0001797378,-3.378879e-05,0.009141384,0.004216796
28,0.00027393922,-0.00016368169,-0.00012019925,-0.00011390136,-7.837711e-05,0.00043039955,-0.00015722681,-3.52177e-05,-0.000119704324,0.015605936,-7.944954e-05,-0.00022248375,0.001467701,-0.00011823619,-0.00023940518,-0.00020547413,-6.596757e-05,0.006075265,0.0009989217,0.0048662703,-0.00011775834,-7.42759e-05,-6.7978035e-05,-3.245376e-05,0.0050227363,-0.00011130346,0.0010705628,-7.360997e-05,0.020198273,-3.352618e-05,-0.0002017034,0.006060036,-7.231284e-05,-0.00021862485,-0.0001644757,-1.7731916e-05,0.010667598,0.0058224853
29,0.0018519536,-0.00014790153,-0.000104419065,-9.81212e-05,-6.2596926e-05,0.0020084213,-0.00014144662,-1.9437502e-05,-0.00010392414,0.017183954,-6.3669366e-05,-0.000215328,0.003045721,-0.000102456026,-0.00023224943,-0.00019461887,-4.9371698e-05,0.007653283,0.0026585106,0.009617476,-7.024631e-05,-2.6763882e-05,-2.0466e-05,0.0015058275,0.009773942,-6.3791405e-05,0.00582177,-2.3743007e-05,0.024949474,0.001398582,-0.00018020593,0.010811241,-2.4800804e-05,-0.00018232476,-0.000116963645,0.0032135043,0.015418803,0.010809185
30,0.0032993127,-0.00013342792,-8.9945475e-05,-8.364761e-05,-4.812332e-05,0.0034557823,-0.00012697303,-4.963912e-06,-8.945057e-05,0.018631311,-4.9195773e-05,-0.00020877054,0.004493078,-8.798243e-05,-0.00022569198,-0.00018014527,-3.4154746e-05,0.00910064,0.0041802023,0.011024827,-5.6172776e-05,-1.2690369e-05,-6.392449e-06,0.0029131789,0.011181293,-4.971791e-05,0.0072291214,-8.927937e-06,0.026356826,0.0028059315,-0.00016963754,0.012218589,-1.072729e-05,-0.00016825124,-0.00010289015,0.0046950113,0.016826151,0.012290692
31,0.0045768116,-0.00012065293,-7.717049e-05,-7.087262e-05,-3.534835e-05,0.0047332775,-0.00011419805,0.00078110583,-7.6602286e-05,0.01990881,-3.6420766e-05,-0.00020298395,0.005770577,-7.520743e-05,-0.00021990539,-0.00016737028,-2.0724256e-05,0.010378139,0.005523255,0.01225031,-4.3917986e-05,-4.3552367e-07,0.00058623776,0.0041386615,0.012406772,-3.7463084e-05,0.0084546,0.00039665774,0.027582308,0.004031414,-0.0001573827,0.013444075,0.00015275367,-0.00015599641,-9.063532e-05,0.0059844647,0.018051634,0.013580145
32,0.0057153236,-0.00010926779,-6.5785345e-05,-5.9487484e-05,-2.3963208e-05,0.0058717895,-0.000102812926,0.0019196179,-6.463355e-05,0.021047326,-2.5035646e-05,-0.00019782798,0.006909089,-6.382231e-05,-0.00021474942,-0.00015598515,-8.755494e-06,0.011516655,0.0067201313,0.013260791,-3.3813154e-05,0.00096692704,0.0015967172,0.005149143,0.013417253,-2.735827e-05,0.009465085,0.0014598649,0.02859279,0.0050418954,-0.0001472779,0.014454553,0.0011632349,-0.00014589162,-8.053051e-05,0.00704767,0.019062115,0.014643351
33,0.0067357924,-9.906314e-05,-5.55807e-05,-4.9282815e-05,-1.3758558e-05,0.0068922583,-9.2608236e-05,0.0029400866,-5.3906308e-05,0.02206779,-1.4830995e-05,-0.0001932075,0.007929554,-5.361762e-05,-0.00021012894,-0.00014578049,0.00019717403,0.01253712,0.0077928547,0.014114236,-2.5278683e-05,0.0018203724,0.0024501625,0.006002592,0.014270702,-1.88238e-05,0.010318531,0.0023577753,0.029446235,0.0058953445,-0.00013874343,0.015308002,0.0020166803,-0.00013735716,-7.199604e-05,0.00794558,0.019915564,0.015541261
34,0.007653745,-8.988358e-05,-4.6401117e-05,-4.0103252e-05,-4.578996e-06,0.0078102145,-8.342868e-05,0.0038580429,-4.4257213e-05,0.02298575,-5.6514327e-06,-0.00018905198,0.008847514,-4.4438075e-05,-0.00020196203,-0.00013660091,0.0011620838,0.013455076,0.0087577645,0.014845075,-1.7970297e-05,0.002551213,0.0031810012,0.0067334305,0.015001545,-1.1515413e-05,0.011049369,0.0031266157,0.030177077,0.006626183,-0.00013143502,0.016038844,0.0027475227,-0.00013004875,-6.468765e-05,0.008714417,0.020646406,0.016310101
35,0.008481177,-8.16093e-05,-3.8126836e-05,-3.1828953e-05,0.00036953203,0.0086376425,-7.51544e-05,0.004685471,-3.5560148e-05,0.023813175,0.0002622828,-0.00018530704,0.009674942,-3.6163758e-05,-0.00019368775,-0.00012832663,0.00203179,0.014282504,0.009627471,0.017564604,0.0009224955,0.00527074,0.0059005264,0.009452956,0.017721066,0.001567984,0.013768895,0.0059806537,0.0328966,0.009345705,-0.000104239785,0.018758366,0.005467044,-0.00010285351,-3.7492384e-05,0.011568459,0.023365928,0.019164143
36,0.011738626,-4.9034803e-05,-5.55234e-06,7.455237e-05,0.0036269818,0.011895096,-4.2579883e-05,0.007942921,-1.3819896e-06,0.027070621,0.0035197306,-0.00016249952,0.012932392,-3.5892986e-06,-0.00016111325,-9.575214e-05,0.005449606,0.017539954,0.013045287,0.018249383,0.0016072784,0.005955523,0.0065853093,0.010137739,0.01840585,0.0022527687,0.014453681,0.006701743,0.033581384,0.010030491,-9.739194e-05,0.019443149,0.006151827,-9.6005664e-05,-3.0644554e-05,0.012289548,0.02405071,0.019885233
37,0.012560496,-4.0816085e-05,0.00026663207,0.00089642406,0.0044488516,0.012716958,-3.436122e-05,0.008764794,0.0007267725,0.027892495,0.0043416005,-0.00015428083,0.013754258,0.00046293996,-0.00015289456,-8.7533444e-05,0.0063145775,0.018361824,0.013910262,0.018866563,0.0022244528,0.006572699,0.0072024893,0.010754915,0.019023025,0.0028699432,0.0150708575,0.007351162,0.03419856,0.010647664,-9.1220194e-05,0.020060325,0.0067690033,-8.98339e-05,-2.447279e-05,0.012938971,0.024667887,0.020534651
38,0.01674352,0.000101411715,0.0044496525,0.0050794426,0.008631872,0.016899986,0.0007469002,0.012947815,0.0051158722,0.032075517,0.008524625,-0.00011245062,0.017937282,0.0046459604,-0.00011106435,-4.570322e-05,0.010703677,0.022544848,0.018299362,0.019364314,0.0027222075,0.007070454,0.0077002402,0.011252666,0.01952078,0.0033676978,0.015568608,0.007874893,0.03469631,0.011145422,-8.6242646e-05,0.02055808,0.007266758,-8.485636e-05,-1.9495244e-05,0.013462698,0.025165638,0.021058379
39,0.017642843,0.001000734,0.0053489786,0.005978765,0.009531194,0.017799305,0.0016462244,0.013847133,0.0060629193,0.03297484,0.009423947,-0.00010345738,0.018836604,0.0055452827,-0.000102071106,-3.6709996e-05,0.011650728,0.02344417,0.019246409,0.019767942,0.0031258315,0.007474078,0.008103864,0.011656294,0.019924404,0.0037713218,0.015972236,0.008299546,0.03509994,0.011549043,-8.220641e-05,0.020961704,0.007670382,-8.0820115e-05,-1.5459042e-05,0.013887348,0.025569266,0.021483036
40,0.02145919,0.0048170816,0.00916533,0.009795113,0.013347542,0.021615652,0.005462574,0.01766348,0.010068102,0.03679119,0.0132402945,-6.5293905e-05,0.022652956,0.009361634,-6.390763e-05,0.00014534779,0.0156559,0.027260518,0.023251588,0.020094724,0.0034526158,0.007800864,0.008430654,0.011983076,0.020251194,0.0040981118,0.016299019,0.008643331,0.03542672,0.011875832,-7.8938545e-05,0.021288486,0.007997168,-7.755226e-05,-1.2191143e-05,0.014231132,0.025896056,0.021826817
41,0.022337524,0.005695412,0.01004366,0.010673447,0.01422588,0.022493983,0.006340904,0.018541815,0.010993222,0.037669517,0.014118629,-5.6510566e-05,0.02353129,0.010239968,-5.5124292e-05,0.0010236781,0.016581023,0.028138848,0.024176711,0.020357566,0.0037154574,0.008063706,0.008693492,0.012245918,0.020514028,0.004360946,0.01656186,0.008919815,0.035689563,0.01213867,-7.631017e-05,0.021551328,0.00826001,-7.4923875e-05,-9.562764e-06,0.014507616,0.026158893,0.0221033
42,0.023068981,0.0064268727,0.010775117,0.011404907,0.014957333,0.023225443,0.007072361,0.019273272,0.011763161,0.038400978,0.014850086,-4.9196016e-05,0.024262743,0.010971421,-4.7809743e-05,0.001755137,0.017350966,0.028870312,0.024946654,0.021887923,0.005245814,0.009594062,0.010223845,0.013776274,0.022044385,0.0058913063,0.018092217,0.010525415,0.03721992,0.013669023,-6.1006584e-05,0.023081684,0.009790363,-5.962031e-05,0.0005740803,0.016113216,0.027689246,0.0237089
43,0.03239382,0.015374983,0.019723231,0.020353017,0.023905447,0.03217356,0.016020475,0.028221386,0.021524327,0.047349095,0.023798207,0.004028512,0.03321086,0.019919539,0.0041671414,0.010703249,0.027112128,0.037818424,0.034707807,0.022146488,0.005504379,0.009852624,0.01048241,0.014034836,0.022302946,0.0061498675,0.018350774,0.010797856,0.037478484,0.013927588,-5.842097e-05,0.023340246,0.010048928,-5.7034697e-05,0.0008326415,0.016385661,0.027947811,0.023981346
44,0.0356799,0.01830631,0.022654558,0.02328434,0.026836773,0.03510488,0.018951802,0.031152712,0.024810398,0.050280415,0.02672953,0.006959835,0.036142185,0.022850865,0.007098468,0.013634579,0.030398207,0.04074975,0.037993886,0.02238218,0.0057400633,0.010088315,0.010718098,0.014270527,0.022538638,0.0063855555,0.018586466,0.011045868,0.03771417,0.014163276,-5.6064073e-05,0.023575934,0.010284619,-5.467778e-05,0.0010683294,0.016633669,0.028183503,0.024229353
45,0.04853034,0.0298773,0.034225546,0.03485533,0.038407758,0.04667587,0.030522792,0.0427237,0.037660845,0.061851405,0.0395668,0.018530825,0.04813154,0.034421854,0.01866945,0.025205566,0.043248653,0.052320734,0.050844327,0.022552045,0.005909933,0.010258181,0.010887967,0.014440393,0.022708504,0.0065554213,0.018756332,0.0112246,0.03788404,0.014333146,-5.4365413e-05,0.0237458,0.010454485,-5.297912e-05,0.001238199,0.0168124,0.028353369,0.024408089
46,0.05184765,0.032841288,0.03718953,0.03781932,0.041371748,0.04963986,0.033486784,0.04568769,0.040978156,0.0648154,0.04288412,0.021494815,0.05144885,0.037385836,0.02163344,0.02816956,0.046565957,0.055284724,0.054161638,0.022668859,0.0060267467,0.010374995,0.011004781,0.014557207,0.022825317,0.006672239,0.018873146,0.011347504,0.038000852,0.014449963,-5.3197255e-05,0.023862617,0.010571299,-5.181098e-05,0.0013550147,0.016935306,0.028470179,0.02453099
47,0.06967281,0.04876043,0.053108662,0.05373846,0.057290882,0.065559,0.049405918,0.06160684,0.05880332,0.08222692,0.060709283,0.037413955,0.06927402,0.053304978,0.03755258,0.04408869,0.06439112,0.07120386,0.07198681,0.022742594,0.0061004814,0.010448733,0.011078516,0.014630945,0.022899056,0.0067459736,0.018946884,0.011425065,0.038074583,0.014523694,-5.245989e-05,0.023936355,0.010645034,-5.10736e-05,0.0014287475,0.01701287,0.028543921,0.02460855
48,0.07807003,0.056169286,0.060517535,0.061147325,0.064699754,0.07296786,0.056814782,0.06924191,0.06720054,0.090624146,0.069106504,0.045413256,0.077671245,0.060713828,0.044961438,0.051497556,0.07278834,0.078612715,0.08038403,0.023588503,0.0069463905,0.011294639,0.011924425,0.0154768545,0.023744965,0.0075918827,0.019792793,0.012312336,0.0389205,0.015369611,-4.40008e-05,0.024782265,0.011490947,-4.2614527e-05,0.0022746604,0.017900141,0.02938983,0.025495818
49,0.08434323,0.061709203,0.06605744,0.06668724,0.07023966,0.07850778,0.06235469,0.07551512,0.07347375,0.09689735,0.0753797,0.05168646,0.08394444,0.066253744,0.05050136,0.057037465,0.079061545,0.08415263,0.08665723,0.023662793,0.007020684,0.011368932,0.011998715,0.015551144,0.023819255,0.0076661725,0.019867087,0.012390742,0.03899478,0.015443901,-4.3257864e-05,0.024856554,0.01156524,-4.187161e-05,0.0023489501,0.01797855,0.029464113,0.02557422
50,0.0888727,0.065707356,0.070055604,0.070685394,0.074382305,0.08250593,0.066352844,0.08004458,0.078003205,0.101426795,0.079909176,0.056215927,0.0884739,0.0702519,0.054499507,0.061035626,0.08359101,0.08842154,0.091186695,0.023729147,0.007087035,0.01143528,0.012065066,0.015617499,0.023885606,0.0077325273,0.019933434,0.0124605615,0.039061137,0.015510248,-4.2594373e-05,0.024922905,0.0116315875,-4.12081e-05,0.0024153013,0.018048363,0.029530464,0.02564404
51,0.1069933,0.08191393,0.08626218,0.08842498,0.09250291,0.098712504,0.08255942,0.09816517,0.0961238,0.1195474,0.09802976,0.074336514,0.10659449,0.086458474,0.0707061,0.077242196,0.1017116,0.106542125,0.109307304,0.026383767,0.009741655,0.014089907,0.014719689,0.018272119,0.02654023,0.010387147,0.022588057,0.015244747,0.041715756,0.018164875,-1.604816e-05,0.027577529,0.014286211,-1.4661886e-05,0.005069921,0.020832555,0.032185093,0.028428229
52,0.11397216,0.08806905,0.092417315,0.095403835,0.09948176,0.10486762,0.08871454,0.10514404,0.103102654,0.12652625,0.10500862,0.08131537,0.11357336,0.09261361,0.076861225,0.08339733,0.108690456,0.113520995,0.11628616,0.026885116,0.010243004,0.014591252,0.015221039,0.018773468,0.027041571,0.010888496,0.023089403,0.015798489,0.042217106,0.01866622,-1.1034682e-05,0.028078878,0.014787557,-9.648408e-06,0.0055712704,0.021386297,0.032686435,0.02898197
53,0.13832481,0.10983737,0.11418563,0.11975649,0.123834446,0.12663595,0.11048286,0.1294967,0.12745532,0.15087892,0.12936129,0.10566804,0.13792603,0.114381924,0.09862955,0.10516566,0.13304313,0.13787366,0.14063881,0.036182567,0.018822132,0.02317038,0.023800166,0.027352596,0.035620697,0.019467624,0.03166853,0.025313059,0.050796233,0.027245356,0.0074756574,0.036658004,0.023366684,0.0076142903,0.014150398,0.030900868,0.04126557,0.038496546
54,0.16923818,0.13741603,0.14397445,0.15066984,0.15474778,0.1542146,0.13806151,0.16041003,0.15836869,0.18179227,0.16027464,0.1365814,0.1688394,0.14196058,0.1262082,0.1327443,0.16395648,0.16878702,0.17155217,0.037951767,0.020403901,0.024752157,0.02538194,0.028934365,0.037202477,0.021049397,0.03325031,0.02708227,0.052378,0.02898823,0.009057427,0.038239777,0.024948457,0.00919606,0.015732171,0.032670073,0.042847335,0.040265746
55,0.18424919,0.15068386,0.15898545,0.16568086,0.16975878,0.16748244,0.15132935,0.17542104,0.17337967,0.19680329,0.17528565,0.15159242,0.1838504,0.1552284,0.13947602,0.14601213,0.17896749,0.18379803,0.18656318,0.039279655,0.021600025,0.025948277,0.026578063,0.030130489,0.0383986,0.02224552,0.034446433,0.02841016,0.053574122,0.030316116,0.0102535505,0.0394359,0.02614458,0.010392183,0.016928295,0.03399796,0.04404346,0.041593634
56,0.19614887,0.1612085,0.17088513,0.17758054,0.18165846,0.17800707,0.161854,0.18732072,0.18527935,0.20870295,0.18718533,0.1634921,0.19575007,0.16575304,0.15000065,0.15653674,0.19125311,0.19569771,0.19846286,0.04463701,0.026424369,0.030772613,0.0314024,0.03495483,0.04322294,0.027069861,0.039270774,0.033767514,0.058398463,0.035673477,0.015077895,0.04426025,0.030968921,0.015216524,0.021752642,0.039355315,0.0488678,0.04695099
57,0.22369127,0.18578707,0.19842751,0.20512292,0.20920086,0.20409854,0.18643256,0.2148631,0.21601973,0.23624535,0.21472771,0.19103448,0.22329248,0.19033162,0.17457922,0.18111531,0.2271486,0.22324009,0.22600524,0.048085004,0.029469846,0.03381809,0.03444787,0.038000308,0.04626842,0.030115338,0.042316243,0.0372155,0.06144394,0.039121464,0.018123368,0.047686204,0.034014396,0.018261997,0.024798112,0.04280331,0.05191326,0.05039897
58,0.23690291,0.1974656,0.21163918,0.2183346,0.22241251,0.2173102,0.1981111,0.22807477,0.23304977,0.24945702,0.22793938,0.20424615,0.23650412,0.20257664,0.18625776,0.19279386,0.24417867,0.23645176,0.23921691,0.05998537,0.040114835,0.044463083,0.045092873,0.048645303,0.05691342,0.04076033,0.052961245,0.049115874,0.07253946,0.051021837,0.028768366,0.05958657,0.04465939,0.028906995,0.035443105,0.054703675,0.06255826,0.06229935
59,0.24774449,0.20802484,0.22248076,0.22917615,0.23325409,0.22815175,0.20770295,0.23891632,0.24703597,0.26029858,0.23919459,0.2150877,0.2473457,0.2134182,0.19584961,0.2034317,0.25816485,0.24729331,0.25005847,0.06489582,0.044451073,0.04879932,0.049429104,0.05298154,0.06124965,0.04509656,0.057297483,0.054026328,0.07744992,0.0559323,0.033104606,0.06449703,0.04899563,0.03324323,0.039779335,0.05961413,0.066894494,0.06720981
60,0.26836106,0.2286414,0.24309732,0.24979271,0.25387067,0.24876831,0.22745918,0.25953293,0.2738746,0.28091517,0.26603323,0.23570426,0.26796228,0.23403476,0.21423037,0.22404824,0.2850035,0.2679099,0.27583784,0.06878941,0.04789727,0.052245513,0.052875303,0.056427732,0.06469585,0.048542768,0.060743682,0.057919905,0.0813435,0.059825867,0.036550798,0.06839061,0.05244182,0.036689423,0.043225534,0.063507706,0.07034069,0.07110339
61,0.29595837,0.25491753,0.2693734,0.2760688,0.28014678,0.2750444,0.25373527,0.28580898,0.30808446,0.30719122,0.30024308,0.26198038,0.29423836,0.26031086,0.24028154,0.25032434,0.31921336,0.294186,0.31004766,0.08277787,0.060410812,0.06475906,0.06538884,0.068941265,0.07720938,0.0610563,0.073949754,0.071908385,0.095331974,0.07381434,0.05012109,0.08237907,0.064955354,0.049202964,0.055739075,0.07749618,0.08285423,0.08509185
62,0.3138093,0.2687519,0.28320777,0.2899032,0.2939811,0.28887877,0.26756963,0.29964337,0.32593542,0.3210256,0.31809404,0.27581468,0.30807272,0.2741452,0.2541159,0.2641587,0.3370643,0.30802035,0.3278986,0.08865188,0.065600485,0.06994873,0.07057853,0.07416149,0.08239906,0.06624597,0.07982376,0.07778239,0.10120599,0.079688355,0.055995107,0.088253096,0.07014503,0.054392643,0.060928755,0.08337019,0.088200726,0.090965874
63,0.32881635,0.28037402,0.29482988,0.30152532,0.3056033,0.3005009,0.27919173,0.3112655,0.34094247,0.33264777,0.3331011,0.28743684,0.31969485,0.28576735,0.26573804,0.27578083,0.35207134,0.31964248,0.34290567,0.09347615,0.06987235,0.0742206,0.074907824,0.07898576,0.08667092,0.07051784,0.08464803,0.08260666,0.10603024,0.08451261,0.060819365,0.09307735,0.07441689,0.0586645,0.06520061,0.088194445,0.09302498,0.09579013
64,0.3410682,0.28986356,0.30431947,0.3110149,0.3150928,0.3099905,0.2886813,0.32075503,0.35319436,0.3421373,0.34535298,0.29692638,0.32918438,0.29525688,0.27522758,0.28527036,0.36432323,0.32913205,0.35515752,0.09734094,0.07329577,0.07764402,0.07877262,0.082850546,0.09009434,0.07394126,0.08851282,0.086471446,0.109895036,0.0883774,0.06468415,0.09694214,0.07784031,0.06208794,0.068624035,0.09205924,0.09688977,0.09965491
65,0.36332995,0.306965,0.3214209,0.32811633,0.33219424,0.3270919,0.30578277,0.3378565,0.37545606,0.35923874,0.3676147,0.31735316,0.3483381,0.31235835,0.29232904,0.30237183,0.38658494,0.34623352,0.37741923,0.10423027,0.07944134,0.083789594,0.08566195,0.08973989,0.096239924,0.08008683,0.09540215,0.09336078,0.116784364,0.09526674,0.07157349,0.103831485,0.083985895,0.06823352,0.074769616,0.09894857,0.10377909,0.10654424
66,0.37518767,0.3161519,0.3306078,0.33730322,0.34138113,0.33627877,0.31496963,0.3470434,0.3873138,0.36842564,0.3794724,0.3292109,0.36019585,0.3215452,0.3015159,0.31155875,0.39844266,0.35542038,0.38927695,0.107985884,0.08276588,0.08711414,0.08941756,0.09349549,0.09956446,0.083411366,0.099157766,0.097116396,0.12053998,0.09902236,0.07532911,0.107587084,0.08731043,0.07155804,0.078094155,0.10270418,0.10753471,0.11029987
67,0.38548455,0.32412148,0.33857736,0.34527278,0.34935072,0.34424835,0.32293922,0.35501298,0.39761072,0.3763952,0.38976932,0.3395078,0.37049276,0.32951483,0.3094855,0.3195283,0.4087396,0.36338994,0.39957386,0.111148566,0.085570075,0.08991833,0.092580244,0.09665818,0.10236865,0.08621557,0.10232045,0.10027906,0.12370266,0.102185026,0.07849178,0.110749766,0.09011464,0.07436225,0.08089835,0.105866864,0.11069739,0.11346255
68,0.39412042,0.33080444,0.3452603,0.35195574,0.35603365,0.35093132,0.32962218,0.36268136,0.40624657,0.38307816,0.39840516,0.34814367,0.3791286,0.33619776,0.31616843,0.32621127,0.41737542,0.3700729,0.4082097,0.11379601,0.087919,0.092267245,0.09522769,0.099305615,0.10471758,0.088564485,0.10496789,0.10292651,0.12635009,0.10483247,0.08113922,0.11339721,0.09246355,0.07671116,0.083247274,0.10851431,0.11334483,0.11610998
69,0.4014397,0.33646715,0.35092303,0.35804918,0.3616964,0.35659403,0.3352849,0.37000063,0.41356584,0.38874087,0.4057245,0.35546294,0.38644788,0.34186047,0.32183114,0.33187398,0.42469472,0.3757356,0.415529,0.12491648,0.09787223,0.102220476,0.10634816,0.11042608,0.1146708,0.0985177,0.116088346,0.11404699,0.13747056,0.11595295,0.0922597,0.124517664,0.10241677,0.08666439,0.0932005,0.11963479,0.1244653,0.12723045
70,0.4077008,0.34130952,0.35576543,0.36431026,0.36653873,0.3614364,0.34012726,0.37626174,0.41982692,0.39358327,0.41198555,0.36172405,0.39270896,0.34670284,0.32667354,0.33671632,0.4309558,0.380578,0.4217901,0.12968998,0.102096096,0.106444344,0.11112167,0.11519958,0.11889467,0.10274157,0.12086184,0.11882049,0.14224406,0.12072645,0.0970332,0.12929119,0.10664064,0.09088825,0.09742436,0.12440829,0.1292388,0.13200395
71,0.4340258,0.36144468,0.3759006,0.39063528,0.38667396,0.3815716,0.36026242,0.40258676,0.44615194,0.41371843,0.43831053,0.38804904,0.41903397,0.36683804,0.3468087,0.35685155,0.4572808,0.40071318,0.44811508,0.13397418,0.105896756,0.110245004,0.11540587,0.119483784,0.12269534,0.106542245,0.12514606,0.12310469,0.14652829,0.12501065,0.101317406,0.13357538,0.11044131,0.09468894,0.10122503,0.1286925,0.133523,0.13628815
72,0.4440541,0.36921218,0.3836681,0.40066352,0.3944414,0.38933906,0.36802995,0.41261503,0.45618019,0.42148593,0.4483388,0.39807734,0.42906225,0.3746055,0.3545762,0.36461905,0.4673091,0.40848067,0.45814335,0.14368857,0.11457385,0.118922114,0.12512025,0.12919818,0.13137244,0.115219355,0.13486044,0.13281907,0.15624267,0.13472505,0.1110318,0.14328979,0.11911841,0.10336603,0.10990213,0.13840686,0.1432374,0.14600255
73,0.47354993,0.39180455,0.40626046,0.43015942,0.4170338,0.41193143,0.3906223,0.44211087,0.48567608,0.44407827,0.47783467,0.42757317,0.4585581,0.39719787,0.37716857,0.38721138,0.49680498,0.43107304,0.48763922,0.1489576,0.11924295,0.12369388,0.13038929,0.1344672,0.1360415,0.11988844,0.14012949,0.1380881,0.1615117,0.13999406,0.11630082,0.14855881,0.12378751,0.1080351,0.1145712,0.14367591,0.14850642,0.15127157
74,0.48657575,0.4018859,0.41634178,0.4431852,0.4271151,0.42201278,0.40070364,0.4551367,0.49870184,0.45415962,0.4908605,0.440599,0.47158393,0.40727922,0.38724986,0.39729273,0.5098307,0.4411544,0.500665,0.15378849,0.123531,0.12852477,0.13522016,0.13929808,0.14032955,0.12417649,0.14496036,0.142919,0.16634259,0.14482495,0.1211317,0.1533897,0.12807554,0.11232315,0.11885926,0.1485068,0.15333731,0.15610246
75,0.51617754,0.42458117,0.43903705,0.47278705,0.44981042,0.44470805,0.4233989,0.4847385,0.5283037,0.4768549,0.5204623,0.4702008,0.5011857,0.42997453,0.4099452,0.419988,0.5394325,0.46384966,0.5302669,0.16499062,0.13353775,0.13972689,0.14642228,0.15050022,0.15033631,0.13418324,0.15616249,0.15412112,0.17754471,0.15602708,0.13233384,0.16459183,0.1380823,0.122329906,0.128866,0.15970893,0.16453944,0.1673046
76,0.5304048,0.43558803,0.45004395,0.48701432,0.4632109,0.4557149,0.43440577,0.49896583,0.542531,0.48786178,0.5346896,0.48442808,0.515413,0.44098136,0.42095205,0.4309949,0.5536598,0.47485653,0.5444941,0.17119609,0.13903867,0.14593236,0.15262775,0.15670569,0.15583725,0.13968416,0.16236795,0.1603266,0.18375018,0.16223256,0.13853933,0.1707973,0.14358322,0.12783082,0.13436694,0.1659144,0.17074494,0.17351007
77,0.5432668,0.44552705,0.45998296,0.4998763,0.47607288,0.46565393,0.44434482,0.5118277,0.555393,0.4978008,0.5475515,0.49729005,0.52827495,0.45092037,0.43089107,0.4409339,0.56652176,0.48479554,0.5573561,0.17702805,0.14421663,0.15176429,0.1584597,0.16253763,0.1610152,0.14486213,0.16819988,0.16615854,0.18958212,0.16806449,0.14437126,0.17662925,0.14876117,0.1330088,0.13954489,0.17174633,0.17657687,0.17934202
78,0.5657011,0.4627416,0.47719756,0.5223106,0.49850717,0.48286852,0.46155939,0.53426206,0.5778272,0.51908153,0.56998587,0.51972437,0.55070925,0.46813497,0.4481056,0.45814848,0.5889561,0.5020101,0.57979035,0.19555084,0.16077854,0.1702871,0.1769825,0.18106045,0.17757711,0.16142404,0.18672271,0.18468134,0.20810492,0.18658729,0.16289406,0.19515206,0.16532308,0.14957069,0.15610678,0.19051635,0.19509967,0.19786482
79,0.57729006,0.4717042,0.48616007,0.53389955,0.5100961,0.4918311,0.47052196,0.545851,0.58941615,0.5306705,0.5815748,0.5313133,0.5622982,0.47709754,0.4570682,0.46711105,0.60054505,0.5109726,0.5913793,0.2047214,0.1689039,0.17945768,0.18615307,0.19023101,0.18570246,0.16954939,0.19589327,0.19385192,0.21727549,0.19575787,0.17206463,0.20432262,0.17344844,0.15769605,0.16423215,0.20236826,0.20427024,0.20703538
80,0.5877067,0.47975174,0.49420765,0.5443162,0.52051276,0.49987867,0.47856954,0.5562676,0.59983283,0.54108715,0.5919914,0.5417299,0.57271487,0.48514512,0.46511576,0.4751586,0.61096174,0.5206246,0.60179603,0.21347144,0.17667075,0.1882077,0.19490309,0.19898103,0.19387871,0.17731623,0.2046433,0.20260192,0.22602554,0.2045079,0.18081467,0.21307264,0.18121527,0.1654629,0.171999,0.21369755,0.21302025,0.2157854
81,0.596506,0.48654893,0.5010048,0.5531155,0.529312,0.5066758,0.48536667,0.56506693,0.6086321,0.54988647,0.60079074,0.55052924,0.5815141,0.49194226,0.47191292,0.48195574,0.619761,0.52942383,0.6105952,0.22160934,0.18389703,0.1963456,0.20304099,0.20711893,0.2020166,0.18454254,0.21278119,0.2131096,0.23416342,0.21264578,0.18895255,0.22121055,0.18844159,0.1726892,0.1792253,0.22423847,0.22115816,0.22392331
82,0.6196174,0.5042368,0.51869273,0.5762269,0.5524235,0.52436376,0.50305456,0.5881784,0.63174355,0.5729979,0.6239021,0.5736407,0.6046256,0.5096302,0.48960087,0.4996437,0.64287245,0.5525353,0.6337067,0.2441398,0.2044202,0.21887608,0.2255715,0.22964941,0.2245471,0.20467736,0.23531167,0.24252333,0.25669393,0.23517628,0.21148305,0.24374102,0.20981354,0.19282402,0.19982703,0.2536522,0.24368866,0.2464538
83,0.6286349,0.51121426,0.5256702,0.5852444,0.561441,0.5313411,0.510032,0.59719586,0.6407611,0.5820154,0.63291967,0.5826582,0.61364305,0.51660764,0.49657825,0.5066211,0.6518899,0.5615529,0.6427242,0.25587848,0.21615884,0.23061474,0.23731013,0.24138807,0.23628573,0.215083,0.2470503,0.25770202,0.26843256,0.2498606,0.22322167,0.25547966,0.22155218,0.20322967,0.21156567,0.26883087,0.2554273,0.25966525
84,0.637194,0.51782465,0.5322805,0.59380347,0.57000005,0.53795147,0.51664233,0.605755,0.6493201,0.5905745,0.6414787,0.5912172,0.62220216,0.5232179,0.5031886,0.51323146,0.66044897,0.5701119,0.65128326,0.26722378,0.22750412,0.24196,0.24865545,0.25273338,0.24763103,0.22632189,0.25839564,0.27239606,0.27977785,0.26455468,0.234567,0.266825,0.23289748,0.21330199,0.22291096,0.28352496,0.26677263,0.2743593
85,0.6603917,0.53557014,0.55002606,0.6170012,0.59319776,0.5556971,0.53438795,0.6289526,0.67251784,0.61377215,0.6646764,0.61441493,0.64539987,0.54096353,0.52093416,0.530977,0.6836467,0.5933096,0.67448103,0.27785856,0.23813893,0.25259483,0.25929022,0.26336816,0.25826582,0.23695667,0.26903042,0.28617474,0.29041263,0.27833334,0.24520178,0.27745977,0.24353226,0.22350295,0.23354574,0.29730362,0.2774074,0.28813794
86,0.66871107,0.542009,0.5564649,0.62532055,0.6015171,0.5621359,0.5408268,0.637272,0.6808372,0.62209153,0.6729958,0.6227343,0.6537192,0.5474023,0.52737296,0.53741586,0.69196606,0.60162896,0.6828004,0.28794044,0.24822079,0.2626767,0.26937208,0.27345002,0.2683477,0.24703856,0.27911228,0.2992411,0.30049452,0.2913997,0.25528365,0.28754166,0.25361416,0.23358484,0.24362762,0.31036994,0.2874893,0.30120426
87,0.69340503,0.56090045,0.57535636,0.6500145,0.62621105,0.5810274,0.5597182,0.6619661,0.7055311,0.64678556,0.6976898,0.6474283,0.67841315,0.56629384,0.54626447,0.5563073,0.71666,0.6263229,0.70749444,0.29961273,0.2578613,0.27231717,0.2790126,0.28309056,0.27798817,0.25667903,0.28875276,0.31173882,0.310135,0.3038974,0.26492414,0.2971821,0.2632546,0.24322529,0.25326812,0.3228677,0.29712975,0.313702
88,0.7020259,0.56757426,0.5820302,0.65863544,0.6348319,0.58770114,0.56639194,0.67058694,0.714152,0.6554065,0.7063107,0.65604925,0.6870341,0.57296765,0.5529383,0.5629811,0.7252809,0.63494384,0.71611536,0.31165832,0.26715055,0.28160644,0.28830186,0.2923798,0.28727743,0.2659683,0.29804203,0.32378444,0.3194243,0.31594303,0.2742134,0.30647138,0.27254388,0.25251457,0.26255736,0.3349133,0.30641901,0.3257476
89,0.71026343,0.57393813,0.58839405,0.666873,0.64306945,0.59406507,0.5727559,0.6788244,0.72238946,0.66364396,0.71454823,0.66428673,0.6952716,0.5793315,0.5593022,0.569345,0.7335184,0.6431813,0.72435284,0.3233489,0.27616385,0.29061976,0.29731515,0.30139312,0.29629076,0.2749816,0.30705532,0.33547503,0.3284376,0.32763365,0.2832267,0.31548467,0.28155717,0.2615279,0.27157068,0.34660387,0.31543237,0.3374382
90,0.7168883,0.57905656,0.59396815,0.6734978,0.6496943,0.59918344,0.57787424,0.68544924,0.7290144,0.6702688,0.72117305,0.67091155,0.7018964,0.5844499,0.5644206,0.57446337,0.7401433,0.64980614,0.73097765,0.3347665,0.2849648,0.29942068,0.3061161,0.31019405,0.3050917,0.28378254,0.31585625,0.34689265,0.33723852,0.33905128,0.29202762,0.32428563,0.2903581,0.2703288,0.28037164,0.35802153,0.32423326,0.3488558
91,0.72220075,0.5831615,0.5992806,0.67881024,0.65500677,0.60328835,0.58197916,0.69076174,0.7343268,0.6755812,0.7264855,0.676224,0.7072089,0.5885548,0.56852543,0.5785682,0.74545574,0.6551186,0.7362901,0.35785738,0.3026683,0.31712422,0.32381964,0.32789752,0.32279518,0.30148605,0.3335598,0.3699835,0.35494205,0.36214212,0.31188062,0.34286553,0.30806163,0.28803232,0.29807517,0.38111237,0.34193677,0.37194666
92,0.7464869,0.6016946,0.62356675,0.7030964,0.6792929,0.6218214,0.60051227,0.7150479,0.75861293,0.69986737,0.75077164,0.70051014,0.731495,0.60708797,0.58705866,0.5971014,0.7697419,0.67940474,0.76057625,0.3718193,0.31344607,0.327902,0.33459738,0.33867532,0.33357295,0.31226382,0.34433755,0.38394544,0.36571983,0.37610403,0.3258425,0.35682744,0.31883943,0.2988101,0.30885294,0.39507428,0.35271457,0.38590854
93,0.7514443,0.60554695,0.6285241,0.7080538,0.68425035,0.62567383,0.60436463,0.7200053,0.7635703,0.7048247,0.755729,0.7054676,0.73645246,0.6109403,0.5909109,0.6009538,0.77469933,0.6843622,0.7655337,0.38581967,0.32424092,0.3386968,0.34539223,0.34947017,0.34436777,0.32305866,0.3551324,0.3979458,0.37651464,0.3901044,0.3398429,0.37082785,0.32963425,0.30960494,0.31964776,0.4090747,0.3635094,0.39990896
94,0.774854,0.623427,0.65193385,0.7314635,0.70766,0.64355385,0.6222447,0.743415,0.78698003,0.72823447,0.77913874,0.7288773,0.7598622,0.62882036,0.608791,0.6188339,0.798109,0.7077719,0.7889434,0.3993897,0.33470067,0.3491566,0.35599914,0.35992995,0.35482755,0.33351845,0.36795065,0.41151583,0.38697445,0.4036744,0.35341293,0.38439786,0.34009403,0.3200647,0.33010754,0.42264467,0.3739692,0.41347897
95,0.78018713,0.62757075,0.657267,0.7367966,0.71299314,0.6476977,0.62638843,0.7487481,0.7923132,0.7335676,0.78447187,0.73421043,0.7651953,0.63296413,0.6129348,0.6229776,0.8034421,0.71310496,0.79427654,0.41261098,0.34488925,0.35934517,0.36922047,0.3701185,0.36501613,0.343707,0.3811719,0.42473713,0.397163,0.41689572,0.36663422,0.39761916,0.35028258,0.33025324,0.3402961,0.435866,0.38415772,0.42670026
96,0.8010901,0.6435438,0.67816997,0.7576996,0.73389614,0.66367066,0.64236146,0.76965106,0.8132162,0.7544706,0.80537486,0.7551135,0.7860983,0.6489371,0.6289078,0.63895065,0.8243452,0.73400795,0.8151795,0.4255384,0.35484925,0.36930516,0.38214788,0.3800785,0.37497616,0.35366702,0.39409932,0.43766454,0.407123,0.42982313,0.3795616,0.41054654,0.36024258,0.34021327,0.35025612,0.44879338,0.39411774,0.43962768
97,0.8058226,0.6472254,0.68290246,0.76243216,0.7386287,0.6673523,0.64604306,0.77438354,0.8179487,0.7592031,0.81010735,0.759846,0.79083073,0.65261877,0.63258946,0.64263225,0.8290776,0.7387405,0.81991196,0.4472268,0.371488,0.38594392,0.40383628,0.39671728,0.39161494,0.3703058,0.41578773,0.45935294,0.42376176,0.45151153,0.40125003,0.43223497,0.3768814,0.35685202,0.36689487,0.4704818,0.41075653,0.46131608
98,0.8107946,0.6510766,0.68787444,0.76740414,0.74360067,0.6712035,0.6498943,0.77935565,0.82292074,0.76417506,0.8150794,0.76481795,0.79580283,0.65647,0.63644075,0.6464835,0.83404964,0.7437125,0.82488406,0.46150008,0.3824963,0.3969522,0.41810957,0.40772554,0.4026232,0.38131407,0.430061,0.47362623,0.43477005,0.46578482,0.41552332,0.44650826,0.38788965,0.36786032,0.37790313,0.48475507,0.4217648,0.47558936
99,0.8299518,0.66569525,0.70703167,0.78656137,0.7627579,0.6858221,0.66451293,0.7985128,0.8420779,0.78333235,0.8342366,0.7839752,0.81496,0.67108864,0.6510593,0.66110206,0.8532069,0.7628697,0.8440412,0.47579524,0.39351133,0.40796724,0.4324047,0.4187406,0.4136382,0.39232907,0.44435617,0.4879214,0.44578508,0.48007998,0.42981848,0.46080336,0.39890468,0.37887534,0.3889182,0.49905023,0.43277985,0.4898846
100,0.8323821,0.6676056,0.7094619,0.7889916,0.7651881,0.68773246,0.66642326,0.800943,0.8445082,0.78576255,0.8366668,0.78640544,0.8173902,0.67299896,0.6529696,0.6630124,0.8556371,0.7652999,0.8464714,0.48963502,0.40417254,0.41862845,0.44624454,0.4294018,0.42429945,0.4029903,0.45819598,0.5017612,0.45644632,0.49391976,0.4436583,0.4746432,0.4095659,0.38953656,0.3995794,0.51289,0.44344106,0.5037244
101,0.83562326,0.6701243,0.7127031,0.79223275,0.7684293,0.69025123,0.668942,0.8041842,0.84774935,0.78900373,0.839908,0.7896466,0.8206314,0.6755177,0.6554884,0.6655311,0.85887825,0.76854116,0.8497126,0.50306576,0.41451636,0.42897227,0.45967528,0.4397456,0.43464327,0.41333413,0.47162673,0.5151919,0.4667901,0.5073505,0.45708904,0.48807397,0.4199097,0.39988038,0.40992323,0.52632076,0.45378488,0.5171551
102,0.8530053,0.6833752,0.73008513,0.8096148,0.7858113,0.70350206,0.68219286,0.8215662,0.8651313,0.80638576,0.85729,0.8070286,0.8380134,0.68876857,0.6687392,0.678782,0.8762603,0.7859231,0.8670947,0.51611733,0.42456624,0.43902215,0.47272685,0.44979548,0.44469312,0.42338398,0.4846783,0.5282435,0.47684,0.5204021,0.4701406,0.50112545,0.42995957,0.40993023,0.4199731,0.5393723,0.46383473,0.5302066
103,0.8537561,0.6839937,0.730836,0.8103657,0.7865622,0.7041206,0.6828114,0.8223171,0.8658823,0.80713665,0.8580409,0.8077795,0.8387643,0.6893871,0.6693578,0.6794005,0.8770112,0.786674,0.86784554,0.52881294,0.43434033,0.44879624,0.48542246,0.46161905,0.4544672,0.43315807,0.4973739,0.5409391,0.48661408,0.5330977,0.48283628,0.5138211,0.43973365,0.41970435,0.4297472,0.552068,0.47360882,0.5429023
104,0.8557188,0.6855285,0.7327986,0.8123283,0.78852475,0.70565534,0.68434614,0.8242797,0.8678448,0.8090992,0.86000353,0.8097421,0.840727,0.6909218,0.6708926,0.68093526,0.8789738,0.7886366,0.8698082,0.5411713,0.44385323,0.45830914,0.49778083,0.47397736,0.4639801,0.44267097,0.50973225,0.5532974,0.49612698,0.54545605,0.49519458,0.52617943,0.44924656,0.42921722,0.4392601,0.5644263,0.48312172,0.5552606
105,0.8567568,0.68634766,0.73383665,0.81336635,0.7895628,0.70647454,0.6851653,0.8253178,0.86888295,0.8101373,0.8610416,0.81078017,0.841765,0.691741,0.6717117,0.68175447,0.8800119,0.7896747,0.8708463,0.5609889,0.4590489,0.4735048,0.5175984,0.49379495,0.47917578,0.45786664,0.52954984,0.57311505,0.51436937,0.56527364,0.51501215,0.54599714,0.46444225,0.44441292,0.45445576,0.5842439,0.4983174,0.5750782
106,0.8708621,0.69708526,0.74794185,0.8274716,0.80366814,0.7172121,0.69590294,0.83942306,0.88298815,0.82424253,0.8751468,0.8248854,0.85587025,0.70247865,0.68244934,0.69249207,0.8941171,0.80377996,0.8849515,0.5737529,0.4688848,0.4833407,0.53036237,0.5065589,0.48901168,0.46770254,0.5423138,0.585879,0.52713335,0.5780376,0.5277761,0.558761,0.47427812,0.45424882,0.46429166,0.5970079,0.50815326,0.58784217
107,0.86980915,0.6963125,0.746889,0.82641864,0.80261517,0.7164393,0.6951301,0.8383701,0.88193524,0.82318956,0.8740939,0.82383245,0.8548173,0.7017058,0.68167657,0.6917193,0.89306414,0.802727,0.8838985,0.59797764,0.48744753,0.5019034,0.5545871,0.5307837,0.5075743,0.48626527,0.5665386,0.61010385,0.55135816,0.6022624,0.5520009,0.5829858,0.49284086,0.4728115,0.4828544,0.6212326,0.53089553,0.6120669
108,0.8702996,0.6967118,0.7473794,0.82690907,0.8031056,0.7168386,0.6955294,0.8388605,0.88242567,0.82368004,0.8745843,0.82432294,0.85530776,0.70210505,0.6820758,0.6921185,0.89355457,0.8032175,0.884389,0.6115217,0.4978918,0.5123477,0.5681312,0.54432786,0.51801866,0.49670956,0.58008265,0.6236479,0.56490225,0.61580646,0.56554496,0.59652996,0.5032851,0.48325583,0.49329868,0.6347768,0.5444396,0.6256111
109,0.88026047,0.7042955,0.7573403,0.83686996,0.81306654,0.72442234,0.7031132,0.84882146,0.89238656,0.83364093,0.8845452,0.8342838,0.86526865,0.7096889,0.6896596,0.69970226,0.9035155,0.81317836,0.89434993,0.625154,0.5083905,0.5228464,0.5817635,0.55796003,0.52851737,0.5072082,0.59371495,0.6372801,0.5785345,0.62943876,0.57917726,0.6101622,0.5137838,0.49375454,0.50379735,0.648409,0.5580719,0.63924336
110,0.87890065,0.7032814,0.75598055,0.83551025,0.8117068,0.7234083,0.7020991,0.84746164,0.8910268,0.8322811,0.8831855,0.832924,0.8639089,0.7086748,0.6886455,0.6986882,0.90215576,0.8118186,0.8929901,0.6379635,0.5182516,0.5327075,0.59457296,0.57076955,0.5383785,0.51706934,0.60652447,0.6500896,0.591344,0.64224815,0.5919868,0.62297165,0.5236449,0.50361556,0.51365846,0.6612185,0.5708814,0.6520528
111,0.8787346,0.7031733,0.75581443,0.8353441,0.8115406,0.7233001,0.70199096,0.8472955,0.8908607,0.832115,0.8830193,0.83275795,0.8637427,0.70856667,0.68853736,0.6985801,0.9019896,0.8116524,0.89282393,0.65000767,0.5275208,0.54197675,0.60661715,0.58281374,0.5476477,0.5263386,0.6185686,0.6621338,0.6033881,0.6542924,0.6040309,0.63501585,0.53291416,0.51288486,0.52292764,0.67326266,0.5829256,0.664097
112,0.8781282,0.70272255,0.755208,0.8347377,0.81093425,0.72284937,0.70154023,0.8466892,0.8902543,0.8315087,0.88241297,0.83215153,0.8631364,0.7081159,0.6880866,0.6981293,0.9013832,0.8110461,0.89221764,0.661337,0.5362378,0.55069363,0.6179465,0.59414315,0.55636466,0.5350555,0.62989795,0.6734631,0.6147175,0.66562176,0.61536026,0.6463452,0.5416311,0.5216018,0.5316446,0.684592,0.5942549,0.6754263
113,0.8771769,0.70200396,0.7542567,0.8337864,0.8099829,0.7221308,0.7008215,0.8457379,0.889303,0.83055735,0.8814616,0.83120024,0.86218506,0.7073972,0.6873679,0.6974107,0.90043193,0.8100948,0.89126635,0.68450713,0.55396664,0.56842256,0.6411166,0.61731315,0.5740936,0.5527844,0.6530681,0.6966332,0.6378876,0.6887919,0.6385304,0.66951525,0.55936,0.53933066,0.5493735,0.7077621,0.617425,0.69859654
114,0.8759762,0.7010912,0.75305605,0.8325857,0.8087822,0.721218,0.69990885,0.84453714,0.8881023,0.8293567,0.88026094,0.82999957,0.8609843,0.70648456,0.68645525,0.696498,0.8992312,0.8088941,0.89006555,0.6951299,0.5621589,0.57661474,0.6517395,0.62793595,0.5822857,0.5609766,0.6636909,0.7072561,0.64851046,0.69941473,0.64915323,0.6801381,0.56755215,0.5475228,0.5575657,0.718385,0.6280479,0.7092194
115,0.87460554,0.7000458,0.7516854,0.8312151,0.8074116,0.72017264,0.6988634,0.84316653,0.8867317,0.827986,0.87889034,0.8286289,0.8596138,0.7054391,0.6854098,0.6954526,0.89786065,0.80752337,0.888695,0.7061366,0.57063216,0.58508813,0.6627461,0.6389426,0.59075904,0.5694499,0.6746976,0.7182627,0.65951705,0.7104213,0.6601599,0.6911447,0.57602555,0.5559962,0.566039,0.7293916,0.6390545,0.720226
116,0.8731295,0.69891757,0.7502094,0.8297391,0.8059356,0.71904445,0.69773525,0.84169054,0.88525563,0.82651,0.87741435,0.82715285,0.8581377,0.70431095,0.68428165,0.6943244,0.89638454,0.80604744,0.88721895,0.728921,0.58806175,0.6060008,0.6855305,0.661727,0.6081886,0.58687943,0.697482,0.7410471,0.68230146,0.73320574,0.6829443,0.7139292,0.5934551,0.57342577,0.58346856,0.752176,0.6618389,0.7430104
117,0.871601,0.69774747,0.74868083,0.8282105,0.804407,0.71787435,0.69656515,0.8401619,0.8837271,0.82498145,0.8758857,0.82562435,0.85660917,0.70314085,0.68311155,0.69315434,0.894856,0.8045188,0.88569033,0.7514812,0.6053336,0.628561,0.7080907,0.68428725,0.6254605,0.6041513,0.7200422,0.7636073,0.70486164,0.75576603,0.70550454,0.7364894,0.61072695,0.59069765,0.60074043,0.7747363,0.6843991,0.76557064
118,0.8801602,0.70424026,0.75724,0.8367697,0.8129662,0.72436714,0.70305794,0.84872115,0.8922863,0.8335406,0.88444495,0.83418345,0.86516833,0.7096336,0.68960434,0.69964707,0.9034152,0.81307805,0.89424956,0.761286,0.61290693,0.63836586,0.71789557,0.69409204,0.6330339,0.61172473,0.7298471,0.7734121,0.7146665,0.7655708,0.7153093,0.7462942,0.6183003,0.598271,0.6083138,0.7845411,0.6942039,0.7753754
119,0.8775891,0.7022852,0.75466895,0.8341986,0.8103952,0.722412,0.70110273,0.8461501,0.88971525,0.8309696,0.88187385,0.83161247,0.8625973,0.70767844,0.6876492,0.6976919,0.90084416,0.81050694,0.8916786,0.7793845,0.6267757,0.65646434,0.735994,0.7121905,0.6469027,0.6255934,0.7479455,0.7915106,0.73276496,0.7836693,0.7334078,0.7643926,0.6321691,0.6121397,0.6221825,0.8026395,0.7123024,0.7934739
120,0.88766813,0.7099446,0.764748,0.8442776,0.8204742,0.7300714,0.70876217,0.8562291,0.8997942,0.8410486,0.89195293,0.8416915,0.8726764,0.7153379,0.69530857,0.70535135,0.9109232,0.82058597,0.90175754,0.79764056,0.64075947,0.6747204,0.75425005,0.7304466,0.6608864,0.63957715,0.7662015,0.80976665,0.751021,0.8019253,0.75166386,0.7826487,0.64615285,0.62612355,0.63616633,0.82089555,0.73055845,0.81172997
121,0.8854734,0.7082846,0.7625532,0.84208286,0.8182794,0.72841144,0.7071023,0.8540343,0.89759946,0.83885384,0.8897581,0.8394967,0.8704815,0.71367794,0.69364864,0.70369136,0.90872836,0.8183912,0.8995628,0.8057241,0.6470041,0.682804,0.76233363,0.73853016,0.667131,0.6458218,0.7742851,0.81785023,0.7591045,0.8100089,0.7597474,0.7907322,0.6523975,0.6323682,0.642411,0.82897913,0.7386419,0.8198135
122,0.89730394,0.7172819,0.7743838,0.8539134,0.8301101,0.73740876,0.71609956,0.865865,0.9094301,0.8506844,0.90158874,0.8513273,0.8823121,0.7226752,0.7026459,0.7126887,0.9205589,0.8302219,0.91139334,0.82743335,0.66359746,0.70451325,0.7840429,0.76023936,0.6837243,0.66241515,0.7959943,0.8395595,0.7808138,0.8317182,0.7814567,0.81244147,0.6689908,0.64896154,0.6590043,0.8506884,0.76035124,0.8415228
123,0.89516103,0.71566784,0.77224094,0.8517706,0.82796717,0.73579466,0.71448547,0.8637221,0.9072872,0.84854156,0.8994459,0.8491844,0.8801693,0.72106117,0.7010318,0.7110746,0.91841614,0.828079,0.9092505,0.83338714,0.66821,0.710467,0.7899967,0.76619315,0.6883369,0.6670277,0.80194813,0.8455132,0.7867676,0.83767194,0.7874105,0.8183954,0.6736034,0.6535741,0.66361684,0.8566422,0.766305,0.84747654
124,0.9067675,0.7244998,0.78384733,0.86337703,0.8395736,0.74462664,0.7233175,0.8753285,0.9188936,0.86014795,0.9110522,0.86079085,0.89177567,0.7298932,0.7098639,0.7199066,0.93002254,0.8396853,0.92085683,0.8547884,0.68455607,0.7318682,0.8113979,0.78759444,0.70468295,0.68337375,0.82334936,0.86691445,0.8081688,0.85907316,0.80881166,0.83979654,0.6899494,0.6699201,0.6799629,0.8780434,0.7877062,0.8688778
125,0.90473235,0.72297084,0.7818122,0.86134183,0.83753836,0.74309766,0.72178847,0.8732933,0.91685843,0.8581128,0.9090171,0.8587557,0.88974047,0.72836417,0.7083349,0.7183776,0.92798734,0.8376502,0.91882175,0.85898167,0.6878196,0.7360615,0.8155912,0.79178774,0.7079464,0.6866373,0.82754266,0.8711078,0.8123621,0.86326647,0.813005,0.84398985,0.6932129,0.6731837,0.68322635,0.8822367,0.79189956,0.87307113
126,0.90478635,0.7230308,0.7818662,0.86139584,0.83759236,0.7431576,0.7218484,0.87334734,0.91691244,0.8581668,0.9090711,0.85880965,0.8897945,0.72842413,0.7083948,0.71843755,0.9280414,0.8377042,0.9188758,0.8797946,0.70370555,0.75687444,0.8364041,0.8126006,0.7238325,0.70252323,0.8483556,0.8919207,0.83317506,0.88407934,0.83381796,0.8648028,0.70909894,0.6890696,0.6991124,0.9030496,0.8127125,0.893884
127,0.9180834,0.7331399,0.7951633,0.874693,0.8508895,0.7532668,0.73195755,0.8866444,0.9302095,0.8714639,0.9223682,0.8721068,0.90309155,0.73980874,0.720998,0.7311449,0.9413384,0.85100126,0.9321728,0.88225013,0.7056378,0.75933003,0.8388597,0.8150562,0.7257647,0.7044555,0.8508111,0.8943763,0.83563066,0.8865349,0.83627343,0.8672583,0.7110312,0.6910019,0.7010447,0.9055052,0.815168,0.8963396
128,0.91531014,0.73104703,0.79239,0.87191963,0.8481163,0.7511739,0.7298647,0.88387114,0.9274363,0.8686906,0.91959494,0.8693335,0.9003184,0.7370355,0.71822476,0.7283716,0.9385652,0.84822804,0.92939955,0.8961606,0.71626765,0.77324045,0.85277015,0.8289667,0.7363945,0.71508527,0.86472154,0.9082867,0.8495411,0.9004454,0.85018396,0.88116884,0.721661,0.70163167,0.71167445,0.91941565,0.8290785,0.91025
129,0.927938,0.74065405,0.8050178,0.88454753,0.8607441,0.76078093,0.73947173,0.896499,0.9400641,0.88131845,0.9322227,0.88196135,0.9129462,0.74966323,0.7308526,0.74099946,0.95119303,0.8608559,0.9420274,0.89805233,0.7177572,0.7751322,0.8546619,0.8308584,0.73788404,0.7165749,0.86661327,0.9101785,0.8514328,0.90233713,0.8520757,0.8830605,0.7231506,0.7031213,0.7131641,0.9213073,0.8309702,0.9121418
130,0.9251012,0.73851585,0.80218107,0.88171077,0.8579073,0.75864273,0.73733354,0.8936622,0.9372273,0.8784817,0.92938596,0.8791246,0.91010934,0.7468265,0.7280158,0.73816264,0.9483562,0.8580191,0.9391906,0.9092636,0.72632015,0.78634346,0.8658731,0.8420696,0.74644697,0.7251378,0.87782454,0.9213897,0.8626441,0.91354835,0.8632869,0.89427173,0.7317135,0.7121781,0.72232497,0.9325186,0.84218144,0.923353
131,0.9248879,0.7383739,0.80196774,0.8814974,0.8576939,0.7585007,0.73719156,0.8934488,0.937014,0.87826836,0.92917264,0.8789112,0.9098961,0.74661314,0.7278024,0.7379494,0.94814295,0.8578057,0.93897736,0.91008234,0.72698116,0.7871622,0.8666918,0.84288836,0.7471081,0.72579885,0.8786433,0.9222084,0.86346275,0.9143671,0.8641056,0.89509046,0.73237455,0.71299684,0.7231438,0.93333733,0.8430002,0.92417175
132,0.92449546,0.73808724,0.80157536,0.881105,0.8573016,0.7582141,0.73690486,0.8930565,0.9366216,0.877876,0.92878026,0.8785188,0.90950364,0.7462208,0.7274101,0.73755693,0.9477505,0.85741335,0.9385849,0.912033,0.7284981,0.78911287,0.86864257,0.8448391,0.748625,0.7273158,0.880594,0.92415917,0.86541355,0.9163178,0.8660564,0.8970412,0.7338915,0.7149476,0.72509456,0.9352881,0.8449509,0.9261225
133,0.9239295,0.73766327,0.8010094,0.88053906,0.8567356,0.75779015,0.73648095,0.8924905,0.93605566,0.87731004,0.9282143,0.8779529,0.9089377,0.7456548,0.7268441,0.736991,0.94718456,0.8568474,0.9380189,0.9218247,0.7359599,0.79890454,0.8784342,0.8546307,0.7560867,0.7347775,0.8903856,0.9339508,0.8752051,0.92610943,0.875848,0.9068328,0.74354994,0.7247392,0.7348861,0.9450797,0.8547425,0.9359141
134,0.9232357,0.7371383,0.80031556,0.87984526,0.8560418,0.7572652,0.73595595,0.8917967,0.9353618,0.87661624,0.9275205,0.877259,0.9082439,0.744961,0.7261503,0.7362972,0.94649076,0.8561536,0.9373251,0.9211001,0.73543173,0.79817986,0.87770957,0.85390615,0.7555586,0.73424935,0.8896611,0.93322617,0.8744805,0.9253848,0.8751234,0.9061082,0.7428254,0.72401464,0.7341615,0.9443551,0.854018,0.9351894
135,0.92245543,0.73654485,0.7995353,0.87906504,0.85526156,0.7566717,0.7353625,0.8910164,0.9345815,0.87583596,0.9267402,0.8764788,0.90746367,0.7441808,0.72537005,0.7355169,0.9457105,0.8553733,0.93654484,0.9330838,0.7445539,0.81016356,0.88969326,0.8658897,0.76468074,0.74337155,0.9016447,0.94520986,0.8864642,0.9373685,0.8871071,0.9180919,0.754809,0.7359983,0.7461451,0.95633876,0.8660016,0.9471732
136,0.9216231,0.7359098,0.79870296,0.87823266,0.8544292,0.75603664,0.7347275,0.8901841,0.9337493,0.8750036,0.9259079,0.8756465,0.90663135,0.7433485,0.72453773,0.7346846,0.94487816,0.85454094,0.9357126,0.9310267,0.74301094,0.80810654,0.88763624,0.8638327,0.7631378,0.7418286,0.89958763,0.9431528,0.88440716,0.9353115,0.88505006,0.9160348,0.752752,0.7339413,0.7440882,0.9542817,0.8639446,0.9451161
137,0.92076725,0.7352554,0.79784703,0.87737674,0.85357326,0.7553823,0.7340731,0.88932824,0.93289334,0.87414765,0.925052,0.87479055,0.90577537,0.74249256,0.7236818,0.73382866,0.9440222,0.8536851,0.9348566,0.9313275,0.7432616,0.8084074,0.88793707,0.8641336,0.7633884,0.74207914,0.8998885,0.94345367,0.88470805,0.9356123,0.8853509,0.91633576,0.75305283,0.73424214,0.74438894,0.9545826,0.8642454,0.9454169
138,0.91991055,0.7345994,0.7969904,0.87652004,0.8527166,0.7547263,0.7334171,0.8884715,0.93203664,0.873291,0.9241953,0.8739339,0.9049187,0.7416358,0.7228251,0.73297197,0.94316554,0.8528284,0.93399996,0.94142497,0.75278276,0.8185048,0.89803445,0.87423104,0.7710685,0.7497593,0.90998596,0.9535511,0.89480543,0.9457097,0.8954483,0.92643315,0.7631503,0.7443395,0.75448644,0.96468,0.87434286,0.9555144
139,0.9190713,0.733956,0.79615116,0.87568086,0.8518774,0.7540828,0.73277366,0.8876323,0.93119746,0.87245184,0.9233561,0.8730947,0.9040795,0.7407967,0.72198594,0.7321328,0.9423263,0.85198915,0.9331608,0.9388546,0.7502124,0.8159344,0.8954641,0.87166065,0.7691282,0.74781895,0.9074155,0.95098066,0.89223504,0.9431394,0.89287794,0.92386276,0.7605799,0.7417692,0.75191605,0.9621096,0.87177247,0.9529441
140,0.9182643,0.73333657,0.7953442,0.8748739,0.8510704,0.7534635,0.73215425,0.8868253,0.9303904,0.8716448,0.9225491,0.87228763,0.9032725,0.73998964,0.7211789,0.73132575,0.9415194,0.85118216,0.93235373,0.93858194,0.7499397,0.8156618,0.89519143,0.87138796,0.76893646,0.74762726,0.9071429,0.95070803,0.89196235,0.9428667,0.8926052,0.92359006,0.7603072,0.7414965,0.75164336,0.96183693,0.8714998,0.95267135
141,0.91750073,0.73274994,0.7945806,0.8741102,0.85030675,0.75287676,0.7315676,0.88606167,0.9296269,0.8708812,0.9217855,0.8715241,0.9025089,0.73922604,0.7204153,0.7305622,0.9407557,0.85041857,0.93159014,0.93821,0.74956775,0.8152898,0.8948195,0.871016,0.76866233,0.7473532,0.90677094,0.9503361,0.8915904,0.94249475,0.89223325,0.92321813,0.75993526,0.7411245,0.7512714,0.961465,0.8711278,0.9522994
142,0.91678923,0.73220277,0.79386914,0.8733988,0.8495953,0.7523296,0.73102033,0.8853502,0.9289154,0.87016976,0.92107403,0.8708126,0.9017974,0.73851454,0.7197038,0.7298507,0.9400443,0.8497071,0.9308787,0.93772864,0.74908644,0.81480855,0.89433813,0.8705347,0.76830095,0.74699175,0.90628964,0.94985485,0.8911091,0.9420135,0.891752,0.9227369,0.759454,0.74064326,0.7507901,0.9609837,0.87064654,0.95181805
143,0.91613626,0.73169994,0.79321605,0.87274575,0.8489423,0.75182676,0.7305176,0.8846972,0.92826235,0.8695167,0.920421,0.8701595,0.9011444,0.7378615,0.71905077,0.7291976,0.93939126,0.8490541,0.9302257,0.9371672,0.748525,0.8142471,0.8937768,0.8699733,0.7678757,0.7465665,0.9057282,0.9492934,0.8905477,0.941452,0.8911906,0.9221754,0.75889254,0.7400818,0.7502287,0.9604223,0.8700851,0.95125663
144,0.9155462,0.73124516,0.7926261,0.8721557,0.84835225,0.75137204,0.73006284,0.8841072,0.9276723,0.86892664,0.91983104,0.86956954,0.9005543,0.73727155,0.7184608,0.72860765,0.93880117,0.848464,0.9296356,0.93655336,0.7479111,0.8136332,0.89316285,0.8693594,0.76740843,0.74609923,0.9051143,0.94867945,0.8899338,0.9408381,0.8905767,0.9215615,0.75827867,0.739468,0.74961483,0.9598084,0.86947125,0.95064276
145,0.9150221,0.7308407,0.792102,0.8716316,0.84782815,0.7509675,0.72965825,0.88358307,0.92714816,0.8684026,0.9193069,0.86904544,0.90003026,0.7367474,0.71793664,0.72808355,0.9382771,0.84793997,0.9291115,0.9477675,0.75912523,0.82484734,0.904377,0.8805735,0.777115,0.7546105,0.91632843,0.9598936,0.9011479,0.95205224,0.90179086,0.9327756,0.76949275,0.75068206,0.760829,0.9710225,0.8806854,0.9618569
146,0.91456556,0.73048764,0.7916454,0.87117505,0.84737164,0.7506145,0.7293053,0.8831265,0.92669165,0.867946,0.9188503,0.8685889,0.89957374,0.7362909,0.7174802,0.72762704,0.93782055,0.8474834,0.928655,0.94390607,0.75526386,0.8209859,0.9005156,0.8767122,0.7732537,0.7516781,0.91246706,0.9560323,0.89728653,0.94819087,0.89792943,0.92891425,0.76563144,0.7468207,0.75696754,0.9671611,0.87682396,0.95799553
147,0.91417736,0.7301868,0.7912572,0.8707869,0.84698343,0.7503137,0.7290045,0.88273835,0.92630345,0.8675578,0.91846216,0.86820066,0.89918554,0.73590267,0.7170919,0.7272388,0.9374324,0.8470952,0.92826676,0.9431103,0.7544681,0.82019013,0.89971983,0.87591636,0.77245784,0.7510821,0.9116713,0.9552364,0.8964908,0.9473951,0.8971336,0.92811847,0.7648356,0.74602485,0.75617176,0.96636534,0.8760281,0.9571997
148,0.9138572,0.72993803,0.79093707,0.87046677,0.84666324,0.75006497,0.7287557,0.88241816,0.9259833,0.8672377,0.918142,0.8678805,0.89886534,0.7355825,0.71677184,0.7269187,0.9371122,0.84677505,0.9279466,0.94238627,0.753744,0.8194661,0.89899576,0.8751923,0.77184415,0.750535,0.9109472,0.95451236,0.89576674,0.946671,0.89640963,0.9273944,0.7641115,0.7453008,0.7554477,0.96564126,0.87530416,0.9564757
149,0.9136043,0.72974074,0.79068416,0.87021387,0.8464104,0.74986756,0.7285583,0.8821653,0.92573047,0.8669848,0.91788906,0.8676276,0.8986125,0.7353296,0.7165189,0.72666574,0.93685937,0.84652215,0.9276937,0.95398474,0.7653425,0.8310646,0.9105942,0.88679075,0.7833322,0.7593398,0.9225457,0.9661108,0.90736514,0.9582695,0.90800804,0.93899286,0.77571,0.75689924,0.7670462,0.9772397,0.88690263,0.96807414
150,0.913417,0.7295934,0.7904968,0.87002647,0.846223,0.7497203,0.7284111,0.8819779,0.92554307,0.86679745,0.9177017,0.8674403,0.8984251,0.73514223,0.71633154,0.72647846,0.936672,0.8463348,0.9275063,0.9497393,0.7610971,0.8268191,0.9063488,0.88254535,0.7790868,0.75611687,0.9183003,0.9618654,0.90311974,0.9540241,0.90376264,0.93474746,0.7714646,0.75265384,0.76280075,0.9729943,0.8826572,0.96382874
151,0.9132935,0.729495,0.7903733,0.86990297,0.84609956,0.74962187,0.7283127,0.8818545,0.9254196,0.86667395,0.9175783,0.8673168,0.8983016,0.73501873,0.7162081,0.72635496,0.9365485,0.8462113,0.9273829,0.9488288,0.76018655,0.82590866,0.90543836,0.8816349,0.77817637,0.7554349,0.91738975,0.96095496,0.9022093,0.95311356,0.9028522,0.93383694,0.7705541,0.75174344,0.7618903,0.9720838,0.8817467,0.9629183
152,0.9132314,0.72944355,0.7903112,0.86984086,0.8460374,0.7495704,0.72826123,0.8817923,0.92535746,0.86661184,0.9175161,0.8672547,0.8982395,0.7349566,0.7161459,0.7262928,0.93648636,0.8461492,0.9273208,0.94803184,0.75938964,0.8251117,0.90464133,0.8808379,0.7773794,0.7548328,0.91659284,0.96015793,0.9014123,0.95231664,0.90205514,0.93304,0.76975715,0.7509464,0.76109326,0.9712868,0.8809497,0.96212125
153,0.91322833,0.72943735,0.7903081,0.8698379,0.8460344,0.7495642,0.72825503,0.8817893,0.9253545,0.8666088,0.9175131,0.86725163,0.8982365,0.73495364,0.7161429,0.7262898,0.9364833,0.84614617,0.92731774,0.94727916,0.75863683,0.824359,0.90388864,0.88008523,0.7766267,0.75426114,0.91584015,0.95940524,0.90065956,0.9515639,0.90130246,0.93228734,0.76900446,0.7501937,0.7603406,0.9705341,0.880197,0.96136856
154,0.91328144,0.7294742,0.7903613,0.86989105,0.8460876,0.749601,0.7282918,0.8818425,0.9254075,0.86666197,0.91756624,0.8673048,0.8982897,0.7350068,0.71619606,0.7263429,0.9365365,0.8461993,0.9273709,0.9566103,0.76796806,0.83369017,0.9132198,0.88941634,0.7859578,0.76134276,0.92517126,0.9687364,0.90999067,0.96089506,0.9106336,0.94161844,0.7783356,0.7595248,0.76967174,0.9798653,0.8895282,0.9706997
155,0.913388,0.7295518,0.79046786,0.8699975,0.846194,0.74967873,0.7283695,0.88194895,0.9255141,0.8667684,0.91767275,0.8674114,0.89839613,0.73511326,0.7163026,0.72644943,0.936643,0.84630585,0.9274774,0.95285726,0.76421505,0.8299371,0.90946674,0.88566333,0.78220487,0.75849175,0.9214182,0.96498334,0.9062377,0.957142,0.9068806,0.93786544,0.77458256,0.7557719,0.76591873,0.97611237,0.88577515,0.9669468
156,0.9135449,0.729668,0.79062474,0.87015444,0.8463509,0.74979496,0.7284857,0.8821058,0.925671,0.86692536,0.91782963,0.86756825,0.898553,0.7352702,0.71645945,0.72660637,0.9367999,0.8464627,0.92763424,0.962724,0.77408177,0.8398039,0.9193335,0.8955301,0.7920716,0.7672024,0.9312849,0.9748502,0.91610444,0.96700877,0.91674733,0.94773215,0.78444934,0.7656386,0.77578545,0.9859791,0.89564186,0.9768133
157,0.91374916,0.7298206,0.79082894,0.8703587,0.84655523,0.7499474,0.7286383,0.88231015,0.92587525,0.8671296,0.9180339,0.86777246,0.89875734,0.73547447,0.7166637,0.7268106,0.9370042,0.84666705,0.92783856,0.9584931,0.7698509,0.83557296,0.91510266,0.8912992,0.7878407,0.7629715,0.92705417,0.9706192,0.9118736,0.9627779,0.9125165,0.94350135,0.7802184,0.76140773,0.7715546,0.9817482,0.891411,0.97258246
158,0.913998,0.7300073,0.79107785,0.8706075,0.846804,0.7501341,0.728825,0.88255894,0.9261241,0.8673785,0.91828275,0.8680213,0.8990061,0.73572326,0.7169125,0.7270594,0.937253,0.84691584,0.92808735,0.95741916,0.7687769,0.834499,0.91402864,0.8902252,0.78676665,0.7619723,0.9259801,0.96954525,0.9107996,0.96170396,0.9114425,0.9424273,0.7791444,0.7603337,0.7704806,0.98067415,0.89033705,0.97150856
159,0.91428804,0.73022556,0.7913679,0.8708976,0.8470941,0.7503524,0.72904325,0.882849,0.92641413,0.8676685,0.91857284,0.8683114,0.8992962,0.73601335,0.7172026,0.7273495,0.93754303,0.8472059,0.9283774,0.96522456,0.77658236,0.84230447,0.9218341,0.89803064,0.7945721,0.7697029,0.93378556,0.9773507,0.9186051,0.96950936,0.9192479,0.9502327,0.7869499,0.7681391,0.77828604,0.9884796,0.89814246,0.97931397
160,0.9146167,0.7304734,0.79169655,0.8712262,0.8474227,0.7506003,0.7292911,0.88317764,0.9267428,0.86799717,0.91890144,0.86864007,0.8996248,0.73634195,0.7175312,0.7276782,0.9378717,0.84753454,0.92870605,0.96150917,0.77286696,0.838589,0.9181187,0.89431524,0.7908567,0.7659875,0.93007016,0.9736352,0.9148897,0.96579397,0.9155325,0.94651735,0.7832345,0.7644237,0.77457064,0.9847642,0.89442706,0.9755986
161,0.9149809,0.73074853,0.79206073,0.8715904,0.8477869,0.75087535,0.72956616,0.8835418,0.927107,0.86836135,0.9192657,0.86900425,0.899989,0.7367062,0.71789545,0.72804224,0.9382359,0.8478987,0.92907023,0.96783763,0.7791954,0.8449175,0.9244472,0.9006437,0.7971852,0.772316,0.9363986,0.9799638,0.92121816,0.97212243,0.92186093,0.9528458,0.78956294,0.7707522,0.7808991,0.9910927,0.9007555,0.98192704
162,0.91537786,0.7310488,0.7924577,0.87198734,0.84818393,0.75117564,0.72986645,0.8839389,0.92750394,0.8687583,0.91966265,0.8694012,0.90038604,0.73710316,0.7182925,0.72843933,0.93863285,0.8482957,0.92946726,0.96438736,0.77574515,0.8414672,0.9209969,0.89719343,0.7937349,0.7688657,0.93294835,0.9765134,0.9177679,0.96867216,0.91841066,0.94939554,0.78611267,0.7673019,0.7774488,0.9876424,0.89730525,0.97847676
163,0.9158049,0.73137206,0.79288477,0.8724144,0.84861094,0.75149894,0.73018974,0.8843659,0.9279311,0.8691853,0.9200897,0.8698282,0.9008131,0.73753023,0.7187195,0.72886634,0.9390599,0.8487228,0.92989427,0.96324724,0.77460504,0.84032714,0.9198568,0.8960533,0.7925948,0.7677256,0.9318082,0.97537327,0.91662765,0.96753204,0.91727054,0.94825536,0.78497255,0.7661618,0.7763087,0.9865023,0.8961651,0.97733665
164,0.9162593,0.7317163,0.79333913,0.8728688,0.8490653,0.75184315,0.73053396,0.8848203,0.9283854,0.86963975,0.920544,0.87028265,0.9012674,0.73798454,0.71917385,0.72932076,0.9395143,0.8491771,0.93034863,0.9622741,0.7736319,0.8393539,0.9188837,0.89508015,0.7916217,0.7667524,0.930835,0.97440016,0.91565454,0.9665589,0.91629744,0.94728225,0.7839994,0.76518863,0.77533555,0.9855292,0.89519197,0.9763634
165,0.9167385,0.7320797,0.7938184,0.8733481,0.84954464,0.75220656,0.7308973,0.88529956,0.9288646,0.870119,0.9210233,0.8707619,0.90174675,0.7384639,0.7196531,0.7298,0.93999356,0.8496564,0.930828,0.96140254,0.7727603,0.8384824,0.918012,0.89420855,0.79075015,0.7658808,0.9299635,0.9735286,0.914783,0.9656873,0.9154259,0.9464107,0.78312784,0.7643171,0.77446395,0.9846575,0.8943204,0.9754919
166,0.9172404,0.7324604,0.7943202,0.8738499,0.8500464,0.7525872,0.731278,0.8858013,0.9293665,0.87062085,0.9215251,0.87126374,0.90224856,0.7389657,0.72015494,0.73030186,0.9404954,0.8501582,0.93132985,0.96061623,0.77197397,0.83769596,0.9172257,0.89342225,0.7899637,0.7650945,0.92917717,0.9727423,0.91399664,0.9649009,0.9146395,0.94562435,0.7823415,0.76353073,0.7736776,0.9838712,0.893534,0.9747056
167,0.9177622,0.7328564,0.7948421,0.87437177,0.8505683,0.7529832,0.7316741,0.8863232,0.9298883,0.87114275,0.922047,0.8717856,0.9027704,0.7394875,0.7206768,0.73082376,0.94101727,0.8506801,0.9318516,0.95990574,0.7712635,0.8369855,0.91651523,0.89271176,0.78925323,0.76438403,0.9284667,0.97203183,0.91328615,0.9641905,0.91392905,0.94491386,0.781631,0.76282024,0.7729672,0.98316073,0.8928236,0.9739951
168,0.91830194,0.7332661,0.79538184,0.8749115,0.85110795,0.753393,0.7320838,0.886863,0.9304281,0.8716824,0.92258674,0.8723253,0.9033102,0.7400273,0.72121656,0.7313634,0.94155705,0.8512198,0.9323914,0.9592638,0.7706216,0.8363437,0.91587335,0.89206994,0.7886114,0.7637422,0.9278248,0.9713899,0.91264427,0.96354866,0.91328716,0.944272,0.78098917,0.7621784,0.7723253,0.9825189,0.8921817,0.97335315
169,0.9188576,0.7336881,0.7959375,0.8754672,0.8516637,0.753815,0.7325058,0.88741857,0.9309838,0.87223804,0.92314243,0.87288094,0.9038658,0.74058294,0.7217722,0.7319191,0.9421127,0.85177547,0.93294704,0.9586849,0.7700426,0.83576465,0.9152944,0.89149094,0.7880324,0.76316315,0.92724586,0.9708109,0.91206527,0.96296966,0.91270816,0.94369304,0.7804102,0.7615994,0.7717463,0.9819398,0.8916027,0.97277427
