,106,122,133,17,2,218,254,282,294,30,301,302,33,335,339,341,362,5,6,106,122,133,17,2,218,254,282,294,30,301,302,33,335,339,341,362,5,6
0,-6.329827e-05,0.005365709,-0.00017328355,-0.00048057482,-0.00032498094,0.004607171,0.010530576,-0.00025287873,-0.00014664233,0.0057341997,-0.00018701087,-0.00064397074,-0.00019042034,0.010730736,0.004264418,0.008403832,-4.2714924e-05,-5.452428e-05,0.0052221883,-6.329827e-05,0.005365709,-0.00017328355,-0.00048057482,-0.00032498094,0.004607171,0.010530576,-0.00025287873,-0.00014664233,0.005734207,-0.00018701087,-0.00064397074,-0.00019042034,0.010730736,0.004264418,0.008403832,-4.2714924e-05,-5.452428e-05,0.0052221734
1,-4.116766e-05,0.0064814556,-0.00016212605,-0.00045844435,-0.0003028504,0.0057229176,0.011646327,-0.00023074813,-0.00012451164,0.0079472605,-0.00016488016,-0.0006218402,-0.00016828984,0.0118464865,0.005380165,0.009519579,-2.058439e-05,-3.2393633e-05,0.007435262,-4.116766e-05,0.0064814556,-0.00016212605,-0.00045844435,-0.0003028504,0.0057229176,0.011646327,-0.00023074813,-0.00012451164,0.007947259,-0.00016488016,-0.0006218402,-0.00016828984,0.0118464865,0.005380165,0.009519579,-2.058439e-05,-3.2393633e-05,0.007435262
2,-0.00015922844,0.0044044964,-0.00018289562,-0.00057650503,-0.00042091115,0.003645964,0.009569369,-0.00034880897,-0.00024257254,-3.8588158e-05,-0.00028294118,-0.00073990104,-0.0002863505,0.009769527,0.0033032056,0.0074426252,-0.00013864509,-0.00015045452,-4.370827e-05,-0.00015922844,0.0044044964,-0.00018289562,-0.00057650503,-0.00042091115,0.003645964,0.009569369,-0.00034880897,-0.00024257254,-3.8588194e-05,-0.00028294118,-0.00073990104,-0.0002863505,0.009769527,0.0033032056,0.0074426252,-0.00013864509,-0.00015045445,-4.3708456e-05
3,-0.00031301373,0.0014154594,-0.000212786,-0.00073029054,-0.0005746965,0.0006569214,0.0065803323,-0.00050259434,-0.00039635753,-0.00019237347,-0.00043672635,-0.00089368614,-0.0004401359,0.0067804903,0.00031416863,0.0044535846,-0.00029243028,-0.00030423983,-0.00019749362,-0.00031301373,0.0014154594,-0.000212786,-0.00073029054,-0.0005746965,0.0006569214,0.0065803323,-0.00050259434,-0.00039635753,-0.0001923735,-0.00043672635,-0.00089368614,-0.0004401359,0.0067804903,0.00031416863,0.0044535846,-0.00029243028,-0.00030423983,-0.00019749362
4,-0.00036701528,0.000262158,-0.00022431905,-0.0007842919,-0.0006286979,-4.963819e-06,0.005427029,-0.0005565957,-0.00045035934,-0.00024637498,-0.00049072783,-0.0009476878,-0.00049413723,0.005627189,-8.3913465e-06,0.0033002812,-0.0003464319,-0.00035824126,-0.00025149525,-0.00036701528,0.000262158,-0.00022431905,-0.0007842919,-0.0006286979,-4.963819e-06,0.005427029,-0.0005565957,-0.00045035934,-0.00024637493,-0.00049072783,-0.0009476878,-0.00049413723,0.005627189,-8.3913465e-06,0.0033002812,-0.0003464319,-0.00035824126,-0.00025149525
5,-0.00037320747,1.1747703e-05,-0.00022682319,-0.00079048425,-0.00063489017,-7.4679215e-06,0.0051766187,-0.000562788,-0.00045655144,-0.00025256723,-0.00049691997,-0.0009538799,-0.0005003294,0.0053767767,-1.0895449e-05,0.003049871,-0.00035262405,-0.0003644335,-0.00025768715,-0.00037320747,1.1747703e-05,-0.00022682319,-0.00079048425,-0.00063489017,-7.4679215e-06,0.0051766187,-0.000562788,-0.00045655144,-0.0002525672,-0.00049691997,-0.0009538799,-0.0005003294,0.0053767767,-1.0895449e-05,0.003049871,-0.00035262405,-0.0003644335,-0.00025768715
6,-0.00037839523,-2.020672e-06,-0.00022896129,-0.00079567207,-0.00064007804,-9.60607e-06,0.004962804,-0.0005679758,-0.00046173937,-0.00025775502,-0.000502108,-0.0009590677,-0.00050551724,0.005162958,-1.3033598e-05,0.002836056,-0.0003578118,-0.00036962135,-0.00026287517,-0.00037839523,-2.020672e-06,-0.00022896129,-0.00079567207,-0.00064007804,-9.60607e-06,0.004962804,-0.0005679758,-0.00046173937,-0.00025775496,-0.000502108,-0.0009590677,-0.00050551724,0.005162958,-1.3033598e-05,0.002836056,-0.0003578118,-0.0003696213,-0.00026287517
7,-0.0003819441,-3.4916213e-06,-0.00023043226,-0.0007992207,-0.0006436268,-1.1077002e-05,0.0048157107,-0.00057152467,-0.00046528815,-0.00026130388,-0.0005056569,-0.0009626167,-0.0005090662,0.0050158687,-1.450453e-05,0.002688963,-0.00036136076,-0.00037317016,-0.00026642403,-0.0003819441,-3.4916213e-06,-0.00023043226,-0.0007992207,-0.0006436268,-1.1077002e-05,0.0048157107,-0.00057152467,-0.00046528815,-0.00026130382,-0.0005056569,-0.0009626167,-0.0005090662,0.0050158687,-1.450453e-05,0.002688963,-0.00036136076,-0.00037317016,-0.00026642403
8,-0.0003836628,-4.1932985e-06,-0.00023113388,-0.00080093957,-0.0006453454,-1.17786785e-05,0.004745543,-0.00057324325,-0.0004670067,-0.0002630224,-0.00050737534,-0.0009643351,-0.0005107848,0.004945701,-1.5206207e-05,0.0026187953,-0.00036307916,-0.00037488877,-0.00026814255,-0.0003836628,-4.1932985e-06,-0.00023113388,-0.00080093957,-0.0006453454,-1.17786785e-05,0.004745543,-0.00057324325,-0.0004670067,-0.00026302243,-0.00050737534,-0.0009643351,-0.0005107848,0.004945701,-1.5206207e-05,0.0026187953,-0.00036307916,-0.00037488868,-0.00026814255
9,-0.00038360685,-4.136879e-06,-0.00023107747,-0.00080088346,-0.0006452895,-1.1722278e-05,0.004751183,-0.0005731873,-0.00046695082,-0.00026296644,-0.00050731964,-0.0009642792,-0.0005107288,0.0049513374,-1.5149805e-05,0.0026244354,-0.00036302343,-0.00037483274,-0.0002680866,-0.00038360685,-4.136879e-06,-0.00023107747,-0.00080088346,-0.0006452895,-1.1722278e-05,0.004751183,-0.0005731873,-0.00046695082,-0.00026296644,-0.00050731964,-0.0009642792,-0.0005107288,0.0049513374,-1.5149805e-05,0.0026244354,-0.00036302343,-0.00037483274,-0.0002680866
10,-0.00038195885,-3.393609e-06,-0.0002303342,-0.0007992355,-0.0006436415,-1.0978952e-05,0.00482551,-0.00057153933,-0.000465303,-0.00026131858,-0.00050567166,-0.0009626313,-0.0005090809,0.00502567,-1.440648e-05,0.002698768,-0.00036137566,-0.00037318483,-0.0002664388,-0.00038195885,-3.393609e-06,-0.0002303342,-0.0007992355,-0.0006436415,-1.0978952e-05,0.00482551,-0.00057153933,-0.000465303,-0.0002613185,-0.00050567166,-0.0009626313,-0.0005090809,0.00502567,-1.440648e-05,0.002698768,-0.00036137566,-0.00037318483,-0.0002664388
11,-0.0003789565,-2.061762e-06,-0.00022900238,-0.0007962335,-0.00064063934,-9.647142e-06,0.004958695,-0.0005685371,-0.0004623006,-0.00025831634,-0.00050266914,-0.00095962896,-0.00050607865,0.0051588546,-1.3074669e-05,0.002831947,-0.00035837322,-0.00037018253,-0.0002634364,-0.0003789565,-2.061762e-06,-0.00022900238,-0.0007962335,-0.00064063934,-9.647142e-06,0.004958695,-0.0005685371,-0.0004623006,-0.00025831634,-0.00050266914,-0.00095962896,-0.00050607865,0.0051588546,-1.3074669e-05,0.002831947,-0.00035837322,-0.00037018253,-0.0002634364
12,-0.0003748506,-2.479367e-07,-0.00022718853,-0.0007921272,-0.0006365333,-7.833317e-06,0.0051400773,-0.0005644311,-0.0004581946,-0.0002542104,-0.0004985634,-0.00095552317,-0.0005019726,0.005340237,-1.1260844e-05,0.0030133352,-0.00035426734,-0.00036607668,-0.0002593306,-0.0003748506,-2.479367e-07,-0.00022718853,-0.0007921272,-0.0006365333,-7.833317e-06,0.0051400773,-0.0005644311,-0.0004581946,-0.0002542103,-0.0004985634,-0.00095552317,-0.0005019726,0.005340237,-1.1260844e-05,0.0030133352,-0.00035426734,-0.00036607668,-0.0002593306
13,-0.0003698817,0.00019443594,-0.00022499624,-0.0007871582,-0.00063156424,-5.6409835e-06,0.005359307,-0.00055946206,-0.0004532255,-0.00024924125,-0.00049359415,-0.000950554,-0.0004970037,0.005559467,-9.068567e-06,0.0032325648,-0.00034929827,-0.00036110758,-0.00025436125,-0.0003698817,0.00019443594,-0.00022499624,-0.0007871582,-0.00063156424,-5.6409835e-06,0.005359307,-0.00055946206,-0.0004532255,-0.00024924125,-0.00049359415,-0.000950554,-0.0004970037,0.005559467,-9.068567e-06,0.0032325648,-0.00034929827,-0.00036110758,-0.00025436125
14,-0.00036426826,0.00044199266,-0.00022252067,-0.000781545,-0.000625951,-3.1654536e-06,0.0056068636,-0.00055384875,-0.00044761226,-0.00024362798,-0.0004879809,-0.0009449407,-0.00049139024,0.0058070235,-6.592981e-06,0.0034801215,-0.00034368483,-0.00035549433,-0.0002487482,-0.00036426826,0.00044199266,-0.00022252067,-0.000781545,-0.000625951,-3.1654536e-06,0.0056068636,-0.00055384875,-0.00044761226,-0.00024362802,-0.0004879809,-0.0009449407,-0.00049139024,0.0058070235,-6.592981e-06,0.0034801215,-0.00034368483,-0.00035549433,-0.0002487482
15,-0.00035820424,0.00070942566,-0.00021984636,-0.0007754809,-0.00061988697,-4.910864e-07,0.0058742967,-0.0005477848,-0.00044154836,-0.00023756389,-0.00048191703,-0.0009388767,-0.00048532634,0.0060744565,-3.9186143e-06,0.0037475545,-0.0003376211,-0.00034943028,-0.00024268396,-0.00035820424,0.00070942566,-0.00021984636,-0.0007754809,-0.00061988697,-4.910864e-07,0.0058742967,-0.0005477848,-0.00044154836,-0.00023756392,-0.00048191703,-0.0009388767,-0.00048532634,0.0060744565,-3.9186143e-06,0.0037475545,-0.0003376211,-0.00034943022,-0.00024268396
16,-0.00035185626,0.0009894073,-0.00021704655,-0.0007691331,-0.0006135391,0.00023086742,0.0061542783,-0.0005414369,-0.00043520026,-0.00023121607,-0.0004755689,-0.0009325288,-0.0004789783,0.0063544326,-1.1188537e-06,0.0040275306,-0.000331273,-0.00034308233,-0.00023633629,-0.00034935176,0.0010949243,-0.00021599136,-0.00076662854,-0.0006110344,0.00033638626,0.006259797,-0.0005389323,-0.00043269567,-0.00022871143,-0.00047306446,-0.0009300243,-0.0004764737,0.006459955,-6.366521e-08,0.0041330494,-0.00032876842,-0.0003405778,-0.00023383174
17,-0.0003453669,0.0012756549,-0.00021418407,-0.0007626437,-0.0006070497,0.000517115,0.006440526,-0.00053494744,-0.000428711,-0.00022472671,-0.00046907977,-0.0009260394,-0.0004724889,0.0066406857,0.00017436221,0.004313782,-0.0003247836,-0.00033659293,-0.00022984679,-0.00034068324,0.001477424,-0.00021216639,-0.0007579598,-0.0006023658,0.00071888976,0.006642295,-0.0005302637,-0.0004240273,-0.0002200428,-0.00046439594,-0.0009213557,-0.0004678052,0.006842455,0.0003761314,0.004515553,-0.00032009982,-0.0003319091,-0.00022516288
18,-0.00033885628,0.0015628729,-0.00021131187,-0.0007561329,-0.000600539,0.000804333,0.006727744,-0.0005284368,-0.0004222004,-0.000218216,-0.00046256906,-0.00091952883,-0.0004659783,0.0069279037,0.00046158023,0.004601,-0.00031827312,-0.00033008234,-0.0002233361,-0.0003328981,0.0018218793,-0.00020872183,-0.00075017486,-0.00059458084,0.0010633413,0.0069867503,-0.0005224786,-0.00041624226,-0.0002122578,-0.0004566109,-0.00091357064,-0.0004600203,0.00718691,0.0007205885,0.004860008,-0.0003123148,-0.00032412412,-0.00021737783
19,-0.00033242494,0.0018466059,-0.00020847454,-0.00074970187,-0.00059410767,0.0010880679,0.007011477,-0.0005220055,-0.00041576914,-0.00021178476,-0.00045613764,-0.00091309746,-0.00045954704,0.0072116368,0.00074531324,0.004884733,-0.00031184172,-0.00032365098,-0.00021690491,-0.00032593036,0.0021302607,-0.00020563799,-0.0007432069,-0.000587613,0.0013717208,0.0072951317,-0.0005155108,-0.00040927448,-0.00020529001,-0.00044964312,-0.00090660277,-0.00045305237,0.0074952915,0.001028968,0.0051683877,-0.00030534703,-0.00031715623,-0.00021041035
20,-0.00032615688,0.0021231417,-0.00020570919,-0.00074343354,-0.00058783946,0.0013646092,0.0072880127,-0.0005157374,-0.00040950088,-0.00020551655,-0.0004498694,-0.0009068294,-0.00045327895,0.0074881725,0.0010218509,0.0051612705,-0.00030557334,-0.00031738277,-0.00021063666,-0.00031487763,0.0026089605,-0.00020085099,-0.0007321542,-0.0005765602,0.0018504225,0.0077738315,-0.0005044581,-0.00039822154,-0.00019423716,-0.00043859033,-0.00089555,-0.00044199958,0.007973991,0.0015076678,0.0056470837,-0.0002942941,-0.0003061035,-0.00019935727
21,-0.00032012086,0.0023894217,-0.00020304638,-0.0007373976,-0.0005818036,0.0016308818,0.0075542927,-0.0005097014,-0.0004034648,-0.00019948058,-0.00044383362,-0.0009007933,-0.000447243,0.0077544525,0.001288129,0.005427545,-0.0002995375,-0.00031134684,-0.00020460066,-0.00030463107,0.003061913,-0.00019632153,-0.0007219078,-0.0005663138,0.002303375,0.008226784,-0.0004942116,-0.00038797504,-0.00018399078,-0.00042834386,-0.00088530354,-0.00043175303,0.00842694,0.0019606221,0.006100036,-0.0002840476,-0.00029585714,-0.00018911085
22,-0.00030888442,0.0026864633,-0.00020007596,-0.0007261611,-0.0005705671,0.0019279253,0.007851336,-0.00049846485,-0.00039222828,-0.00018824401,-0.00043259695,-0.00088955666,-0.0004360064,0.008051494,0.0015851725,0.0057245884,-0.0002883009,-0.00030011043,-0.00019336413,-0.0002795881,0.0035552792,-0.00019138782,-0.0006968646,-0.0005412707,0.0027967393,0.00872015,-0.0004691685,-0.00036293193,-0.0001589477,-0.00040330074,-0.0008602604,-0.0004067101,0.008920308,0.0024539866,0.0065934025,-0.00025900465,-0.00027081402,-0.00016406781
23,-0.00028608783,0.0030630548,-0.0001963101,-0.0007033644,-0.00054777047,0.0023045167,0.008227926,-0.00047566838,-0.00036943183,-0.00016544745,-0.00040980047,-0.00086676044,-0.00041320993,0.008428082,0.001961764,0.006101178,-0.00026550438,-0.0002773138,-0.0001705677,-0.00024747264,0.0042278934,-0.00018466171,-0.0006647491,-0.0005091554,0.0034693535,0.009392764,-0.00043705312,-0.00033081675,-0.00012683231,-0.0003711853,-0.00082814513,-0.0003745947,0.009592924,0.0031266008,0.0072660167,-0.00022688936,-0.00023869867,-0.0001319526
24,-0.00026393254,0.0034210887,-0.00019272971,-0.0006812092,-0.0005256153,0.0026625544,0.00858596,-0.00045351312,-0.00034727668,-0.00014329229,-0.00038764536,-0.0008446051,-0.00039105452,0.0087861195,0.002319796,0.0064592175,-0.00024334941,-0.00025515858,-0.00014841247,-0.00021567948,0.00485716,-0.00017836905,-0.0006329562,-0.00047736228,0.004098622,0.010022027,-0.00040526025,-0.0002990235,-9.5039235e-05,-0.00033939225,-0.00079635193,-0.0003428015,0.010222187,0.0037558693,0.007895285,-0.00019509606,-0.00020690559,-0.000100159385
25,-0.00024149957,0.0037936587,-0.00018900401,-0.0006587761,-0.0005031822,0.0030351207,0.008958532,-0.0004310801,-0.0003248437,-0.00012085918,-0.0003652124,-0.000822172,-0.00036862164,0.0091586895,0.0026923679,0.006831784,-0.00022091612,-0.0002327255,-0.00012597929,-0.00018828902,0.0053439625,-0.000173501,-0.00060556544,-0.00044997156,0.004585428,0.010508833,-0.00037786938,-0.000271633,-6.764848e-05,-0.00031200165,-0.00076896144,-0.00031541093,0.010708993,0.0042426717,0.008382091,-0.00016770556,-0.00017951489,-7.276859e-05
26,-0.00021942578,0.004151687,-0.00018542372,-0.0006367025,-0.0004811085,0.003393149,0.009316554,-0.00040900632,-0.0003027698,-9.8785495e-05,-0.00034313856,-0.0008000983,-0.0003465478,0.009516714,0.0030503906,0.007189812,-0.0001988425,-0.00021065187,-0.00010390587,-0.00016496722,0.00571019,-0.00016983874,-0.000582244,-0.00042664996,0.004951652,0.010875057,-0.00035454787,-0.00024831135,-4.4326967e-05,-0.00028868,-0.0007456397,-0.00029208916,0.011075217,0.0046088994,0.008748313,-0.0001443839,-0.00015619333,-4.9447266e-05
27,-0.00019850004,0.004474694,-0.00018219366,-0.00061577663,-0.00046018258,0.003716156,0.009639565,-0.0003880804,-0.0002818439,-7.785961e-05,-0.00032221258,-0.0007791724,-0.00032562198,0.009839725,0.003373403,0.007512819,-0.0001779165,-0.00018972601,-8.297984e-05,-0.00013028331,0.006370796,-0.00016323265,-0.0005475599,-0.00039196602,0.005612258,0.011535667,-0.00031986382,-0.00021362751,-9.642951e-06,-0.00025399603,-0.00071095594,-0.00025740537,0.011735827,0.005269505,0.009408921,-0.00010970011,-0.00012150928,-1.476312e-05
28,-0.00017301946,0.004966907,-0.00017727155,-0.00059029635,-0.00043470232,0.004208369,0.010131778,-0.00036260014,-0.00025636377,-5.2379255e-05,-0.0002967323,-0.0007536922,-0.00030014178,0.010331938,0.0038656145,0.00800503,-0.00015243635,-0.00016424562,-5.7499372e-05,-9.250439e-05,0.007065885,-0.00015628178,-0.0005097812,-0.00035418718,0.0063073467,0.012230756,-0.000282085,-0.00017584853,0.002813587,-0.00021621704,-0.00067317695,-0.00021962645,0.012430916,0.005964594,0.010104008,-7.1921124e-05,-8.373052e-05,0.0023015551
29,-0.00014600072,0.0054774135,-0.00017216652,-0.0005632772,-0.0004076834,0.0047188736,0.010642279,-0.00033558114,-0.00022934463,-2.536036e-05,-0.00026971343,-0.0007266732,-0.00027312277,0.010842439,0.004376117,0.008515537,-0.00012541737,-0.00013722673,-3.0480696e-05,0.0039826073,0.009688631,-0.00013005431,-0.00037745052,-0.00022185649,0.008930093,0.014853502,-0.00014975436,-4.3517834e-05,0.016046658,-8.3886494e-05,-0.00054084643,-8.72961e-05,0.015053661,0.008587338,0.012726754,0.0060409773,0.004860012,0.01553461
30,-0.00012213085,0.0058819205,-0.00016812142,-0.0005394075,-0.00038381337,0.0051233824,0.011046791,-0.0003117112,-0.00020547464,-1.4904887e-06,-0.0002458433,-0.00070280314,-0.0002492528,0.011246951,0.004780628,0.008920044,-0.00010154739,-0.00011335674,-6.6104158e-06,0.0095896665,0.010792207,-8.264936e-05,-0.00032137998,-0.000165786,0.010033669,0.015957078,-9.368382e-05,0.0012552589,0.0216537,-2.7815922e-05,-0.00048477575,-3.1225456e-05,0.016157238,0.009690914,0.01383033,0.011648001,0.010467082,0.021141684
31,-0.00010139573,0.006190464,-0.00016503598,-0.0005186725,-0.0003630785,0.005431924,0.011355335,-0.0002909762,-0.00018473978,0.0019244459,-0.00022510848,-0.0006820683,-0.00022851772,0.011555495,0.005089171,0.009228587,-8.081239e-05,-9.262181e-05,0.001412442,0.011915619,0.011178594,-5.939003e-05,-0.00029812052,-0.0001425265,0.010420056,0.016343467,-7.042445e-05,0.0035811942,0.023979653,-4.5565703e-06,-0.00046151652,-7.966123e-06,0.016543627,0.010077303,0.014216718,0.013973954,0.01279301,0.02346762
32,-8.328378e-05,0.006423829,-0.00016270232,-0.00050056045,-0.00034496657,0.005665291,0.0115887,-0.0002728644,-0.00016662799,0.0037356503,-0.0002069965,-0.00066395634,-0.00021040595,0.01178886,0.0053225365,0.009461952,-6.270059e-05,-7.450994e-05,0.003223624,0.012246219,0.01112025,-5.6084096e-05,-0.00029481458,-0.00013922062,0.010361712,0.016285121,-6.711852e-05,0.003911795,0.024310239,-1.2508593e-06,-0.00045821062,-4.6602636e-06,0.016485281,0.010018958,0.014158374,0.014304555,0.013123604,0.023798207
33,-6.730262e-05,0.006599184,-0.00016094878,-0.00048457942,-0.00032898545,0.005840646,0.011764055,-0.00025688324,-0.00015064668,0.0053337645,-0.00019101534,-0.000647975,-0.00019442479,0.011964215,0.0054978915,0.009637307,-4.6719273e-05,-5.8528705e-05,0.004821755,0.0112390295,0.010766016,-6.615601e-05,-0.00030488658,-0.0001492925,0.010007482,0.015930891,-7.719032e-05,0.002904622,0.023303047,-1.1322442e-05,-0.00046828232,-1.4732182e-05,0.016131047,0.009664724,0.013804144,0.013297367,0.012116421,0.02279103
34,-5.3042655e-05,0.0067295358,-0.00015964531,-0.00047031944,-0.00031472548,0.005970996,0.011894407,-0.00024262331,-0.00013638679,0.0067597535,-0.00017675545,-0.00063371524,-0.00018016464,0.012094565,0.005628243,0.009767659,-3.2459386e-05,-4.4268814e-05,0.006247729,0.009332702,0.010215202,-8.521911e-05,-0.00032394964,-0.0001683557,0.009456668,0.015380079,-9.6253454e-05,0.000998294,0.021396734,-3.038559e-05,-0.00048734545,-3.3795273e-05,0.015580233,0.009113912,0.013253331,0.011391036,0.010210101,0.020884704
35,-4.017163e-05,0.0068247244,-0.00015869338,-0.00045744827,-0.0003018543,0.0060661864,0.011989595,-0.0002297521,-0.00012351573,0.008046869,-0.00016388424,-0.00062084413,-0.00016729362,0.012189755,0.0057234317,0.009862848,-1.9588117e-05,-3.139764e-05,0.007534871,0.014358945,0.011079811,-3.4956745e-05,-0.00027368736,-0.0001180933,0.010321273,0.016244682,-4.5991168e-05,0.0060245376,0.02642297,0.0019876529,-0.00043708316,0.0016467124,0.01644484,0.009978518,0.014117934,0.016417298,0.015236328,0.025910947
36,-2.2738874e-05,0.007097263,-0.000155968,-0.0004400155,-0.00028442158,0.006338723,0.012262134,-0.00021231934,-0.00010608278,0.009790149,-0.00014645144,-0.0006034114,-0.00014986086,0.012462292,0.00599597,0.010135386,-2.1555275e-06,-1.3964791e-05,0.00927813,0.014772676,0.011050692,-3.081944e-05,-0.00026955004,-0.000113956,0.010292152,0.016215563,-4.185386e-05,0.0064382683,0.026836693,0.0024014022,-0.0004329458,0.0020604283,0.016415723,0.009949399,0.014088815,0.01683103,0.015650075,0.026324663
37,-2.1091475e-06,0.007441124,-0.00015252936,-0.00041938588,-0.00026379194,0.0066825915,0.012605997,-0.00019168969,-8.545335e-05,0.011853097,-0.00012582204,-0.0005827818,-0.00012923135,0.012806155,0.006339833,0.010479253,0.001847405,0.00066646934,0.011341073,0.0136388345,0.010681737,-4.2157917e-05,-0.00028088846,-0.00012529432,0.009923197,0.015846606,-5.3192263e-05,0.0053044185,0.02570287,0.0012675673,-0.00044428444,0.00092659704,0.016046766,0.009580445,0.01371986,0.015697177,0.014516227,0.025190845
38,0.00234399,0.007970162,-0.000147239,-0.0003938367,-0.00023824282,0.0072116237,0.013135033,-0.00016614064,-5.9904007e-05,0.014408026,-0.00010027267,-0.0005572326,-0.00010368228,0.013335193,0.006868871,0.011008285,0.004402343,0.0032213908,0.013896011,0.011588054,0.010106729,-6.266538e-05,-0.00030139575,-0.0001458019,0.009348191,0.015271601,-7.369984e-05,0.0032536779,0.023652112,-7.831901e-06,-0.00046479187,-1.1241455e-05,0.01547176,0.009005439,0.013144853,0.013646437,0.012465462,0.023140071
39,0.005165588,0.00853461,-0.00012689027,-0.00036562062,-0.00021002676,0.0077760704,0.01369948,-0.00013792467,-3.1688174e-05,0.017229617,-7.2056835e-05,-0.0005290167,-7.546626e-05,0.01389964,0.0074333176,0.0115727335,0.007223908,0.0060429852,0.01671759,0.008947896,0.009400316,-8.906714e-05,-0.00032779778,-0.0001722037,0.008641778,0.014565187,-0.00010010168,0.000613505,0.021011928,-3.4233628e-05,-0.0004911934,-3.764335e-05,0.014765346,0.008299023,0.012438439,0.011006247,0.009825287,0.020499898
40,0.017288722,0.010940393,-5.658846e-06,-0.00024438958,-8.879539e-05,0.010181855,0.016105264,-1.669323e-05,0.0089543015,0.029352766,0.0049174502,-0.00040778538,0.004576506,0.016305424,0.009839101,0.013978517,0.019347075,0.01816613,0.028840743,0.009368474,0.009274783,-8.4861626e-05,-0.00032359216,-0.00016799808,0.00851625,0.014439655,-9.589597e-05,0.0010340661,0.021432491,-3.0027999e-05,-0.00048698796,-3.3437573e-05,0.014639813,0.008173492,0.012312911,0.011426808,0.010245856,0.02092046
41,0.022567442,0.011981782,0.0047128405,-0.00019160211,-3.6008096e-05,0.013241505,0.017146654,0.003609404,0.014233035,0.034631476,0.010196183,-0.00035499802,0.009855242,0.017346807,0.010880491,0.015019906,0.024625776,0.023444857,0.034119457,0.00990616,0.009167049,-7.948443e-05,-0.00031821497,-0.00016262103,0.008408511,0.01433192,-9.0518886e-05,0.0015717689,0.021970201,-2.465084e-05,-0.0004816108,-2.8060711e-05,0.01453208,0.008065756,0.012205172,0.011964528,0.010783561,0.021458177
42,0.024928857,0.012369176,0.007074248,-0.0001679881,-1.2393966e-05,0.015602913,0.017534047,0.005970817,0.016594436,0.036992893,0.012557598,-0.0003313839,0.012216624,0.017734207,0.011267884,0.0154073,0.02698721,0.025806263,0.036480892,0.010629311,0.0091385115,-7.225301e-05,-0.00031098368,-0.00015538957,0.008379972,0.0143033825,-8.328743e-05,0.0022949222,0.022693347,-1.741944e-05,-0.00047437928,-2.0829179e-05,0.014503541,0.008037219,0.012176635,0.0126876645,0.011506705,0.022181332
43,0.042272225,0.015782524,0.024417616,0.0005445462,0.016103964,0.03294628,0.020947397,0.02331417,0.03393782,0.05433627,0.029900968,-0.00015795018,0.02956001,0.022702433,0.014681233,0.018820653,0.044330575,0.043149624,0.053824242,0.0115539245,0.009162309,-6.300703e-05,-0.00030173763,-0.00014614355,0.008403771,0.01432718,-7.4041374e-05,0.003219517,0.023617942,-8.173492e-06,-0.00046513331,-1.1583231e-05,0.014527339,0.008061016,0.012200432,0.013612262,0.012431316,0.023105912
44,0.04857474,0.017471408,0.030720115,0.0068470556,0.022406474,0.039248783,0.022215571,0.02961668,0.04024033,0.060638763,0.036203463,-9.492539e-05,0.035862505,0.029004935,0.01594941,0.020088825,0.050633088,0.04945214,0.060126737,0.012344321,0.009140955,-5.5102966e-05,-0.00029383358,-0.00013823956,0.008382417,0.014305827,-6.613742e-05,0.0040099155,0.02440834,-2.6952475e-07,-0.00045722938,-3.6792642e-06,0.014505986,0.0080396645,0.0121790785,0.0144026745,0.013221715,0.023896324
45,0.065458626,0.034355283,0.047603995,0.023730928,0.03929034,0.056132652,0.03847072,0.046500567,0.0571242,0.07752263,0.05308735,0.0073913634,0.052746385,0.045888808,0.019322114,0.032295395,0.067516945,0.066336006,0.077010624,0.013020182,0.009085046,-4.834436e-05,-0.0002870749,-0.00013148088,0.008326508,0.014249918,-5.937874e-05,0.0046857744,0.025084209,0.0006489083,-0.00045047075,0.0003079679,0.014450077,0.007983755,0.012123169,0.015078517,0.013897581,0.024572184
46,0.072202966,0.04109966,0.054348376,0.030475322,0.046034716,0.06287703,0.0452151,0.053244956,0.06386858,0.08426703,0.059831724,0.014135724,0.05949077,0.05263319,0.025067449,0.039039776,0.07426132,0.07308038,0.083755,0.013619346,0.009008197,-4.235264e-05,-0.0002810832,-0.00012548915,0.008249657,0.014173068,-5.3386986e-05,0.005284954,0.025683388,0.0012480877,-0.00044447905,0.0009071324,0.014373227,0.007906904,0.01204632,0.015677696,0.014496754,0.025171347
47,0.089475304,0.05837199,0.07162072,0.047747634,0.06330705,0.08014937,0.061348543,0.07051727,0.08114091,0.10153934,0.07710408,0.03140806,0.07676309,0.06873689,0.042339787,0.056312114,0.091533676,0.0903527,0.10102733,0.014174583,0.008921018,-3.680043e-05,-0.00027553103,-0.00011993691,0.00816248,0.01408589,-4.78347e-05,0.0058401767,0.026238618,0.0018033106,-0.00043892674,0.0014623553,0.014286049,0.007819727,0.011959143,0.016232904,0.015051977,0.02572657
48,0.09643876,0.06533542,0.078584164,0.054711074,0.07027048,0.0871128,0.06698819,0.07748072,0.08810438,0.10850278,0.084067516,0.038371485,0.08372653,0.07437651,0.04930322,0.06294603,0.098497115,0.09731613,0.10799077,0.014820278,0.008870335,-3.0343495e-05,-0.00026907402,-0.00011348005,0.008111797,0.014035206,-4.137784e-05,0.006485857,0.026884304,0.002449004,-0.00043246982,0.0021080486,0.014235366,0.0077690426,0.011908459,0.016878597,0.015697662,0.02637228
49,0.09955266,0.068449356,0.081698075,0.057825,0.073384404,0.090226725,0.069606856,0.08059463,0.09121831,0.11161671,0.08718145,0.041485436,0.08684045,0.07699518,0.052417144,0.0655647,0.10161103,0.10043006,0.11110471,0.015635137,0.0088684205,-2.2194925e-05,-0.0002609255,-0.00010533139,0.0081098825,0.0140332915,-3.3229328e-05,0.007300714,0.027699161,0.0032638442,-0.00042432136,0.0029228888,0.014233451,0.007767128,0.011906544,0.017693471,0.016512528,0.027187124
50,0.099962,0.06885868,0.08210741,0.058234334,0.07379373,0.09063605,0.07009752,0.08100395,0.09162763,0.11202605,0.08759077,0.04189474,0.08724979,0.077485844,0.05282648,0.066055365,0.10202037,0.10083939,0.11151402,0.016409393,0.008851519,-1.4452058e-05,-0.00025318263,-9.758852e-05,0.008092981,0.01401639,-2.5486386e-05,0.008074986,0.02847345,0.0040381476,-0.00041657835,0.003697209,0.01421655,0.007750226,0.011889642,0.018467762,0.017286807,0.027961412
51,0.115603566,0.083960906,0.09774896,0.073875874,0.089435294,0.10627761,0.0828743,0.0966455,0.10726918,0.12766759,0.10323233,0.05753628,0.102891326,0.09026262,0.06846802,0.078832135,0.11766191,0.11648095,0.12715557,0.017432224,0.008927433,-4.223715e-06,-0.00024295441,-8.736018e-05,0.0081688985,0.014092304,-1.5258137e-05,0.009097837,0.029496275,0.0050609857,-0.00040635004,0.0047200266,0.014292463,0.00782614,0.01196556,0.019490592,0.018309642,0.028984245
52,0.12046302,0.08793357,0.10260843,0.078735344,0.09429475,0.11068284,0.08684695,0.101504974,0.11212863,0.13252705,0.108091764,0.062395763,0.107750796,0.09423528,0.07285139,0.0828048,0.12252137,0.1213404,0.13201505,0.019015431,0.009159576,0.0011608321,-0.00022712215,-7.1528106e-05,0.009689501,0.014324448,5.7393685e-05,0.010681011,0.03107949,0.0066441745,-0.00039051814,0.006303234,0.014524608,0.008058285,0.012197705,0.021073768,0.019892849,0.030567452
53,0.14436617,0.10728,0.12651157,0.1026385,0.11819791,0.13002926,0.10619339,0.12540813,0.13603178,0.15643021,0.13199492,0.08629894,0.13165395,0.1135817,0.09219783,0.10215123,0.14642455,0.14524359,0.15591821,0.020770852,0.00945474,0.0029162448,-0.00020956821,-5.397409e-05,0.011444908,0.014619612,0.001812797,0.012436446,0.032834895,0.00839958,-0.00037296407,0.008058621,0.014819772,0.008353449,0.012492865,0.022829207,0.02164826,0.032322854
54,0.17930976,0.13532536,0.16145512,0.13758208,0.15314148,0.15807462,0.13423875,0.1603517,0.17097533,0.19137377,0.16693848,0.121242516,0.16659749,0.14162706,0.12024318,0.13019659,0.18136811,0.18018714,0.19086176,0.02304221,0.009883711,0.005187614,-0.00018685438,-3.126029e-05,0.013716278,0.015048587,0.004084179,0.014707803,0.035106268,0.010670951,-0.00035025037,0.01033001,0.015248741,0.008782418,0.012921834,0.025100559,0.023919633,0.034594227
55,0.19764474,0.1499534,0.17979011,0.15591705,0.17147645,0.17270267,0.14886677,0.17868668,0.18931034,0.20970875,0.18527347,0.13957748,0.1849325,0.1562551,0.13487121,0.14482462,0.19970307,0.19852212,0.20919675,0.024975434,0.0101914,0.007120831,-0.0001675222,-1.1928174e-05,0.015649498,0.015356276,0.006017396,0.016641028,0.037039485,0.012604175,-0.0003309181,0.01226322,0.015556431,0.009090109,0.013229525,0.027033769,0.025852842,0.03652747
56,0.20946756,0.15950489,0.19161299,0.1677399,0.1832993,0.18225417,0.15841827,0.19050947,0.20113313,0.22153154,0.19709632,0.15140033,0.19675535,0.16580659,0.14442271,0.15437612,0.21152595,0.21034494,0.2210196,0.026772548,0.010462975,0.008917943,-0.000149551,0.00060429424,0.017446607,0.015627846,0.0078145005,0.018438127,0.038836606,0.014401289,-0.00031294714,0.014060348,0.015828006,0.009361684,0.013501099,0.028830882,0.027649954,0.03832455
57,0.23902485,0.18335098,0.21944138,0.19729722,0.21285659,0.20610026,0.18226433,0.22006682,0.23069042,0.2510889,0.22665358,0.18095762,0.22631267,0.18965268,0.1682688,0.17822221,0.24108323,0.23990226,0.25057688,0.028678063,0.010761859,0.010823445,-0.00013049625,0.0025097933,0.019352116,0.015926735,0.009720001,0.020343643,0.040742103,0.016306804,-0.000293892,0.01596583,0.01612689,0.009660568,0.013799988,0.030736417,0.029555464,0.040230066
58,0.25443512,0.19574177,0.2318322,0.21270746,0.22826684,0.21849105,0.19465515,0.23547703,0.2461007,0.26649913,0.24206382,0.19636783,0.24172291,0.2020435,0.18065956,0.19061297,0.25649345,0.25531247,0.26598707,0.03881742,0.012665601,0.020962797,-2.9102712e-05,0.012649145,0.029491462,0.017830472,0.019859351,0.030483002,0.050881434,0.02644613,-0.00019249853,0.026105177,0.019247614,0.011564311,0.015703727,0.040875778,0.03969481,0.050369427
59,0.2642027,0.20371732,0.23980772,0.22247502,0.2380344,0.2264666,0.20263067,0.24524462,0.2558683,0.2762667,0.2518314,0.20613542,0.25149047,0.21001902,0.18863511,0.19858852,0.26626104,0.26508006,0.2757547,0.043084063,0.013469863,0.025229428,0.0013563689,0.01691578,0.033758085,0.018634735,0.024125986,0.034749642,0.055148073,0.030712776,-0.0001498321,0.030371835,0.023514243,0.012368571,0.01650799,0.045142382,0.04396144,0.054636054
60,0.28493762,0.22052854,0.25661898,0.24320996,0.2587693,0.24327782,0.21944189,0.26597956,0.27660316,0.29700163,0.27256632,0.22687036,0.27222538,0.22683024,0.20544633,0.21539974,0.28699598,0.285815,0.2964896,0.0464816,0.015378263,0.028626977,0.004753927,0.020313323,0.037155636,0.0194937,0.027523544,0.03814718,0.058545627,0.034110315,-0.00011585671,0.033769377,0.026911795,0.012956532,0.017095951,0.048539944,0.04735899,0.058033608
61,0.31523052,0.24488369,0.28097412,0.2735029,0.28906226,0.267633,0.24379703,0.2962725,0.3068961,0.32729453,0.30285928,0.25716332,0.30251834,0.25118542,0.22980148,0.23975489,0.3172889,0.31610793,0.32678255,0.05946645,0.028363114,0.04161183,0.017738754,0.033298172,0.05014049,0.032478552,0.040508393,0.051132042,0.07153046,0.047095172,0.0013991874,0.046754204,0.039896645,0.015417457,0.026303228,0.061524816,0.06034385,0.071018465
62,0.33270767,0.25891986,0.29501027,0.29098,0.30653942,0.2816692,0.25783324,0.31374958,0.32437322,0.34477168,0.32033634,0.27464038,0.31999546,0.2652216,0.24383765,0.2537911,0.33476603,0.33358505,0.34425962,0.06479406,0.033690736,0.046939444,0.023066401,0.038625795,0.055468105,0.037806172,0.045836,0.056459643,0.0768581,0.05242279,0.006726805,0.05208185,0.04522426,0.017658524,0.031630848,0.066852406,0.06567146,0.07634607
63,0.34444547,0.2684775,0.30456796,0.30271778,0.31827718,0.29122683,0.26739088,0.32548738,0.336111,0.35650948,0.3320742,0.2863782,0.33173326,0.27477926,0.25339532,0.26334876,0.34650382,0.34532285,0.35599744,0.06921105,0.038107708,0.05135642,0.027483352,0.043042768,0.059885077,0.042223144,0.050252974,0.060876638,0.08127506,0.05683977,0.011143785,0.0564988,0.049641237,0.022075497,0.03604782,0.071269386,0.07008843,0.08076305
64,0.3518911,0.2746657,0.31075612,0.31016344,0.3257228,0.29741502,0.27357906,0.33293298,0.34355664,0.36395508,0.3395198,0.2938238,0.3391789,0.28096744,0.2595835,0.2695369,0.35394943,0.35276848,0.36344302,0.07292025,0.04181691,0.055065617,0.031192575,0.046751976,0.06359428,0.045932345,0.053962175,0.06458585,0.08498427,0.06054898,0.014852978,0.060208023,0.053350437,0.025784697,0.03975702,0.074978575,0.07379763,0.08447224
65,0.36788163,0.28770187,0.3237923,0.32615393,0.3417133,0.31045118,0.28661525,0.34892356,0.3595472,0.3799456,0.35551032,0.30981436,0.3551694,0.2940036,0.2726197,0.2825731,0.36993998,0.36875898,0.3794336,0.07964431,0.048540972,0.061789688,0.037916627,0.05347602,0.07031835,0.052656412,0.06068626,0.071309894,0.091708325,0.067273036,0.021577029,0.066932075,0.0600745,0.03250876,0.046481088,0.08170262,0.08052169,0.0911963
66,0.3763087,0.29462403,0.33071446,0.33458108,0.35014045,0.31737337,0.2935374,0.35735065,0.36797434,0.38837272,0.36393744,0.31824148,0.36359653,0.30092576,0.27954188,0.2894953,0.3783671,0.3771861,0.38786075,0.08365603,0.0525527,0.06580143,0.04192835,0.05748775,0.07433008,0.05666814,0.064697996,0.075321615,0.09572006,0.07128475,0.025588762,0.07094381,0.06408623,0.036520496,0.050492812,0.08571438,0.084533416,0.09520802
67,0.3813458,0.29888564,0.33497608,0.3396181,0.3551775,0.32163492,0.297799,0.3623877,0.37301135,0.3934098,0.36897448,0.32327852,0.36863354,0.30518737,0.28380343,0.29375684,0.38340414,0.38222313,0.3928978,0.08746319,0.056359872,0.069608584,0.04573551,0.061294917,0.07813725,0.060475297,0.06850514,0.07912878,0.0995272,0.07509193,0.029395923,0.07475096,0.06789339,0.04032766,0.054299977,0.08952153,0.08834058,0.099015206
68,0.38385546,0.30115095,0.3372414,0.3421278,0.35768715,0.32390025,0.30006436,0.36489734,0.37552103,0.3959194,0.37148413,0.32578814,0.37114322,0.3074527,0.28606874,0.2960222,0.3859138,0.3847328,0.39540744,0.09118923,0.06008591,0.07333464,0.049461544,0.06502095,0.08186328,0.064201355,0.07223118,0.08285484,0.103253245,0.07881798,0.033121966,0.078476995,0.07161942,0.044053696,0.058026027,0.09324758,0.09206661,0.10274126
69,0.38447618,0.30191514,0.33800557,0.34274852,0.35830787,0.32466444,0.3008285,0.36551812,0.3761418,0.39654016,0.37210488,0.32640892,0.37176394,0.3082169,0.28683296,0.29678637,0.38653454,0.38535357,0.39602822,0.102479555,0.071376234,0.084624976,0.0607519,0.076311305,0.09315362,0.075484455,0.083521545,0.094145164,0.1145436,0.09010831,0.04441231,0.08976735,0.08287278,0.05534403,0.06931637,0.10453789,0.103356965,0.11403159
70,0.38369536,0.30155808,0.3376485,0.34196767,0.35752705,0.32430738,0.30047143,0.36473724,0.37536088,0.3957593,0.37132406,0.32562807,0.37098312,0.3078598,0.28647587,0.2964293,0.3857537,0.3845727,0.39524737,0.108187355,0.077084035,0.09033276,0.066459686,0.08201908,0.09886142,0.08017183,0.08922932,0.099852994,0.12025139,0.09581611,0.050120108,0.09547514,0.08756016,0.061051827,0.07502416,0.11024572,0.10906474,0.11973938
71,0.4011894,0.31578875,0.35187918,0.3594617,0.37502104,0.33853805,0.31470212,0.38223127,0.39285496,0.41325334,0.38881806,0.34312207,0.38847718,0.32209048,0.30070657,0.31065997,0.4032477,0.4020667,0.41274136,0.11378321,0.082679875,0.09592862,0.07205553,0.08761494,0.10445727,0.084794044,0.094825156,0.105448805,0.12584725,0.10141196,0.05571594,0.10107097,0.092182375,0.06664768,0.080620006,0.11584157,0.11466058,0.12533523
72,0.40980786,0.32276958,0.35886,0.3680802,0.38363957,0.3455189,0.3216829,0.3908498,0.4014735,0.42187187,0.39743665,0.35174063,0.39709565,0.3290713,0.30768737,0.31764078,0.41186622,0.41068524,0.42135987,0.12420886,0.093105555,0.106354274,0.08248118,0.098040596,0.114882916,0.09336954,0.10525082,0.115874484,0.13627289,0.11183762,0.06614162,0.11149664,0.10075787,0.077073336,0.08932738,0.1262672,0.12508625,0.1357609
73,0.43452433,0.3426325,0.37872294,0.39279667,0.408356,0.3653818,0.34154588,0.4155663,0.42618993,0.44658834,0.42215306,0.3764571,0.42181218,0.34893423,0.32755032,0.33750373,0.43658268,0.43540168,0.44607633,0.13084914,0.099745795,0.11299453,0.089121446,0.10468085,0.12152317,0.0988148,0.11189107,0.12251476,0.14291316,0.118477866,0.072781846,0.11813691,0.10620312,0.08371359,0.094772644,0.13290748,0.1317265,0.14240113
74,0.4495587,0.35467777,0.3907682,0.407831,0.4233904,0.37742707,0.35359114,0.4306006,0.4412243,0.4616227,0.43718743,0.39149147,0.4368465,0.36097953,0.33959556,0.349549,0.451617,0.44944933,0.46111074,0.13741805,0.10531006,0.119563445,0.09569037,0.11124978,0.12805933,0.104223445,0.11846001,0.12908366,0.14948207,0.1250468,0.0793508,0.12470583,0.11161176,0.09022788,0.10018128,0.13947645,0.13829544,0.14897008
75,0.47739655,0.37696692,0.41305736,0.43566892,0.45122823,0.39971623,0.37588027,0.45843855,0.4690622,0.48946062,0.46502528,0.41932932,0.4646844,0.38326865,0.36188474,0.37183815,0.4794549,0.4717385,0.48894855,0.14941445,0.11516014,0.13155983,0.10768677,0.12324616,0.13790941,0.11407353,0.13045639,0.14108005,0.16147849,0.13704321,0.09134719,0.13670221,0.121461846,0.10007796,0.11003136,0.1514728,0.15029182,0.16096646
76,0.4959038,0.39177567,0.42786604,0.45417613,0.4697355,0.41452497,0.39068905,0.4769458,0.48756945,0.5063131,0.48353258,0.4378365,0.48319158,0.39807743,0.3766935,0.3866469,0.49796215,0.4865473,0.5074558,0.15724096,0.1215553,0.13938636,0.11551329,0.13107269,0.14430457,0.12046869,0.13828292,0.14890656,0.169305,0.14486969,0.09917369,0.14452873,0.127857,0.10647312,0.11642652,0.15929928,0.15811834,0.168793
77,0.5099227,0.40311584,0.43920624,0.46819502,0.4837544,0.42586517,0.40202928,0.49096474,0.50158834,0.51765335,0.49755144,0.45185542,0.49721044,0.40941763,0.3880337,0.39798713,0.51198095,0.49788752,0.5214747,0.16501161,0.12792698,0.14715701,0.123283945,0.13884334,0.15067624,0.12684037,0.14605355,0.15667725,0.17707565,0.15264034,0.106944375,0.15229936,0.13422868,0.112844795,0.1227982,0.16706997,0.16588897,0.17656362
78,0.53139645,0.4203841,0.45647448,0.4896687,0.5052281,0.44313335,0.41929752,0.51243836,0.52306205,0.5349216,0.51902515,0.4733292,0.5186842,0.42668587,0.40530193,0.41525534,0.5334548,0.51515573,0.5429484,0.18290234,0.14256984,0.16504776,0.1411747,0.15673411,0.16531909,0.14148322,0.1639443,0.17456794,0.1949664,0.1705311,0.12483513,0.17019016,0.14887154,0.12748766,0.13744107,0.18496072,0.18377975,0.19445437
79,0.5464557,0.43252307,0.46861348,0.50472796,0.5202874,0.45527232,0.43129086,0.52749765,0.5381214,0.54706055,0.53408444,0.48838842,0.5337435,0.43882483,0.4174409,0.42739427,0.54851407,0.5272947,0.5580077,0.19316521,0.15088269,0.17531061,0.15143758,0.16699696,0.17363197,0.14979607,0.17420712,0.18483081,0.20522922,0.18079397,0.13509795,0.180453,0.15718439,0.13580051,0.14575392,0.1952236,0.19404262,0.20471725
80,0.5580235,0.44195026,0.47804067,0.51629585,0.5318553,0.46469954,0.44060338,0.53906554,0.5496891,0.55648774,0.54565233,0.49995625,0.54531133,0.448252,0.42686808,0.43682146,0.5600819,0.5367219,0.5695756,0.20307824,0.15895122,0.18522361,0.16135058,0.17690995,0.1817005,0.15786463,0.18412015,0.19474384,0.21514222,0.19070697,0.14501098,0.190366,0.16525295,0.14386907,0.15382245,0.2051366,0.20395562,0.21463022
81,0.5670487,0.44939005,0.48548046,0.52532107,0.54088044,0.47213936,0.4479585,0.54809076,0.5587144,0.5639275,0.5546775,0.5089815,0.55433655,0.4556918,0.4343079,0.44426128,0.5691071,0.5441617,0.57860076,0.21264386,0.16676253,0.1947892,0.17091617,0.18647555,0.18951184,0.16567594,0.19368577,0.2043094,0.22470781,0.20027256,0.15457657,0.19993159,0.17306426,0.15168038,0.16163379,0.21470219,0.21352124,0.22419584
82,0.58747953,0.4657857,0.5018761,0.54575187,0.5572769,0.48853505,0.46409076,0.5685216,0.57914525,0.58032316,0.57510835,0.52941227,0.57476735,0.47208747,0.45070353,0.46065694,0.5895379,0.5605573,0.5990316,0.23341459,0.18372482,0.21555993,0.19168687,0.20724624,0.2064741,0.1826382,0.2144565,0.2250801,0.24547857,0.22104326,0.1753473,0.22070232,0.19002655,0.16864264,0.17859605,0.23547289,0.23429185,0.24496648
83,0.60211474,0.47752726,0.51361763,0.56038713,0.5690184,0.5002765,0.47567278,0.58315676,0.5937804,0.59206474,0.5897436,0.54404753,0.58940256,0.483829,0.46244505,0.4723985,0.6041731,0.5722989,0.6136669,0.2459628,0.19386163,0.22810814,0.2042351,0.21979448,0.21661091,0.19277501,0.2270047,0.23762834,0.25802678,0.23359147,0.1878955,0.23325056,0.20016336,0.17877945,0.18873286,0.24802113,0.24684009,0.25751472
84,0.61337197,0.48665547,0.52274585,0.5716443,0.5781466,0.5094047,0.48468634,0.594414,0.6050377,0.6011929,0.6010007,0.5553047,0.6006598,0.4929572,0.47157332,0.4815267,0.61543036,0.58142704,0.624924,0.25787842,0.20353156,0.239622,0.21615079,0.23171014,0.22628084,0.20244494,0.23892036,0.24954396,0.26994243,0.24550715,0.19981119,0.24516621,0.2098333,0.18844938,0.19840276,0.25993678,0.25875577,0.2694304
85,0.63498294,0.5038566,0.539947,0.5932552,0.5953477,0.52660584,0.5016089,0.6160249,0.6266486,0.618394,0.6226117,0.5769157,0.62227076,0.5101583,0.48877442,0.49872783,0.63704133,0.5986282,0.646535,0.26924542,0.21278593,0.24887636,0.22751772,0.2430771,0.2355352,0.2116993,0.25028732,0.26091096,0.28130943,0.25687408,0.21117812,0.25653315,0.21908766,0.19770375,0.20765716,0.27130374,0.2701227,0.28079733
86,0.6512461,0.51680917,0.55289954,0.6095184,0.60830027,0.5395584,0.5143805,0.6322881,0.64291173,0.63134664,0.6388748,0.5931788,0.6385339,0.52311087,0.501727,0.51168036,0.65330446,0.6115808,0.6627981,0.280298,0.22180411,0.25789452,0.23857033,0.2541297,0.24455339,0.22071743,0.26133993,0.27196357,0.292362,0.26792672,0.22223076,0.26758578,0.22810581,0.2067219,0.21667531,0.28235635,0.28117537,0.29185
87,0.67557687,0.53598994,0.5720803,0.6338492,0.6274811,0.55873924,0.53325135,0.6566189,0.6672425,0.6505274,0.6632056,0.61750954,0.6628646,0.5422917,0.5209078,0.53086114,0.6776352,0.6307615,0.68712896,0.29117697,0.23069224,0.26678267,0.24944934,0.26500872,0.25344154,0.22960559,0.2722189,0.28284255,0.30324098,0.2788057,0.23310974,0.27846476,0.23699397,0.21561006,0.22556347,0.29323536,0.29205433,0.30272892
88,0.69440734,0.5508632,0.58695364,0.6526796,0.6423544,0.5736125,0.5479132,0.6754494,0.686073,0.6654006,0.68203604,0.6363401,0.68169516,0.55716497,0.5357811,0.54573447,0.6964657,0.64563483,0.7059594,0.30198732,0.23953032,0.27562076,0.2602597,0.27581903,0.26227963,0.23844367,0.28302923,0.2936529,0.3140513,0.28961602,0.24392003,0.28927514,0.24583206,0.22444814,0.23440152,0.30404565,0.30286467,0.31353927
89,0.7087641,0.56230193,0.59839237,0.6670364,0.6537931,0.58505124,0.55919963,0.6898061,0.70042974,0.6768395,0.6963929,0.6506969,0.6960519,0.5686037,0.54721975,0.55717325,0.71082246,0.6570736,0.7203162,0.31280613,0.2483775,0.2844679,0.27107847,0.28663784,0.27112678,0.24729085,0.29384807,0.3044717,0.3248701,0.30043483,0.25473887,0.30009392,0.25467923,0.23329529,0.2432487,0.3148645,0.31368348,0.32435808
90,0.7202232,0.5715134,0.6076038,0.6784955,0.6630046,0.5942627,0.568293,0.7012652,0.71188885,0.68605095,0.70785195,0.662156,0.70751107,0.5778152,0.5564313,0.5663847,0.72228163,0.66628504,0.7317753,0.32368904,0.25727662,0.29336706,0.28196138,0.29752076,0.28002593,0.25618997,0.30473098,0.31535462,0.33575305,0.31131774,0.26562178,0.31097683,0.26357836,0.24219441,0.25214782,0.3257474,0.32456636,0.33524096
91,0.72961044,0.57912415,0.6152146,0.6878827,0.6706153,0.60187346,0.5758093,0.7106525,0.72127604,0.69366163,0.71723914,0.6715432,0.7168982,0.5854259,0.564042,0.5739954,0.7316688,0.6738958,0.7411624,0.3407842,0.27124813,0.30733854,0.29905653,0.3146159,0.29399747,0.27016148,0.3218261,0.33244973,0.35284817,0.32841292,0.28271693,0.32807198,0.27754986,0.25616592,0.26611936,0.34284255,0.3416615,0.35233608
92,0.74776477,0.5932745,0.62936485,0.70603704,0.68476564,0.6160237,0.5897222,0.7279264,0.73943037,0.7078119,0.7353935,0.68969744,0.7350525,0.59957623,0.57819223,0.5881457,0.74982303,0.6880461,0.7593168,0.3536531,0.28168562,0.31777602,0.3119254,0.32748482,0.30443493,0.28059897,0.33469498,0.34531868,0.36571708,0.3412818,0.2955858,0.34094086,0.28798735,0.2666034,0.27655685,0.3557114,0.3545304,0.365205
93,0.76374346,0.6057896,0.64188,0.72201586,0.69728076,0.62853885,0.6020581,0.74044144,0.7554091,0.720327,0.7513723,0.7056762,0.7510312,0.61209136,0.59070736,0.6006608,0.7658018,0.70056117,0.77529556,0.36620122,0.29188228,0.32797268,0.32447353,0.3400329,0.31463158,0.29079562,0.34724313,0.35786676,0.3782652,0.3538299,0.30813393,0.35348895,0.298184,0.27680007,0.28675348,0.36825955,0.36707845,0.37775308
94,0.78227264,0.6200253,0.65611565,0.74054503,0.7115164,0.6427745,0.616064,0.7546771,0.7739383,0.7345627,0.76990145,0.72420543,0.7695605,0.626327,0.6049431,0.6148965,0.784331,0.71479684,0.7938248,0.37853834,0.3019203,0.33801076,0.33681065,0.35237002,0.32466963,0.3008337,0.3595802,0.37020388,0.3906023,0.366167,0.32047102,0.3658261,0.30822206,0.28683808,0.29679155,0.38059664,0.37941557,0.3900902
95,0.7980149,0.63272107,0.66881144,0.75692683,0.7242122,0.6554704,0.6285794,0.76737297,0.79032016,0.7472584,0.78628325,0.7405873,0.7859423,0.6390228,0.6176389,0.62759227,0.8007129,0.7274927,0.81020653,0.39076787,0.31187865,0.34796908,0.34904018,0.36459956,0.334628,0.310792,0.37180975,0.3824334,0.40283182,0.37839654,0.33270058,0.37805563,0.31818038,0.29679647,0.30674988,0.39282623,0.39164516,0.40231982
96,0.8099148,0.644621,0.6807114,0.7725441,0.7361122,0.66737026,0.6402953,0.7792729,0.8059374,0.75915843,0.8019005,0.7562045,0.8015595,0.6509228,0.6295388,0.6394922,0.8163301,0.7393926,0.8241488,0.4029335,0.32178882,0.35787925,0.36120585,0.37676522,0.34453812,0.32070217,0.38397542,0.39459908,0.4149975,0.39056227,0.34486625,0.39022133,0.32809055,0.30670664,0.31666005,0.4049918,0.4038109,0.41448557
97,0.82098615,0.65569234,0.6917827,0.7869016,0.7471835,0.6784416,0.6512126,0.79034424,0.8202949,0.7702297,0.816258,0.770562,0.815917,0.6619941,0.6406101,0.6505635,0.8306876,0.75046384,0.8352201,0.4192995,0.33513,0.37122044,0.37757182,0.39313117,0.35787928,0.33404338,0.40034142,0.41096509,0.43136346,0.40692824,0.36123225,0.40658727,0.34143174,0.3200478,0.33000124,0.42135778,0.4201767,0.4308514
98,0.829093,0.6637991,0.6998895,0.79688317,0.75529027,0.6865484,0.6592157,0.798451,0.8307554,0.7783366,0.82671845,0.78102255,0.82556885,0.67010087,0.648717,0.65867037,0.84114814,0.75857073,0.8433269,0.43279773,0.34606752,0.38215795,0.39107004,0.4066294,0.3688168,0.3449809,0.41383964,0.42446333,0.4448617,0.4204265,0.3747305,0.4200855,0.35236925,0.3309853,0.34093875,0.43485603,0.43367502,0.44434968
99,0.83647174,0.6711779,0.7072683,0.804262,0.762669,0.69392717,0.66648203,0.8058298,0.84054506,0.7857154,0.83650815,0.79081213,0.8329477,0.6774796,0.6560958,0.6660492,0.8509378,0.76594955,0.8507057,0.4458583,0.35666484,0.39275527,0.40413073,0.41969,0.37941417,0.3555782,0.42690027,0.43752393,0.45792228,0.43348706,0.38779104,0.43314612,0.36296657,0.34158266,0.3515361,0.4479166,0.44673562,0.45741034
100,0.8449897,0.6796959,0.7157863,0.81277996,0.77118707,0.70244515,0.67488325,0.8143478,0.8516034,0.7942334,0.84756655,0.8018705,0.8414656,0.68599766,0.6646137,0.67456716,0.8619961,0.7744675,0.85922366,0.45863634,0.36704284,0.40313324,0.4169087,0.4324681,0.38979214,0.3659562,0.4396783,0.45030195,0.47070038,0.44626507,0.40056908,0.44592413,0.37334454,0.35196066,0.36191407,0.4606946,0.45951366,0.4701883
101,0.85102344,0.68572956,0.72182,0.8188137,0.7772207,0.70847887,0.68084294,0.8203815,0.8594214,0.800267,0.85538447,0.80968845,0.8474992,0.6920313,0.6706473,0.6806007,0.86981404,0.7805011,0.8652573,0.47120693,0.37725833,0.4133488,0.4294792,0.44503862,0.40000767,0.3761717,0.45224887,0.4628725,0.48327094,0.45883566,0.41313967,0.45849472,0.38356012,0.36217615,0.37212956,0.47326526,0.4720299,0.48275894
102,0.85550284,0.6902091,0.72629946,0.82329315,0.7817002,0.71295834,0.6852568,0.824861,0.8654481,0.8047465,0.86141133,0.81571525,0.8519787,0.6965108,0.6751269,0.6850803,0.87584084,0.78498065,0.86973685,0.48359552,0.38732886,0.42341927,0.44186786,0.45742723,0.41007817,0.38624224,0.4646375,0.47526112,0.49565956,0.47122425,0.4255283,0.4708833,0.3936306,0.37224668,0.3822001,0.48565388,0.48210046,0.4951476
103,0.862273,0.69697917,0.73306954,0.8300632,0.7884703,0.7197284,0.69193536,0.83163106,0.87423825,0.81151664,0.8702014,0.8245054,0.85874885,0.7032809,0.68189704,0.6918504,0.884631,0.7917508,0.876507,0.49581668,0.397264,0.4333544,0.45408905,0.4696484,0.4200133,0.39617738,0.4768587,0.4874823,0.50788075,0.48344538,0.43774945,0.48310444,0.40356576,0.38218182,0.39213523,0.497875,0.49203563,0.5073687
104,0.8668761,0.7015823,0.7376727,0.8346664,0.7930735,0.72433156,0.6964848,0.8362342,0.88022345,0.81611973,0.8761866,0.8304906,0.863352,0.7078841,0.6865002,0.6964536,0.8906162,0.79635394,0.88111013,0.50787705,0.4070678,0.44315818,0.4661494,0.48170877,0.42981708,0.40598118,0.48891908,0.4995427,0.51994115,0.49550584,0.44980976,0.49516484,0.41336957,0.39198565,0.40193903,0.5099353,0.50183934,0.519429
105,0.87066746,0.70537364,0.741464,0.8384577,0.7968648,0.7281229,0.7002333,0.84002554,0.885124,0.81991106,0.8810871,0.83539104,0.86714333,0.7116754,0.69029146,0.70024484,0.89551663,0.8001452,0.88490146,0.5228479,0.41924345,0.45533383,0.48112023,0.49667963,0.44199276,0.41815686,0.5038899,0.51451355,0.53378093,0.51047665,0.46478066,0.5101357,0.42554522,0.4041613,0.41411468,0.5249063,0.5140151,0.5344
106,0.8727949,0.7075011,0.7435915,0.8405852,0.7989923,0.7302504,0.70233274,0.842153,0.8880193,0.8220385,0.88398236,0.8382864,0.8692708,0.7138029,0.69241893,0.7023723,0.8984119,0.8022727,0.8870289,0.5358837,0.42978358,0.46587396,0.4941561,0.50971544,0.45253286,0.42869696,0.5169257,0.5275494,0.54432106,0.52351254,0.47781646,0.52317154,0.43608534,0.4147014,0.42465478,0.5379421,0.5245552,0.5474358
107,0.8778187,0.71252483,0.74861526,0.84560895,0.804016,0.73527414,0.7072897,0.8471768,0.8945018,0.82706225,0.89046496,0.84476894,0.8742945,0.7188266,0.6974426,0.70739603,0.9048944,0.80729645,0.8920526,0.5527963,0.44347873,0.47956917,0.51106864,0.526628,0.46622804,0.44239214,0.5338384,0.54446197,0.55801624,0.5404251,0.49472904,0.54008406,0.44978052,0.42839655,0.43835002,0.55485463,0.5382503,0.56434834
108,0.8810961,0.7158023,0.7518927,0.84888643,0.8072935,0.7385516,0.7105316,0.8504543,0.89875233,0.8303398,0.89471537,0.84901935,0.877572,0.7221041,0.70072013,0.7106735,0.9091449,0.8105739,0.89533013,0.5671144,0.45499152,0.4910819,0.52538675,0.5409461,0.47774085,0.45390487,0.54815644,0.5587801,0.56952894,0.5547432,0.5090471,0.5544022,0.46129325,0.43990937,0.44986275,0.5691727,0.54976314,0.5786664
109,0.8827696,0.7174757,0.75356615,0.8505598,0.80896693,0.740225,0.71218765,0.8521277,0.9009962,0.83201313,0.89695925,0.85126334,0.8792454,0.72377753,0.70239353,0.7123469,0.9113888,0.8122473,0.89700353,0.5802637,0.46558487,0.50167525,0.538536,0.55409545,0.4883342,0.4644125,0.5613057,0.57192934,0.58012235,0.5678925,0.5221965,0.56755155,0.47188663,0.45050275,0.46045613,0.5823221,0.5603565,0.59181577
110,0.8866183,0.72132456,0.7574149,0.8544086,0.8128157,0.7440738,0.71598774,0.8559764,0.90594774,0.835862,0.9019107,0.8562148,0.88309425,0.72762626,0.7062424,0.71619576,0.9163404,0.8160961,0.9008523,0.5927187,0.47563586,0.51172626,0.55099106,0.56655043,0.49838513,0.47432032,0.57376075,0.5843844,0.5901733,0.58034754,0.53465146,0.58000654,0.48193762,0.46055365,0.47050712,0.5947771,0.5704075,0.6042708
111,0.8892318,0.7239379,0.76002836,0.857022,0.81542915,0.74668723,0.7185743,0.8585898,0.9093232,0.83847535,0.9052862,0.8595903,0.8857077,0.7302397,0.70885575,0.7188092,0.9197158,0.81870955,0.90346575,0.6046218,0.4852525,0.5213429,0.56289417,0.5767437,0.5080018,0.48379973,0.58566386,0.5962875,0.5997899,0.5922506,0.54655457,0.5919096,0.49155426,0.47017038,0.48012376,0.60668015,0.5800241,0.61617386
112,0.8914961,0.7262023,0.7622927,0.85928637,0.8176934,0.74895155,0.720816,0.8608542,0.9122346,0.8407398,0.9081977,0.86250174,0.88797206,0.732504,0.7111202,0.72107357,0.9226273,0.82097393,0.90573,0.6160379,0.4944818,0.5305722,0.5743102,0.5859729,0.51723105,0.49289715,0.59707993,0.6077035,0.6090193,0.60366666,0.55797064,0.60332566,0.50078356,0.47939962,0.48935306,0.61809623,0.58925337,0.6275899
113,0.89358455,0.72829074,0.7643812,0.86137486,0.8197819,0.75104004,0.7228838,0.86294264,0.9149054,0.8428282,0.9108685,0.86517256,0.8900604,0.7345925,0.7132085,0.723162,0.9252981,0.8230623,0.90781856,0.6316981,0.5071037,0.54319406,0.58997047,0.59859484,0.5298529,0.5053127,0.6127401,0.62336373,0.62164116,0.61932683,0.5736308,0.6189859,0.51340544,0.49202153,0.5019749,0.6337564,0.60187525,0.6432501
114,0.8955383,0.73024446,0.76633483,0.8633286,0.8217356,0.7529937,0.72481847,0.86489636,0.91739446,0.84478194,0.91335744,0.86766154,0.89201415,0.7365462,0.7151623,0.7251157,0.92778707,0.8250161,0.9097723,0.64561516,0.51823735,0.55432767,0.6038875,0.60972846,0.5409866,0.5162835,0.6266572,0.6372809,0.6327747,0.633244,0.5875479,0.632903,0.52453905,0.5031552,0.51310855,0.64767355,0.61300886,0.65716726
115,0.8973853,0.7320915,0.76818186,0.86517555,0.8235826,0.75484073,0.7266475,0.8667434,0.9197413,0.8466289,0.9157044,0.87000847,0.8938612,0.7383932,0.7170093,0.7269627,0.93013394,0.8268631,0.9116192,0.6579438,0.5281153,0.5642057,0.61621606,0.61960644,0.55086464,0.5260194,0.63898575,0.64960945,0.64265275,0.64557254,0.5998765,0.64523154,0.53441703,0.51303315,0.52298653,0.6600021,0.6228869,0.66949576
116,0.8991453,0.7338515,0.76994187,0.8669356,0.8253427,0.7566008,0.7283907,0.8685034,0.92197394,0.8483889,0.91793704,0.8722411,0.8956212,0.74015325,0.7187693,0.7287227,0.93236655,0.8286231,0.9133792,0.6747148,0.54148483,0.5775752,0.63298714,0.632976,0.5642341,0.53916836,0.65575683,0.66638047,0.6560223,0.66234356,0.61664754,0.66200256,0.5477866,0.52640265,0.5363561,0.67677313,0.63625646,0.6862669
117,0.900833,0.73553914,0.7716295,0.86862326,0.8270303,0.75828844,0.7300622,0.8701911,0.92411256,0.85007656,0.9200757,0.8743797,0.89730877,0.7418409,0.7204569,0.7304103,0.93450516,0.8303107,0.91506684,0.69645697,0.5586127,0.5947031,0.65472925,0.65010387,0.581362,0.556011,0.67749894,0.68812263,0.6731501,0.68408567,0.63838965,0.6837447,0.56491446,0.5435306,0.55348396,0.6985153,0.6533843,0.70800894
118,0.9010693,0.7357755,0.77186584,0.8688595,0.8272666,0.7585247,0.7303009,0.87042737,0.92442757,0.85031295,0.9203907,0.87469476,0.89754516,0.7420772,0.7206933,0.7306467,0.93482023,0.8305471,0.9153032,0.71512544,0.57329154,0.6093819,0.67339784,0.6647827,0.5960408,0.57046944,0.6961675,0.7067911,0.6878289,0.70275426,0.65705824,0.70241326,0.5795933,0.5582093,0.56816274,0.7171838,0.6680631,0.72667754
119,0.90392256,0.73862875,0.7747191,0.8717128,0.8301199,0.76137805,0.7331182,0.87328064,0.928044,0.85316616,0.9240071,0.8783112,0.9003985,0.7449305,0.7235466,0.7335,0.9384367,0.83340037,0.9181565,0.73519796,0.588983,0.6250734,0.6934703,0.6804741,0.61173224,0.58590955,0.71624,0.7268636,0.7035204,0.7228267,0.6771307,0.7224857,0.5952847,0.5739009,0.58385426,0.7372563,0.68375456,0.74674994
120,0.9040453,0.73875153,0.7748419,0.8718356,0.8302427,0.7615008,0.7332463,0.87340343,0.92821974,0.85328895,0.9241828,0.87848675,0.9005213,0.7450533,0.72366935,0.7336228,0.93861234,0.83352315,0.9182793,0.75841373,0.6069706,0.643061,0.71668607,0.6984617,0.62971985,0.60360247,0.73945576,0.7500794,0.721508,0.74604243,0.70034647,0.7457015,0.6132723,0.5918884,0.6018418,0.76047206,0.70174223,0.7699657
121,0.9069973,0.74170357,0.77779394,0.8747876,0.8331947,0.7644529,0.7361611,0.8763554,0.93196577,0.856241,0.92792875,0.88223284,0.9034732,0.7480053,0.7266214,0.73657477,0.9423584,0.83647513,0.9212313,0.7781806,0.622325,0.6584154,0.73645294,0.71381617,0.6450743,0.6187254,0.75697696,0.76984626,0.7368625,0.7658094,0.72011334,0.7654685,0.62862676,0.6072428,0.6171962,0.780239,0.71709657,0.7897327
122,0.9067429,0.7414491,0.7775395,0.87453324,0.8329403,0.7641984,0.735918,0.876101,0.9316569,0.85598654,0.9276201,0.8819241,0.90321875,0.7477509,0.72636694,0.7363203,0.9420496,0.8362207,0.9209769,0.80126256,0.6398926,0.67598295,0.7595349,0.7313837,0.6626418,0.63599694,0.7745445,0.7929282,0.75443,0.7888914,0.7431953,0.7885503,0.64619434,0.6248104,0.6347638,0.8033209,0.7346641,0.8128146
123,0.90984416,0.7445504,0.7806408,0.87763447,0.83604157,0.7672997,0.73897994,0.8792023,0.93558395,0.8590878,0.93154705,0.8858511,0.9063201,0.75085217,0.7294682,0.7394216,0.94597656,0.83932203,0.92407817,0.82103634,0.6557425,0.6918329,0.7802003,0.7472337,0.6784918,0.6516072,0.7903944,0.8135936,0.77028,0.8095567,0.7638607,0.8092157,0.6620443,0.6406604,0.6506138,0.8239863,0.7505141,0.83347994
124,0.90957177,0.744278,0.7803684,0.8773621,0.8357692,0.76702726,0.73871976,0.8789299,0.9352445,0.85881543,0.9312076,0.88551164,0.9060477,0.7505798,0.7291959,0.7391493,0.9456372,0.83904964,0.9238058,0.83695114,0.6716574,0.7077477,0.8015891,0.7631485,0.6944066,0.6672529,0.8063092,0.8349824,0.7861948,0.83094543,0.7852494,0.8306045,0.6779591,0.6565752,0.6665286,0.84537506,0.76642895,0.8511851
125,0.9125484,0.7472546,0.783345,0.8803387,0.8387458,0.7700039,0.7416593,0.88190657,0.93900883,0.8617921,0.9349718,0.88927585,0.90902424,0.7535564,0.7321724,0.7421258,0.94940144,0.8420262,0.9267824,0.85173386,0.68644005,0.7225304,0.8195241,0.77793115,0.7091893,0.6818144,0.82109195,0.8545508,0.80097747,0.8505139,0.8048178,0.8482098,0.69274175,0.6713579,0.6813113,0.86494356,0.7812117,0.8659678
126,0.9141236,0.74882984,0.78492016,0.8819139,0.840321,0.7715791,0.7432215,0.8834817,0.9410246,0.86336726,0.9369876,0.89129174,0.9105994,0.75513154,0.7337476,0.74370104,0.9514172,0.8436014,0.92835754,0.8639905,0.6986967,0.73478705,0.83178073,0.7901878,0.7214459,0.6938652,0.8333486,0.871458,0.81323415,0.8674211,0.8217251,0.86046636,0.7049984,0.68361455,0.69356793,0.88185066,0.79346836,0.8782245
127,0.91305894,0.7477651,0.7838555,0.88084924,0.8392563,0.7705144,0.7421791,0.8824171,0.93966645,0.86230254,0.9356294,0.8899335,0.90953475,0.7540669,0.73268294,0.7426364,0.95005906,0.84253675,0.9272929,0.8764094,0.7111156,0.747206,0.84419966,0.8026067,0.73386484,0.7061019,0.8457675,0.8881007,0.8256531,0.88406384,0.8383679,0.8728853,0.7174173,0.6960334,0.70598686,0.89849335,0.8058872,0.8906433
128,0.9162374,0.75094366,0.78703403,0.8840277,0.8424348,0.7736929,0.74531645,0.88559556,0.9436628,0.86548114,0.93962586,0.89392996,0.9127134,0.7572454,0.73586154,0.7458149,0.9540554,0.8457153,0.9304714,0.8849747,0.7196809,0.7557713,0.85276496,0.81117207,0.74243015,0.7145359,0.8543328,0.8999861,0.8342183,0.8959492,0.85025316,0.88145065,0.72598267,0.7045988,0.71455216,0.91037875,0.8144525,0.8992087
129,0.9154123,0.75011855,0.7862089,0.8832026,0.84160966,0.7728678,0.7445109,0.8847704,0.94260633,0.864656,0.9385694,0.89287347,0.9118882,0.75642025,0.7350364,0.74498975,0.95299906,0.8448901,0.9296463,0.8934621,0.7281683,0.7642587,0.8612524,0.8196595,0.7509176,0.72290343,0.86282027,0.9114368,0.8427057,0.9073999,0.86170393,0.889938,0.73447007,0.7130861,0.7230395,0.92182946,0.8229399,0.90769607
130,0.91849136,0.75319755,0.7892879,0.8862816,0.84468865,0.77594686,0.74755067,0.88784945,0.9464818,0.86773497,0.9424448,0.89674884,0.91496724,0.75949925,0.7381154,0.7480688,0.9568745,0.8479692,0.9327253,0.8989033,0.7336095,0.7696999,0.86669356,0.82510066,0.7563588,0.7282655,0.8682614,0.91904896,0.848147,0.91501206,0.8693161,0.89537925,0.73991126,0.7185274,0.72848076,0.92944163,0.8283811,0.91313726
131,0.91993564,0.7546419,0.79073226,0.88772595,0.846133,0.77739114,0.7489838,0.8892938,0.9483265,0.8691793,0.9442896,0.89859366,0.9164115,0.7609436,0.73955977,0.74951315,0.9587192,0.8494135,0.9341696,0.90495276,0.73965895,0.7757493,0.872743,0.8311501,0.7624082,0.73423207,0.87431085,0.9271982,0.8541964,0.9231611,0.87746525,0.9014287,0.7459607,0.72457683,0.7345302,0.9375908,0.8344306,0.9191868
132,0.9211418,0.75584805,0.7919384,0.8889321,0.8473392,0.7785973,0.75018114,0.8904999,0.9498655,0.87038547,0.9458285,0.9001326,0.9176177,0.7621498,0.74076587,0.75071925,0.9602581,0.8506196,0.93537587,0.9091785,0.74388474,0.7799751,0.8769688,0.8353759,0.76663405,0.73840415,0.87853664,0.93292373,0.8584222,0.9288869,0.88319093,0.90565443,0.7501865,0.7288026,0.738756,0.94331646,0.83865637,0.9234125
133,0.9222779,0.7569841,0.7930745,0.8900682,0.8484752,0.77973336,0.75130856,0.891636,0.9513075,0.8715216,0.9472705,0.90157455,0.91875374,0.7632858,0.741902,0.7518554,0.9617001,0.85175574,0.9365119,0.91157776,0.746284,0.7823744,0.87936807,0.8377751,0.76903325,0.7407709,0.88093585,0.93634534,0.8608214,0.93230844,0.8866125,0.9080536,0.7525857,0.73120177,0.7411552,0.946738,0.8410556,0.9258117
134,0.9233627,0.75806886,0.79415923,0.891153,0.84956,0.78081816,0.752385,0.8927208,0.95267886,0.87260634,0.94864196,0.90294594,0.9198384,0.7643706,0.7429867,0.75294006,0.96307147,0.8528404,0.9375966,0.9156352,0.75034136,0.7864317,0.88342553,0.8418326,0.7730907,0.744774,0.8849933,0.9417356,0.8648789,0.93769866,0.89200276,0.91211104,0.7566431,0.73525923,0.7452126,0.95212835,0.845113,0.9298692
135,0.9244061,0.75911224,0.7952027,0.89219636,0.8506034,0.78186154,0.7534203,0.8937642,0.95399415,0.8736497,0.9499572,0.90426123,0.9208819,0.765414,0.74403006,0.75398356,0.9643867,0.85388386,0.93864,0.91655695,0.75126326,0.78735363,0.8843474,0.8427544,0.77401257,0.74568546,0.8859152,0.94317037,0.8658007,0.9391336,0.89343756,0.9130329,0.757565,0.7361811,0.74613446,0.9535631,0.8460348,0.930791
136,0.92541504,0.7601213,0.79621166,0.89320534,0.8516124,0.78287053,0.75442135,0.8947732,0.95526344,0.8746587,0.9512266,0.9055306,0.9218909,0.766423,0.74503917,0.75499254,0.96565616,0.8548929,0.939649,0.9204135,0.7551197,0.79121006,0.88820374,0.8466108,0.7778689,0.74949014,0.8897716,0.9482152,0.8696571,0.9441782,0.8984822,0.91688937,0.7614214,0.7400375,0.7499909,0.95860785,0.84989125,0.93464744
137,0.92639446,0.76110077,0.79719114,0.8941848,0.85259193,0.78385,0.7553931,0.8957526,0.9564939,0.8756382,0.95245713,0.9067611,0.92287034,0.7674025,0.7460186,0.75597197,0.96688664,0.85587233,0.9406285,0.9225934,0.7572996,0.79339,0.89038366,0.8487907,0.7800489,0.7516465,0.8919515,0.9511202,0.871837,0.94708323,0.90138733,0.91906923,0.7636013,0.7422174,0.7521708,0.96151274,0.85207117,0.9368273
138,0.92734796,0.76205415,0.7981446,0.89513826,0.85354537,0.7848035,0.756339,0.89670616,0.95769066,0.8765916,0.9536537,0.9079578,0.9238238,0.76835597,0.746972,0.7569254,0.96808326,0.85682577,0.9415819,0.92268807,0.75739425,0.7934846,0.89047843,0.8488855,0.7801437,0.7517446,0.8920462,0.9513609,0.87193173,0.9473239,0.9016281,0.9191639,0.763696,0.74231213,0.7522655,0.96175355,0.8521659,0.936922
139,0.92827785,0.76298404,0.7990744,0.89606816,0.8544752,0.78573334,0.7572615,0.897636,0.958857,0.8775216,0.95482004,0.90912414,0.92475367,0.7692858,0.7479019,0.7578553,0.9692496,0.85775566,0.9425118,0.9256642,0.7603704,0.79646075,0.89345443,0.85186154,0.7831197,0.7546818,0.8950223,0.9551922,0.8749078,0.95115525,0.9054592,0.92214,0.76667213,0.74528813,0.7552416,0.96558475,0.85514194,0.93989813
140,0.92918605,0.7638922,0.7999826,0.8969763,0.85538334,0.78664154,0.75816244,0.89854413,0.9599956,0.87842965,0.9559587,0.91026276,0.92566186,0.77019393,0.74881,0.75876343,0.97038823,0.8586638,0.94341993,0.9272624,0.76196855,0.7980589,0.8950527,0.8534597,0.78471786,0.7562645,0.8966205,0.9572867,0.87650603,0.9532497,0.90755373,0.9237382,0.7682703,0.7468864,0.75683975,0.9676792,0.8567402,0.9414963
141,0.9300739,0.7647801,0.8008705,0.89786416,0.8562712,0.78752935,0.7590432,0.899432,0.9611086,0.8793175,0.95707166,0.91137564,0.9265497,0.7710818,0.74969786,0.7596513,0.9715012,0.85955167,0.94430786,0.9285872,0.76329345,0.7993838,0.8963775,0.8547846,0.7860427,0.75757706,0.89794534,0.9590162,0.8778309,0.95497936,0.9092834,0.9250631,0.7695952,0.7482113,0.7581647,0.9694089,0.85806507,0.9428212
142,0.9309423,0.7656486,0.801739,0.89873266,0.85713977,0.78839785,0.75990486,0.90030044,0.9621972,0.880186,0.95816034,0.9124643,0.9274181,0.77195036,0.75056636,0.7605198,0.9725898,0.86042017,0.94517636,0.9297837,0.7644899,0.80058026,0.89757395,0.85598105,0.78723913,0.75876254,0.8991418,0.96056664,0.87902737,0.9565296,0.9108337,0.9262596,0.77079165,0.74940777,0.75936115,0.9709592,0.8592615,0.9440177
143,0.9317925,0.7664987,0.80258906,0.89958286,0.8579899,0.789248,0.76074845,0.90115064,0.9632628,0.8810362,0.9592259,0.91352993,0.9282683,0.77280045,0.75141656,0.76136994,0.97365546,0.8612703,0.94602644,0.9308837,0.76558995,0.8016803,0.898674,0.85708106,0.7883392,0.7598526,0.9002418,0.9619832,0.8801274,0.9579462,0.9122503,0.9273596,0.77189165,0.7505078,0.76046115,0.9723757,0.8603615,0.9451177
144,0.93262494,0.76733106,0.8034215,0.9004151,0.8588223,0.79008037,0.76157427,0.901983,0.96430624,0.88186854,0.9602692,0.9145733,0.92910075,0.7736329,0.75224894,0.7622023,0.9746987,0.8621027,0.9468589,0.9319083,0.7666145,0.80270493,0.8996986,0.85810566,0.7893638,0.7608681,0.90126646,0.96329606,0.8811519,0.95925915,0.91356325,0.9283841,0.77291626,0.7515323,0.7614857,0.97368866,0.8613861,0.94614226
145,0.9334402,0.7681464,0.80423677,0.90123045,0.85963756,0.79089564,0.76238316,0.9027983,0.9653283,0.8826839,0.96129125,0.91559535,0.9299161,0.77444816,0.7530643,0.76301765,0.9757208,0.862918,0.9476742,0.9307257,0.76543194,0.8015223,0.89851606,0.8569231,0.78818125,0.75970596,0.90008384,0.9618006,0.8799694,0.95776373,0.9120678,0.9272015,0.7717337,0.75034976,0.76030314,0.97219324,0.8602035,0.9449597
146,0.934239,0.7689452,0.8050356,0.9020293,0.8604363,0.79169446,0.7631756,0.9035971,0.96632963,0.8834827,0.96229273,0.91659683,0.93071485,0.7752469,0.7538631,0.7638165,0.9767223,0.86371684,0.9484729,0.93336093,0.76806724,0.8041576,0.9011513,0.85955834,0.7908165,0.76230586,0.9027191,0.9651095,0.88260466,0.9610727,0.9153767,0.9298368,0.77436894,0.75298506,0.76293844,0.9755022,0.8628388,0.94759494
147,0.9350216,0.76972777,0.80581814,0.9028118,0.8612189,0.7924771,0.7639521,0.9043796,0.96731097,0.88426524,0.963274,0.91757804,0.9314974,0.7760295,0.7546456,0.764599,0.9777036,0.8644994,0.9492555,0.93446505,0.7691713,0.8052617,0.90225536,0.86066246,0.79192054,0.76340085,0.9038232,0.9665229,0.8837087,0.96248597,0.91679,0.9309409,0.77547306,0.7540892,0.76404256,0.97691554,0.8639429,0.94869906
148,0.93578833,0.7704945,0.8065849,0.9035785,0.8619857,0.7932438,0.76471287,0.90514636,0.9682725,0.885032,0.96423554,0.9185396,0.93226415,0.7767963,0.75541234,0.7653658,0.9786651,0.86526614,0.95002234,0.9353773,0.77008355,0.8061739,0.90316767,0.8615747,0.79283285,0.76430595,0.9047355,0.96769106,0.88462096,0.96365416,0.91795814,0.9318531,0.7763853,0.75500137,0.76495475,0.97808367,0.8648551,0.9496113
149,0.9365399,0.7712461,0.80733645,0.9043301,0.8627372,0.7939953,0.7654585,0.9058979,0.96921515,0.88578355,0.96517813,0.9194822,0.9330157,0.7775478,0.7561639,0.76611733,0.9796077,0.8660177,0.9507738,0.9339611,0.7686673,0.80475765,0.90175134,0.8601584,0.7914165,0.7629136,0.9033191,0.96589357,0.8832047,0.9618566,0.9161606,0.9304369,0.774969,0.7535851,0.7635385,0.9762861,0.86343884,0.94819504
150,0.93727636,0.77198255,0.8080729,0.90506667,0.8634737,0.79473186,0.76618934,0.9066345,0.970139,0.8865201,0.9661022,0.9204062,0.9337522,0.7782843,0.7569004,0.7668538,0.98053175,0.8667542,0.9515103,0.93657863,0.7712849,0.80737525,0.90436894,0.862776,0.7940341,0.7654962,0.9059368,0.969172,0.88582224,0.9651351,0.91943914,0.93305445,0.7775866,0.75620264,0.76615614,0.9795646,0.8660565,0.9508126
151,0.93799824,0.7727044,0.8087948,0.9057884,0.8641955,0.79545367,0.76690555,0.90735626,0.9710447,0.88724184,0.96687037,0.9213118,0.93447405,0.7790061,0.75762224,0.7675756,0.98143727,0.86747605,0.9522321,0.9375913,0.7722975,0.80838794,0.90538156,0.86378866,0.7950468,0.76650095,0.90694934,0.9704663,0.886835,0.96642935,0.9207334,0.93406713,0.77859926,0.75721526,0.76716876,0.98085886,0.86706907,0.9518253
152,0.93870574,0.773412,0.80950236,0.90649605,0.86490315,0.79616123,0.7676077,0.9080639,0.97193265,0.88794947,0.96757805,0.92219985,0.93518156,0.77971375,0.7583298,0.76828325,0.98232526,0.8681836,0.95293975,0.9384175,0.7731238,0.8092142,0.90620786,0.8646149,0.79587305,0.76732117,0.90777564,0.9715233,0.88766116,0.9672898,0.9217905,0.9348933,0.7794255,0.75804156,0.76799494,0.98191595,0.86789536,0.95265144
153,0.9393993,0.7741055,0.81019586,0.9071895,0.86559665,0.79685473,0.7682958,0.9087573,0.9728032,0.88864297,0.9682715,0.92307025,0.9358751,0.78040725,0.75902337,0.76897675,0.9831957,0.8688771,0.9536333,0.939192,0.7738982,0.8099886,0.90698224,0.86538935,0.7966475,0.76808995,0.90855,0.9725096,0.88843566,0.9680642,0.92277664,0.9356679,0.78019994,0.758816,0.76876944,0.9829021,0.86866975,0.953426
154,0.9400792,0.77478546,0.81087583,0.9078696,0.8662766,0.79753476,0.7689705,0.90943736,0.97363836,0.88932294,0.96895146,0.92392385,0.9365551,0.78108716,0.75970334,0.7696567,0.98401606,0.8695571,0.95431316,0.93818563,0.7728919,0.80898225,0.90597594,0.864383,0.7956411,0.7671017,0.9075438,0.97122675,0.8874293,0.9670579,0.9214938,0.93466145,0.7791936,0.7578097,0.7677631,0.9816193,0.86766344,0.9524196
155,0.94074565,0.7754519,0.81154233,0.908536,0.8669431,0.79820126,0.76963186,0.9101038,0.9743049,0.8899894,0.96961796,0.92476064,0.9372215,0.78175366,0.7603697,0.7703231,0.98468244,0.87022346,0.9549773,0.94028276,0.774989,0.8110794,0.908073,0.8664802,0.79773825,0.7691715,0.90964085,0.973842,0.8895264,0.969155,0.92411834,0.9367587,0.78129077,0.7599069,0.76986027,0.98421955,0.86976063,0.9545168
156,0.94139904,0.77610534,0.8121957,0.90918934,0.86759645,0.7988546,0.7702801,0.9107572,0.9749583,0.89064276,0.9702713,0.9255811,0.9378749,0.78240705,0.7610231,0.77097654,0.9853358,0.87087303,0.95562565,0.93922263,0.7739288,0.8100192,0.9070128,0.8654199,0.79667807,0.7681306,0.90858066,0.97250575,0.88846624,0.96809477,0.9227728,0.93569845,0.7802305,0.75884664,0.7688,0.9828983,0.86870044,0.9534565
157,0.94203967,0.77674586,0.8128363,0.90983,0.868237,0.79949516,0.7709158,0.9113978,0.9755988,0.89128333,0.9709119,0.92623806,0.93851554,0.7830476,0.76166373,0.7716171,0.98597646,0.8715087,0.9562612,0.9414703,0.7761765,0.8122669,0.90926063,0.8676677,0.7989259,0.77034914,0.9108285,0.9750295,0.890714,0.9703426,0.92559135,0.93794614,0.7824783,0.7610944,0.7710478,0.9854071,0.87094194,0.9556945
158,0.9426678,0.77737397,0.81346434,0.910458,0.8688651,0.8001232,0.7715391,0.91202587,0.9762269,0.89191145,0.97154003,0.9268662,0.9391436,0.7836757,0.76229185,0.7722452,0.9866046,0.87213194,0.9568845,0.9423427,0.77704895,0.8131393,0.910133,0.86854005,0.7997982,0.771215,0.91170084,0.97590184,0.8915864,0.971215,0.92654115,0.9388185,0.78335065,0.76196676,0.7719202,0.9862795,0.87180793,0.9565605
159,0.94328344,0.7779897,0.81408006,0.91107374,0.8694808,0.80073893,0.77215004,0.9126416,0.9768426,0.89252716,0.9721557,0.9274819,0.93975925,0.7842914,0.7629075,0.77286094,0.9872202,0.87274295,0.9574955,0.9415917,0.7762979,0.8123883,0.909382,0.8677891,0.79904723,0.7704791,0.9109498,0.97515094,0.8908354,0.97046393,0.92576,0.9380675,0.7825997,0.7612157,0.7711691,0.9855284,0.8710695,0.9558245
160,0.94388705,0.7785934,0.8146838,0.9116774,0.8700845,0.80134267,0.7727491,0.9132452,0.9774463,0.89313084,0.97275937,0.9280855,0.94036305,0.7848951,0.76351124,0.7734646,0.9878239,0.87334204,0.9580946,0.943436,0.77814233,0.8142327,0.91122633,0.8696335,0.8008916,0.7723001,0.9127942,0.97699535,0.89267975,0.97230834,0.9276345,0.93991196,0.7844441,0.76306015,0.77301353,0.9873728,0.872893,0.9576456
161,0.9444791,0.77918535,0.8152757,0.9122694,0.87067646,0.8019346,0.7733365,0.91383725,0.97803825,0.8937228,0.97335136,0.9286775,0.9409549,0.78548706,0.7641032,0.77405655,0.9884159,0.87392944,0.95868194,0.9430136,0.7777199,0.8138103,0.910804,0.869211,0.8004692,0.77188843,0.9123718,0.9765729,0.89225733,0.9718859,0.92721206,0.93948954,0.7840216,0.76263773,0.7725911,0.9869504,0.8724813,0.95723385
162,0.9450595,0.7797657,0.8158561,0.9128498,0.8712568,0.802515,0.7739125,0.9144176,0.9786186,0.8943031,0.9739318,0.92925787,0.9415353,0.7860674,0.76468354,0.7746369,0.98899627,0.8745054,0.9592579,0.9446414,0.77934766,0.81543803,0.9124317,0.8708388,0.8020969,0.7734962,0.91399956,0.9782006,0.89388514,0.9735137,0.92883986,0.9411172,0.7856494,0.7642655,0.7742189,0.9885782,0.87408906,0.9588417
163,0.9456286,0.78033483,0.8164252,0.91341877,0.87182593,0.8030841,0.77447724,0.9149867,0.9791877,0.89487225,0.97450083,0.92982703,0.9421044,0.78663653,0.76525265,0.775206,0.9895654,0.87507015,0.95982265,0.9453829,0.78008914,0.8161795,0.9131732,0.8715803,0.80283844,0.7742324,0.914741,0.9789422,0.8946266,0.97425514,0.92958146,0.9418588,0.7863909,0.765007,0.7749604,0.9893197,0.8748252,0.95957786
164,0.9461866,0.78089285,0.8169832,0.91397685,0.872384,0.80364215,0.7750311,0.9155447,0.9797458,0.89543027,0.9750589,0.9303851,0.9426624,0.7871946,0.76581067,0.77576405,0.9901234,0.8756239,0.96037644,0.9460173,0.78072363,0.816814,0.9138077,0.8722148,0.80347294,0.77486235,0.9153755,0.9795766,0.8952611,0.97488964,0.9302159,0.9424932,0.7870254,0.7656414,0.77559483,0.9899542,0.8754552,0.9602079
165,0.9467339,0.78144014,0.8175305,0.9145241,0.8729313,0.8041894,0.7755742,0.91609204,0.98029315,0.89597756,0.9756062,0.9309323,0.9432097,0.7877419,0.76635796,0.77631134,0.9906707,0.876167,0.9609196,0.9466159,0.7813222,0.81741256,0.9144062,0.87281334,0.8040714,0.7754566,0.915974,0.9801752,0.8958596,0.9754882,0.93081445,0.9430918,0.78762394,0.76623994,0.7761934,0.99055266,0.87604946,0.96080214
166,0.9472706,0.78197676,0.8180672,0.91506076,0.8734679,0.80472606,0.7761067,0.9166287,0.9808297,0.8965143,0.9761428,0.931469,0.9437465,0.7882785,0.7668946,0.7768481,0.99120736,0.87669957,0.9614521,0.947188,0.78189427,0.81798464,0.9149783,0.8733854,0.8046436,0.7760246,0.91654617,0.9807473,0.89643174,0.9760603,0.9313866,0.9436639,0.788196,0.7668121,0.7767655,0.9911248,0.8766174,0.96137005
167,0.9477968,0.782503,0.81859344,0.91558707,0.87399423,0.8052524,0.77662903,0.91715497,0.981356,0.89704055,0.9766691,0.9319953,0.9442728,0.78880477,0.7674209,0.7773743,0.9917337,0.8772218,0.96197444,0.9477388,0.78244513,0.81853545,0.9155291,0.8739363,0.80519444,0.7765713,0.917097,0.981298,0.89698255,0.97661114,0.93193734,0.9442148,0.78874683,0.76736295,0.77731633,0.9916757,0.8771641,0.96191674
168,0.94831294,0.7830192,0.81910956,0.9161032,0.87451035,0.80576843,0.7771413,0.917671,0.98187226,0.8975566,0.9771852,0.93251145,0.9447888,0.78932095,0.767937,0.7778904,0.99224967,0.877734,0.9624867,0.9482722,0.7829785,0.81906885,0.9160624,0.87446964,0.8057277,0.7771007,0.9176304,0.98183143,0.8975159,0.97714454,0.9324707,0.9447481,0.78928024,0.76789623,0.7778497,0.9922089,0.87769353,0.96244615
169,0.9488189,0.7835252,0.8196156,0.9166092,0.8750164,0.80627453,0.7776434,0.91817707,0.98237824,0.8980627,0.97769123,0.93301755,0.94529486,0.789827,0.7684431,0.7783965,0.9927558,0.87823623,0.9629889,0.9487902,0.78349644,0.8195868,0.91658044,0.8749876,0.80624574,0.77761483,0.9181483,0.9823495,0.8980339,0.97766244,0.93298876,0.9452661,0.7897982,0.7684143,0.7783677,0.992727,0.8782076,0.9629603
