,106,122,133,17,2,218,254,282,294,30,301,302,33,335,339,341,362,5,6
0,0.018135011,-0.00023202419,-0.00021232605,-0.00022356748,-0.00013912142,-8.395791e-05,-0.0003602892,0.0012708902,0.0073415637,0.024664402,0.0045770407,-0.00046234846,0.0057133436,-0.00015951037,-0.000720973,-0.0004398799,0.016354263,0.00993371,0.024744153
1,0.0060988665,-0.00035238624,-0.0003326881,-0.0003439295,-0.00025948405,-0.00020432114,-0.00048065186,-0.000107654334,-4.6947e-05,0.012628078,-7.459163e-05,-0.00058271165,-6.32292e-05,-0.0002798736,-0.00084133504,-0.0005602419,0.0043180585,-2.1025538e-05,0.012707949
2,0.005102694,-0.00036234735,-0.00034264982,-0.00035389126,-0.00026944518,-0.00021428167,-0.000490613,-0.000117614865,-5.6908724e-05,0.011631966,-8.455276e-05,-0.0005926728,-7.319033e-05,-0.00028983474,-0.0008512962,-0.0005702042,0.003321886,-3.098607e-05,0.011711836
3,0.0041148067,-0.00037222623,-0.0003525281,-0.00036376953,-0.00027932285,-0.00022415996,-0.0005004918,-0.00012749374,-6.6787004e-05,0.010644197,-9.4431634e-05,-0.0006025505,-8.3068604e-05,-0.00029971302,-0.00086117507,-0.00058008195,0.0023339987,-4.086554e-05,0.0107239485
4,0.0032216907,-0.00038115738,-0.00036145924,-0.00037270068,-0.00028825403,-0.00023309111,-0.0005094218,-0.0001364243,-7.571816e-05,0.0097510815,-0.0001033628,-0.00061148166,-9.2000366e-05,-0.00030864356,-0.0008701062,-0.0005890131,0.0014409423,-4.9797294e-05,0.0098308325
5,0.0024650097,-0.0003887236,-0.00036902726,-0.0003802681,-0.00029582143,-0.00024065792,-0.00051699043,-0.00014399171,-8.328438e-05,0.008994341,-0.0001109302,-0.00061904907,-9.956717e-05,-0.00031621096,-0.0008776724,-0.0005965805,0.0006842017,-5.7363508e-05,0.009074092
6,0.0018553138,-0.00039482117,-0.00037512303,-0.00038636444,-0.00030191898,-0.00024675607,-0.00052308675,-0.00015008808,-8.938193e-05,0.008384585,-0.00011702657,-0.0006251466,-0.000105664134,-0.00032230854,-0.00088376994,-0.0006026769,7.4505806e-05,-6.346106e-05,0.008464396
7,0.0013844967,-0.00039952993,-0.0003798318,-0.0003910732,-0.00030662655,-0.00025146425,-0.0005277955,-0.00015479684,-9.40907e-05,0.007913709,-0.000121735335,-0.0006298554,-0.0001103729,-0.0003270173,-0.0008884787,-0.0006073868,-3.963709e-06,-6.816923e-05,0.007993579
8,0.0010353327,-0.00040302039,-0.00038332344,-0.00039456485,-0.0003101182,-0.0002549553,-0.00053128717,-0.00015828847,-9.7582335e-05,0.007564664,-0.00012522578,-0.000633347,-0.00011386394,-0.00033050834,-0.00089197035,-0.00061087724,-7.454753e-06,-7.166028e-05,0.007644415
9,0.00078868866,-0.00040548682,-0.00038578987,-0.0003970313,-0.00031258463,-0.00025742172,-0.00053375243,-0.00016075492,-0.00010004818,0.00731802,-0.00012769223,-0.0006358123,-0.00011633038,-0.0003329742,-0.0008944356,-0.0006133437,-9.920597e-06,-7.412672e-05,0.007397771
10,0.0006264448,-0.00040710924,-0.0003874123,-0.00039865254,-0.00031420647,-0.00025904417,-0.0005353761,-0.00016237616,-0.000101670026,0.007155776,-0.00012931466,-0.0006374347,-0.00011795282,-0.00033459664,-0.00089605805,-0.0006149649,-1.1543631e-05,-7.574916e-05,0.0072356462
11,0.00053328276,-0.00040804147,-0.00038834332,-0.00039958596,-0.00031513927,-0.00025997637,-0.0005363071,-0.00016330957,-0.00010260284,0.0070625544,-0.00013024687,-0.0006383669,-0.00011888504,-0.00033552945,-0.0008969903,-0.00061589835,-1.2475251e-05,-7.6681376e-05,0.007142365
12,0.0004966259,-0.00040840864,-0.0003887105,-0.00039995194,-0.00031550525,-0.00026034235,-0.00053667306,-0.00016367555,-0.0001029694,0.007025957,-0.00013061344,-0.0006387329,-0.00011925101,-0.00033589482,-0.00089735625,-0.00061626435,-1.2841225e-05,-7.704735e-05,0.0071057677
13,0.0005071759,-0.00040830133,-0.00038860439,-0.00039984583,-0.00031539917,-0.00026023685,-0.0005365682,-0.00016356945,-0.00010286331,0.007036507,-0.00013050795,-0.000638628,-0.00011914491,-0.00033578993,-0.00089725014,-0.00061615824,-1.273632e-05,-7.694125e-05,0.0071163177
14,0.00055783987,-0.0004077959,-0.00038809775,-0.0003993392,-0.00031489372,-0.00025972963,-0.00053606153,-0.0001630634,-0.00010235727,0.0070871115,-0.00013000131,-0.00063812133,-0.000118639466,-0.0003352821,-0.0008967447,-0.0006156516,-1.2230277e-05,-7.6435805e-05,0.0071669817
15,0.00064337254,-0.00040694117,-0.00038724302,-0.00039848447,-0.00031403778,-0.0002588755,-0.0005352068,-0.00016220807,-0.00010150194,0.007172644,-0.00012914598,-0.00063726545,-0.00011778414,-0.00033442795,-0.0008958888,-0.0006147969,-1.137495e-05,-7.557988e-05,0.0072524548
16,0.00075984,-0.0004057765,-0.00038607715,-0.0003973198,-0.0003128731,-0.00025770962,-0.0005340409,-0.0001610434,-0.00010033727,0.007289231,-0.0001279813,-0.00063610077,-0.00011661887,-0.00033326267,-0.0008947253,-0.0006136322,-1.0209679e-05,-7.4415206e-05,0.0073690414
17,0.00090432167,-0.0004043317,-0.00038463355,-0.00039587496,-0.0003114283,-0.0002562654,-0.0005325961,-0.00015959858,-9.889245e-05,0.007433653,-0.00012653708,-0.0006346571,-0.00011517405,-0.00033181786,-0.0008932805,-0.0006121874,-8.765459e-06,-7.297099e-05,0.007513404
18,0.0010740161,-0.00040263415,-0.00038293717,-0.00039417742,-0.00030973196,-0.00025456905,-0.00053090096,-0.00015790164,-9.71961e-05,0.0076032877,-0.00012483954,-0.0006329596,-0.000113477705,-0.00033012152,-0.00089158415,-0.0006104898,-7.0685146e-06,-7.1274044e-05,0.007683158
19,0.0012661219,-0.00040071248,-0.00038101553,-0.00039225697,-0.0003078103,-0.00025264738,-0.0005289781,-0.00015597939,-9.527385e-05,0.007795453,-0.00012291849,-0.0006310379,-0.00011155605,-0.00032819985,-0.0008896613,-0.00060856936,-5.146265e-06,-6.935238e-05,0.007875264
20,0.0014777184,-0.00039859652,-0.00037889957,-0.000390141,-0.00030569552,-0.00025053203,-0.00052686216,-0.00015386462,-9.315848e-05,0.00800705,-0.00012080312,-0.00062892196,-0.00010944068,-0.00032608508,-0.0008875465,-0.0006064534,-3.0314923e-06,-6.723642e-05,0.008086801
21,0.0017050505,-0.00039632438,-0.00037662624,-0.00038786768,-0.00030342222,-0.00024825812,-0.00052459,-0.0001515919,-9.088516e-05,0.008234322,-0.0001185292,-0.0006266498,-0.00010716796,-0.00032381117,-0.0008852732,-0.0006041801,-7.5817104e-07,-6.4963104e-05,0.008314133
22,0.0019439459,-0.00039393423,-0.00037423728,-0.00038547872,-0.00030103326,-0.00024586916,-0.00052219984,-0.00014920234,-8.849621e-05,0.008473277,-0.00011614025,-0.0006242597,-0.00010477781,-0.00032142163,-0.00088288303,-0.00060179114,0.00016307831,-6.2574145e-05,0.008553028
23,0.002189815,-0.00039147615,-0.000371778,-0.00038301945,-0.00029857337,-0.00024340987,-0.00051974173,-0.00014674306,-8.603692e-05,0.008719206,-0.000113681555,-0.0006218004,-0.000102318525,-0.00031896352,-0.00088042376,-0.00059933186,0.00040900707,-6.0115457e-05,0.008798957
24,0.00243783,-0.0003889954,-0.00036929845,-0.0003805399,-0.0002960938,-0.00024093031,-0.0005172622,-0.0001442635,-8.355737e-05,0.008967102,-0.000111201996,-0.00061932084,-9.983956e-05,-0.00031648338,-0.0008779454,-0.0005968523,0.000657022,-5.7635305e-05,0.009046912
25,0.002722025,-0.00038615466,-0.0003664565,-0.00037769793,-0.00029325127,-0.00023808837,-0.0005144203,-0.00014142155,-8.0715414e-05,0.009251356,-0.00010836005,-0.0006164789,-9.699762e-05,-0.00031364142,-0.00087510346,-0.00059401034,0.00094115734,-5.4793953e-05,0.009331107
26,0.0029873848,-0.00038350045,-0.00036380172,-0.00037504375,-0.00029059767,-0.00023543417,-0.0005117655,-0.00013876795,-7.8061814e-05,0.009516716,-0.000105705854,-0.0006138253,-9.434342e-05,-0.00031098723,-0.00087244867,-0.00059135555,0.0012065172,-5.213976e-05,0.009596586
27,0.003234148,-0.0003810334,-0.00036133526,-0.0003725767,-0.00028813124,-0.00023296713,-0.00050929905,-0.00013630032,-7.559419e-05,0.00976336,-0.00010323882,-0.00061135885,-9.187638e-05,-0.0003085208,-0.00086998224,-0.0005888891,0.0014532804,-4.967332e-05,0.00984323
28,0.0034601688,-0.0003787732,-0.00035907567,-0.0003703177,-0.00028587104,-0.00023070812,-0.00050703884,-0.0001340413,-7.333398e-05,0.0099895,-0.000100978614,-0.0006090975,-8.961618e-05,-0.00030626057,-0.00086772203,-0.0005866289,0.0016793013,-4.741311e-05,0.010069191
29,0.0036640167,-0.00037673413,-0.0003570366,-0.000368278,-0.00028383135,-0.00022866845,-0.00050500035,-0.00013200163,-7.12955e-05,0.010193348,-9.894013e-05,-0.000607059,-8.75771e-05,-0.0003042209,-0.0008656823,-0.0005845904,0.0018832088,-4.5374632e-05,0.010273099
30,0.0038450956,-0.00037492273,-0.00035522578,-0.00036646603,-0.00028202115,-0.00022685765,-0.00050318835,-0.00013019025,-6.9484115e-05,0.010374427,-9.712815e-05,-0.0006052482,-8.576631e-05,-0.00030241013,-0.00086387154,-0.00058277964,0.0020643473,-4.356265e-05,0.010454237
31,0.0040034056,-0.00037334024,-0.00035364268,-0.00036488412,-0.00028043747,-0.00022527456,-0.0005016053,-0.00012860775,-6.790161e-05,0.010532737,-9.5546246e-05,-0.0006036651,-8.4183215e-05,-0.00030082703,-0.00086228846,-0.0005811965,0.0022226572,-4.197955e-05,0.010612488
32,0.004139304,-0.00037198066,-0.0003522837,-0.00036352454,-0.00027907846,-0.00022391557,-0.00050024746,-0.00012724876,-6.654263e-05,0.010668635,-9.418726e-05,-0.0006023061,-8.282423e-05,-0.00029946803,-0.0008609295,-0.00057983754,0.0023584962,-4.0620565e-05,0.010748386
33,0.004259348,-0.0003707814,-0.00035108326,-0.0003623247,-0.00027787924,-0.00022271572,-0.00049904705,-0.00012604833,-6.534219e-05,0.0107886195,-9.298682e-05,-0.0006011057,-8.1624385e-05,-0.0002982682,-0.00085973024,-0.0005786371,0.0024784803,-3.9420724e-05,0.01086843
34,0.004358053,-0.00036979435,-0.0003500962,-0.00036133765,-0.000276891,-0.00022172809,-0.0004980588,-0.00012506127,-6.435513e-05,0.010887384,-9.199917e-05,-0.0006001186,-8.063674e-05,-0.00029728175,-0.00085874315,-0.00057765003,0.0025772452,-3.843367e-05,0.010967135
35,0.004437804,-0.00036899684,-0.0003492987,-0.00036054014,-0.00027609407,-0.00022093057,-0.00049726246,-0.00012426377,-6.355762e-05,0.010967135,-9.120226e-05,-0.0005993211,-7.983923e-05,-0.0002964842,-0.00085794565,-0.00057685375,0.0026569366,-3.763616e-05,0.011046886
36,0.0045005083,-0.0003683698,-0.00034867166,-0.0003599131,-0.00027546645,-0.00022030412,-0.00049663545,-0.00012363672,-6.293058e-05,0.0110298395,-9.057462e-05,-0.00059869525,-7.921278e-05,-0.0002958566,-0.0008573174,-0.0005762255,0.0027196407,-3.700912e-05,0.0111095905
37,0.004548192,-0.00036789296,-0.00034819482,-0.00035943626,-0.0002749896,-0.00021982669,-0.0004961586,-0.00012315989,-6.245374e-05,0.011077523,-9.009838e-05,-0.0005982184,-7.8735946e-05,-0.00029538033,-0.0008568406,-0.0005757487,0.002767384,-3.6532878e-05,0.011157274
38,0.004582882,-0.00036754608,-0.00034784852,-0.00035908938,-0.0002746433,-0.0002194804,-0.00049581286,-0.00012281298,-6.210685e-05,0.011112213,-8.975148e-05,-0.0005978703,-7.838905e-05,-0.00029503345,-0.0008564949,-0.00057540176,0.0028020144,-3.618598e-05,0.011191964
39,0.004606366,-0.00036731063,-0.0003476131,-0.00035885334,-0.00027440785,-0.00021924495,-0.00049557566,-0.00012257695,-6.1870815e-05,0.011135697,-8.9515444e-05,-0.0005976367,-7.815361e-05,-0.0002947974,-0.00085625885,-0.00057516695,0.0028256178,-3.5949946e-05,0.011215448
40,0.0046902895,-0.0003664708,-0.00034677386,-0.0003580147,-0.0002735686,-0.00021840572,-0.0004947364,-0.00012173891,-6.103277e-05,0.011219621,-8.867681e-05,-0.00059679744,-7.731438e-05,-0.00029395818,-0.0008554196,-0.0005743289,0.0029095411,-3.5110712e-05,0.011299491
41,0.004750073,-0.00036587357,-0.000346176,-0.00035741806,-0.00027297137,-0.00021780789,-0.0004941392,-0.00012114167,-6.0434937e-05,0.011279345,-8.8078974e-05,-0.000596199,-7.671714e-05,-0.00029336094,-0.0008548224,-0.00057373045,0.0029692054,-3.4513472e-05,0.011359155
42,0.0047929883,-0.0003654444,-0.00034574626,-0.0003569877,-0.00027254224,-0.00021737933,-0.00049371005,-0.00012071252,-6.0005186e-05,0.01132226,-8.764982e-05,-0.00059576984,-7.628739e-05,-0.0002929318,-0.00085439323,-0.0005733001,0.0030121207,-3.4083725e-05,0.0114020705
43,0.004821956,-0.00036515473,-0.00034545778,-0.0003566986,-0.00027225257,-0.00021708965,-0.00049342035,-0.00012042224,-5.971551e-05,0.011351347,-8.736014e-05,-0.0005954802,-7.599771e-05,-0.0002926421,-0.00085410353,-0.00057301164,0.0030411482,-3.379464e-05,0.011431038
44,0.0049347878,-0.00036402643,-0.00034432887,-0.00035557032,-0.00027112363,-0.00021596074,-0.00049229147,-0.00011929273,-5.8586596e-05,0.011464179,-8.623123e-05,-0.00059435127,-7.486939e-05,-0.0002915132,-0.00085297466,-0.00057188154,0.0031539798,-3.266573e-05,0.01154393
45,0.006901741,-0.00034435748,-0.00032465934,-0.00033590078,-0.0002514553,-0.0001962912,-0.0004726231,-9.9625584e-05,-3.8918854e-05,0.013430953,-6.656349e-05,-0.00057468296,-5.5201053e-05,-0.00027184485,-0.0008333063,-0.00055221317,0.0051208735,-1.2997389e-05,0.013510823
46,0.011272311,-0.00030065118,-0.00028095246,-0.00029219387,-0.00020774841,-0.0001525855,-0.0004289174,-5.5918095e-05,0.0004787445,0.017801702,-2.2855997e-05,-0.0005309749,-1.14941595e-05,-0.00022813797,-0.0007895994,-0.00050850626,0.009491503,0.0030709505,0.017881513
47,0.022602558,-0.00018734932,-0.00016764998,-0.000178892,-9.444594e-05,-3.9283037e-05,-0.00031561375,0.0057383776,0.011809111,0.029131949,0.009044647,-0.00041767358,0.01018095,-0.000114834904,-0.00067629694,-0.00039520502,0.02082181,0.014401197,0.0292117
48,0.03178692,-9.5505115e-05,-7.5806376e-05,-8.704781e-05,-2.6023388e-06,0.005256176,-0.00022377014,0.014922798,0.020993471,0.03831631,0.018229008,-0.00032582937,0.01936531,-2.2991895e-05,-0.00058445334,-0.00030336023,0.03000617,0.023585558,0.03839612
49,0.04182613,0.0004886985,0.0024585128,0.0013344288,0.009778976,0.015295267,-0.00012337923,0.024961948,0.031032562,0.04835546,0.028268218,-0.00022543788,0.029404402,0.0077400208,-0.00048406242,-0.00020296872,0.04004532,0.03362477,0.04843527
50,0.050001442,0.008664012,0.010633826,0.009509683,0.01795429,0.02347064,-4.16255e-05,0.03313732,0.039207935,0.056530833,0.036443472,-0.00014368414,0.037579775,0.015915394,-0.0004023075,-0.00012121558,0.048220634,0.04180008,0.056610584
51,0.056589127,0.015251756,0.01722151,0.016097426,0.024542093,0.030058324,0.0024251938,0.039725065,0.04579568,0.06311852,0.043031216,-7.7807905e-05,0.04416752,0.022503078,-0.00033643126,-5.533874e-05,0.05480838,0.048387766,0.06319833
52,0.061748147,0.020410776,0.02238053,0.021256447,0.029701054,0.035217404,0.007584214,0.044884026,0.0509547,0.06827748,0.048190236,-2.6216507e-05,0.04932654,0.027662039,-0.00028484105,-3.74794e-06,0.0599674,0.053546906,0.06835735
53,0.06564963,0.024312139,0.026282012,0.025157928,0.033602476,0.039118767,0.011485696,0.048785448,0.05485612,0.07217896,0.0520916,0.0012797117,0.0532279,0.03156352,-0.00024582623,0.003526628,0.06386882,0.057448268,0.07225877
54,0.068466306,0.027128875,0.02909863,0.027974546,0.036419153,0.041935444,0.014302313,0.051602125,0.05767274,0.07499564,0.054908335,0.004096389,0.05604458,0.034380198,-0.00021765947,0.006343305,0.0666855,0.060264945,0.07507545
55,0.0703665,0.029029071,0.030998826,0.029874802,0.03831941,0.0438357,0.01620245,0.05350244,0.059573054,0.07689583,0.05680853,0.005996585,0.057944834,0.036280394,-0.00019865691,0.008243561,0.06858575,0.06216514,0.0769757
56,0.07150978,0.030172288,0.032142103,0.03101796,0.039462566,0.044978917,0.017345726,0.054645598,0.06071621,0.07803905,0.057951808,0.007139802,0.05908805,0.03742361,-0.00018722533,0.009386778,0.06972891,0.06330836,0.07811892
57,0.07703209,0.03569466,0.037664413,0.03654027,0.044984877,0.050501227,0.022868097,0.06016791,0.06623852,0.08356142,0.06347406,0.012662172,0.06461042,0.04294598,-0.00013200282,0.014909029,0.07525128,0.06883073,0.08364117
58,0.081508696,0.040171266,0.04214096,0.041016877,0.049461544,0.054977834,0.027344644,0.064644456,0.07071519,0.08803797,0.067950726,0.01713872,0.06908697,0.04742253,-8.723616e-05,0.019385636,0.07972783,0.073307276,0.08811784
59,0.086007535,0.044670105,0.04663992,0.045515656,0.053960323,0.059476614,0.031843543,0.069143295,0.07521403,0.09253687,0.072449565,0.021637559,0.07358587,0.051921368,-4.224777e-05,0.023884535,0.08422673,0.077806115,0.09261668
60,0.0897612,0.048423707,0.05039358,0.049269438,0.057713985,0.063230276,0.035597146,0.07289702,0.07896763,0.09629047,0.07620323,0.025391221,0.07733953,0.05567503,-4.711151e-06,0.027638197,0.08798039,0.08155978,0.09637034
61,0.09288049,0.051543057,0.05351293,0.052388787,0.060833454,0.066349745,0.038716555,0.076016426,0.08208704,0.09940988,0.07932258,0.02851063,0.08045888,0.0587945,0.002648294,0.030757546,0.09109974,0.08467919,0.09948969
62,0.09544259,0.054105163,0.056074917,0.054950833,0.06339538,0.06891179,0.0412786,0.07857847,0.08464903,0.101971865,0.08188462,0.031072617,0.083020926,0.061356425,0.0052102804,0.033319533,0.093661785,0.08724117,0.102051735
63,0.097530186,0.056192756,0.05816257,0.057038426,0.065482974,0.070999265,0.043366194,0.080665946,0.08673668,0.10405952,0.083972216,0.03316021,0.08510852,0.06344402,0.0072978735,0.035407126,0.09574938,0.089328766,0.10413933
64,0.09922707,0.0578897,0.059859395,0.05873531,0.06717992,0.07269621,0.04506302,0.08236289,0.08843362,0.1057564,0.0856691,0.034857094,0.08680534,0.06514096,0.008994758,0.03710401,0.0974462,0.09102565,0.10583621
65,0.10291433,0.061576843,0.06354672,0.062422514,0.07086718,0.07638347,0.04875028,0.08605015,0.092120826,0.109443665,0.0893563,0.038544357,0.090492606,0.068828106,0.01268208,0.040791273,0.101133466,0.09471291,0.109523475
66,0.10946977,0.06813228,0.070102096,0.06897801,0.07742262,0.08293891,0.05530578,0.09260559,0.098676205,0.1159991,0.0959118,0.045099854,0.097048104,0.0753836,0.019237518,0.04734671,0.10768896,0.10126835,0.11607897
67,0.11545634,0.07411891,0.07608867,0.07496464,0.08340919,0.08892548,0.06129235,0.09859216,0.104662836,0.121985674,0.10189837,0.051086426,0.103034616,0.081370175,0.02522409,0.053333282,0.113675594,0.10725498,0.122065485
68,0.12527001,0.08393258,0.08590233,0.08477825,0.0932228,0.09873915,0.07110596,0.10840583,0.1144765,0.13179934,0.11171204,0.060900092,0.11284828,0.09118384,0.035037637,0.06314695,0.12348914,0.11706853,0.13187915
69,0.13431835,0.09298092,0.09495062,0.09382659,0.10227114,0.10778743,0.08015436,0.11745417,0.123524785,0.14084762,0.12076032,0.069948435,0.121896625,0.100232184,0.04408598,0.07219529,0.13253748,0.12611699,0.14092743
70,0.14274406,0.101406574,0.10337633,0.102252245,0.11069685,0.11621314,0.08858001,0.12587988,0.1319505,0.14927334,0.12918603,0.07837415,0.13032234,0.1086579,0.05251175,0.080620944,0.1409632,0.1345427,0.14935315
71,0.15052474,0.109187424,0.11115712,0.110033035,0.11847764,0.12399393,0.0963608,0.13366061,0.13973129,0.15705419,0.13696682,0.08615494,0.13810313,0.11643863,0.060292542,0.088401735,0.14874399,0.14232337,0.15713394
72,0.16140366,0.120066166,0.12203598,0.120911896,0.1293565,0.1348728,0.107239604,0.14453948,0.15061009,0.16793299,0.14784563,0.09703374,0.14898193,0.12731749,0.07117128,0.099280596,0.15962279,0.1532023,0.16801274
73,0.17143786,0.13010037,0.13207024,0.1309461,0.1393907,0.144907,0.11727381,0.15457374,0.16064435,0.17796725,0.15787989,0.10706794,0.15901619,0.13735169,0.08120561,0.10931486,0.16965705,0.1632365,0.17804706
74,0.18552923,0.1441918,0.14616156,0.14503747,0.15348208,0.15899837,0.13136524,0.16866505,0.17473572,0.19205856,0.1719712,0.121159315,0.1731075,0.15144306,0.09529686,0.12340617,0.18374836,0.17732787,0.19213831
75,0.19860923,0.15727174,0.15924162,0.15811753,0.16656208,0.17207843,0.1444453,0.18174505,0.18781573,0.20513862,0.18505132,0.13423932,0.18618757,0.16452312,0.10837698,0.13648623,0.19682842,0.19040787,0.20521837
76,0.21409869,0.17276132,0.17473114,0.17360699,0.1820516,0.18756783,0.15993476,0.19723457,0.20330524,0.22062814,0.20054078,0.14972883,0.20167708,0.18001258,0.12386644,0.15197575,0.21231794,0.20589739,0.2207079
77,0.22845238,0.1871149,0.18908471,0.18796062,0.19640529,0.20192152,0.17428839,0.2115882,0.21765888,0.23498178,0.21489441,0.16408247,0.21603072,0.19436622,0.13822007,0.16632932,0.22667158,0.22025102,0.23506153
78,0.24173367,0.20039624,0.202366,0.20124191,0.20968652,0.21520281,0.18756962,0.22486949,0.23094016,0.248263,0.2281757,0.17736375,0.229312,0.2076475,0.1515013,0.17961061,0.2399528,0.23353231,0.24834281
79,0.25675428,0.21541685,0.21738666,0.21626258,0.22470713,0.23022342,0.20259029,0.2398901,0.24596071,0.2632836,0.24319631,0.19238436,0.24433255,0.22266817,0.16652203,0.19463134,0.2549734,0.24855292,0.26336348
80,0.27056348,0.229226,0.23119581,0.23007166,0.23851633,0.24403256,0.21639943,0.25369918,0.25976992,0.2770928,0.25700545,0.2061935,0.25814176,0.23647726,0.18033117,0.20844042,0.26878262,0.26236212,0.27717257
81,0.28591287,0.2445755,0.2465452,0.24542117,0.25386578,0.25938207,0.23174894,0.2690487,0.27511936,0.29244232,0.2723549,0.22154295,0.2734912,0.25182676,0.19568062,0.22378987,0.28413206,0.27771157,0.29252207
82,0.3000121,0.25867474,0.2606445,0.2595204,0.26796496,0.2734813,0.24584812,0.283148,0.28921866,0.30654156,0.2864542,0.2356422,0.28759044,0.265926,0.20977986,0.23788905,0.2982313,0.29181075,0.3066213
83,0.31533563,0.2739982,0.27596796,0.2748438,0.28328848,0.28880477,0.26117158,0.29847145,0.30454206,0.32186502,0.3017776,0.2509657,0.3029139,0.28124946,0.22510332,0.2532125,0.31355476,0.30713427,0.32194477
84,0.3293755,0.28803813,0.2900079,0.2888838,0.29732835,0.3028447,0.27521157,0.31251138,0.31858206,0.3359049,0.3158176,0.2650056,0.31695384,0.29528946,0.23914325,0.2672525,0.3275947,0.3211742,0.3359847
85,0.34220815,0.30087072,0.30284047,0.30171645,0.310161,0.31567734,0.28804415,0.32534397,0.33141458,0.34873748,0.32865012,0.27783823,0.32978642,0.30812198,0.25197583,0.2800851,0.34042728,0.3340068,0.3488173
86,0.36341667,0.32207924,0.324049,0.32292497,0.33136952,0.33688587,0.30925274,0.34655255,0.35262316,0.36994606,0.34985876,0.2990468,0.35099506,0.32933056,0.27318436,0.30129367,0.36163592,0.35521537,0.37002587
87,0.3902564,0.34891897,0.35088873,0.3497646,0.35820925,0.3637256,0.33609235,0.37339222,0.3794629,0.39678574,0.37669843,0.3258865,0.37783468,0.35617024,0.30002415,0.32813334,0.38847554,0.38205504,0.39686555
88,0.4204631,0.3791257,0.38109547,0.37997139,0.38841593,0.39393228,0.3662991,0.4035989,0.40966964,0.42699248,0.4069051,0.35609317,0.40804142,0.38637698,0.33023083,0.35834008,0.41868228,0.41226178,0.4270723
89,0.44736362,0.40602618,0.407996,0.40687186,0.41531646,0.4208328,0.39319962,0.43049943,0.4365701,0.45389295,0.43380564,0.3829937,0.4349419,0.4132775,0.35713136,0.3852406,0.44558275,0.4391623,0.45397282
90,0.47795188,0.43661445,0.4385842,0.43746012,0.44590473,0.45142108,0.4237879,0.4610877,0.46715838,0.48448128,0.46439388,0.41358197,0.46553022,0.44386578,0.38771963,0.41582882,0.47617105,0.46975052,0.4845611
91,0.50499195,0.4636545,0.46562427,0.46450016,0.4729448,0.47846112,0.45082796,0.48812783,0.4941984,0.5115213,0.49143398,0.44062203,0.49257022,0.47090578,0.4147597,0.44286895,0.50321114,0.4967906,0.5116011
92,0.5289406,0.48760316,0.48957297,0.48844886,0.4968935,0.5024098,0.47477663,0.5120765,0.5181471,0.53547,0.51538265,0.46457073,0.51651895,0.49485448,0.4387083,0.46681762,0.5271598,0.5207393,0.53554976
93,0.55012333,0.5029795,0.5107557,0.50963163,0.51807624,0.52359253,0.49595937,0.5332592,0.5393298,0.5566527,0.53656536,0.48575348,0.5377017,0.5160372,0.45989108,0.48800036,0.5483425,0.54192203,0.55673254
94,0.56887203,0.51287794,0.52950436,0.5283803,0.5368249,0.5423412,0.514708,0.55200785,0.55807847,0.5754014,0.555314,0.5045021,0.5564503,0.52555454,0.4786397,0.506749,0.56709117,0.5606706,0.5754812
95,0.58971715,0.52380323,0.5503495,0.54922545,0.55767,0.557727,0.5276823,0.57285297,0.57892364,0.59624654,0.5761592,0.52534723,0.5772955,0.5356829,0.49948493,0.5275941,0.58793634,0.5815158,0.59632635
96,0.6081144,0.53345126,0.5687467,0.56762266,0.5760672,0.5666601,0.5373304,0.59125024,0.59732085,0.61464375,0.5945564,0.5437445,0.5956927,0.544616,0.5178821,0.53748536,0.60633355,0.599913,0.61472356
97,0.62444705,0.5420166,0.5850794,0.5839553,0.59239984,0.5745907,0.5458957,0.6075828,0.6136535,0.6309763,0.610889,0.5600771,0.6120253,0.5525466,0.53421474,0.54605067,0.6226662,0.6162457,0.63105613
98,0.63898844,0.5496402,0.5996208,0.5984967,0.6069412,0.58165395,0.55351925,0.6221243,0.62819487,0.6455178,0.62543046,0.5746185,0.62656677,0.5596099,0.5487562,0.5536742,0.6372076,0.6307871,0.6455976
99,0.6519946,0.55645496,0.6102583,0.61150277,0.6199474,0.5879753,0.5603341,0.63513035,0.641201,0.6585239,0.6384366,0.5876246,0.63957286,0.5659313,0.5617623,0.56048906,0.6502137,0.6437932,0.65860367
100,0.66802573,0.564774,0.6185773,0.627534,0.6359785,0.5958477,0.5686531,0.65116155,0.65723217,0.67455506,0.65446776,0.60365576,0.655604,0.57380366,0.5727444,0.5688081,0.66624486,0.6598243,0.6746348
101,0.68229145,0.57218295,0.6259863,0.6417997,0.6502443,0.6028472,0.5760621,0.66542727,0.67149794,0.68882084,0.6687335,0.61792153,0.6698698,0.58080316,0.57974386,0.57621706,0.68051064,0.6740901,0.6889006
102,0.6996277,0.58112335,0.6349267,0.65913594,0.6675805,0.61141634,0.58500254,0.6827635,0.68883413,0.706157,0.6860697,0.6352578,0.68720603,0.5893723,0.5883131,0.5851575,0.6978469,0.6914264,0.70623684
103,0.71495265,0.58903664,0.64283997,0.6744609,0.68290544,0.6189813,0.5929158,0.69808847,0.70415914,0.721482,0.7013947,0.6505827,0.702531,0.5969372,0.59587795,0.59307075,0.71317184,0.70660245,0.7215618
104,0.7333121,0.5984629,0.6522662,0.69282037,0.7012649,0.62809813,0.602342,0.71644795,0.72251856,0.73370486,0.7197541,0.66894215,0.7208904,0.60605407,0.6049948,0.602497,0.73153126,0.71602863,0.7399212
105,0.74936366,0.60671663,0.66051996,0.70887196,0.7173165,0.6360564,0.61059576,0.7324995,0.73857015,0.74166316,0.7358057,0.68499374,0.73694193,0.61401236,0.61295307,0.6107508,0.74758285,0.7242824,0.75597274
106,0.7634835,0.6139816,0.667785,0.7229918,0.7314364,0.64305246,0.6178608,0.74661934,0.75269,0.7486592,0.74992555,0.6991136,0.7510618,0.6210084,0.6199491,0.61801577,0.7617027,0.7315475,0.77009267
107,0.7802477,0.6225585,0.6763618,0.739756,0.7416105,0.6514075,0.62643766,0.7633835,0.76945424,0.7570142,0.7666898,0.7158778,0.767826,0.6293634,0.6283041,0.62659264,0.77846694,0.7401243,0.78685683
108,0.79476345,0.62999594,0.68379927,0.7542717,0.7488339,0.65863085,0.63387513,0.77789927,0.7839699,0.7642376,0.7812054,0.7303935,0.7823417,0.6365868,0.6355275,0.6340301,0.7929826,0.74756175,0.8013725
109,0.81229717,0.63893294,0.69273627,0.77180547,0.757606,0.667403,0.6428121,0.7949749,0.80150366,0.7730097,0.7987392,0.74792725,0.7998755,0.6453589,0.6442996,0.6429671,0.81051636,0.7564987,0.8189063
110,0.8272153,0.6465507,0.700354,0.7867236,0.76505566,0.6748526,0.65042984,0.8025927,0.81642187,0.78045934,0.8136574,0.76284546,0.81479365,0.65280855,0.65174925,0.6505848,0.82543457,0.76411647,0.8338245
111,0.8443148,0.6552471,0.7090504,0.8038231,0.7736297,0.6834266,0.6591263,0.8112891,0.8335213,0.7890334,0.8307569,0.7799449,0.83189315,0.6613826,0.6603233,0.6592812,0.842534,0.77281284,0.85092396
112,0.85370135,0.6625415,0.71634483,0.8181386,0.78079385,0.69059086,0.66642064,0.8185835,0.8478368,0.7961976,0.8450723,0.7942604,0.8462086,0.6685468,0.6674875,0.6665757,0.8568495,0.7801073,0.86523944
113,0.85986245,0.6687027,0.72250605,0.82721555,0.7868343,0.69663125,0.6725818,0.82474464,0.8599176,0.80223805,0.8571531,0.8063412,0.85828936,0.67458725,0.67352796,0.6727368,0.8689303,0.7862685,0.87732023
114,0.8665838,0.6754241,0.7292274,0.83385694,0.7934757,0.7032727,0.67930317,0.831466,0.873148,0.8088794,0.87038356,0.8195716,0.8662684,0.68122864,0.68016934,0.6794582,0.8821607,0.79298985,0.8905507
115,0.8721954,0.68103564,0.73483896,0.8393822,0.799001,0.70879793,0.6849147,0.83707756,0.8841746,0.81440467,0.8814101,0.8305982,0.8717937,0.68675387,0.6856946,0.68506974,0.8931873,0.7986014,0.8970449
116,0.87827444,0.6871146,0.740918,0.84540933,0.8050281,0.7148251,0.6909938,0.8431566,0.8961609,0.8204318,0.89339644,0.8425845,0.87782085,0.69278103,0.69172174,0.69114876,0.9051736,0.8046804,0.9031239
117,0.88330376,0.6921439,0.7459473,0.8503762,0.809995,0.71979195,0.6960231,0.8481859,0.9060581,0.8253987,0.90329367,0.8524817,0.8827877,0.69774795,0.6966886,0.6961781,0.9145367,0.8097097,0.90815324
118,0.8887729,0.6976131,0.75141644,0.85581386,0.81543267,0.7252296,0.7014923,0.8536551,0.91419595,0.83083636,0.9134931,0.86328053,0.8882254,0.70318556,0.70212626,0.7016473,0.9199744,0.81517893,0.91362244
119,0.89325583,0.702096,0.7558993,0.8602511,0.81986994,0.72966695,0.7059752,0.85813797,0.9186788,0.8352736,0.91793036,0.8721124,0.89266264,0.7076228,0.7065636,0.70613015,0.92441165,0.8196618,0.9181053
120,0.8969735,0.7058137,0.75961703,0.86392426,0.8235431,0.73334,0.70969284,0.8618557,0.92239654,0.83894676,0.9216035,0.87943006,0.8963358,0.71129596,0.71023667,0.70984787,0.9280848,0.8233795,0.92182297
121,0.90104455,0.70988476,0.7636881,0.867977,0.82759583,0.73739284,0.7137639,0.86592674,0.9264676,0.8429996,0.9256563,0.88747346,0.9003886,0.7153487,0.7142895,0.7139189,0.93213755,0.8274505,0.925894
122,0.90439314,0.71323335,0.7670367,0.87129503,0.8309138,0.7407108,0.7171124,0.86927533,0.9298162,0.8463175,0.9289743,0.89407396,0.90370655,0.7186667,0.7176075,0.71726745,0.93545556,0.8307991,0.9292426
123,0.9080913,0.71693146,0.77073485,0.8749846,0.8346034,0.7444004,0.7208106,0.87297344,0.9335143,0.8500071,0.93266386,0.9013886,0.90739614,0.7223563,0.721297,0.7209656,0.93914515,0.8344973,0.9329408
124,0.9111084,0.7199486,0.7737519,0.87797844,0.83759725,0.7473942,0.7238277,0.8759905,0.9365314,0.85300094,0.9356577,0.9057295,0.91038996,0.72535014,0.7242909,0.7239827,0.94213897,0.83751434,0.93595785
125,0.9143896,0.7232298,0.7770332,0.88125455,0.84087336,0.7506703,0.72710896,0.8792718,0.93981266,0.85627705,0.93893385,0.9090056,0.91366607,0.72862625,0.727567,0.7272639,0.9454151,0.8407956,0.9392391
126,0.91704965,0.7258898,0.7796932,0.8838949,0.8435137,0.7533107,0.729769,0.8819318,0.9424727,0.8589174,0.94157416,0.9116459,0.91630644,0.7312666,0.7302073,0.72992396,0.94805545,0.8434556,0.9418991
127,0.91924053,0.72808075,0.7818841,0.88606495,0.84568375,0.7554807,0.7319599,0.8841227,0.9446636,0.86108744,0.9437442,0.9138159,0.91847646,0.7334366,0.7323774,0.73211485,0.9502255,0.8456465,0.94409
128,0.92155194,0.73039216,0.78419554,0.8883691,0.8479879,0.75778484,0.7342713,0.88643414,0.946975,0.8633916,0.9460484,0.91612005,0.9207806,0.7357408,0.73468155,0.73442626,0.9525296,0.84795797,0.9464015
129,0.9234514,0.73229164,0.78609496,0.89025193,0.84987074,0.7596677,0.73617077,0.8883336,0.9488745,0.8652744,0.9479312,0.9180029,0.92266345,0.7376236,0.7365644,0.73632574,0.95441246,0.8498574,0.9483009
130,0.9254255,0.73426574,0.78806907,0.89221936,0.8518382,0.7616351,0.7381449,0.8903077,0.9508486,0.86724186,0.94989866,0.91997033,0.9246309,0.73959106,0.7385318,0.73829985,0.9563799,0.8518315,0.950275
131,0.92705035,0.73589057,0.78969395,0.89382946,0.85344833,0.7632452,0.7397697,0.89193255,0.9524734,0.86885196,0.95150876,0.9215805,0.926241,0.74120116,0.7401419,0.73992467,0.95799,0.8534564,0.9518999
132,0.92841005,0.7372502,0.7910536,0.8951744,0.85479325,0.76459014,0.7411294,0.8932922,0.95383304,0.8701969,0.9528537,0.9229254,0.92758596,0.7425461,0.74148685,0.7412844,0.9593349,0.854816,0.9532595
133,0.9295604,0.7384006,0.79220396,0.89631146,0.85593027,0.7657272,0.74227977,0.89444256,0.9549834,0.87133396,0.95399076,0.9240625,0.928723,0.74368316,0.7426239,0.74243474,0.960472,0.8559664,0.9544099
134,0.9308566,0.73969674,0.7935001,0.89760387,0.8572227,0.7670196,0.74357593,0.8957387,0.9562796,0.8726263,0.9552831,0.92535484,0.9300154,0.74497557,0.7439163,0.7437309,0.9617644,0.85726255,0.95570606
135,0.9319475,0.7407877,0.79459107,0.8986841,0.85830295,0.76809984,0.7446668,0.89682966,0.9573705,0.8737066,0.9563634,0.9264351,0.9310956,0.7460558,0.74499655,0.74482185,0.9621157,0.8583535,0.956797
136,0.9328823,0.7417225,0.7955259,0.89960825,0.8592271,0.769024,0.74560165,0.8977645,0.95830536,0.87463075,0.9572875,0.9273593,0.93201977,0.74697995,0.7459207,0.7457567,0.9621341,0.85928833,0.95773184
137,0.9338654,0.7427056,0.7965089,0.9005865,0.8602053,0.77000225,0.7465848,0.89874756,0.9592884,0.8756089,0.9582657,0.9283375,0.932998,0.7479582,0.7468989,0.74673975,0.96215355,0.8602714,0.9587149
138,0.9347059,0.74354607,0.79734945,0.901418,0.8610368,0.77083373,0.7474252,0.89958805,0.9601289,0.8764404,0.9590972,0.92916894,0.9338295,0.74878967,0.7477304,0.74758023,0.9621701,0.8611119,0.9595554
139,0.9356138,0.74445397,0.79825735,0.90232205,0.86194086,0.77173775,0.74833316,0.90049595,0.9610368,0.8773445,0.9600013,0.930073,0.93473357,0.74969375,0.74863446,0.7484881,0.96218807,0.8620198,0.9604633
140,0.9363875,0.7452277,0.799031,0.9030873,0.8627061,0.772503,0.7491068,0.9012696,0.9618105,0.87810975,0.96076655,0.9308383,0.93549883,0.75045896,0.7493997,0.7492618,0.96220326,0.86279345,0.96123695
141,0.9370589,0.7458991,0.79970247,0.90375036,0.8633692,0.7731661,0.7497783,0.90194106,0.9621264,0.87877285,0.9614296,0.9315014,0.9361619,0.75112206,0.7500628,0.74993324,0.9622165,0.8634649,0.9619084
142,0.9377842,0.7466244,0.8004278,0.9044721,0.8640909,0.7738879,0.75050354,0.9026664,0.9621407,0.8794946,0.962113,0.93222314,0.9368836,0.7518438,0.7507846,0.7506585,0.9622308,0.8641902,0.9623147
143,0.9384084,0.74724853,0.8010519,0.90508896,0.8647078,0.7745047,0.7511277,0.9032905,0.96215296,0.88011146,0.96212536,0.93284,0.9375005,0.75246066,0.7514014,0.7512827,0.9622431,0.86481434,0.962327
144,0.9389559,0.74779606,0.80159944,0.9056292,0.8652481,0.775045,0.75167525,0.90383804,0.96216375,0.8806517,0.9621361,0.93338025,0.93804073,0.753001,0.7519417,0.7518302,0.96225387,0.86536187,0.9623378
145,0.9394394,0.7482796,0.80208296,0.90610623,0.86572504,0.775522,0.75215876,0.90432155,0.9621733,0.8811287,0.9621456,0.93385726,0.93851775,0.75347793,0.75241864,0.75231373,0.9622634,0.8658454,0.96234727
146,0.9399742,0.7488144,0.8026177,0.9066381,0.86625695,0.77605385,0.75269353,0.9048563,0.96218383,0.8816606,0.9621562,0.9343891,0.9390496,0.7540098,0.75295055,0.7528485,0.96227396,0.86638016,0.9623578
147,0.9404423,0.74928254,0.80308586,0.9071004,0.86671925,0.77651614,0.75316167,0.9053245,0.962193,0.8821229,0.9621654,0.9348514,0.9395119,0.75447214,0.75341284,0.75331664,0.96228313,0.86684835,0.96236706
148,0.9408606,0.74970084,0.80350417,0.90751284,0.8671317,0.7769286,0.75358,0.9057428,0.96220124,0.88253534,0.96217364,0.9352639,0.93992436,0.75488454,0.7538253,0.75373495,0.96229136,0.86726665,0.9623753
149,0.9412359,0.7500761,0.80387944,0.9078828,0.8675017,0.77729857,0.75395525,0.9061181,0.9622086,0.8829053,0.962181,0.93563384,0.9402943,0.7552545,0.7541953,0.7541102,0.96229875,0.86764187,0.9623827
150,0.94157636,0.7504165,0.80421984,0.9082185,0.8678373,0.77763426,0.7542957,0.9064585,0.9622153,0.88324094,0.9621877,0.9359695,0.94063,0.7555902,0.7545309,0.7544507,0.9623055,0.8679823,0.96238935
151,0.941953,0.7507932,0.80459654,0.90859276,0.8682116,0.7780085,0.75467235,0.9068352,0.96222275,0.88361526,0.9621951,0.9363438,0.9410043,0.75596446,0.7549052,0.7548273,0.9623129,0.86835897,0.9623968
152,0.9422903,0.75113046,0.8049338,0.90892553,0.86854434,0.7783413,0.75500965,0.90717244,0.9622294,0.883948,0.9622018,0.93667656,0.94133705,0.75629723,0.755238,0.7551646,0.96231955,0.8686963,0.9624034
153,0.94266194,0.75150216,0.8053055,0.90929466,0.86891353,0.7787104,0.7553813,0.90754414,0.96223676,0.88431716,0.9622091,0.9370457,0.9417062,0.7566664,0.7556071,0.75553626,0.9623269,0.8690679,0.96241075
154,0.94299084,0.75183105,0.8056344,0.90961903,0.86923784,0.7790348,0.7557102,0.90787303,0.9622432,0.8846415,0.96221554,0.93737006,0.94203055,0.75699073,0.75593144,0.7558652,0.9623333,0.8693968,0.96241724
155,0.9432887,0.7521289,0.8059323,0.9099123,0.86953115,0.77932805,0.756008,0.9081709,0.96224904,0.8849348,0.9622214,0.9376633,0.9423238,0.757284,0.75622475,0.756163,0.96233916,0.8696947,0.9624231
156,0.94362164,0.7524618,0.8062652,0.9102429,0.8698618,0.7796587,0.756341,0.9085038,0.9622556,0.8852654,0.962228,0.93799394,0.9426545,0.7576146,0.7565554,0.75649595,0.9623458,0.8700276,0.96242964
157,0.9439144,0.75275457,0.80655795,0.9105315,0.8701503,0.7799472,0.75663376,0.90879655,0.9622614,0.88555396,0.9622337,0.9382825,0.94294304,0.7579032,0.7568439,0.75678873,0.9623515,0.8703204,0.9624354
158,0.9442329,0.7530731,0.8068764,0.91084725,0.8704661,0.780263,0.7569522,0.909115,0.96226764,0.88586974,0.96224004,0.9385983,0.9432588,0.758219,0.7571597,0.7571072,0.96235776,0.87063885,0.9624417
159,0.94451094,0.7533511,0.8071545,0.911121,0.8707399,0.7805368,0.7572303,0.9093931,0.9622731,0.8861435,0.96224546,0.93887204,0.9435325,0.7584927,0.7574335,0.75738525,0.96236324,0.8709169,0.96244717
160,0.94481057,0.7536508,0.8074541,0.9114178,0.87103665,0.78083354,0.7575299,0.9096927,0.962279,0.8864403,0.96225137,0.9391688,0.9438293,0.7587895,0.75773025,0.7576849,0.96236914,0.87121654,0.96245307
161,0.94507015,0.7539103,0.8077136,0.9116731,0.871292,0.7810889,0.75778943,0.9099523,0.96228415,0.8866956,0.9622565,0.93942416,0.94408464,0.7590448,0.7579856,0.75794446,0.96237427,0.8714761,0.96245813
162,0.9453033,0.75414354,0.80794686,0.91190195,0.8715208,0.7813177,0.75802267,0.9101855,0.9622887,0.88692445,0.9622611,0.939653,0.94431347,0.75927365,0.7582144,0.75817764,0.9623788,0.8717093,0.9624627
163,0.945512,0.7543522,0.80815554,0.9121069,0.8717257,0.78152263,0.75823134,0.9103942,0.9622928,0.88712937,0.96226513,0.9398579,0.9445184,0.75947857,0.75841933,0.7583863,0.9623829,0.87191796,0.96246684
164,0.9457342,0.7545744,0.80837774,0.91232675,0.87194556,0.78174245,0.7584536,0.9106164,0.9622972,0.88734925,0.96226954,0.9400778,0.94473827,0.75969845,0.7586392,0.7586086,0.9623873,0.8721402,0.9624712
165,0.9459299,0.7547701,0.8085734,0.9125191,0.87213796,0.78193486,0.75864923,0.9108121,0.962301,0.8875416,0.96227336,0.9402701,0.9449306,0.7598908,0.75883156,0.7588042,0.96239114,0.8723359,0.96247506
166,0.94610864,0.75494885,0.8087522,0.9126945,0.8723134,0.7821103,0.758828,0.91099083,0.96230453,0.887717,0.9622769,0.94044554,0.945106,0.7600662,0.759007,0.758983,0.96239465,0.87251467,0.9624786
167,0.9462711,0.75511134,0.80891466,0.91285396,0.87247276,0.7822697,0.75899047,0.9111533,0.9623077,0.8878764,0.9622801,0.940605,0.9452655,0.76022565,0.75916636,0.7591455,0.9623978,0.8726771,0.96248174
168,0.94642013,0.75526035,0.8090637,0.9130003,0.8726191,0.782416,0.7591395,0.9113023,0.9623106,0.8880227,0.962283,0.9407513,0.9454118,0.760372,0.7593127,0.75929445,0.96240073,0.8728261,0.96248466
169,0.946558,0.75539815,0.80920154,0.91313565,0.87275445,0.7825514,0.75927734,0.91144013,0.96231335,0.88815814,0.9622857,0.9408867,0.94554716,0.76050735,0.7594481,0.7594323,0.9624035,0.87296396,0.96248734
