,106,122,133,17,2,218,254,282,294,30,301,302,33,335,339,341,362,5,6,106,122,133,17,2,218,254,282,294,30,301,302,33,335,339,341,362,5,6
0,0.0073403306,0.004034411,0.005069739,-0.000100095065,0.0034647873,0.009853763,0.004160518,0.0032202723,-1.43646075e-05,0.017218707,-9.074919e-06,-0.00020455357,0.003989894,0.011496168,-0.00021385081,-1.0748785e-05,0.003325547,0.0148629965,0.011525763,0.0073403306,0.004034411,0.005069739,-0.000100095065,0.0034647873,0.009853763,0.004160518,0.0032202723,-1.43646075e-05,0.017218707,-9.074919e-06,-0.00020455357,0.003989894,0.011496168,-0.00021385081,-1.0748785e-05,0.003325547,0.0148629965,0.011525763
1,0.0013086023,-1.9973031e-05,-9.619668e-06,-0.0001604123,-2.5669187e-05,0.0038220445,-1.8711891e-05,-2.8114411e-05,-7.468158e-05,0.011187011,-6.939214e-05,-0.00026487064,-2.0418203e-05,0.005464459,-0.00027416792,-7.106585e-05,-2.7061664e-05,0.008831298,0.0054940423,0.0013086023,-1.9973031e-05,-9.619668e-06,-0.0001604123,-2.5669187e-05,0.0038220445,-1.8711891e-05,-2.8114411e-05,-7.468158e-05,0.011187011,-6.939214e-05,-0.00026487064,-2.0418203e-05,0.005464459,-0.00027416792,-7.106585e-05,-2.7061664e-05,0.008831298,0.0054940423
2,0.0009180475,-2.3878496e-05,-1.3525225e-05,-0.0001643179,-2.9574743e-05,0.0034314934,-2.2617485e-05,-3.2019892e-05,-7.858721e-05,0.010796445,-7.3297524e-05,-0.000268776,-2.4323817e-05,0.005073904,-0.00027807354,-7.4971445e-05,-3.096722e-05,0.008440727,0.00510348,0.0009180475,-2.3878496e-05,-1.3525225e-05,-0.0001643179,-2.9574743e-05,0.0034314934,-2.2617485e-05,-3.2019892e-05,-7.858721e-05,0.010796445,-7.3297524e-05,-0.000268776,-2.4323817e-05,0.005073904,-0.00027807354,-7.4971445e-05,-3.096722e-05,0.008440727,0.00510348
3,0.0005184505,-2.7874688e-05,-1.7521419e-05,-0.0001683138,-3.3570937e-05,0.0030318815,-2.6613528e-05,-3.6016012e-05,-8.258326e-05,0.010396826,-7.729365e-05,-0.00027277242,-2.8319693e-05,0.0046742884,-0.00028206967,-7.8967525e-05,-3.4963337e-05,0.008041131,0.004703883,0.0005184505,-2.7874688e-05,-1.7521419e-05,-0.0001683138,-3.3570937e-05,0.0030318815,-2.6613528e-05,-3.6016012e-05,-8.258326e-05,0.010396826,-7.729365e-05,-0.00027277242,-2.8319693e-05,0.0046742884,-0.00028206967,-7.8967525e-05,-3.4963337e-05,0.008041131,0.004703883
4,0.00014154613,-3.164349e-05,-2.1290276e-05,-0.00017208267,-3.7339665e-05,0.0026549967,-3.0382367e-05,-3.978474e-05,-8.635223e-05,0.010019949,-8.1062535e-05,-0.00027654105,-3.2088737e-05,0.0042974064,-0.00028583844,-8.273635e-05,-3.8732214e-05,0.007664242,0.0043269945,0.00014154613,-3.164349e-05,-2.1290276e-05,-0.00017208267,-3.7339665e-05,0.0026549967,-3.0382367e-05,-3.978474e-05,-8.635223e-05,0.010019949,-8.1062535e-05,-0.00027654105,-3.2088737e-05,0.0042974064,-0.00028583844,-8.273635e-05,-3.8732214e-05,0.007664242,0.0043269945
5,-1.9359402e-06,-3.499506e-05,-2.4641844e-05,-0.00017543424,-4.069125e-05,0.0023198351,-3.373399e-05,-4.313644e-05,-8.970376e-05,0.00968479,-8.4414074e-05,-0.00027989296,-3.5440215e-05,0.0039622486,-0.0002891901,-8.60879e-05,-4.2083764e-05,0.0073290877,0.003991847,-1.9359402e-06,-3.499506e-05,-2.4641844e-05,-0.00017543424,-4.069125e-05,0.0023198351,-3.373399e-05,-4.313644e-05,-8.970376e-05,0.00968479,-8.4414074e-05,-0.00027989296,-3.5440215e-05,0.0039622486,-0.0002891901,-8.60879e-05,-4.2083764e-05,0.0073290877,0.003991847
6,-4.7648136e-06,-3.7824044e-05,-2.7470775e-05,-0.00017826312,-4.3520256e-05,0.0020369422,-3.656298e-05,-4.5965386e-05,-9.2532704e-05,0.009401902,-8.724298e-05,-0.0002827218,-3.826918e-05,0.0036793519,-0.000292019,-8.891689e-05,-4.4912787e-05,0.0070461845,0.0037089512,-4.7648136e-06,-3.7824044e-05,-2.7470775e-05,-0.00017826312,-4.3520256e-05,0.0020369422,-3.656298e-05,-4.5965386e-05,-9.2532704e-05,0.009401902,-8.724298e-05,-0.0002827218,-3.826918e-05,0.0036793519,-0.000292019,-8.891689e-05,-4.4912787e-05,0.0070461845,0.0037089512
7,-7.024109e-06,-4.0083156e-05,-2.9729847e-05,-0.00018052224,-4.577927e-05,0.001811034,-3.8821996e-05,-4.822448e-05,-9.4791794e-05,0.009175982,-8.950213e-05,-0.0002849806,-4.0528495e-05,0.0034534428,-0.00029427814,-9.117598e-05,-4.7171805e-05,0.006820283,0.0034830282,-7.024109e-06,-4.0083156e-05,-2.9729847e-05,-0.00018052224,-4.577927e-05,0.001811034,-3.8821996e-05,-4.822448e-05,-9.4791794e-05,0.009175982,-8.950213e-05,-0.0002849806,-4.0528495e-05,0.0034534428,-0.00029427814,-9.117598e-05,-4.7171805e-05,0.006820283,0.0034830282
8,-8.704886e-06,-4.1763895e-05,-3.141068e-05,-0.00018220316,-4.746003e-05,0.0016429508,-4.050292e-05,-4.990531e-05,-9.647265e-05,0.009007906,-9.1183036e-05,-0.0002866616,-4.2209085e-05,0.0032853596,-0.00029595895,-9.285679e-05,-4.885271e-05,0.0066521997,0.003314944,-8.704886e-06,-4.1763895e-05,-3.141068e-05,-0.00018220316,-4.746003e-05,0.0016429508,-4.050292e-05,-4.990531e-05,-9.647265e-05,0.009007906,-9.1183036e-05,-0.0002866616,-4.2209085e-05,0.0032853596,-0.00029595895,-9.285679e-05,-4.885271e-05,0.0066521997,0.003314944
9,-9.825192e-06,-4.288433e-05,-3.2531116e-05,-0.00018332359,-4.8580634e-05,0.0015309155,-4.1623265e-05,-5.1025785e-05,-9.759303e-05,0.008895863,-9.230336e-05,-0.00028778205,-4.3329426e-05,0.0031733215,-0.0002970794,-9.3977265e-05,-4.9973038e-05,0.0065401606,0.0032029133,-9.825192e-06,-4.288433e-05,-3.2531116e-05,-0.00018332359,-4.8580634e-05,0.0015309155,-4.1623265e-05,-5.1025785e-05,-9.759303e-05,0.008895863,-9.230336e-05,-0.00028778205,-4.3329426e-05,0.0031733215,-0.0002970794,-9.3977265e-05,-4.9973038e-05,0.0065401606,0.0032029133
10,-1.0421164e-05,-4.348015e-05,-3.3126864e-05,-0.00018391944,-4.9176364e-05,0.0014713285,-4.221905e-05,-5.162157e-05,-9.818891e-05,0.008836291,-9.2899296e-05,-0.00028837778,-4.3925364e-05,0.003113742,-0.0002976752,-9.457299e-05,-5.0568746e-05,0.00648058,0.003143317,-1.0421164e-05,-4.348015e-05,-3.3126864e-05,-0.00018391944,-4.9176364e-05,0.0014713285,-4.221905e-05,-5.162157e-05,-9.818891e-05,0.008836291,-9.2899296e-05,-0.00028837778,-4.3925364e-05,0.003113742,-0.0002976752,-9.457299e-05,-5.0568746e-05,0.00648058,0.003143317
11,-1.05416775e-05,-4.3600758e-05,-3.3247397e-05,-0.00018404011,-4.9296897e-05,0.0014592726,-4.23396e-05,-5.1742103e-05,-9.8309516e-05,0.008824227,-9.301983e-05,-0.00028849836,-4.4045875e-05,0.0031016804,-0.00029779575,-9.469358e-05,-5.068943e-05,0.0064685205,0.0031312732,-1.05416775e-05,-4.3600758e-05,-3.3247397e-05,-0.00018404011,-4.9296897e-05,0.0014592726,-4.23396e-05,-5.1742103e-05,-9.8309516e-05,0.008824227,-9.301983e-05,-0.00028849836,-4.4045875e-05,0.0031016804,-0.00029779575,-9.469358e-05,-5.068943e-05,0.0064685205,0.0031312732
12,-1.0246597e-05,-4.3305623e-05,-3.2952372e-05,-0.00018374479,-4.9001814e-05,0.0014887778,-4.204452e-05,-5.1446965e-05,-9.801436e-05,0.008853741,-9.2724615e-05,-0.00028820324,-4.3750908e-05,0.0031311885,-0.0002975006,-9.439852e-05,-5.0394516e-05,0.0064980267,0.003160772,-1.0246597e-05,-4.3305623e-05,-3.2952372e-05,-0.00018374479,-4.9001814e-05,0.0014887778,-4.204452e-05,-5.1446965e-05,-9.801436e-05,0.008853741,-9.2724615e-05,-0.00028820324,-4.3750908e-05,0.0031311885,-0.0002975006,-9.439852e-05,-5.0394516e-05,0.0064980267,0.003160772
13,-9.601805e-06,-4.2660962e-05,-3.2307616e-05,-0.00018309995,-4.8357135e-05,0.0015532579,-4.139984e-05,-5.080225e-05,-9.736972e-05,0.008918202,-9.207983e-05,-0.0002875586,-4.310602e-05,0.0031956574,-0.000296856,-9.375382e-05,-4.9749797e-05,0.006562507,0.003225251,-9.601805e-06,-4.2660962e-05,-3.2307616e-05,-0.00018309995,-4.8357135e-05,0.0015532579,-4.139984e-05,-5.080225e-05,-9.736972e-05,0.008918202,-9.207983e-05,-0.0002875586,-4.310602e-05,0.0031956574,-0.000296856,-9.375382e-05,-4.9749797e-05,0.006562507,0.003225251
14,-8.676406e-06,-4.173564e-05,-3.1382424e-05,-0.00018217484,-4.7431924e-05,0.001645783,-4.0474646e-05,-4.987713e-05,-9.64443e-05,0.009010736,-9.115456e-05,-0.0002866334,-4.2180753e-05,0.003288187,-0.0002959307,-9.282855e-05,-4.882438e-05,0.006655019,0.003317793,-8.676406e-06,-4.173564e-05,-3.1382424e-05,-0.00018217484,-4.7431924e-05,0.001645783,-4.0474646e-05,-4.987713e-05,-9.64443e-05,0.009010736,-9.115456e-05,-0.0002866334,-4.2180753e-05,0.003288187,-0.0002959307,-9.282855e-05,-4.882438e-05,0.006655019,0.003317793
15,-7.538516e-06,-4.0597748e-05,-3.0244459e-05,-0.00018103677,-4.6294033e-05,0.0017595729,-3.933668e-05,-4.873909e-05,-9.530643e-05,0.009124525,-9.001666e-05,-0.00028549548,-4.104279e-05,0.0034019835,-0.00029479276,-9.169064e-05,-4.768649e-05,0.0067688217,0.003431581,-7.538516e-06,-4.0597748e-05,-3.0244459e-05,-0.00018103677,-4.6294033e-05,0.0017595729,-3.933668e-05,-4.873909e-05,-9.530643e-05,0.009124525,-9.001666e-05,-0.00028549548,-4.104279e-05,0.0034019835,-0.00029479276,-9.169064e-05,-4.768649e-05,0.0067688217,0.003431581
16,-6.25167e-06,-3.931066e-05,-2.8957425e-05,-0.00017974994,-4.500685e-05,0.001888277,-3.804965e-05,-4.7451947e-05,-9.401934e-05,0.009253232,-8.8729816e-05,-0.00028420828,-3.9755796e-05,0.003530683,-0.00029350584,-9.0403555e-05,-4.6399346e-05,0.0068975296,0.0035602665,-6.0245766e-06,-3.908362e-05,-2.8730314e-05,-0.00017952267,-4.4779852e-05,0.0019109873,-3.7822538e-05,-4.722491e-05,-9.379245e-05,0.009275936,-8.850256e-05,-0.00028398132,-3.9528848e-05,0.0035533858,-0.0002932787,-9.017654e-05,-4.6172532e-05,0.006920225,0.0035829768
17,-4.872344e-06,-3.7931502e-05,-2.7578211e-05,-0.0001783707,-4.3627657e-05,0.002026191,-3.667038e-05,-4.60729e-05,-9.264015e-05,0.009391158,-8.735049e-05,-0.00028282916,-3.8376616e-05,0.0036686053,-0.0002921265,-8.90243e-05,-4.502015e-05,0.0070354557,0.0036982,-4.5251472e-06,-3.7584192e-05,-2.7230903e-05,-0.0001780235,-4.3280364e-05,0.0020609247,-3.632305e-05,-4.572557e-05,-9.2292816e-05,0.009425891,-8.7003e-05,-0.00028248187,-3.802929e-05,0.003703339,-0.0002917791,-8.867703e-05,-4.46729e-05,0.007070181,0.0037329178
18,-3.4496188e-06,-3.650859e-05,-2.6155318e-05,-0.00017694775,-4.2204818e-05,0.002168486,-3.5247467e-05,-4.464995e-05,-9.1217364e-05,0.009533437,-8.59276e-05,-0.00028140628,-3.695389e-05,0.0038108947,-0.00029070358,-8.760147e-05,-4.3597425e-05,0.0071777273,0.003840479,-3.0403955e-06,-3.6099496e-05,-2.5746282e-05,-0.00017653871,-4.1795633e-05,0.0022093914,-3.483839e-05,-4.4240838e-05,-9.080801e-05,0.0095743425,-8.5518564e-05,-0.00028099705,-3.6544538e-05,0.0038518077,-0.0002902945,-8.719226e-05,-4.318809e-05,0.0072186403,0.003881392
19,-2.0227394e-06,-3.508199e-05,-2.4728755e-05,-0.00017552126,-4.0778257e-05,0.0023111496,-3.382098e-05,-4.3223314e-05,-8.979071e-05,0.009676103,-8.450089e-05,-0.00027997966,-3.5527086e-05,0.003953552,-0.00028927703,-8.617491e-05,-4.2170715e-05,0.0073203845,0.003983151,-1.5878863e-06,-3.4646968e-05,-2.4293642e-05,-0.00017508614,-4.0343013e-05,0.0023546554,-3.3385844e-05,-4.278829e-05,-8.9355686e-05,0.009719603,-8.4066036e-05,-0.0002795446,-3.5091936e-05,0.003997064,-0.00028884187,-8.573975e-05,-4.173549e-05,0.0073639005,0.0040266532
20,-6.24042e-07,-3.3683107e-05,-2.3329798e-05,-0.00017412222,-3.937926e-05,0.0024510343,-3.242202e-05,-4.182439e-05,-8.839179e-05,0.0098159835,-8.3101964e-05,-0.00027858067,-3.4128316e-05,0.004093446,-0.00028787804,-8.4775966e-05,-4.077187e-05,0.0074602766,0.0041230284,2.4400651e-05,-3.2815e-05,-2.2461674e-05,-0.0001732542,-3.851121e-05,0.0025378475,-3.1553896e-05,-4.0956194e-05,-8.752383e-05,0.0099027995,-8.223399e-05,-0.00027771248,-3.3260116e-05,0.004180258,-0.00028700999,-8.390784e-05,-3.9903895e-05,0.007547089,0.004209848
21,7.240288e-05,-3.233524e-05,-2.1981932e-05,-0.00017277426,-3.803143e-05,0.0025858255,-3.1074156e-05,-4.0476563e-05,-8.7043954e-05,0.009950774,-8.175414e-05,-0.00027723302,-3.278034e-05,0.0042282287,-0.00028653024,-8.342815e-05,-3.942389e-05,0.007595068,0.0042578345,0.00018364564,-3.1222477e-05,-2.0869169e-05,-0.00017166167,-3.6918595e-05,0.0026971009,-2.9961391e-05,-3.93638e-05,-8.593112e-05,0.010062049,-8.064147e-05,-0.00027612,-3.1667743e-05,0.004339506,-0.00028541748,-8.231539e-05,-3.8311202e-05,0.0077063506,0.0043690875
22,0.00020040758,-3.1055155e-05,-2.0701886e-05,-0.00017149436,-3.675144e-05,0.002713832,-2.9794164e-05,-3.9196515e-05,-8.576398e-05,0.010078786,-8.047407e-05,-0.00027595286,-3.1500196e-05,0.0043562343,-0.0002852502,-8.214805e-05,-3.8143917e-05,0.0077230735,0.00438584,0.00032473728,-2.9811728e-05,-1.9458514e-05,-0.00017025095,-3.5507903e-05,0.002838173,-2.8550605e-05,-3.7952977e-05,-8.452037e-05,0.010203125,-7.92308e-05,-0.00027470948,-3.0256919e-05,0.00448058,-0.00028400667,-8.090457e-05,-3.6900303e-05,0.007847418,0.00451017
23,0.00032054447,-2.9853674e-05,-1.950048e-05,-0.00017029286,-3.554992e-05,0.0028339718,-2.8592684e-05,-3.7995072e-05,-8.456247e-05,0.010198924,-7.927272e-05,-0.0002747515,-3.0298846e-05,0.0044763843,-0.00028404864,-8.0946666e-05,-3.6942474e-05,0.007843217,0.004505977,0.00050013885,-2.8057657e-05,-1.7704442e-05,-0.00016849682,-3.3753906e-05,0.0030135745,-2.679659e-05,-3.6198886e-05,-8.2766506e-05,0.010378534,-7.747661e-05,-0.00027295534,-2.8502978e-05,0.004655986,-0.00028225264,-7.915057e-05,-3.514651e-05,0.00802282,0.0046855872
24,0.00043220073,-2.8737168e-05,-1.8383878e-05,-0.0001691763,-3.4433306e-05,0.0029456345,-2.747599e-05,-3.6878362e-05,-8.344568e-05,0.010310583,-7.815616e-05,-0.00027363494,-2.9182229e-05,0.0045880415,-0.0002829322,-7.982999e-05,-3.5825688e-05,0.007954887,0.0046176324,0.00064397417,-2.6619266e-05,-1.6266033e-05,-0.00016705852,-3.2315478e-05,0.0031574173,-2.535818e-05,-3.4760607e-05,-8.132795e-05,0.010522372,-7.603841e-05,-0.0002715169,-2.7064383e-05,0.004799826,-0.00028081425,-7.771216e-05,-3.370801e-05,0.008166662,0.0048294067
25,0.0005418863,-2.7640126e-05,-1.7286893e-05,-0.00016807944,-3.3336262e-05,0.0030553304,-2.6379079e-05,-3.5781562e-05,-8.234881e-05,0.010420281,-7.7059194e-05,-0.00027253784,-2.8085355e-05,0.00469774,-0.0002818351,-7.873308e-05,-3.472887e-05,0.008064583,0.0047273263,0.0007641949,-2.5417152e-05,-1.5063825e-05,-0.00016585621,-3.1113326e-05,0.003277638,-2.415603e-05,-3.3558495e-05,-8.012604e-05,0.010642583,-7.4835974e-05,-0.00027031483,-2.586225e-05,0.0049200403,-0.00027961223,-7.651001e-05,-3.250597e-05,0.008286891,0.004949636
26,0.00064060465,-2.6653166e-05,-1.6299802e-05,-0.00016709224,-3.234934e-05,0.0031540347,-2.5392024e-05,-3.4794397e-05,-8.136179e-05,0.010518987,-7.607212e-05,-0.00027155082,-2.709817e-05,0.0047964426,-0.00028084806,-7.774602e-05,-3.3741948e-05,0.008163277,0.0048260363,0.00086595304,-2.439944e-05,-1.4046225e-05,-0.00016483865,-3.0095764e-05,0.0033794045,-2.3138393e-05,-3.2540895e-05,-7.910814e-05,0.01074436,-7.381832e-05,-0.00026929702,-2.4844669e-05,0.0050218096,-0.0002785944,-7.5492295e-05,-3.1488147e-05,0.008388642,0.005051379
27,0.00072915666,-2.5767535e-05,-1.5414264e-05,-0.00016620672,-3.1463784e-05,0.0032425923,-2.4506486e-05,-3.390893e-05,-8.047625e-05,0.010607544,-7.51866e-05,-0.00027066522,-2.6212576e-05,0.0048849974,-0.00027996252,-7.6860466e-05,-3.2856035e-05,0.008251837,0.004914589,0.0009967163,-2.3091994e-05,-1.2738611e-05,-0.00016353103,-2.8788148e-05,0.003510151,-2.1830778e-05,-3.123328e-05,-7.780053e-05,0.010875117,-7.2510855e-05,-0.00026798956,-2.3537053e-05,0.0051525617,-0.00027728695,-7.41848e-05,-3.0180607e-05,0.008519404,0.0051821554
28,0.0008502677,-2.4556406e-05,-1.4203023e-05,-0.0001649955,-3.0252468e-05,0.00336371,-2.329519e-05,-3.269769e-05,-7.926494e-05,0.010728665,-7.3975345e-05,-0.00026945397,-2.5001316e-05,0.0050061205,-0.0002787514,-7.564917e-05,-3.1645017e-05,0.0083729625,0.0050357142,0.0011011465,-2.2047534e-05,-1.1694338e-05,-0.00016248669,-2.774382e-05,0.0036145933,-2.0786561e-05,-3.018897e-05,-7.675629e-05,0.010979544,-7.1466544e-05,-0.00026694525,-2.2492912e-05,0.0052569937,-0.00027624256,-7.3140465e-05,-2.9136352e-05,0.008623826,0.005286579
29,0.00094954297,-2.356367e-05,-1.3210308e-05,-0.00016400288,-2.9259882e-05,0.0034629777,-2.2302549e-05,-3.1705014e-05,-7.827241e-05,0.010827941,-7.298274e-05,-0.00026846136,-2.4008863e-05,0.0051053884,-0.0002777587,-7.465655e-05,-3.0652413e-05,0.008472231,0.0051349746,0.00807369,0.004767782,0.0058031147,-9.276131e-05,0.0041981684,0.01058713,0.0048938952,0.0039536553,-7.030852e-06,0.017952073,-1.7409585e-06,-0.00019721974,0.004723277,0.012229545,-0.00020651708,-3.4149364e-06,0.0040589003,0.015596379,0.012259138
30,0.001031193,-2.2747088e-05,-1.2393835e-05,-0.00016318623,-2.844328e-05,0.0035446472,-2.1486021e-05,-3.0888503e-05,-7.745575e-05,0.010909595,-7.216606e-05,-0.00026764462,-2.3192297e-05,0.0051870476,-0.000276942,-7.3839925e-05,-2.9835755e-05,0.008553881,0.005216617,0.012245065,0.008939155,0.009974477,-5.1047635e-05,0.008369535,0.014758496,0.009065266,0.008125029,0.003468289,0.022123452,0.003997241,-0.00015550606,0.00889465,0.016400909,-0.00016480345,0.0038298722,0.009157894,0.019767752,0.01643052
31,0.0010987744,-2.2071357e-05,-1.17181235e-05,-0.00016251061,-2.776755e-05,0.0036122138,-2.0810272e-05,-3.021283e-05,-7.678e-05,0.010977157,-7.149041e-05,-0.000266969,-2.2516622e-05,0.0052546132,-0.00027626648,-7.316427e-05,-2.916008e-05,0.008621455,0.0052841995,0.014438145,0.011132237,0.012167557,-2.9116849e-05,0.010562623,0.016951587,0.011258347,0.010318109,0.0056613684,0.024316542,0.0061903214,-0.0001335752,0.011087723,0.018593993,-0.00014287261,0.0060229534,0.011945847,0.021960843,0.018623577
32,0.0011549648,-2.150934e-05,-1.1156089e-05,-0.0001619485,-2.7205571e-05,0.003668408,-2.0248219e-05,-2.9650795e-05,-7.621819e-05,0.011033364,-7.09282e-05,-0.0002664071,-2.195457e-05,0.0053108176,-0.0002757044,-7.2602255e-05,-2.8598251e-05,0.0086776605,0.0053404057,0.0155743,0.012268391,0.01330372,-1.7755274e-05,0.011698771,0.018087735,0.012394502,0.011454265,0.00679751,0.025452696,0.0073264986,-0.00012221363,0.012223871,0.019730143,-0.00013151113,0.0071591046,0.013387898,0.023096995,0.01975974
33,0.0012984006,-2.0074956e-05,-9.7217035e-06,-0.00016051426,-2.5771278e-05,0.0038118474,-1.8813907e-05,-2.8216335e-05,-7.47836e-05,0.0111768,-6.949399e-05,-0.00026497248,-2.0520278e-05,0.005454257,-0.00027426996,-7.116791e-05,-2.7163662e-05,0.008821089,0.0054838415,0.016124155,0.012818259,0.013853587,-1.2256428e-05,0.012248642,0.018637607,0.012944366,0.01200412,0.0073473807,0.02600256,0.007876371,-0.00011671508,0.012773743,0.020280007,-0.0001260125,0.0077089686,0.014083899,0.023646848,0.020434376
34,0.0022046687,-1.1012424e-05,-6.591156e-07,-0.00015145163,-1.6708596e-05,0.0047181044,-9.751376e-06,-1.9153822e-05,-6.572099e-05,0.012083055,-6.043147e-05,-0.00025591018,-1.1457614e-05,0.006360505,-0.00026520743,-6.210534e-05,-1.8100998e-05,0.0097273495,0.0063901003,0.016331509,0.013025608,0.014060947,-1.0183193e-05,0.012455987,0.018844951,0.013151722,0.012211481,0.0075547406,0.026209917,0.008083694,-0.00011464156,0.012981094,0.02048736,-0.00012393882,0.007916325,0.014344325,0.023854207,0.020694796
35,0.0028819647,-4.239529e-06,0.0006113779,-0.00014467865,-9.935647e-06,0.0053953966,-2.9784253e-06,-1.2380946e-05,-5.8948044e-05,0.012760348,-5.3658503e-05,-0.00024913717,-4.684571e-06,0.007037799,-0.00025843456,-5.533237e-05,-1.13280485e-05,0.0104046445,0.007067389,0.019522674,0.016216766,0.0172521,0.0021728594,0.015647152,0.022036113,0.016342878,0.015402631,0.010745905,0.029401064,0.011274872,-8.272998e-05,0.016172238,0.023678526,-9.2027374e-05,0.011107478,0.018407417,0.027045362,0.02475789
36,0.0072554685,0.003949552,0.004984881,-0.00010094346,0.00337994,0.009768903,0.004075667,0.0031354101,-1.5213154e-05,0.01713386,-9.923317e-06,-0.00020540219,0.0039050393,0.011411309,-0.00021469947,-1.1597313e-05,0.003240685,0.014778157,0.011440901,0.020862656,0.017556747,0.018592076,0.0035128202,0.016987119,0.023376096,0.017682854,0.01674262,0.012085874,0.030741043,0.012614848,-6.933015e-05,0.017512236,0.025018493,-7.862758e-05,0.012447458,0.020111162,0.028385337,0.026461624
37,0.00940169,0.0060957903,0.0071311193,-7.94813e-05,0.0055261767,0.011915138,0.0062219035,0.005281671,0.00062490813,0.019280089,0.001153891,-0.00018393967,0.0060512777,0.013557547,-0.00019323707,0.0009865081,0.0055265995,0.016924394,0.013587139,0.021228759,0.017922854,0.018958176,0.003878938,0.017353237,0.023742193,0.018048964,0.017108724,0.012451999,0.031107146,0.012980944,-6.5669214e-05,0.01787833,0.02538461,-7.4966476e-05,0.012813563,0.020574298,0.028751444,0.026924737
38,0.015847513,0.012541601,0.013576944,-1.50232945e-05,0.011971984,0.018360948,0.012667716,0.011727485,0.007070738,0.025725909,0.0075997207,-0.000119481585,0.012497092,0.020003365,-0.00012877889,0.007432322,0.013736232,0.023370197,0.020086687,0.02105712,0.017751215,0.018786542,0.0037072971,0.017181598,0.023570554,0.017877322,0.016937084,0.012280344,0.030935494,0.0128093185,-6.7385605e-05,0.017706705,0.025212966,-7.668281e-05,0.012641927,0.020352706,0.028579796,0.02670315
39,0.01867273,0.015366819,0.016402159,0.0013229176,0.01479721,0.02118617,0.015492933,0.014552688,0.009895964,0.028551122,0.010424916,-9.122941e-05,0.015322295,0.022828579,-0.000100526806,0.010257537,0.017330905,0.026195418,0.023681369,0.02058063,0.017274715,0.018310051,0.0032308027,0.016705103,0.023094071,0.017400833,0.01646058,0.011803841,0.030459002,0.012332816,-7.2150324e-05,0.017230196,0.024736475,-8.1447826e-05,0.01216544,0.019743215,0.028103298,0.026093677
40,0.0245224,0.021216491,0.02225182,0.0071725715,0.020646866,0.02703584,0.021342598,0.020402342,0.01574561,0.034400783,0.0162746,-3.2732783e-05,0.021171972,0.028678242,-4.2030195e-05,0.016107202,0.024779338,0.032045092,0.031129817,0.019926563,0.016620655,0.017655976,0.0025767265,0.016051034,0.022439998,0.016746758,0.015806505,0.011149781,0.029804934,0.011678763,-7.86911e-05,0.016576126,0.024082404,-8.798848e-05,0.01151136,0.018907934,0.027449235,0.025258396
41,0.026780099,0.023474187,0.02450951,0.009430269,0.02290457,0.029293526,0.023600291,0.022660062,0.01800333,0.03665849,0.018532282,-1.0155831e-05,0.023429677,0.030935943,-1.945315e-05,0.018364903,0.027649771,0.03430278,0.034000225,0.019165408,0.015859488,0.016894829,0.0018155798,0.015289879,0.021678852,0.01598561,0.015045365,0.010388626,0.029043788,0.010917608,-8.6302774e-05,0.015814988,0.023321249,-9.559993e-05,0.01075021,0.017936649,0.026688088,0.024287105
42,0.027220389,0.023914477,0.024949808,0.009870567,0.023344867,0.02973383,0.024040595,0.023100354,0.018464569,0.03709878,0.018972589,-5.752761e-06,0.023869975,0.03137624,-1.505021e-05,0.018805198,0.028204868,0.034743078,0.03455534,0.020315086,0.017009178,0.0180445,0.0029652584,0.016439565,0.02282852,0.017135289,0.016195044,0.011538319,0.030193463,0.012067271,-7.480579e-05,0.01696466,0.024470927,-8.410325e-05,0.0118998885,0.01940053,0.027837757,0.025750969
43,0.03429851,0.030992601,0.032027923,0.016948666,0.030422986,0.036811948,0.031118706,0.030178469,0.027478458,0.0441769,0.026050717,0.0065028397,0.03094809,0.038454354,0.0055730985,0.025883313,0.037218764,0.041821197,0.043569222,0.020431243,0.017125335,0.01816066,0.0030814065,0.016555713,0.022944674,0.017251438,0.016311193,0.011654461,0.030309629,0.012183428,-7.364435e-05,0.017080814,0.024587084,-8.294167e-05,0.012016045,0.019546961,0.027953928,0.025897417
44,0.036950037,0.033644125,0.034679454,0.019600209,0.033074506,0.039463475,0.03377024,0.032829992,0.030850096,0.046828426,0.028702244,0.009154366,0.033599623,0.041105885,0.008224629,0.028534848,0.04059039,0.044472724,0.046940867,0.019999566,0.016693668,0.017729001,0.0026497524,0.016124045,0.02251301,0.016819779,0.01587953,0.011222813,0.029877953,0.011751758,-7.796105e-05,0.016649153,0.024155421,-8.725831e-05,0.011584379,0.018995447,0.027522251,0.02534591
45,0.04345382,0.040147908,0.041183233,0.026103985,0.03957828,0.04596725,0.040274017,0.03933377,0.039130606,0.053332206,0.036096334,0.01565814,0.04010339,0.047609657,0.014728411,0.035038617,0.048870895,0.050976496,0.05522136,0.019264948,0.015959036,0.016994372,0.0019151345,0.015389427,0.021778384,0.016085153,0.015144905,0.01048818,0.029143335,0.011017133,-8.530723e-05,0.015914513,0.023420796,-9.460464e-05,0.01084975,0.018058121,0.026787631,0.024408575
46,0.053692434,0.04903621,0.050071537,0.034992296,0.04846659,0.054855566,0.049162313,0.048222076,0.04972878,0.06353956,0.046694517,0.02454646,0.0489917,0.05649797,0.023616716,0.043926932,0.059469078,0.059864808,0.06581953,0.018363293,0.015057392,0.016092714,0.0010134792,0.014487756,0.020876732,0.015183499,0.014243258,0.009586525,0.02824168,0.010115492,-9.4323936e-05,0.015012879,0.022519141,-0.00010362109,0.009948093,0.0169082,0.02588597,0.023258664
47,0.070571885,0.062956065,0.0639914,0.04891215,0.062386453,0.068775415,0.06308218,0.06214194,0.066608235,0.080419,0.06357399,0.03846629,0.062911555,0.07041782,0.037536558,0.057846785,0.07634853,0.07378465,0.082698986,0.017372904,0.0140670035,0.015102325,2.308935e-05,0.013497383,0.019886356,0.014193121,0.013252877,0.008596151,0.027251296,0.009125104,-0.00010422783,0.0140224835,0.02152876,-0.00011352496,0.008957721,0.015645513,0.024895594,0.02199596
48,0.08261997,0.07311522,0.07415055,0.059071302,0.07254562,0.078934565,0.07324132,0.07230108,0.07865633,0.09246709,0.07562207,0.04862544,0.07325303,0.08057697,0.04769572,0.068005934,0.08839662,0.08394382,0.09474708,0.017526124,0.014220216,0.015255544,0.00017629564,0.013650603,0.020039568,0.014346326,0.013406081,0.008749371,0.027404515,0.009278316,-0.00010269541,0.014175688,0.021681968,-0.00011199288,0.009110929,0.01584019,0.02504881,0.022190638
49,0.09082954,0.08017322,0.08120854,0.0661293,0.0796036,0.08599257,0.08029932,0.07935909,0.0868659,0.10067667,0.08383165,0.05568345,0.081462584,0.08763496,0.054753717,0.07506393,0.09660618,0.09100181,0.102956645,0.017096302,0.013790401,0.014825729,-2.535116e-06,0.01322078,0.019609747,0.013916515,0.012976258,0.008319548,0.026974704,0.008848508,-0.00010699378,0.01374588,0.021252155,-0.00011629097,0.008681114,0.015291685,0.024618996,0.021642154
50,0.09619288,0.0848843,0.08591963,0.07084039,0.08431469,0.09070365,0.085010424,0.08407019,0.09222924,0.10604,0.089194976,0.060394537,0.08682594,0.09234605,0.059464805,0.07977502,0.101969525,0.0957129,0.10832,0.016367039,0.013061127,0.014096467,-9.82767e-06,0.012491518,0.018880479,0.013187245,0.012247004,0.007590264,0.026245434,0.008119239,-0.000114286406,0.01301661,0.020522883,-0.00012358364,0.007951848,0.01436165,0.023889724,0.020712111
51,0.10961432,0.09590161,0.09693693,0.08185769,0.095332,0.101720944,0.09602772,0.095087476,0.10565068,0.11946144,0.102616414,0.07141183,0.100247376,0.103363365,0.070482105,0.09079233,0.11539094,0.10673021,0.12174143,0.019453397,0.016147485,0.017182812,0.002103568,0.015577868,0.021966835,0.0162736,0.015333346,0.010676598,0.029331775,0.011205597,-8.342283e-05,0.016102968,0.023609238,-9.272016e-05,0.011038194,0.018293628,0.026976082,0.024644107
52,0.119509995,0.10422825,0.105263576,0.09018432,0.10365864,0.110047586,0.10435436,0.10341411,0.11554636,0.12935713,0.1125121,0.07973848,0.110143065,0.11168999,0.078808755,0.099118955,0.12528665,0.11505685,0.1316371,0.020566057,0.017260142,0.01829547,0.003216221,0.016690528,0.023079485,0.017386245,0.016446,0.011789268,0.030444441,0.012318235,-7.229622e-05,0.01721562,0.024721894,-8.159364e-05,0.012150856,0.01970931,0.028088734,0.026059773
53,0.13958701,0.120609306,0.12164463,0.10656537,0.12003968,0.12642863,0.120735414,0.12210859,0.13562337,0.14943412,0.1325891,0.09611952,0.13022007,0.12807105,0.0951898,0.1155,0.14536366,0.13143787,0.15171412,0.025596961,0.022291042,0.023326378,0.008247125,0.021721432,0.028110396,0.02241716,0.021476919,0.016820194,0.035475336,0.017349139,-2.198724e-05,0.022246547,0.0297528,-3.128454e-05,0.01718177,0.026117444,0.03311965,0.032467894
54,0.1696653,0.14391962,0.14615172,0.13107249,0.1445468,0.15093574,0.1437254,0.1521869,0.16570166,0.17951241,0.1626674,0.120626636,0.16029835,0.15098372,0.1196969,0.13909021,0.17544198,0.155945,0.18179241,0.027686056,0.024380136,0.025415465,0.010336228,0.023810515,0.030199487,0.024506247,0.023565998,0.019034987,0.03756444,0.019438256,-1.0963157e-06,0.024335628,0.031841893,-1.0393541e-05,0.019270858,0.028775273,0.035208724,0.03512574
55,0.1925039,0.16206935,0.16518512,0.15381297,0.16358018,0.16996914,0.1618751,0.1750255,0.18854025,0.20235103,0.18550599,0.13994813,0.18313697,0.16913342,0.13873029,0.15723991,0.19828057,0.17497838,0.20463103,0.032056015,0.028750096,0.029785428,0.0147061795,0.028180473,0.034569442,0.028876204,0.027935958,0.02418535,0.04193438,0.023808207,0.0042603286,0.02870558,0.03621185,0.0033305986,0.02364081,0.033925656,0.039578676,0.04027609
56,0.2093896,0.17590767,0.17948994,0.17069867,0.177885,0.18427396,0.17571345,0.19191119,0.20542595,0.21923673,0.20239171,0.15683386,0.20002267,0.18297178,0.15303513,0.17107826,0.21516624,0.18928322,0.22151673,0.03789915,0.034593236,0.035628565,0.020549323,0.03402362,0.040412582,0.03471934,0.033779092,0.031208232,0.04777751,0.029651336,0.010103464,0.034548715,0.042054985,0.00917373,0.02948394,0.040948533,0.04542181,0.047298968
57,0.23407465,0.19519204,0.19987768,0.1953837,0.2025446,0.2046617,0.19499782,0.21659622,0.23011097,0.24392176,0.22707671,0.18151888,0.22470766,0.20225614,0.17241532,0.19036263,0.23985127,0.21144068,0.24620178,0.042279102,0.038973194,0.04000854,0.024929274,0.038403578,0.044792548,0.03909931,0.038159054,0.036361203,0.052157477,0.03403131,0.014483431,0.038928695,0.046434954,0.013553705,0.033863913,0.0461015,0.049801774,0.052451942
58,0.25335482,0.21079972,0.21610397,0.2146639,0.2218248,0.22058016,0.2106055,0.23587641,0.2493912,0.26320195,0.2463569,0.20079908,0.24398786,0.21786383,0.188023,0.20597032,0.25913146,0.2307209,0.26548198,0.05038262,0.047076702,0.048112035,0.033032794,0.04650709,0.052896056,0.047202818,0.046262577,0.046232373,0.060260992,0.04319813,0.022586944,0.047032192,0.05453846,0.02165721,0.04196742,0.05597266,0.05790529,0.062323127
59,0.26796505,0.22293314,0.22856978,0.22927412,0.23643503,0.23271358,0.22273892,0.25048664,0.2640014,0.27781215,0.26096717,0.21540928,0.2585981,0.22999725,0.20015642,0.21810374,0.2737417,0.24533114,0.28009215,0.057784043,0.05344428,0.054479614,0.039400354,0.05287466,0.05926363,0.053570386,0.052630145,0.05382039,0.06763111,0.050786145,0.028954532,0.053399764,0.06090604,0.028024785,0.048335,0.063560694,0.06427285,0.06991112
60,0.28657684,0.23773792,0.24408841,0.24788591,0.25504684,0.24751836,0.2375437,0.2690984,0.2826132,0.29642397,0.27957892,0.23402107,0.27720988,0.24480203,0.2149612,0.23290852,0.29235348,0.26394293,0.29870397,0.06337407,0.058214385,0.059249714,0.044170476,0.05764478,0.06403375,0.058340494,0.057400256,0.059410416,0.07322117,0.05637618,0.033724636,0.05816987,0.065676145,0.03279489,0.053105112,0.06915069,0.069042966,0.075501174
61,0.31144443,0.2570926,0.26458684,0.2727535,0.27991444,0.26687303,0.25689837,0.29396603,0.3074808,0.32129157,0.30444655,0.2588887,0.3020775,0.2641567,0.23431587,0.2522632,0.31722108,0.28881052,0.32357156,0.07471657,0.067516685,0.06855202,0.05347278,0.06694707,0.073336035,0.06764281,0.06670256,0.07075292,0.08456366,0.06771866,0.043026924,0.06747217,0.07497844,0.042097196,0.06240741,0.0804932,0.078345284,0.08684364
62,0.3314828,0.2732212,0.28141806,0.29279187,0.2999528,0.28300163,0.27302697,0.3140044,0.32751918,0.34132993,0.3244849,0.27892706,0.32211587,0.28028533,0.2504445,0.2683918,0.33725944,0.30884892,0.34360993,0.083695695,0.075035825,0.07607116,0.0609919,0.0744662,0.080855176,0.075161934,0.0742217,0.07973205,0.09354282,0.07669781,0.05054605,0.074991316,0.082497574,0.049616322,0.069926545,0.08947234,0.08586441,0.0958228
63,0.34725055,0.28620625,0.29677823,0.30855963,0.31572056,0.29598668,0.286012,0.3297721,0.34328693,0.35709766,0.34025267,0.2946948,0.3378836,0.29219478,0.26342955,0.28137684,0.35302722,0.32461664,0.3593777,0.09054926,0.080859914,0.08189525,0.066816,0.080290295,0.08667925,0.080986015,0.08004579,0.086585596,0.10039634,0.08355136,0.05637013,0.081182316,0.08832166,0.055440415,0.07575063,0.09632588,0.091688484,0.102676325
64,0.3597454,0.29667568,0.30903015,0.32105446,0.32821533,0.3064561,0.29598936,0.34226695,0.35578173,0.3695925,0.35274744,0.30718958,0.35037842,0.3002614,0.27389893,0.29184625,0.365522,0.33711144,0.37187245,0.09572661,0.085316174,0.08635149,0.071272254,0.084746554,0.09113551,0.08544228,0.08450204,0.09176296,0.10557371,0.0887287,0.0608264,0.08635967,0.092777915,0.05989667,0.08020689,0.10150325,0.09614475,0.1078537
65,0.37516034,0.30862805,0.32389575,0.3364694,0.34363034,0.32015097,0.30555436,0.35768193,0.37119672,0.38500747,0.36816245,0.3226046,0.36579344,0.3098264,0.28625485,0.30420214,0.380937,0.35252646,0.38728747,0.10194563,0.09055229,0.091587625,0.07650838,0.08998268,0.09637164,0.090678416,0.089738175,0.097982004,0.111792766,0.09494775,0.066062525,0.0925787,0.09801404,0.0651328,0.08544301,0.107722275,0.10138088,0.11407274
66,0.38799706,0.3167606,0.33638301,0.34930614,0.35646707,0.33263823,0.31368697,0.37051865,0.3840334,0.39784417,0.38099918,0.33544126,0.37863013,0.31795895,0.29678658,0.31369513,0.3937737,0.36536312,0.40012416,0.106855065,0.09474848,0.09578381,0.08070457,0.09417886,0.100567825,0.0948746,0.09393435,0.10289142,0.11670216,0.09985718,0.07025871,0.09748813,0.10221023,0.06932898,0.0896392,0.11263171,0.10557706,0.11898213
67,0.3984727,0.32349142,0.3466342,0.35978177,0.3669427,0.34288943,0.3204177,0.38099432,0.39450905,0.4083198,0.39147478,0.34591693,0.38910577,0.32468975,0.30551738,0.32042593,0.40424934,0.37583876,0.4105998,0.11064888,0.09802988,0.0990652,0.08398595,0.097460255,0.10384921,0.09815598,0.09721574,0.10668523,0.12049598,0.10365098,0.0735401,0.10128195,0.10549162,0.07261038,0.09292059,0.116425514,0.10885846,0.12277598
68,0.4071074,0.32909542,0.3551201,0.36841646,0.3755774,0.35137528,0.32602176,0.389629,0.40314376,0.41695452,0.40010953,0.35455164,0.39774045,0.33029377,0.3127951,0.32602996,0.41288406,0.38447347,0.4192345,0.11357618,0.100589,0.101624325,0.08654508,0.10001937,0.106408335,0.1007151,0.09977486,0.10961254,0.12342329,0.10657827,0.07609923,0.10420925,0.10805074,0.075169496,0.095479704,0.119352825,0.11141757,0.12570326
69,0.41430926,0.33380225,0.36221892,0.3756183,0.38277924,0.35788414,0.33072853,0.39683083,0.41034558,0.42415634,0.40731135,0.36175346,0.4049423,0.3350006,0.31891254,0.33073676,0.42008588,0.39167532,0.42643633,0.121267475,0.106893234,0.10792856,0.0928493,0.106323615,0.11271256,0.10701934,0.106079094,0.117303826,0.13111457,0.11426957,0.08240345,0.11190053,0.114354976,0.08147372,0.10178393,0.12704411,0.11772181,0.13339457
70,0.4204011,0.33780077,0.3682347,0.38171014,0.38887107,0.36269903,0.3347271,0.4029227,0.41643742,0.4302482,0.41340318,0.3678453,0.41103414,0.33899912,0.324112,0.33473533,0.4261777,0.39776716,0.43252817,0.12785524,0.112399794,0.11343512,0.09835587,0.111830175,0.11821913,0.11252591,0.11158564,0.123891585,0.13770235,0.12085732,0.087910004,0.1184883,0.119861536,0.08698029,0.1072905,0.13363189,0.12322838,0.13998234
71,0.43461567,0.3462539,0.38170588,0.39592475,0.4030857,0.37376112,0.34443787,0.41713727,0.43065205,0.4444628,0.4276178,0.3820599,0.42524877,0.34908587,0.33497417,0.3436483,0.44039235,0.41198176,0.4467428,0.13334045,0.11703816,0.11807349,0.10299424,0.11646855,0.1228575,0.11716427,0.11622403,0.1293768,0.14318755,0.12634254,0.09254839,0.12397349,0.12449992,0.09161866,0.11192887,0.13911709,0.12786674,0.14546752
72,0.44727704,0.35471776,0.3938537,0.4085861,0.41574708,0.38365987,0.3543366,0.42979863,0.44331342,0.45712414,0.44027916,0.39472127,0.43791014,0.35898462,0.34498304,0.35354707,0.4530537,0.42464313,0.45940417,0.1415168,0.123795904,0.12483123,0.10975199,0.1232263,0.12961525,0.12392201,0.1240384,0.13755316,0.15136394,0.1345189,0.09930613,0.13214988,0.13125765,0.09837639,0.11868662,0.14729345,0.13462451,0.1536439
73,0.46690285,0.36998752,0.41244167,0.4282119,0.43537286,0.39892963,0.36960638,0.44942445,0.4629392,0.47674996,0.45990497,0.41434708,0.45753592,0.37425438,0.36132354,0.36881682,0.4726795,0.4442689,0.47902995,0.14863366,0.12976325,0.13079856,0.11571931,0.12919363,0.13558257,0.12988934,0.13115522,0.14467001,0.1584808,0.14163575,0.10527347,0.13926671,0.13722499,0.104343735,0.12465394,0.1544103,0.14059183,0.16076076
74,0.48406416,0.38339707,0.4273385,0.4453732,0.45253417,0.41233915,0.3830159,0.46658576,0.4801005,0.49391127,0.47706628,0.4315084,0.4746972,0.3876639,0.37776482,0.38222638,0.48984078,0.46143022,0.49619126,0.15475148,0.13493657,0.1359719,0.120892644,0.13436696,0.1407559,0.13506268,0.13727307,0.15078786,0.16459861,0.1477536,0.1104468,0.14538455,0.14239833,0.10951706,0.12982728,0.16052812,0.14576516,0.16687861
75,0.50630844,0.40072584,0.4446673,0.46761748,0.4747784,0.42966795,0.40034467,0.48882997,0.5023448,0.5161555,0.4993105,0.4537526,0.49694148,0.4049927,0.39591938,0.39955515,0.5120851,0.4836745,0.51843554,0.16408566,0.14264175,0.14367709,0.12859783,0.14207217,0.14846113,0.14276788,0.14660725,0.160122,0.17393279,0.15708774,0.11815199,0.1547187,0.15010351,0.11722226,0.13753249,0.1698623,0.15347037,0.17621279
76,0.52553856,0.41576198,0.45970342,0.48684764,0.49400857,0.4447041,0.4153808,0.50806016,0.5215749,0.5353857,0.5185407,0.4729828,0.51617163,0.42002884,0.41095552,0.41459128,0.5313152,0.50290465,0.53766567,0.17242894,0.14962041,0.15065572,0.1355765,0.1490508,0.15543976,0.14974654,0.1549505,0.16846529,0.18227604,0.16543102,0.12513065,0.16306198,0.15708217,0.12420092,0.14451113,0.17820561,0.160449,0.18455607
77,0.5417237,0.4284472,0.47238863,0.5030328,0.5101937,0.4573893,0.42806602,0.5242453,0.5377601,0.5499969,0.53472584,0.48916793,0.5323568,0.43271402,0.4236407,0.4272765,0.5475004,0.5190898,0.5538508,0.17980173,0.15583223,0.15686756,0.14178833,0.15526262,0.16165158,0.15587208,0.16232333,0.17583805,0.18964887,0.17280382,0.13134246,0.17043477,0.1631304,0.13041276,0.15072295,0.1855784,0.16666082,0.19192883
78,0.5602109,0.4428907,0.48683214,0.52152,0.5286809,0.4718328,0.44250953,0.54273254,0.5562473,0.56522274,0.553213,0.50765514,0.55084395,0.44715753,0.43808421,0.44172,0.5659875,0.537577,0.572338,0.19411004,0.16701797,0.16855958,0.15541911,0.16695464,0.1733436,0.16682371,0.17663163,0.19014642,0.20395717,0.18711215,0.14303452,0.1847431,0.17408207,0.14210474,0.16218856,0.19988668,0.17835283,0.20623717
79,0.57616234,0.4553861,0.49932754,0.5374714,0.5446323,0.4843282,0.45500493,0.55868393,0.5721987,0.578285,0.56916445,0.52360654,0.5667954,0.45965296,0.45057964,0.4542154,0.5819389,0.55343306,0.58828944,0.20713398,0.1772891,0.1793698,0.16844305,0.17776486,0.18415383,0.17709485,0.18965557,0.20317033,0.21698111,0.20013607,0.15457824,0.19776705,0.18435317,0.15291497,0.17245969,0.21291062,0.18916306,0.21926111
80,0.58962893,0.46595362,0.509895,0.550938,0.558099,0.49489573,0.46557245,0.5721505,0.58566535,0.58927035,0.58263105,0.5370732,0.580262,0.47022045,0.46114713,0.46478292,0.5954056,0.5664818,0.60175604,0.21875408,0.18659848,0.18909541,0.18006316,0.18749043,0.19387943,0.18640429,0.20127565,0.21479043,0.22860119,0.21175617,0.16619831,0.20938712,0.19366258,0.16264057,0.1817691,0.2245307,0.19888863,0.23088118
81,0.6010589,0.47493422,0.5188757,0.562368,0.56927305,0.5038763,0.47455308,0.5835805,0.59709525,0.5985685,0.594061,0.5485031,0.591692,0.4792011,0.47012776,0.47376356,0.60683554,0.577511,0.613186,0.22921863,0.19506451,0.19789952,0.1905277,0.19768861,0.20268354,0.19487026,0.2117402,0.22525498,0.23906577,0.22222072,0.17666286,0.21985167,0.20212862,0.17144468,0.19023511,0.23499528,0.20769277,0.2413457
82,0.61696833,0.4873444,0.5312859,0.5782774,0.5844457,0.5162865,0.4869632,0.5994899,0.61300474,0.6115721,0.60997045,0.5644126,0.6076014,0.49161124,0.48253796,0.4861737,0.6227449,0.5899212,0.6290955,0.24727541,0.20895055,0.2126908,0.20858446,0.21574536,0.21747482,0.20875633,0.229797,0.24331176,0.25712255,0.2402775,0.19471964,0.23790845,0.21601465,0.18617383,0.20412114,0.25305206,0.22464138,0.25940245
83,0.6308845,0.49823144,0.5421729,0.59219354,0.5972058,0.5271736,0.49785027,0.6134061,0.6269209,0.6224591,0.62388664,0.5783287,0.62151754,0.50249827,0.49342495,0.49706072,0.6366611,0.6008082,0.6430116,0.26392674,0.22209102,0.22651666,0.22523582,0.23239672,0.23130068,0.22189683,0.24644834,0.2599631,0.27377388,0.25692886,0.211371,0.25455981,0.22915515,0.19931433,0.21726161,0.2697034,0.24129274,0.2760538
84,0.64260954,0.5074214,0.5513628,0.60391855,0.6063957,0.5363635,0.5070402,0.62513113,0.6386459,0.631649,0.63561165,0.5900538,0.63324255,0.5116882,0.50261486,0.5062507,0.6483862,0.6099981,0.65473664,0.27899614,0.23414397,0.23911819,0.24030522,0.24746615,0.2439022,0.23394975,0.26151776,0.2750325,0.28884327,0.27199826,0.2264404,0.2696292,0.24120808,0.21136725,0.22931454,0.2847728,0.25636214,0.29112315
85,0.65870035,0.51995677,0.5638982,0.6200095,0.6189312,0.5488989,0.5195756,0.641222,0.65473676,0.64418447,0.6517025,0.6061446,0.6493335,0.5242236,0.51515025,0.5187861,0.664477,0.6225335,0.6708275,0.2927516,0.24523643,0.25067112,0.2540607,0.26122162,0.25501686,0.24504218,0.2752732,0.28878796,0.30259874,0.28575373,0.24019587,0.28338465,0.2523005,0.2224597,0.24040699,0.29852825,0.27011758,0.30487865
86,0.67265147,0.53085893,0.5748004,0.6339605,0.62983334,0.55980104,0.53047776,0.655173,0.66868776,0.65508664,0.6656535,0.62009573,0.6632845,0.5351258,0.5260525,0.52968824,0.67842805,0.63343567,0.6847786,0.30543137,0.25551018,0.26134762,0.26674044,0.27390134,0.26529062,0.25531596,0.28795293,0.30146772,0.31527853,0.29843348,0.25287563,0.2960644,0.2625743,0.23273349,0.25068077,0.311208,0.28279734,0.3175584
87,0.6906234,0.54484534,0.5887868,0.6519325,0.64381975,0.57378745,0.54446423,0.67314506,0.6866598,0.6690731,0.6836255,0.6380677,0.68125653,0.5491122,0.5400389,0.5436747,0.69640005,0.64742213,0.7027505,0.3172436,0.26510334,0.27130595,0.27855268,0.28571358,0.27488375,0.26490912,0.2997652,0.31328,0.32709074,0.31024572,0.26468787,0.30787668,0.27216744,0.24232662,0.26027393,0.32302025,0.29460955,0.3293706
88,0.7059467,0.55680937,0.6007508,0.66725576,0.6557837,0.5857515,0.5564282,0.6884683,0.70198303,0.681037,0.6989488,0.65339094,0.69657975,0.56107616,0.5520029,0.5556387,0.7117233,0.65938604,0.7180738,0.32836846,0.27414343,0.28068778,0.28967753,0.29683846,0.28392392,0.27394924,0.31089005,0.32440484,0.3382156,0.32137057,0.27581272,0.3190015,0.28120756,0.25136676,0.26931405,0.33414513,0.30573437,0.34049544
89,0.7184454,0.5665898,0.6105312,0.6797545,0.6655641,0.5955319,0.56620854,0.700967,0.71448183,0.6908175,0.71144754,0.6658897,0.7090785,0.57085663,0.5617833,0.5654191,0.72422206,0.6691665,0.7305725,0.3389601,0.28274485,0.2896169,0.3002692,0.30743012,0.29252532,0.28255066,0.32148173,0.3349965,0.34880728,0.33196223,0.28640437,0.32959318,0.289249,0.25996816,0.27791545,0.34473675,0.31632605,0.35108706
90,0.7286245,0.5745696,0.6185111,0.6899336,0.673544,0.60351175,0.5741884,0.7111461,0.7246609,0.69879735,0.72162664,0.6760688,0.71925753,0.57883644,0.5697632,0.5733989,0.7344011,0.6771464,0.7407516,0.34914976,0.29100788,0.2991208,0.3104588,0.31761974,0.30078834,0.29081365,0.33167136,0.3451861,0.3589969,0.34215185,0.29659396,0.3397828,0.29563758,0.26823118,0.28617847,0.3549264,0.32651564,0.3612767
91,0.7368896,0.5810594,0.6250009,0.6981987,0.6800338,0.61000156,0.5806782,0.7194112,0.732926,0.70528716,0.7298917,0.68433386,0.72752273,0.5853263,0.576253,0.5798887,0.74266624,0.6836361,0.7490167,0.36365175,0.30230847,0.31362277,0.32496083,0.33212176,0.31208894,0.30014068,0.34617335,0.35968813,0.3734989,0.35665387,0.31109598,0.35428482,0.3044127,0.27953175,0.29747906,0.36942843,0.34101757,0.37577862
92,0.75066894,0.59177214,0.6357136,0.7119781,0.69074655,0.62071425,0.59139097,0.7321219,0.74670535,0.71599984,0.74367106,0.6981132,0.7413021,0.596039,0.5869657,0.59060144,0.7564455,0.6943489,0.76279604,0.37771568,0.3118384,0.3274085,0.3390247,0.34618562,0.3236637,0.30876473,0.36023724,0.373752,0.38756275,0.37071773,0.32515988,0.3683487,0.3130367,0.29065612,0.30860344,0.38349226,0.3550815,0.3898425
93,0.76245683,0.60096914,0.6449106,0.7237659,0.6999435,0.6299112,0.6005879,0.7416654,0.7584932,0.7251968,0.7554589,0.7099011,0.7530899,0.605236,0.5961626,0.5997984,0.7682334,0.7035458,0.7745839,0.39116973,0.32013988,0.34035295,0.3524788,0.3596397,0.33660814,0.3170662,0.37369132,0.38720605,0.40101683,0.3841718,0.33861396,0.38180277,0.32133824,0.30137253,0.3170744,0.39694637,0.36853555,0.40329656
94,0.7780155,0.6130552,0.65699667,0.7393246,0.71202964,0.6419973,0.612674,0.7537516,0.7740519,0.7372829,0.7710176,0.7254598,0.7686486,0.6173221,0.6082487,0.6118845,0.78379214,0.71563196,0.7901426,0.40411797,0.32815644,0.35282826,0.36542705,0.37258798,0.34908345,0.32508275,0.38663957,0.40015435,0.41396508,0.3971201,0.3515622,0.394751,0.3293548,0.3117254,0.32509097,0.40989462,0.38148376,0.41624478
95,0.7909651,0.6231499,0.6670913,0.7522742,0.7221243,0.6520919,0.6227687,0.7638462,0.7870015,0.7473776,0.7839672,0.73840934,0.78159827,0.62741673,0.6183435,0.62197924,0.7967418,0.7257266,0.8030922,0.41665056,0.3359286,0.36491144,0.37795964,0.38512057,0.35985085,0.3328549,0.39917213,0.4126869,0.42649767,0.40965268,0.3640948,0.40728363,0.33712694,0.32176468,0.3328631,0.4224272,0.39401639,0.42877743
96,0.8061255,0.6349324,0.67887384,0.76665473,0.73390675,0.6638745,0.6345512,0.7756288,0.8021618,0.7591601,0.7991275,0.75356966,0.79675865,0.63919926,0.63012594,0.63376176,0.81190217,0.73750913,0.81825256,0.42884615,0.34349567,0.37667224,0.39015523,0.39731613,0.36940375,0.340422,0.41136774,0.42488247,0.43869326,0.42184827,0.37629038,0.4194792,0.3447285,0.3315397,0.34043017,0.43462282,0.40621197,0.44097298
97,0.81847703,0.6445641,0.6885055,0.77842385,0.74353844,0.67350614,0.6441829,0.78526044,0.81451344,0.7687918,0.81147915,0.7659213,0.80911016,0.64883095,0.6397576,0.6433934,0.8242537,0.7471408,0.83060414,0.4440663,0.35273287,0.39121643,0.4053753,0.41253626,0.38128507,0.3519618,0.42658785,0.4401026,0.45391336,0.43706837,0.3915105,0.43469933,0.3566098,0.3434398,0.35117227,0.4498429,0.4214321,0.45619312
98,0.82790333,0.6519338,0.6958752,0.78746843,0.7509082,0.6808759,0.6515526,0.79263014,0.8239397,0.7761615,0.8209054,0.77534753,0.817774,0.65620065,0.6471273,0.6507631,0.8336799,0.75451046,0.83928883,0.4589096,0.36394665,0.4054547,0.42021865,0.42737958,0.39288872,0.36356547,0.44143116,0.45494592,0.4687567,0.4519117,0.4063538,0.44954264,0.36821347,0.35516673,0.36277595,0.46468621,0.4362754,0.47103643
99,0.8381618,0.66118777,0.7051292,0.7985301,0.7601622,0.6901298,0.6608066,0.8018841,0.83584106,0.7854155,0.83280677,0.7872489,0.8276764,0.6654546,0.6563813,0.66001713,0.8455813,0.7637645,0.84919125,0.4732229,0.3751435,0.41908497,0.434532,0.44169295,0.4040856,0.37476236,0.4557445,0.46925923,0.48307002,0.46622503,0.42066714,0.46385598,0.37941036,0.3680909,0.3739728,0.47899958,0.45058876,0.48534977
100,0.84610707,0.6686946,0.712636,0.80603695,0.76766896,0.6976366,0.6683134,0.8093909,0.8454618,0.79292226,0.8424275,0.7965874,0.8354761,0.6729614,0.66388804,0.667524,0.855202,0.7712713,0.8571364,0.4870698,0.38597938,0.42992082,0.44837886,0.4555398,0.4149215,0.3855982,0.46959138,0.48310614,0.4969169,0.4800719,0.43451402,0.47770286,0.3902462,0.3811729,0.38480866,0.49284643,0.46443552,0.49919656
101,0.8519271,0.6742444,0.7181858,0.8115867,0.77321875,0.70318645,0.67386323,0.81494075,0.85255367,0.7984721,0.8495194,0.8034091,0.8410258,0.6785112,0.6694379,0.6730737,0.8622939,0.77682114,0.8629565,0.5005026,0.39649296,0.4404344,0.46181163,0.46897256,0.42543507,0.3961118,0.48302415,0.4965389,0.5103497,0.49350467,0.4479468,0.4911356,0.40075982,0.39168647,0.39532226,0.50627923,0.47786838,0.51262945
102,0.8598412,0.68162864,0.72557,0.8189709,0.78060293,0.7105707,0.6812475,0.82232493,0.8620552,0.80585635,0.8590209,0.8123807,0.8484101,0.6858955,0.6768221,0.68045795,0.8717954,0.7842054,0.8708706,0.513566,0.4067179,0.45065933,0.47487506,0.482036,0.43565997,0.40633672,0.49608758,0.50960237,0.5234131,0.50656813,0.46101022,0.5041991,0.41098475,0.40191144,0.4055472,0.51934266,0.4909318,0.5256929
103,0.86612576,0.6875633,0.7315047,0.82490563,0.78653765,0.71650535,0.6871821,0.8282597,0.8696623,0.811791,0.866628,0.81963795,0.8543448,0.69183016,0.6827568,0.68639266,0.8794026,0.79014003,0.8771551,0.5262974,0.41668248,0.46062392,0.48760644,0.49476737,0.4456246,0.4163013,0.508819,0.52233374,0.5361445,0.5192995,0.4737416,0.51693046,0.42094934,0.41187602,0.4155118,0.53207403,0.5036631,0.5384242
104,0.87045914,0.6917915,0.7357329,0.82913387,0.7907659,0.7207335,0.69141036,0.8324878,0.87506366,0.81601924,0.87202936,0.8248378,0.858573,0.69605833,0.686985,0.6906209,0.88480395,0.7943682,0.8815849,0.53872734,0.4264102,0.47035164,0.50003636,0.5071973,0.4553523,0.42602903,0.5212489,0.53476363,0.5468377,0.5317294,0.4861715,0.52936035,0.43067703,0.42160374,0.4252395,0.5445039,0.5160931,0.5508541
105,0.8733298,0.6946622,0.7386036,0.8320045,0.7936365,0.72360426,0.69428104,0.83535856,0.87871474,0.81888986,0.8756805,0.8283939,0.86144364,0.69892895,0.68985564,0.6934915,0.88845503,0.7972389,0.88455063,0.5534816,0.43792406,0.4818655,0.5147906,0.52195156,0.46686617,0.4375429,0.5360032,0.5495179,0.5590191,0.54648364,0.5009258,0.54411465,0.44219092,0.4331176,0.43675336,0.5592582,0.53084725,0.56560826
106,0.8779556,0.69928795,0.7432293,0.8366303,0.79826236,0.72823,0.6989068,0.8399843,0.8846692,0.82351565,0.88163495,0.8340104,0.8660695,0.7035548,0.69448143,0.6981173,0.89440954,0.8018647,0.88951427,0.5678353,0.44913724,0.49307865,0.52914435,0.53630525,0.47807935,0.44875604,0.55035686,0.5638716,0.5708428,0.5608374,0.5152795,0.5584683,0.45340407,0.44433075,0.44796652,0.57361186,0.54520106,0.5799621
107,0.8816254,0.70295775,0.7468992,0.8403001,0.8019321,0.7318998,0.7025766,0.8436541,0.8893711,0.82718545,0.8863368,0.83850133,0.86973923,0.7072246,0.69815123,0.7017871,0.89911133,0.8055345,0.89339495,0.5854249,0.46284214,0.5067836,0.546734,0.55389494,0.49178421,0.46246094,0.5679465,0.5814613,0.5854145,0.578427,0.53286916,0.576058,0.46710894,0.45803565,0.46167144,0.5912016,0.5627907,0.59755164
108,0.8840488,0.7053812,0.7493226,0.84272355,0.8043556,0.73432326,0.70500004,0.84607756,0.8924616,0.8296089,0.8894273,0.8414904,0.87216276,0.7096481,0.7005747,0.7042106,0.90220183,0.80795795,0.8959199,0.6022399,0.4759648,0.5199063,0.563549,0.57070994,0.50490695,0.47558364,0.5847615,0.59827626,0.5992958,0.595242,0.54968417,0.592873,0.48023164,0.47115833,0.47479412,0.60801655,0.57854134,0.61436665
109,0.8874477,0.7087801,0.7527215,0.8461224,0.8077544,0.73772216,0.70839894,0.84947646,0.8968358,0.8330078,0.8938015,0.8456188,0.87556154,0.7130469,0.7039736,0.7076094,0.90657604,0.81135684,0.89956456,0.6180401,0.48830593,0.5322474,0.5793491,0.5858788,0.51724803,0.48792475,0.6005616,0.6140764,0.61231554,0.61104214,0.5654842,0.6086731,0.49257275,0.48349944,0.4871352,0.62381667,0.5908825,0.6301669
110,0.89002275,0.71135503,0.7552965,0.8486974,0.81032944,0.74029714,0.7109739,0.85205144,0.9001326,0.83558273,0.8970983,0.8487737,0.8781366,0.7156219,0.7065485,0.71018445,0.9098729,0.81393176,0.90225935,0.632892,0.4999125,0.543854,0.594201,0.5988869,0.5288546,0.49953136,0.61541355,0.62892836,0.6241402,0.6258941,0.5803362,0.623525,0.50417936,0.495106,0.4987418,0.6386686,0.6024891,0.6450189
111,0.89159423,0.71292657,0.75686795,0.8502689,0.811901,0.7418686,0.7125454,0.8536229,0.9021319,0.83715427,0.8990976,0.8507194,0.87970805,0.71719337,0.70812005,0.71175593,0.9118722,0.8155033,0.9038309,0.6468529,0.51082623,0.5547677,0.60816205,0.6098007,0.5397684,0.51044506,0.62937456,0.6428893,0.6350539,0.6398551,0.5942972,0.637486,0.5150931,0.5060198,0.50965554,0.65262955,0.6134027,0.65897983
112,0.8923721,0.71370447,0.75764585,0.85104674,0.81267875,0.74264646,0.7133233,0.85440075,0.9031075,0.83793217,0.9000733,0.85170496,0.8804859,0.71797127,0.70889795,0.7125338,0.91284776,0.81628114,0.9046088,0.659977,0.5210874,0.56502885,0.6212861,0.6200618,0.5500295,0.52070624,0.6424986,0.6560133,0.6453151,0.6529791,0.6074212,0.6506101,0.52535427,0.51628095,0.5199167,0.66575366,0.62366396,0.6721039
113,0.89252436,0.71385676,0.75779814,0.85119903,0.81283104,0.7427988,0.7134756,0.85455304,0.9032778,0.83808446,0.90024346,0.8519312,0.88063824,0.7181236,0.70905024,0.71268606,0.913018,0.8164335,0.904761,0.6761366,0.53367627,0.5776177,0.63744575,0.6326507,0.5626183,0.5332951,0.6586582,0.67217296,0.65790385,0.6691387,0.6235809,0.6667697,0.53794307,0.52886975,0.5325055,0.68191326,0.6362528,0.6882636
114,0.8921885,0.7135209,0.75746226,0.8508632,0.81249523,0.74246293,0.7131397,0.8542172,0.90282077,0.8377486,0.8997865,0.8515629,0.88030237,0.7177877,0.70871437,0.71235025,0.91256106,0.81609756,0.90434617,0.6912948,0.5455021,0.58944356,0.65260386,0.6444765,0.57444423,0.54512095,0.67381644,0.68733114,0.66972977,0.68429685,0.638739,0.68192786,0.5497689,0.5406956,0.5443314,0.6970714,0.6480787,0.70342165
115,0.8914779,0.7128102,0.7567516,0.8501525,0.8117846,0.74175227,0.71242905,0.85350657,0.90188324,0.8370379,0.89884895,0.85073656,0.8795917,0.7170771,0.7080037,0.7116396,0.9116235,0.81538695,0.9035244,0.7051938,0.55635357,0.600295,0.66650295,0.655328,0.5852956,0.5559724,0.6877154,0.70123017,0.6805813,0.69819593,0.652638,0.6958269,0.5606204,0.5515471,0.5551829,0.71097046,0.6589301,0.7173208
116,0.8904871,0.71181947,0.75576085,0.84916174,0.8107938,0.7407615,0.71143824,0.85251576,0.9005873,0.8360472,0.8975531,0.8495664,0.87860096,0.71608627,0.70701295,0.7106488,0.91032755,0.81439614,0.9024079,0.7216467,0.56916183,0.61310333,0.68295586,0.66813624,0.59810394,0.56878066,0.7041683,0.71768314,0.6933896,0.71464884,0.66909105,0.71227986,0.5734287,0.5643554,0.5679912,0.7274234,0.6717385,0.73377377
117,0.88929427,0.7106266,0.75456804,0.847969,0.809601,0.73956865,0.71024543,0.85132295,0.89903384,0.8348543,0.89599955,0.848147,0.87740815,0.71489346,0.7058201,0.709456,0.90877414,0.81320333,0.90108097,0.7405836,0.58388746,0.62782884,0.7018926,0.6828618,0.61282957,0.5835063,0.7231052,0.7366199,0.7081151,0.73358566,0.6880278,0.73121667,0.58815426,0.57908094,0.58271676,0.74636024,0.686464,0.7527105
118,0.88975686,0.7110892,0.75503063,0.8484315,0.81006354,0.74003124,0.7107081,0.85178554,0.8996412,0.8353169,0.8966069,0.8486895,0.8778707,0.715356,0.7062827,0.70991856,0.9093815,0.8136659,0.9016084,0.75762165,0.5971616,0.641103,0.7189307,0.696136,0.6261037,0.5967804,0.7378579,0.75365794,0.7213893,0.7506237,0.7050659,0.74825466,0.60142845,0.59235513,0.5959909,0.76339823,0.6997383,0.7697486
119,0.8901196,0.7114519,0.7553934,0.8487943,0.8104263,0.740394,0.7110708,0.8521483,0.9001081,0.8356796,0.8970738,0.84913,0.87823343,0.71571875,0.70664537,0.7102813,0.9098484,0.8140286,0.9019975,0.7747821,0.61052215,0.6544635,0.73609126,0.70949656,0.63946426,0.610141,0.75121844,0.7708185,0.7347498,0.7677842,0.7222264,0.76541525,0.61478895,0.6057157,0.6093515,0.78055876,0.7130988,0.78690916
120,0.89202464,0.713357,0.75729835,0.85069925,0.8123314,0.742299,0.7129758,0.8540533,0.90258574,0.8375847,0.89955145,0.85140246,0.88013846,0.71762383,0.70855045,0.7121863,0.912326,0.8159337,0.9041078,0.79250723,0.6243144,0.6682558,0.75368327,0.7232888,0.6532564,0.6239332,0.7650108,0.7885436,0.7485421,0.7855093,0.7399515,0.78314036,0.6285812,0.6195079,0.62314373,0.79828393,0.72689104,0.8046342
121,0.8936256,0.71495795,0.75889933,0.8523003,0.81393236,0.7439,0.7145768,0.8556543,0.9046542,0.83918566,0.9016199,0.85333407,0.88173944,0.7192248,0.7101515,0.7137873,0.91439444,0.8175347,0.9058456,0.80801105,0.6363977,0.6803391,0.7684347,0.735372,0.6653397,0.6360165,0.777094,0.80404735,0.7606253,0.8010131,0.7554552,0.7986441,0.64066446,0.6315912,0.63522696,0.81378764,0.7389743,0.8201381
122,0.8967168,0.7180491,0.76199055,0.8553914,0.8170234,0.74699116,0.71766794,0.85874546,0.90866536,0.84227675,0.9056312,0.85703576,0.8848306,0.7223159,0.71324253,0.7168784,0.91840565,0.8206258,0.9089534,0.8246723,0.6493571,0.6932985,0.7842026,0.7483315,0.6782991,0.6489759,0.7900534,0.82070863,0.7735847,0.81767434,0.7721164,0.8152321,0.6536239,0.64455056,0.6481864,0.83044887,0.75193375,0.83674693
123,0.8993383,0.7206707,0.7646121,0.858013,0.819645,0.74961275,0.72028947,0.861367,0.91205037,0.8448984,0.9090161,0.86020213,0.8874521,0.7249375,0.7158641,0.7195,0.9217906,0.8232474,0.91157496,0.8377075,0.6606362,0.70457757,0.797967,0.75961053,0.6895782,0.66025496,0.8013325,0.835184,0.7848638,0.8321497,0.7865918,0.8272221,0.664903,0.65582967,0.65946555,0.8449242,0.76321286,0.84873694
124,0.9030796,0.72441196,0.76835334,0.86175424,0.8233864,0.753354,0.7240308,0.8651083,0.9168967,0.84863967,0.9138624,0.8646962,0.89119345,0.7286788,0.71960545,0.72324127,0.92663693,0.8269887,0.9153163,0.85063183,0.6727109,0.7166523,0.8100533,0.7716853,0.701653,0.6723298,0.8134073,0.8507144,0.7969386,0.8476801,0.8013316,0.83949244,0.67697775,0.6679044,0.67154026,0.8604547,0.7752876,0.8616612
125,0.9062191,0.7275515,0.7714929,0.8648938,0.8265258,0.7564935,0.7271703,0.8682478,0.9209464,0.8517791,0.9179121,0.8684944,0.89433295,0.73181826,0.7227449,0.7263808,0.93068665,0.83012813,0.9184557,0.8616843,0.6830982,0.7270396,0.8204405,0.7820725,0.71204025,0.682717,0.8237945,0.8640492,0.80732584,0.8610149,0.81400114,0.8498797,0.68736506,0.6782916,0.6819275,0.8737894,0.78567487,0.87271374
126,0.9085282,0.7298606,0.773802,0.8672029,0.82883495,0.7588026,0.72947943,0.8705569,0.92391735,0.85408825,0.92088306,0.8713005,0.896642,0.7341274,0.7250541,0.72868997,0.9336575,0.8324373,0.92076486,0.87282073,0.69415313,0.7380945,0.8314954,0.7931275,0.7230952,0.69377196,0.8348494,0.8782742,0.81838083,0.8752399,0.8274323,0.8609346,0.69842,0.6893466,0.6929825,0.88801444,0.79672986,0.88456255
127,0.9121388,0.7334712,0.7774126,0.8708135,0.8324455,0.76241326,0.73309004,0.87416756,0.9285901,0.85769886,0.924975,0.875219,0.9002527,0.7377381,0.72866464,0.7323005,0.9383303,0.8360479,0.9243755,0.88223505,0.7035674,0.7475088,0.8409097,0.8025418,0.7325095,0.7031863,0.84426373,0.89036363,0.82779515,0.88732934,0.8389092,0.8703489,0.70783424,0.6987609,0.70239675,0.90010387,0.8061442,0.8944717
128,0.9152354,0.7365678,0.7805092,0.87391007,0.83554214,0.76550984,0.7361866,0.8772641,0.9325806,0.8607955,0.92830944,0.8783156,0.9033493,0.74083465,0.7317613,0.7353971,0.9423208,0.8391445,0.92747205,0.89127463,0.712607,0.75654846,0.84994936,0.8115814,0.7415491,0.71222585,0.8533034,0.9019858,0.8368347,0.8989516,0.849907,0.8793885,0.7168738,0.7078005,0.7114364,0.9117261,0.8151837,0.9035113
129,0.9192475,0.7405799,0.78452134,0.87792224,0.83955425,0.76952195,0.7401987,0.88127625,0.9377705,0.86480755,0.93268067,0.88232774,0.9073614,0.7448467,0.7357734,0.73940927,0.9475107,0.8431566,0.93148416,0.8988039,0.7201362,0.7640776,0.8574785,0.8191106,0.7490783,0.71975505,0.8608325,0.91164875,0.8443639,0.90861446,0.85909504,0.8869177,0.7244031,0.7153297,0.7189656,0.921389,0.82271296,0.91104054
130,0.9226355,0.7439679,0.7879093,0.88131016,0.84294224,0.7729099,0.74358666,0.88466424,0.9421362,0.86819553,0.9363283,0.88571566,0.9107494,0.7482347,0.7391613,0.7427972,0.9518765,0.84654456,0.93487215,0.9059174,0.7272498,0.77119124,0.86459213,0.82622415,0.7561918,0.7268686,0.86794615,0.92079043,0.8514775,0.91775614,0.86775637,0.8940313,0.7315166,0.7224433,0.72607917,0.9305307,0.82982653,0.91815406
131,0.9251359,0.7464683,0.7904097,0.8838106,0.84544265,0.77541035,0.74608713,0.88716465,0.9453506,0.870696,0.93886566,0.88821614,0.91324973,0.7507351,0.7416618,0.7452977,0.95509076,0.84904504,0.93737257,0.911788,0.7331203,0.77706176,0.8704627,0.8320947,0.76206243,0.7327392,0.87381667,0.928321,0.8573481,0.92507315,0.87486815,0.89990187,0.7373872,0.72831386,0.73194975,0.9380613,0.83569705,0.92402464
132,0.926923,0.7482553,0.79219675,0.88559765,0.8472297,0.77719736,0.74787414,0.88895166,0.9476413,0.872483,0.94065267,0.8900032,0.9150368,0.7525222,0.7434488,0.7470847,0.95738155,0.85083205,0.93915963,0.91639704,0.7377294,0.78167075,0.87507164,0.8367037,0.7666714,0.7373482,0.8784257,0.9342246,0.861957,0.92994285,0.87947714,0.90451086,0.74199617,0.7329228,0.7365587,0.9439649,0.84030604,0.9286337
133,0.9281348,0.74946713,0.7934085,0.88680947,0.8484415,0.7784092,0.74908596,0.8901635,0.94918865,0.87369484,0.94186455,0.8912149,0.9162486,0.753734,0.74466056,0.74829644,0.9589289,0.8520438,0.94037145,0.9209789,0.74231124,0.7862526,0.8796536,0.8412856,0.7712533,0.74193007,0.8830076,0.9401104,0.86653894,0.93470865,0.884059,0.9090927,0.7465781,0.7375048,0.7411406,0.9498506,0.844888,0.93321556
134,0.92888147,0.75021374,0.7941552,0.8875561,0.84918815,0.77915585,0.7498326,0.89091015,0.95013577,0.87444144,0.9426111,0.8919616,0.9169953,0.7544806,0.7454072,0.7490431,0.95987606,0.8527905,0.94111806,0.9247613,0.7460936,0.79003507,0.8834359,0.845068,0.7750357,0.7457124,0.88679,0.9449586,0.8703213,0.938491,0.8878414,0.9128751,0.7503604,0.74128705,0.74492294,0.9546989,0.8486703,0.9369979
135,0.929253,0.7505854,0.7945268,0.8879277,0.8495597,0.7795275,0.7502042,0.8912817,0.95059985,0.8748131,0.94298273,0.8923332,0.9173669,0.75485224,0.74577886,0.74941474,0.96034014,0.8531621,0.94148964,0.9289023,0.7502347,0.7941761,0.887577,0.8492091,0.7791768,0.74985355,0.890931,0.95028937,0.8744624,0.9426321,0.89198256,0.9170162,0.7545016,0.7454282,0.7490641,0.9600296,0.85281146,0.94113904
136,0.9293248,0.7506572,0.7945986,0.8879995,0.8496315,0.77959925,0.750276,0.8913535,0.9506783,0.87488484,0.94305456,0.892405,0.9174387,0.75492406,0.7458506,0.7494865,0.9604185,0.8532339,0.94156146,0.9323867,0.75371903,0.79766047,0.89106137,0.85269344,0.7826611,0.75333786,0.8944154,0.95476264,0.87794673,0.94611645,0.89546686,0.9205005,0.7579859,0.7489126,0.75254846,0.9645029,0.85629576,0.9446233
137,0.9291601,0.75049245,0.79443383,0.8878348,0.84946686,0.7794345,0.7501113,0.8911888,0.95045304,0.87472016,0.9428898,0.8922403,0.917274,0.7547593,0.74568594,0.7493218,0.96019334,0.8530692,0.9413968,0.93501043,0.7563428,0.8002842,0.8936851,0.8553172,0.7852849,0.75596166,0.8970392,0.95812446,0.88057053,0.94874024,0.89809066,0.9231243,0.7606097,0.7515363,0.7551722,0.96786463,0.85891956,0.9472471
138,0.92881244,0.75014484,0.7940863,0.8874872,0.8491192,0.7790869,0.7497636,0.8908412,0.9499934,0.87437254,0.9425422,0.8918927,0.9169264,0.75441164,0.7453383,0.7489742,0.95973366,0.8527215,0.9410491,0.9379525,0.7592849,0.8032263,0.8966272,0.8582592,0.78822696,0.75890374,0.89998126,0.9619131,0.88351256,0.9516823,0.9010327,0.9260664,0.7635518,0.75447834,0.7581142,0.97165334,0.8618616,0.95018923
139,0.9283273,0.7496597,0.7936011,0.88700193,0.848634,0.7786017,0.7492785,0.890356,0.94935775,0.87388736,0.9420571,0.89140755,0.91644114,0.7539265,0.74485314,0.74848896,0.95909804,0.8522364,0.940564,0.9404238,0.7617561,0.8056975,0.8990984,0.86073047,0.7906982,0.76137495,0.9024524,0.9650855,0.8859838,0.9541535,0.90350395,0.92853755,0.7660229,0.7569496,0.7605855,0.97482574,0.86433285,0.95266044
140,0.927743,0.74907535,0.7930168,0.8864177,0.8480497,0.7780174,0.74869424,0.8897717,0.9485957,0.87330306,0.94147277,0.8908231,0.91585684,0.7533422,0.74426883,0.7479047,0.95833594,0.8516521,0.9399797,0.942225,0.7635574,0.80749875,0.9008997,0.8625317,0.7924994,0.7631762,0.9042537,0.96739227,0.8877851,0.95595473,0.9053052,0.93033886,0.76782423,0.75875086,0.76238674,0.97713244,0.8661341,0.95446163
141,0.9270917,0.74842405,0.79236543,0.8857664,0.84739846,0.7773661,0.7480429,0.8891204,0.9477486,0.87265176,0.94078815,0.8901719,0.9152055,0.7526909,0.74361753,0.7472534,0.95748883,0.8510008,0.9393284,0.943482,0.7648144,0.80875576,0.90215665,0.86378866,0.79375637,0.76443315,0.90551066,0.96899676,0.88904196,0.95721173,0.90656215,0.9315958,0.7690812,0.7600078,0.7636437,0.978737,0.867391,0.95571864
142,0.9264005,0.7477329,0.79167426,0.8850752,0.8467072,0.7766749,0.7473517,0.88842916,0.9468513,0.8719606,0.9400268,0.8894807,0.9145144,0.75199974,0.74292636,0.74656224,0.95659155,0.8503096,0.93863714,0.9442995,0.7656319,0.80957335,0.90297425,0.86460626,0.79457396,0.76525074,0.9063283,0.9700351,0.8898596,0.95802927,0.90737975,0.93241346,0.7698988,0.7608254,0.7644613,0.97977537,0.86820865,0.95653623
143,0.92569196,0.7470243,0.7909657,0.8843666,0.84599864,0.77596635,0.7466431,0.88772064,0.9459328,0.871252,0.93924963,0.88877213,0.9138057,0.7512911,0.7422178,0.7458536,0.95567304,0.84960103,0.9379286,0.94476247,0.7660948,0.8100362,0.90343714,0.8650692,0.79503685,0.76571363,0.90679115,0.970617,0.89032257,0.9584922,0.90784264,0.9328763,0.77036166,0.7612883,0.7649241,0.9803572,0.86867154,0.9569991
144,0.9249847,0.746317,0.79025847,0.88365936,0.84529144,0.7752591,0.74593586,0.8870134,0.9450169,0.87054473,0.93847656,0.88806486,0.9130986,0.7505839,0.7415105,0.7451464,0.9547572,0.84889376,0.93722135,0.9449403,0.7662727,0.8102141,0.903615,0.865247,0.7952148,0.76589155,0.906969,0.9708325,0.8905004,0.9586701,0.9080205,0.9330542,0.7705395,0.76146615,0.765102,0.98057276,0.8688495,0.95717704
145,0.9242941,0.74562645,0.7895678,0.88296884,0.84460086,0.7745685,0.7452453,0.8863228,0.9441235,0.86985415,0.9377238,0.8873743,0.912408,0.7498933,0.74081993,0.7444559,0.95386374,0.8482032,0.93653077,0.9459469,0.7672792,0.81122065,0.90462154,0.86625355,0.79622126,0.766898,0.90797555,0.9721354,0.89150685,0.95967656,0.90902704,0.9340607,0.771546,0.7624727,0.7661086,0.9818757,0.8698559,0.9581835
146,0.9236325,0.7449649,0.7889063,0.8823072,0.84393924,0.7739069,0.74458367,0.8856612,0.94326824,0.86919254,0.9370045,0.88671273,0.9117463,0.7492317,0.7401583,0.74379426,0.95300853,0.8475416,0.93586916,0.946911,0.7682434,0.81218475,0.90558565,0.86721766,0.79718536,0.76786214,0.90893966,0.9733748,0.892471,0.9606407,0.90999115,0.9350248,0.7725102,0.7634368,0.7670727,0.9829853,0.87082005,0.95914763
147,0.9230098,0.7443422,0.7882836,0.88168454,0.84331656,0.7732842,0.74396104,0.8850385,0.9424639,0.8685699,0.93632895,0.88609004,0.9111237,0.748609,0.7395357,0.7431716,0.9522041,0.84691894,0.93524647,0.947529,0.7688614,0.8128028,0.9062037,0.86783576,0.7978034,0.7684802,0.9095577,0.97416604,0.89308906,0.96125877,0.91060925,0.93564284,0.7731282,0.76405483,0.7676907,0.98363733,0.8714381,0.9597657
148,0.9224339,0.74376625,0.7877077,0.8811085,0.84274065,0.7727083,0.7433851,0.8844626,0.94172037,0.86799395,0.93570536,0.88551414,0.91054773,0.7480331,0.7389597,0.7425957,0.9514606,0.846343,0.93467057,0.9478695,0.7692018,0.81314325,0.90654415,0.86817616,0.79814386,0.76882064,0.90989816,0.97456205,0.89342946,0.9615992,0.9109496,0.9359833,0.7734686,0.76439524,0.7680312,0.9839876,0.8717785,0.96010613
149,0.9219106,0.7432429,0.7871843,0.8805852,0.8422173,0.77218497,0.74286175,0.88393927,0.9410452,0.8674706,0.9351399,0.88499075,0.91002434,0.7475097,0.7384364,0.7420723,0.95078546,0.84581965,0.93414724,0.9490013,0.7703337,0.8142751,0.907676,0.86930805,0.79927576,0.76995254,0.91103005,0.97581,0.8945614,0.96273106,0.91208154,0.9371152,0.77460057,0.7655272,0.769163,0.9852355,0.87291044,0.96123797
150,0.9214445,0.7427769,0.78671825,0.88011914,0.8417512,0.77171886,0.74239564,0.88347316,0.94044435,0.8670045,0.9346373,0.8845247,0.9095583,0.74704367,0.7379703,0.7416062,0.9501846,0.84535354,0.93368113,0.9501001,0.77143246,0.8153739,0.90877485,0.87040687,0.80037457,0.77105135,0.9121288,0.9769958,0.8956602,0.9638299,0.9131803,0.938214,0.7756993,0.766626,0.7702619,0.98642135,0.87400925,0.9623368
151,0.9210386,0.742371,0.7863124,0.8797133,0.84134537,0.7713131,0.7419898,0.8830673,0.93992144,0.8665987,0.93420064,0.88411885,0.90915245,0.7466378,0.7375645,0.7412003,0.94966173,0.8449477,0.9332753,0.9508614,0.77219373,0.8161351,0.909536,0.87116814,0.8011358,0.77181256,0.9128901,0.9778107,0.89642143,0.9645911,0.91394156,0.93897516,0.7764605,0.7673872,0.7710231,0.9872362,0.87477046,0.96309805
152,0.92069495,0.7420273,0.78596866,0.87936956,0.8410017,0.77096933,0.7416461,0.8827236,0.93947905,0.866255,0.9338318,0.8837751,0.90880877,0.74629414,0.73722076,0.74085665,0.9492193,0.844604,0.9329316,0.9513513,0.7726836,0.8166251,0.910026,0.871658,0.8016257,0.77230245,0.91338,0.97832894,0.8969114,0.96508104,0.91443145,0.93946517,0.7769505,0.7678771,0.771513,0.9877545,0.87526035,0.96358794
153,0.92041427,0.74174666,0.78568804,0.879089,0.840721,0.7706887,0.7413655,0.88244295,0.9391182,0.86597437,0.9335317,0.8834945,0.9085282,0.7460135,0.73694015,0.740576,0.9488585,0.84432334,0.9326509,0.95162797,0.77296036,0.81690174,0.91030264,0.87193465,0.8019024,0.77257913,0.91365665,0.97861487,0.89718807,0.9653577,0.91470814,0.9397418,0.77722716,0.76815385,0.77178967,0.9880404,0.87553704,0.9638646
154,0.92019725,0.74152964,0.785471,0.8788719,0.84050393,0.77047163,0.7411484,0.88222593,0.9388395,0.8657572,0.9333007,0.8832774,0.90831107,0.7457964,0.73672307,0.74035895,0.9485798,0.84410626,0.9324339,0.9524718,0.7738042,0.81774557,0.9111465,0.87277853,0.80274624,0.773423,0.9145005,0.979545,0.8980319,0.96620154,0.915552,0.94058573,0.77807105,0.76899767,0.77263355,0.98897046,0.8763809,0.96470845
155,0.9200433,0.7413756,0.78531706,0.87871796,0.84035,0.7703177,0.74099445,0.882072,0.9386423,0.86560327,0.9331381,0.88312346,0.9081571,0.7456425,0.73656905,0.740205,0.94838256,0.8439523,0.93227994,0.9532971,0.7746294,0.8185708,0.9119717,0.87360376,0.80357146,0.77424824,0.91532576,0.9804349,0.8988571,0.96702677,0.9163772,0.94141084,0.7788962,0.7698229,0.7734587,0.9898604,0.8772061,0.9655337
156,0.91995126,0.74128366,0.78522503,0.8786259,0.840258,0.7702257,0.7409025,0.88197994,0.9385252,0.86551136,0.93304265,0.8830315,0.90806514,0.7455505,0.73647714,0.740113,0.94826543,0.8438604,0.932188,0.95461357,0.77594596,0.81988734,0.91328824,0.8749203,0.80488795,0.77556473,0.91664225,0.98188454,0.9001736,0.9683433,0.9176938,0.9427274,0.78021276,0.7711394,0.77477527,0.99131,0.8785226,0.96685016
157,0.9199202,0.74125254,0.785194,0.8785949,0.8402269,0.77019465,0.7408714,0.8819489,0.9384866,0.86548024,0.933013,0.8830003,0.908034,0.74551934,0.736446,0.7400819,0.94822687,0.8438292,0.93215686,0.9558437,0.77717596,0.82111746,0.91451836,0.87615037,0.8061181,0.7767948,0.91787237,0.98321694,0.9014037,0.9695734,0.91892385,0.9439575,0.7814428,0.7723695,0.7760054,0.99264246,0.8797527,0.9680803
158,0.91994774,0.74128014,0.7852215,0.8786224,0.84025455,0.7702222,0.74089897,0.8819765,0.9385238,0.86550784,0.93304706,0.883028,0.9080616,0.745547,0.7364736,0.7401095,0.94826406,0.8438569,0.93218446,0.9567536,0.77808595,0.8220274,0.9154283,0.8770603,0.807028,0.7777048,0.9187823,0.9841736,0.90231365,0.9704833,0.9198338,0.94486743,0.78235275,0.77327937,0.7769153,0.99362254,0.8806626,0.9689902
159,0.92003244,0.74136484,0.7853062,0.87870705,0.8403391,0.7703068,0.7409836,0.8820611,0.9386346,0.8655924,0.9331426,0.8831126,0.90814626,0.7456316,0.7365582,0.7401941,0.9483748,0.84394145,0.9322691,0.9579548,0.7792872,0.8232286,0.9166295,0.87826157,0.8082292,0.778906,0.9199835,0.98537487,0.90351486,0.9716846,0.92103505,0.94606864,0.783554,0.77448064,0.7781165,0.99493855,0.8818638,0.97019136
160,0.9201717,0.741504,0.78544545,0.87884635,0.8404784,0.77044606,0.74112284,0.88220036,0.9388158,0.8657317,0.9332971,0.8832519,0.90828556,0.7457709,0.7366975,0.7403334,0.948556,0.84408075,0.93240833,0.9590533,0.7803857,0.82432705,0.91772795,0.87936,0.8093277,0.7800045,0.92108196,0.9864733,0.9046134,0.972783,0.9221335,0.9471671,0.78465253,0.77557915,0.77921504,0.99612486,0.8829624,0.97128993
161,0.9203632,0.7416955,0.7856369,0.8790378,0.8406699,0.7706376,0.74131435,0.88239187,0.9390643,0.86592317,0.933508,0.8834433,0.908477,0.7459624,0.73688895,0.7405248,0.94880456,0.8442722,0.93259984,0.96030676,0.78163916,0.82558054,0.91898143,0.88061345,0.8105812,0.781258,0.92233545,0.9877268,0.90586686,0.9740365,0.92338693,0.94842064,0.785906,0.77683264,0.78046846,0.99749434,0.8842158,0.9725435
162,0.9206044,0.74193674,0.7858782,0.8792791,0.84091115,0.7708788,0.7415556,0.8826331,0.93937707,0.86616445,0.93377244,0.88368464,0.9087182,0.7462036,0.7371302,0.74076617,0.94911724,0.8445135,0.93284106,0.9614185,0.7827509,0.8266923,0.9200932,0.88172525,0.8116929,0.78236973,0.92344725,0.98883855,0.90697855,0.97514826,0.92449874,0.94953233,0.7870177,0.7779444,0.7815802,0.9986942,0.8853276,0.97365516
163,0.92089266,0.74222505,0.7861664,0.8795673,0.84119934,0.7711671,0.7418438,0.88292134,0.93975025,0.8664527,0.93408763,0.8839728,0.9090065,0.7464918,0.7374185,0.74105436,0.9494906,0.84480166,0.9331293,0.96225137,0.78358376,0.82752514,0.92092603,0.8825581,0.8125258,0.7832025,0.92428005,0.9896714,0.90781146,0.9759811,0.9253316,0.9503652,0.78785056,0.77877724,0.7824131,0.9995882,0.88616043,0.974488
164,0.9212253,0.7425577,0.7864991,0.87990004,0.84153205,0.77149975,0.7421765,0.883254,0.94018084,0.8667854,0.93445057,0.88430554,0.9093392,0.7468245,0.7377511,0.741387,0.9499211,0.8451344,0.93346196,0.96285903,0.7841914,0.8281328,0.9215337,0.8831657,0.8131335,0.78381026,0.9248878,0.99027914,0.90841913,0.97658885,0.9259392,0.9509729,0.7884583,0.77938485,0.78302073,1.000236,0.8867681,0.9750957
165,0.92159975,0.74293214,0.7868735,0.8802745,0.8419065,0.7718742,0.74255097,0.8836284,0.94066525,0.86715984,0.93485856,0.88468,0.9097137,0.747199,0.7381256,0.7417615,0.95040554,0.8455089,0.93383646,0.9632873,0.7846196,0.828561,0.9219619,0.883594,0.8135617,0.78423846,0.925316,0.9907073,0.9088473,0.977017,0.9263674,0.9514011,0.7888864,0.77981305,0.78344893,1.0006886,0.8871963,0.97552395
166,0.9220133,0.7433456,0.78728706,0.88068795,0.84232,0.77228767,0.74296445,0.88404197,0.94119996,0.8675733,0.9353085,0.8850935,0.9101271,0.7476125,0.7385391,0.74217504,0.95094013,0.84592235,0.93424994,0.96357137,0.7849037,0.8288451,0.922246,0.88387805,0.81384575,0.78452253,0.92560005,0.9909913,0.90913135,0.97730106,0.9266515,0.95168513,0.78917044,0.7800971,0.783733,1.0009845,0.8874804,0.975808
167,0.92246324,0.7437956,0.7877371,0.88113797,0.84277,0.7727376,0.7434144,0.884492,0.9417815,0.8680233,0.93579775,0.88554347,0.9105771,0.74806243,0.73898906,0.742625,0.9515219,0.8463723,0.9346999,0.96373934,0.7850717,0.8290131,0.92241395,0.884046,0.8140137,0.78469044,0.925768,0.9911593,0.9092993,0.977469,0.9268195,0.95185316,0.78933847,0.7802651,0.783901,1.001155,0.88764834,0.97597593
168,0.92294705,0.74427944,0.7882208,0.8816217,0.8432538,0.7732215,0.7438983,0.88497573,0.94240683,0.86850715,0.93632334,0.8860273,0.9110609,0.7485463,0.7394729,0.74310875,0.95214707,0.8468562,0.9351837,0.9638143,0.7851467,0.8290881,0.922489,0.884121,0.8140887,0.7847655,0.92584306,0.99123436,0.90937436,0.97754407,0.9268945,0.95192814,0.7894135,0.78034014,0.783976,1.0012256,0.8877233,0.976051
169,0.9234622,0.7447946,0.788736,0.8821369,0.84376895,0.77373666,0.74441344,0.88549095,0.9430725,0.8690223,0.9368827,0.88654244,0.91157603,0.7490614,0.7399881,0.7436239,0.95281273,0.84737134,0.93569887,0.9638158,0.7851482,0.8290896,0.9224905,0.8841225,0.8140902,0.78476703,0.92584455,0.99123585,0.90937585,0.97754556,0.926896,0.9519296,0.78941494,0.7803416,0.7839775,1.0012174,0.8877248,0.9760525
