,106,122,133,17,2,218,254,282,294,30,301,302,33,335,339,341,362,5,6,106,122,133,17,2,218,254,282,294,30,301,302,33,335,339,341,362,5,6
0,0.007197067,-0.00038678912,-0.00028347076,-0.00033325894,-0.00023303762,-0.00023037716,-0.0005197543,-0.00013070568,-4.496038e-05,0.01229772,-7.02934e-05,-0.000526924,0.0015191287,-0.00027269556,-0.0007894516,-0.00060421746,0.0050339997,0.004318297,0.013124213,0.007197067,-0.00038678912,-0.00028347076,-0.00033325894,-0.00023303762,-0.00023037716,-0.0005197543,-0.00013070568,-4.496038e-05,0.01229772,-7.02934e-05,-0.000526924,0.0015191287,-0.00027269556,-0.0007894516,-0.00060421746,0.0050339997,0.004318297,0.013124213
1,0.0066599995,-0.00039215997,-0.00028884172,-0.00033862962,-0.0002384086,-0.00023574784,-0.00052512524,-0.00013607636,-5.0330756e-05,0.011760622,-7.566452e-05,-0.00053229404,0.0009820759,-0.00027806623,-0.0007948226,-0.00060958846,0.004496932,0.0037811846,0.01258719,0.0066599995,-0.00039215997,-0.00028884172,-0.00033862962,-0.0002384086,-0.00023574784,-0.00052512524,-0.00013607636,-5.0330756e-05,0.011760652,-7.566452e-05,-0.00053229404,0.0009820759,-0.00027806623,-0.0007948226,-0.00060958846,0.004496932,0.0037811846,0.01258719
2,0.0061632246,-0.000397128,-0.00029380945,-0.00034359767,-0.00024337649,-0.00024071604,-0.0005300933,-0.00014104425,-5.5298657e-05,0.011263832,-8.063242e-05,-0.00053726253,0.0004852265,-0.00028303443,-0.0007997906,-0.00061455666,0.004000142,0.0032843798,0.012090355,0.0061632246,-0.000397128,-0.00029380945,-0.00034359767,-0.00024337649,-0.00024071604,-0.0005300933,-0.00014104425,-5.5298657e-05,0.011263832,-8.063242e-05,-0.00053726253,0.0004852265,-0.00028303443,-0.0007997906,-0.00061455666,0.004000142,0.0032843798,0.012090355
3,0.0057511777,-0.0004012485,-0.00029793024,-0.00034771828,-0.00024749682,-0.0002448362,-0.0005342138,-0.00014516458,-5.941972e-05,0.0108518,-8.475273e-05,-0.000541383,7.3209405e-05,-0.00028715475,-0.0008039108,-0.00061867683,0.0035881102,0.002872333,0.011678323,0.0057511777,-0.0004012485,-0.00029793024,-0.00034771828,-0.00024749682,-0.0002448362,-0.0005342138,-0.00014516458,-5.941972e-05,0.010851786,-8.475273e-05,-0.000541383,7.3209405e-05,-0.00028715475,-0.0008039108,-0.00061867683,0.0035881102,0.002872333,0.011678323
4,0.0054301172,-0.00040445893,-0.00030114068,-0.00035092846,-0.0002507077,-0.00024804697,-0.00053742406,-0.00014837547,-6.2630024e-05,0.010530725,-8.796349e-05,-0.0005445938,-2.4780632e-06,-0.00029036537,-0.0008071217,-0.00062188745,0.0032669902,0.0025513023,0.011357278,0.0054301172,-0.00040445893,-0.00030114068,-0.00035092846,-0.0002507077,-0.00024804697,-0.00053742406,-0.00014837547,-6.2630024e-05,0.010530695,-8.796349e-05,-0.0005445938,-2.4780632e-06,-0.00029036537,-0.0008071217,-0.00062188745,0.0032669902,0.0025513023,0.011357278
5,0.005191371,-0.00040684655,-0.0003035283,-0.0003533159,-0.00025309518,-0.00025043427,-0.0005398117,-0.00015076264,-6.501764e-05,0.0102920085,-9.035036e-05,-0.00054698094,-4.865974e-06,-0.0002927528,-0.00080950884,-0.0006242749,0.0030283183,0.002312541,0.011118516,0.005191371,-0.00040684655,-0.0003035283,-0.0003533159,-0.00025309518,-0.00025043427,-0.0005398117,-0.00015076264,-6.501764e-05,0.010291994,-9.035036e-05,-0.00054698094,-4.865974e-06,-0.0002927528,-0.00080950884,-0.0006242749,0.0030283183,0.002312541,0.011118516
6,0.0050222874,-0.00040853707,-0.00030521883,-0.0003550066,-0.00025478555,-0.00025212497,-0.0005415024,-0.00015245347,-6.670818e-05,0.010122925,-9.204149e-05,-0.00054867135,-6.5562126e-06,-0.00029444337,-0.00081119937,-0.0006259656,0.0028592348,0.0021435022,0.010949478,0.0050222874,-0.00040853707,-0.00030521883,-0.0003550066,-0.00025478555,-0.00025212497,-0.0005415024,-0.00015245347,-6.670818e-05,0.010122925,-9.204149e-05,-0.00054867135,-6.5562126e-06,-0.00029444337,-0.00081119937,-0.0006259656,0.0028592348,0.0021435022,0.010949478
7,0.0049105883,-0.00040965408,-0.00030633583,-0.0003561233,-0.00025590285,-0.0002532421,-0.0005426191,-0.00015357063,-6.782517e-05,0.010011226,-9.3158334e-05,-0.00054978847,-7.673204e-06,-0.00029556034,-0.00081231666,-0.0006270824,0.0027475208,0.0020317882,0.010837764,0.0049105883,-0.00040965408,-0.00030633583,-0.0003561233,-0.00025590285,-0.0002532421,-0.0005426191,-0.00015357063,-6.782517e-05,0.010011211,-9.3158334e-05,-0.00054978847,-7.673204e-06,-0.00029556034,-0.00081231666,-0.0006270824,0.0027475208,0.0020317882,0.010837764
8,0.004845798,-0.00041030257,-0.00030698403,-0.00035677192,-0.00025655105,-0.0002538903,-0.0005432677,-0.00015421883,-6.847337e-05,0.009946376,-9.380728e-05,-0.0005504374,-8.322149e-06,-0.00029620886,-0.00081296515,-0.0006277311,0.002682656,0.0019669533,0.010772899,0.004845798,-0.00041030257,-0.00030698403,-0.00035677192,-0.00025655105,-0.0002538903,-0.0005432677,-0.00015421883,-6.847337e-05,0.009946376,-9.380728e-05,-0.0005504374,-8.322149e-06,-0.00029620886,-0.00081296515,-0.0006277311,0.002682656,0.0019669533,0.010772899
9,0.004819289,-0.00041056707,-0.0003072491,-0.00035703613,-0.00025681598,-0.0002541551,-0.00054353237,-0.00015448361,-6.8738605e-05,0.009919882,-9.407177e-05,-0.0005507019,-8.586347e-06,-0.00029647365,-0.0008132298,-0.0006279954,0.0026562214,0.0019404739,0.010746479,0.004819289,-0.00041056707,-0.0003072491,-0.00035703613,-0.00025681598,-0.0002541551,-0.00054353237,-0.00015448361,-6.8738605e-05,0.009919912,-9.407177e-05,-0.0005507019,-8.586347e-06,-0.00029647365,-0.0008132298,-0.0006279954,0.0026562214,0.0019404739,0.010746479
10,0.0048244894,-0.00041051535,-0.00030719713,-0.00035698427,-0.00025676397,-0.00025410295,-0.00054348033,-0.00015443146,-6.868615e-05,0.009925112,-9.401977e-05,-0.0005506495,-8.534342e-06,-0.00029642164,-0.00081317767,-0.00062794355,0.002661407,0.0019456595,0.01075168,0.0048244894,-0.00041051535,-0.00030719713,-0.00035698427,-0.00025676397,-0.00025410295,-0.00054348033,-0.00015443146,-6.868615e-05,0.009925142,-9.401977e-05,-0.0005506495,-8.534342e-06,-0.00029642164,-0.00081317767,-0.00062794355,0.002661407,0.0019456595,0.01075168
11,0.00485605,-0.0004101996,-0.00030688167,-0.00035666866,-0.00025644852,-0.00025378747,-0.0005431649,-0.000154116,-6.83704e-05,0.009956658,-9.370416e-05,-0.0005503337,-8.218735e-06,-0.00029610618,-0.0008128622,-0.0006276281,0.0026929379,0.0019771904,0.010783225,0.00485605,-0.0004101996,-0.00030688167,-0.00035666866,-0.00025644852,-0.00025378747,-0.0005431649,-0.000154116,-6.83704e-05,0.009956688,-9.370416e-05,-0.0005503337,-8.218735e-06,-0.00029610618,-0.0008128622,-0.0006276281,0.0026929379,0.0019771904,0.010783225
12,0.0049096644,-0.00040966392,-0.00030634552,-0.00035613327,-0.00025591208,-0.0002532515,-0.0005426289,-0.0001535797,-6.783515e-05,0.010010257,-9.316846e-05,-0.0005497986,-7.683038e-06,-0.00029557003,-0.0008123262,-0.00062709226,0.0027465373,0.0020308346,0.01083678,0.0049096644,-0.00040966392,-0.00030634552,-0.00035613327,-0.00025591208,-0.0002532515,-0.0005426289,-0.0001535797,-6.783515e-05,0.010010272,-9.316846e-05,-0.0005497986,-7.683038e-06,-0.00029557003,-0.0008123262,-0.00062709226,0.0027465373,0.0020308346,0.01083678
13,0.004981667,-0.0004089436,-0.00030562506,-0.00035541295,-0.00025519222,-0.00025253117,-0.0005419086,-0.00015285969,-6.711483e-05,0.01008229,-9.24474e-05,-0.0005490781,-6.9627163e-06,-0.00029484957,-0.0008116059,-0.00062637194,0.0028185844,0.0021028817,0.010908812,0.004981667,-0.0004089436,-0.00030562506,-0.00035541295,-0.00025519222,-0.00025253117,-0.0005419086,-0.00015285969,-6.711483e-05,0.01008229,-9.24474e-05,-0.0005490781,-6.9627163e-06,-0.00029484957,-0.0008116059,-0.00062637194,0.0028185844,0.0021028817,0.010908812
14,0.0050690174,-0.00040806993,-0.00030475168,-0.0003545396,-0.0002543184,-0.00025165765,-0.0005410351,-0.00015198633,-6.624088e-05,0.01016964,-9.157434e-05,-0.00054820476,-6.0889124e-06,-0.00029397637,-0.00081073225,-0.0006254983,0.0029059201,0.0021902174,0.0109962225,0.0050690174,-0.00040806993,-0.00030475168,-0.0003545396,-0.0002543184,-0.00025165765,-0.0005410351,-0.00015198633,-6.624088e-05,0.01016967,-9.157434e-05,-0.00054820476,-6.0889124e-06,-0.00029397637,-0.00081073225,-0.0006254983,0.0029059201,0.0021902174,0.0109962225
15,0.0051689297,-0.00040707111,-0.00030375257,-0.00035354032,-0.00025331927,-0.00025065884,-0.0005400361,-0.00015098705,-6.5241904e-05,0.010269538,-9.057522e-05,-0.0005472055,-5.0899384e-06,-0.00029297738,-0.0008097334,-0.00062449946,0.0030058175,0.0022901148,0.01109615,0.0051689297,-0.00040707111,-0.00030375257,-0.00035354032,-0.00025331927,-0.00025065884,-0.0005400361,-0.00015098705,-6.5241904e-05,0.010269538,-9.057522e-05,-0.0005472055,-5.0899384e-06,-0.00029297738,-0.0008097334,-0.00062449946,0.0030058175,0.0022901148,0.01109615
16,0.005278796,-0.00040597245,-0.0003026542,-0.00035244165,-0.00025222107,-0.00024956017,-0.0005389376,-0.00014988868,-6.4143685e-05,0.010379389,-8.947685e-05,-0.000546107,-3.991425e-06,-0.00029187856,-0.0008086349,-0.0006234008,0.0031156987,0.0023999661,0.011205986,0.005296752,-0.00040579302,-0.00030247465,-0.0003522621,-0.00025204182,-0.00024938062,-0.0005387582,-0.00014970913,-6.3964275e-05,0.01039733,-8.9297144e-05,-0.00054592756,-3.812462e-06,-0.0002916993,-0.00080845546,-0.0006232214,0.0031336248,0.0024179071,0.011223868
17,0.005396262,-0.00040479793,-0.00030147968,-0.00035126746,-0.00025104685,-0.00024838565,-0.00053776306,-0.00014871373,-6.296873e-05,0.010496855,-8.830249e-05,-0.00054493203,-2.8170646e-06,-0.00029070408,-0.0008074602,-0.0006222263,0.003233105,0.0025173724,0.011323407,0.005427018,-0.00040449007,-0.00030117168,-0.00035095974,-0.00025073884,-0.0002480778,-0.0005374552,-0.00014840618,-6.266117e-05,0.010527626,-8.799419e-05,-0.00054462446,-2.5095046e-06,-0.0002903965,-0.00080715236,-0.0006219184,0.0032639056,0.002548173,0.011354163
18,0.0055190027,-0.00040357007,-0.000300252,-0.0003500399,-0.00024981887,-0.00024715796,-0.0005365352,-0.00014748632,-6.1741026e-05,0.01061964,-8.707434e-05,-0.0005437045,-1.5896559e-06,-0.0002894765,-0.0008062327,-0.00062099844,0.0033559501,0.0026401877,0.011446163,0.0055568665,-0.00040319143,-0.00029987303,-0.0003496608,-0.0002494399,-0.00024677903,-0.0005361566,-0.00014710754,-6.136223e-05,0.010657519,-8.66954e-05,-0.00054332556,-1.2107193e-06,-0.00028909757,-0.00080585387,-0.0006206198,0.0033937842,0.0026780665,0.011484057
19,0.0056450367,-0.00040230958,-0.00029899133,-0.00034877926,-0.00024855806,-0.00024589762,-0.00053527486,-0.00014622553,-6.048068e-05,0.010745689,-8.58137e-05,-0.0005424443,-3.2901764e-07,-0.00028821602,-0.000804972,-0.00061973825,0.0034819394,0.0027662367,0.011572227,0.005686298,-0.0004018974,-0.00029857887,-0.00034836665,-0.00024814575,-0.00024548516,-0.0005348624,-0.00014581338,-6.006807e-05,0.010786921,-8.540168e-05,-0.00054203224,8.359551e-06,-0.0002878037,-0.00080456,-0.0006193258,0.003523171,0.0028074682,0.011613488
20,0.0057724416,-0.00040103568,-0.0002977176,-0.0003475052,-0.0002472843,-0.00024462372,-0.0005340008,-0.00014495193,-5.9206486e-05,0.010873079,-8.453995e-05,-0.00054117036,9.4518065e-05,-0.00028694212,-0.00080369797,-0.000618464,0.003609389,0.0028936267,0.011699632,0.0058546215,-0.00040021405,-0.00029689565,-0.0003466834,-0.00024646253,-0.00024380177,-0.0005331793,-0.00014413029,-5.8384685e-05,0.010955259,-8.371845e-05,-0.000540348,0.00017669797,-0.0002861203,-0.0008028765,-0.00061764254,0.0036915392,0.0029757768,0.011781797
21,0.005899489,-0.00039976535,-0.00029644714,-0.00034623488,-0.00024601398,-0.00024335354,-0.00053273066,-0.00014368175,-5.7936013e-05,0.011000097,-8.327007e-05,-0.00053990004,0.00022149086,-0.00028567194,-0.0008024281,-0.0006171939,0.003736332,0.0030206442,0.011826605,0.0060091466,-0.00039866878,-0.0002953504,-0.00034513802,-0.00024491712,-0.00024225637,-0.0005316339,-0.00014258444,-5.6839435e-05,0.011109799,-8.2173196e-05,-0.00053880305,0.0003312379,-0.00028457507,-0.0008013311,-0.0006160971,0.003846079,0.0031303167,0.011936337
22,0.0060245693,-0.0003985147,-0.00029519646,-0.00034498377,-0.00024476319,-0.00024210244,-0.00053147983,-0.00014243096,-5.6685654e-05,0.011125162,-8.201942e-05,-0.00053864927,0.0003465861,-0.000284421,-0.0008011772,-0.0006159432,0.0038614422,0.0031457394,0.011951685,0.006149903,-0.0003972609,-0.0002939427,-0.0003437306,-0.0002435097,-0.00024084895,-0.0005302262,-0.00014117733,-5.5431723e-05,0.0112505555,-8.076563e-05,-0.0005373956,0.00047196448,-0.0002831672,-0.0007999235,-0.00061468955,0.003986776,0.003271088,0.012077093
23,0.0061463714,-0.0003972964,-0.0002939783,-0.00034376606,-0.00024354532,-0.00024088442,-0.00053026166,-0.00014121264,-5.5467634e-05,0.011247009,-8.080035e-05,-0.0005374309,0.0004683882,-0.00028320283,-0.000799959,-0.00061472505,0.003983304,0.0032675415,0.012073517,0.006330386,-0.00039545653,-0.00029213814,-0.0003419262,-0.00024170517,-0.00023904443,-0.00052842166,-0.0001393725,-5.362764e-05,0.011430994,-7.896066e-05,-0.0005355909,0.00065240264,-0.00028136297,-0.000798119,-0.0006128849,0.0041672885,0.003451541,0.012257531
24,0.0062637925,-0.0003961225,-0.0002928041,-0.0003425917,-0.0002423708,-0.0002397102,-0.0005290878,-0.00014003842,-5.4292977e-05,0.0113644,-7.9627185e-05,-0.0005362567,0.00058582425,-0.0002820286,-0.0007987848,-0.00061355083,0.0041006655,0.0033849478,0.012190938,0.0064854175,-0.00039390594,-0.0002905877,-0.00034037544,-0.0002401544,-0.00023749366,-0.00052687124,-0.00013782218,-5.2077172e-05,0.011586055,-7.7410186e-05,-0.0005340409,0.0008075237,-0.00027981235,-0.00079656823,-0.0006113343,0.00432235,0.0036066175,0.012412578
25,0.0063833296,-0.0003949268,-0.00029160857,-0.0003413963,-0.0002411753,-0.00023851453,-0.00052789197,-0.00013884305,-5.30979e-05,0.011483952,-7.843107e-05,-0.0005350618,0.0007054359,-0.00028083293,-0.0007975891,-0.0006123552,0.0042202324,0.0035045147,0.01231055,0.006618887,-0.00039257167,-0.000289253,-0.00033904106,-0.00023881986,-0.00023615926,-0.00052553666,-0.00013648778,-5.074203e-05,0.011719495,-7.607609e-05,-0.0005327061,0.0009409338,-0.00027847796,-0.0007952343,-0.00061000005,0.0044557303,0.0037400424,0.012546048
26,0.006494567,-0.00039381473,-0.00029049633,-0.00034028426,-0.00024006322,-0.00023740246,-0.00052677986,-0.00013773098,-5.1986128e-05,0.01159516,-7.731914e-05,-0.0005339493,0.00081659853,-0.00027972102,-0.0007964772,-0.0006112431,0.0043314397,0.0036157072,0.0124216825,0.0067346394,-0.00039141372,-0.00028809533,-0.00033788354,-0.00023766235,-0.00023500144,-0.00052437885,-0.00013532996,-4.9584505e-05,0.011835277,-7.491782e-05,-0.0005315481,0.001056686,-0.00027731984,-0.0007940761,-0.00060884206,0.004571587,0.0038558394,0.01266183
27,0.006597325,-0.000392787,-0.00028946876,-0.00033925608,-0.00023903562,-0.00023637459,-0.0005257523,-0.0001367028,-5.09578e-05,0.011697948,-7.629171e-05,-0.0005329212,0.00091935694,-0.00027869327,-0.0007954493,-0.00061021536,0.004434213,0.0037184805,0.0125245005,0.006885931,-0.00038990093,-0.0002865827,-0.0003363703,-0.00023614957,-0.00023348867,-0.0005228658,-0.0001338166,-4.8072037e-05,0.011986569,-7.3405354e-05,-0.0005300352,0.0012080073,-0.00027580708,-0.00079256325,-0.0006073293,0.0047228485,0.004007116,0.012813091
28,0.00673829,-0.00039137705,-0.0002880588,-0.0003378463,-0.00023762598,-0.00023496507,-0.00052434235,-0.000135293,-4.9548147e-05,0.011838943,-7.4881464e-05,-0.00053151173,0.0010603219,-0.00027728363,-0.00079403934,-0.0006088054,0.0045752376,0.0038594753,0.01266548,0.007009253,-0.00038866742,-0.00028534903,-0.00033513695,-0.00023491621,-0.00023225545,-0.0005216327,-0.00013258368,-4.6838373e-05,0.012109861,-7.217184e-05,-0.0005288024,0.0013313293,-0.000274574,-0.0007913302,-0.00060609577,0.0048461556,0.004130453,0.012936413
29,0.006857142,-0.00039018854,-0.00028687058,-0.0003366582,-0.00023643761,-0.00023377656,-0.0005231538,-0.00013410539,-4.835993e-05,0.01195775,-7.3693096e-05,-0.00053032325,0.0011792034,-0.00027609512,-0.00079285144,-0.000607617,0.0046940446,0.003978312,0.012784287,0.0071865916,-0.00038689404,-0.0002835758,-0.0003333637,-0.00023314267,-0.00023048221,-0.0005198593,-0.00013081044,-4.5065135e-05,0.0122871995,-7.039815e-05,-0.00052702875,0.0015086681,-0.00027280048,-0.00078955677,-0.00060432253,0.0050234944,0.0043078065,0.013113782
30,0.006957844,-0.00038918195,-0.00028586373,-0.00033565162,-0.00023543074,-0.00023276985,-0.0005221471,-0.00013309791,-4.7353056e-05,0.012058437,-7.268637e-05,-0.00052931637,0.0012798756,-0.0002750884,-0.0007918443,-0.0006066103,0.0047947317,0.0040789843,0.012884989,0.007322952,-0.00038553058,-0.0002822122,-0.0003320001,-0.00023177921,-0.00022911861,-0.00051849574,-0.00012944684,-4.370153e-05,0.01242359,-6.903499e-05,-0.0005256653,0.0016450137,-0.00027143702,-0.000788193,-0.00060295896,0.0051598996,0.004444167,0.013250127
31,0.0070429742,-0.00038833052,-0.00028501227,-0.00033479973,-0.000234579,-0.00023191838,-0.00052129565,-0.0001322469,-4.6501456e-05,0.012143567,-7.183492e-05,-0.0005284655,0.0013650358,-0.00027423695,-0.0007909931,-0.0006057587,0.004879847,0.0041641444,0.012970164,0.0074284524,-0.00038447572,-0.0002811575,-0.0003309454,-0.00023072436,-0.00022806361,-0.0005174409,-0.00012839139,-4.2646825e-05,0.012529075,-6.798014e-05,-0.00052461086,0.0017505288,-0.000270382,-0.0007871382,-0.00060190423,0.00526537,0.0045496374,0.013355643
32,0.0071146786,-0.00038761317,-0.00028429477,-0.00033408284,-0.00023386179,-0.00023120105,-0.0005205783,-0.00013152912,-4.5784265e-05,0.012215316,-7.111758e-05,-0.00052774814,0.00143677,-0.00027351946,-0.00079027563,-0.0006050417,0.004951626,0.0042358786,0.013041899,0.007509008,-0.00038367018,-0.0002803518,-0.0003301394,-0.0002299188,-0.0002272579,-0.0005166353,-0.00012758657,-4.184112e-05,0.012609616,-6.717458e-05,-0.00052380486,0.0018310845,-0.0002695763,-0.00078633265,-0.00060109835,0.005345881,0.004630193,0.013436168
33,0.007174775,-0.00038701235,-0.00028369395,-0.00033348173,-0.00023326099,-0.00023060008,-0.0005199775,-0.0001309286,-4.518345e-05,0.012275398,-7.051676e-05,-0.0005271466,0.0014968514,-0.0002729185,-0.0007896748,-0.0006044407,0.0050117075,0.004295975,0.013101935,0.0075693578,-0.00038306683,-0.00027974858,-0.00032953604,-0.0002293156,-0.0002266544,-0.0005160321,-0.00012698292,-4.123807e-05,0.012669951,-6.657108e-05,-0.00052320166,0.0018913448,-0.00026897312,-0.00078572944,-0.0006004952,0.0054062307,0.004690528,0.013496473
34,0.007224664,-0.00038651345,-0.0002831949,-0.00033298298,-0.0002327618,-0.00023010104,-0.00051947864,-0.00013042927,-4.468441e-05,0.012325302,-7.0017726e-05,-0.0005266484,0.0015467256,-0.0002724196,-0.0007891759,-0.0006039418,0.0050616115,0.004345879,0.013151839,0.0076132417,-0.00038262783,-0.0002793096,-0.00032909765,-0.00022887661,-0.00022621572,-0.000515593,-0.00012654394,-4.0798932e-05,0.012713835,-6.6132096e-05,-0.00052276225,0.0019352734,-0.00026853426,-0.00078529015,-0.0006000562,0.0054501444,0.004734397,0.013540387
35,0.007265672,-0.00038610352,-0.0002827853,-0.00033257334,-0.00023235202,-0.00022969126,-0.0005190687,-0.00013001963,-4.4274628e-05,0.01236628,-6.960809e-05,-0.00052623823,0.0015877038,-0.00027200967,-0.00078876584,-0.0006035319,0.005102575,0.004386857,0.013192788,0.0109184235,-0.00034957586,-0.00024625764,-0.00029604568,-0.0001958245,-0.00019316375,-0.000482541,-9.349212e-05,-7.747262e-06,0.016019061,-3.308028e-05,-0.0004897104,0.0052404553,-0.000235482,-0.00075223844,-0.0005670044,0.008755356,0.008039609,0.016845569
36,0.007351488,-0.0003852455,-0.00028192715,-0.0003317149,-0.000231494,-0.0002288334,-0.0005182108,-0.00012916148,-4.341602e-05,0.012452081,-6.875053e-05,-0.0005253801,0.0016734898,-0.0002711518,-0.0007879081,-0.00060267415,0.005188331,0.0044726282,0.013278633,0.016182408,-0.00029693573,-0.0001936175,-0.0002434051,-0.00014318421,-0.00014052347,-0.0004299009,-4.085183e-05,0.0044893026,0.02128306,0.0019559711,-0.0004370704,0.010504499,-0.00018284217,-0.00069959805,-0.0005143641,0.014019355,0.013303608,0.022109628
37,0.0074147433,-0.0003846124,-0.00028129443,-0.00033108218,-0.00023086116,-0.0002282004,-0.0005175777,-0.00012852892,-4.2783468e-05,0.012515381,-6.811693e-05,-0.0005247468,0.0017368495,-0.00027051894,-0.00078727497,-0.000602041,0.0052516907,0.004535958,0.0133419335,0.019690886,-0.00026185124,-0.00015853286,-0.00020832031,-0.00010809988,-0.000105439125,-0.0003948164,-5.7670472e-06,0.007997781,0.024791524,0.0054644197,-0.00040198577,0.014012948,-0.00014775767,-0.00066451356,-0.0004792796,0.017527774,0.016812056,0.025618076
38,0.0075339973,-0.0003834203,-0.00028010175,-0.0003298895,-0.00022966861,-0.00022700801,-0.00051638525,-0.00012733668,-4.1591375e-05,0.01263462,-6.692439e-05,-0.000523555,0.0018560588,-0.00026932656,-0.0007860827,-0.00060084875,0.0053709,0.0046551973,0.013461158,0.021784052,-0.00024091988,-0.00013760164,-0.00018738939,-8.716851e-05,-8.4507614e-05,-0.00037388518,0.0015163869,0.010090888,0.026884675,0.007557586,-0.00038105441,0.016106084,-0.00012682631,-0.0006435823,-0.00045834822,0.01962097,0.018905222,0.027711168
39,0.0076194853,-0.0003825651,-0.00027924686,-0.00032903478,-0.00022881359,-0.00022615283,-0.0005155304,-0.00012648151,-4.07362e-05,0.012720138,-6.606922e-05,-0.0005226998,0.0019415468,-0.0002684717,-0.0007852276,-0.0005999936,0.005456418,0.004740685,0.013546675,0.022746772,-0.0002312927,-0.00012797445,-0.00017776221,-7.754117e-05,-7.4880714e-05,-0.00036425784,0.0024791062,0.011053607,0.027847394,0.008520305,-0.00037142768,0.017068848,-0.00011719912,-0.0006339551,-0.00044872105,0.02058369,0.019867957,0.028673902
40,0.016405493,-0.00029470533,-0.00019138708,-0.00024117454,-0.00014095395,-0.00013829321,-0.00042767063,-3.8621423e-05,0.004712403,0.0215061,0.0021790117,-0.00043484,0.01072754,-0.00018061175,-0.00069736794,-0.0005121337,0.014242396,0.013526648,0.022332683,0.02281569,-0.00023060336,-0.00012728512,-0.00017707303,-7.6851844e-05,-7.4191536e-05,-0.00036356866,0.002548039,0.011122555,0.027916297,0.008589223,-0.0003707385,0.017137721,-0.00011650994,-0.00063326594,-0.0004480317,0.020652562,0.01993686,0.02874279
41,0.025317714,-0.00020558311,-0.00010226488,-0.00015205279,-5.183175e-05,-4.917085e-05,-0.00033854842,0.005050093,0.0136246085,0.030418336,0.011091277,-0.0003457175,0.01963976,-9.1489404e-05,-0.00060824555,-0.0004230115,0.023154661,0.022438884,0.031244874,0.02218847,-0.00023687555,-0.00013355746,-0.00018334508,-8.312448e-05,-8.046344e-05,-0.0003698407,0.0019208342,0.01049532,0.027289078,0.007961974,-0.0003770104,0.016510487,-0.00012278199,-0.00063953816,-0.0004543039,0.020025358,0.019309655,0.0281156
42,0.031621024,-0.00014255017,-3.9231778e-05,-8.901968e-05,0.0011201352,0.0013861954,-0.0002755153,0.011353329,0.019927874,0.036721617,0.017394572,-0.00028268486,0.025943056,-2.8456448e-05,-0.0005452126,-0.00035997853,0.029457912,0.02874221,0.03754811,0.023694724,-0.00022181317,-0.00011849448,-0.00016828223,-6.80615e-05,-6.54009e-05,-0.00035477802,0.0034270883,0.012001574,0.028795332,0.009468317,-0.0003619474,0.018016756,-0.0001077193,-0.0006244755,-0.0004392412,0.021531627,0.020815939,0.02962187
43,0.04564421,-2.3180246e-06,0.010100022,0.005121246,0.015143335,0.015409425,-0.00013528332,0.025376588,0.033951104,0.05074486,0.031417802,-0.00014245226,0.03996627,0.011177555,-0.00040498032,-0.00021974638,0.04348115,0.0427654,0.0515714,0.02399841,-0.00021877601,-0.000115457624,-0.00016524568,-6.5024644e-05,-6.236404e-05,-0.0003517413,0.0037308037,0.012305304,0.029099032,0.009771973,-0.00035891085,0.018320456,-0.000104682294,-0.0006214383,-0.00043620451,0.021835357,0.02111961,0.02992557
44,0.0551996,0.009323567,0.019655392,0.0146766305,0.024698704,0.024964795,-3.9729475e-05,0.034931958,0.04350646,0.060300224,0.040973186,-4.689872e-05,0.049521625,0.020732954,-0.00030942663,-0.00012419283,0.053036474,0.05232075,0.06112674,0.023581058,-0.00022294938,-0.00011963114,-0.00016941919,-6.919816e-05,-6.653741e-05,-0.00035591467,0.003313437,0.011887953,0.028681695,0.009354651,-0.00036308408,0.01790312,-0.00010885566,-0.0006256118,-0.0004403779,0.02141796,0.020702273,0.029508248
45,0.069865525,0.023989499,0.034321323,0.029342532,0.039364636,0.03963071,0.010692969,0.04959789,0.058172427,0.074966125,0.055639043,0.009976029,0.06418758,0.035398856,-0.00016276761,0.002246648,0.06770243,0.06698674,0.07579266,0.022627428,-0.00023248582,-0.00012916744,-0.00017895534,-7.8734454e-05,-7.6073855e-05,-0.00036545112,0.0023597926,0.010934338,0.027728036,0.008400962,-0.00037262036,0.016949505,-0.0001183924,-0.00063514855,-0.00044991417,0.020464301,0.019748598,0.028554618
46,0.079937436,0.034061387,0.044393204,0.03941442,0.04943654,0.049702585,0.020764858,0.059669733,0.068244234,0.08503801,0.065710925,0.020047903,0.07425946,0.04547073,-6.204873e-05,0.012318522,0.07777431,0.07705857,0.085864514,0.021295339,-0.0002458073,-0.00014248877,-0.00019227654,-9.2055794e-05,-8.9394896e-05,-0.00037877247,0.0010276586,0.009602129,0.026395932,0.0070688725,-0.000385942,0.015617341,-0.00013171359,-0.0006484696,-0.00046323566,0.019132212,0.01841648,0.02722241
47,0.09493109,0.049055077,0.059386894,0.054408148,0.064430214,0.0646963,0.035758585,0.0746635,0.08323799,0.10003174,0.08070465,0.03504166,0.08925316,0.06046444,0.008788824,0.027312264,0.092768036,0.092052296,0.10085827,0.019717395,-0.0002615866,-0.00015826806,-0.00020805612,-0.00010783508,-0.00010517418,-0.0003945516,-5.5025516e-06,0.0080242455,0.024817988,0.005490914,-0.00040172113,0.014039427,-0.00014749289,-0.00066424906,-0.0004790148,0.017554298,0.01683858,0.02564454
48,0.10518476,0.05930873,0.069640554,0.06466178,0.07468387,0.074949965,0.046012223,0.08491715,0.09349164,0.11028536,0.090958245,0.04529529,0.09950678,0.07049277,0.019042477,0.037565887,0.10302164,0.10230593,0.11111193,0.01940374,-0.00026472256,-0.00016140415,-0.00021119222,-0.00011097103,-0.00010831028,-0.0003976877,-8.638948e-06,0.0077106357,0.024504393,0.005177334,-0.00040485695,0.013725832,-0.00015062898,-0.0006673848,-0.0004821509,0.017240718,0.01652497,0.025330931
49,0.11226335,0.06638729,0.07671913,0.07174039,0.081762455,0.08202851,0.05309079,0.091995716,0.10057021,0.11736396,0.098036885,0.052373856,0.10658538,0.07711457,0.026121065,0.044644453,0.110100195,0.10938451,0.11819052,0.018611923,-0.00027264087,-0.00016932264,-0.000219111,-0.00011888966,-0.000116228905,-0.00040560603,-1.6557127e-05,0.006918788,0.02371253,0.0043854713,-0.0004127754,0.0129339695,-0.00015854731,-0.00067530334,-0.0004900694,0.016448855,0.015733108,0.024539068
50,0.116780765,0.070904754,0.08123659,0.07625783,0.0862799,0.08654597,0.057608247,0.09651313,0.10508767,0.121881366,0.10255432,0.056891263,0.11110285,0.08134051,0.030638486,0.04916191,0.114617676,0.11390198,0.12270793,0.017631114,-0.0002824487,-0.00017913042,-0.00022891833,-0.00012869746,-0.00012603684,-0.00041541396,-2.636507e-05,0.0059380233,0.022731751,0.0034047216,-0.00042258337,0.01195319,-0.00016835525,-0.00068511144,-0.0004998773,0.015468061,0.014752328,0.023558319
51,0.12863666,0.08276064,0.093092464,0.08811368,0.09813578,0.09840185,0.069464155,0.10836904,0.11694355,0.13373727,0.11441021,0.06874719,0.12295875,0.092431344,0.042494386,0.06101782,0.12647359,0.12575786,0.13456383,0.02079533,-0.0002508071,-0.00014748886,-0.00019727676,-9.705588e-05,-9.439513e-05,-0.00038377225,0.0005276948,0.009102166,0.025895923,0.0065688193,-0.0003909421,0.015117362,-0.00013671338,-0.0006534695,-0.00046823546,0.018632203,0.0179165,0.026722476
52,0.13624538,0.090369366,0.100701205,0.09572241,0.105744496,0.10601057,0.07707285,0.11597776,0.12455225,0.14134602,0.122018985,0.07635592,0.13056742,0.09954906,0.050103128,0.06862653,0.13408229,0.13336655,0.14217253,0.022657216,-0.00023218825,-0.00012886985,-0.00017865776,-7.843688e-05,-7.577598e-05,-0.0003651534,0.0023895502,0.010964051,0.027757794,0.008430749,-0.00037232265,0.016979247,-0.00011809438,-0.0006348507,-0.0004496166,0.020494118,0.019778386,0.028584346
53,0.15329528,0.10741924,0.11775107,0.11277229,0.12279436,0.12306046,0.094122745,0.13302766,0.14160217,0.15839589,0.13906877,0.09340581,0.14761731,0.11549875,0.067153014,0.08567641,0.15113221,0.15041643,0.15922245,0.02896966,-0.00016906395,-6.574556e-05,-0.00011553332,-1.5312731e-05,-1.2651682e-05,-0.0003020291,0.008701995,0.01727657,0.034070253,0.014743179,-0.00030919834,0.023291662,-5.4970234e-05,-0.0005717264,-0.00038649247,0.026806504,0.0260908,0.034896776
54,0.17857072,0.1326947,0.14271073,0.13804775,0.14806983,0.14833593,0.11939822,0.15830308,0.1668776,0.18367136,0.1643443,0.11868128,0.17289284,0.13914321,0.0924285,0.110951886,0.17640768,0.17569196,0.18449788,0.033351094,-0.00012524961,-2.1931379e-05,-7.171899e-05,0.002850175,0.003116265,-0.00025821477,0.013083443,0.021657929,0.038451657,0.019124627,-0.000265384,0.027673155,-1.1155903e-05,-0.00052791194,-0.00034267796,0.031187981,0.030472249,0.039278224
55,0.19698972,0.15111372,0.15994115,0.15646675,0.16648884,0.16675493,0.13781719,0.17672211,0.18529662,0.20209037,0.18276331,0.13710026,0.19131176,0.15637363,0.11084746,0.12937087,0.19482666,0.19411093,0.2029169,0.036708936,-9.167135e-05,0.0011646897,-3.8140268e-05,0.0062080324,0.0064740926,-0.00022463663,0.01644127,0.025015786,0.041809484,0.022482395,-0.00023180588,0.031030938,0.0022422373,-0.0004943338,-0.00030909985,0.03454578,0.03383006,0.042636015
56,0.21103239,0.16515636,0.17307763,0.17050941,0.18053149,0.18079755,0.15185985,0.19076474,0.19933927,0.21613301,0.1968059,0.15114291,0.2053544,0.16951011,0.124890104,0.14341351,0.20886931,0.20815355,0.21695955,0.041619718,-4.256308e-05,0.0060755163,0.0010967106,0.011118829,0.011384904,-0.00017552837,0.021352082,0.029926583,0.046720326,0.027393237,-0.00018269748,0.03594178,0.007153064,-0.00044522554,-0.00025999144,0.03945662,0.03874086,0.047546864
57,0.23380816,0.18793215,0.1943837,0.1932852,0.20330729,0.20357335,0.17463562,0.21354054,0.22211498,0.2389088,0.2195817,0.17391871,0.2281302,0.1908162,0.14766589,0.16618928,0.23164505,0.23066191,0.23973534,0.04528217,-5.9382614e-06,0.009737983,0.0047592074,0.014781281,0.015047371,-0.00013890356,0.025014535,0.033589065,0.050382793,0.031055748,-0.0001460731,0.03960423,0.010815531,-0.00040860087,-0.00022336676,0.043119103,0.042403333,0.0512093
58,0.25020903,0.20433302,0.20972624,0.20968609,0.21970814,0.21997422,0.1910365,0.2299414,0.23851591,0.25530967,0.23598255,0.19031957,0.2445311,0.20615873,0.16406678,0.18259017,0.248046,0.24600449,0.2561362,0.05244796,0.0065719485,0.016903788,0.011924997,0.021947086,0.022213146,-6.724566e-05,0.03218034,0.040754862,0.057548583,0.038221553,-7.441505e-05,0.046769984,0.01798129,-0.00033694296,-0.00015170887,0.050284833,0.04956913,0.058375105
59,0.26271826,0.21684225,0.22142826,0.22219528,0.23221734,0.23248348,0.20354572,0.24245062,0.25102514,0.26781887,0.24849182,0.20282876,0.2570403,0.21786074,0.17657597,0.1950994,0.2605552,0.25770652,0.26864544,0.05783911,0.011963069,0.022294909,0.017316118,0.027338207,0.027604282,-1.3334602e-05,0.037571475,0.046146005,0.06293971,0.043612637,-2.0503849e-05,0.052161105,0.023372427,-0.00028303175,-9.779766e-05,0.05567602,0.054960243,0.063766226
60,0.28027594,0.23351693,0.23785299,0.23975298,0.24977507,0.25004113,0.2211034,0.26000834,0.26858282,0.28537658,0.26604953,0.22038649,0.27459797,0.23428543,0.19413368,0.21265708,0.27811292,0.2741312,0.28620312,0.062294565,0.016418546,0.02675037,0.02177158,0.031793684,0.032059774,0.0031220317,0.042026952,0.050601467,0.06739518,0.04806813,0.002405107,0.056616604,0.027827904,-0.00023847699,-5.324289e-05,0.060131513,0.05941572,0.068221755
61,0.3038339,0.25555468,0.2598907,0.2633109,0.27333295,0.2735991,0.24466132,0.28356624,0.29214078,0.30893448,0.28960744,0.24394438,0.29815593,0.2563232,0.2176916,0.23621503,0.3016708,0.29616895,0.30976105,0.07088292,0.025006905,0.035338745,0.030359954,0.04038205,0.040648118,0.01171039,0.050615296,0.05918981,0.07598351,0.056656443,0.010993496,0.065204985,0.036416292,-0.0001525934,0.0032640547,0.068719834,0.0680041,0.0768101
62,0.3212018,0.2718019,0.27613795,0.2806788,0.2907009,0.29036415,0.2620293,0.3009342,0.30950868,0.32630247,0.3069754,0.26131234,0.31552386,0.27257037,0.23505953,0.25358295,0.3190387,0.31241614,0.32712898,0.07752418,0.031648144,0.041979976,0.037001193,0.04702331,0.04728938,0.01835163,0.057256505,0.06583102,0.08262477,0.06329771,0.01763466,0.071846254,0.04305751,-8.618101e-05,0.009905279,0.0753611,0.0746453,0.083451286
63,0.33479595,0.28451878,0.2888548,0.29427302,0.3042951,0.30308104,0.27562338,0.31452835,0.32310283,0.33989656,0.32056952,0.27490652,0.329118,0.28528732,0.24865371,0.26717705,0.33263287,0.32513303,0.34072313,0.083173186,0.037297174,0.047628976,0.04265023,0.05267231,0.052938364,0.02400066,0.06290554,0.07148011,0.08827381,0.06894672,0.023283705,0.077495255,0.04870653,-2.969086e-05,0.015554324,0.08101005,0.08029437,0.089100346
64,0.34524867,0.29429698,0.298633,0.3047257,0.3147478,0.31285924,0.28607607,0.32498103,0.3335555,0.35034925,0.3310222,0.2853592,0.3395707,0.29506552,0.2591064,0.27762976,0.34308556,0.33491123,0.35117584,0.0880749,0.04219889,0.0525307,0.047551937,0.057574026,0.05784008,0.028902352,0.06780726,0.076381795,0.09317552,0.073848456,0.028185427,0.082396924,0.05360824,0.0019326061,0.020456016,0.085911766,0.08519605,0.09400206
65,0.3596943,0.3078105,0.3121465,0.31917134,0.3291934,0.32637274,0.30052173,0.3394267,0.34800118,0.3647949,0.34546787,0.29980484,0.3540163,0.30857897,0.27355203,0.29207543,0.35753122,0.3484248,0.3656215,0.094015636,0.04813961,0.05847144,0.053492665,0.06351474,0.06378082,0.034843087,0.07374802,0.08232254,0.09911626,0.07978914,0.034126148,0.08833768,0.05954898,0.007873356,0.026396781,0.09185252,0.09113679,0.099942796
66,0.3701043,0.3175487,0.32188472,0.32958132,0.33960342,0.33611095,0.31093174,0.34983668,0.35841116,0.3752049,0.35587782,0.31021485,0.36442634,0.31831723,0.28396204,0.3024854,0.36794114,0.35816294,0.3760315,0.0991056,0.053229585,0.063561425,0.05858264,0.06860472,0.068870805,0.03993307,0.07883798,0.0874125,0.1042062,0.08487916,0.039216146,0.093427666,0.06463893,0.0129633695,0.03148675,0.096942544,0.09622678,0.10503276
67,0.3781654,0.32508963,0.32942563,0.33764243,0.34766448,0.34365186,0.31899282,0.3578978,0.3664723,0.38326603,0.3639389,0.31827593,0.37248743,0.32585815,0.29202312,0.31054652,0.37600225,0.36570394,0.38409257,0.10376549,0.057889454,0.06822127,0.06324253,0.07326459,0.073530644,0.044592917,0.08349785,0.09207234,0.108866096,0.08953899,0.043875962,0.098087534,0.06916502,0.017623201,0.036146596,0.10160233,0.10088664,0.10969259
68,0.3843086,0.3308364,0.33517244,0.34378558,0.3538077,0.34939867,0.32513604,0.36404094,0.3726155,0.38940918,0.37008214,0.3244191,0.37863064,0.3316049,0.29816633,0.31668973,0.38214546,0.3714507,0.39023572,0.10814327,0.062267274,0.072599106,0.067620315,0.077642396,0.07790847,0.04897075,0.087875634,0.09645018,0.1132439,0.09391686,0.048253804,0.1024653,0.073260345,0.022001013,0.04052443,0.1059802,0.105264455,0.11407044
69,0.38892266,0.33515272,0.33948874,0.3483997,0.3584218,0.35371494,0.3297501,0.36865503,0.37722954,0.39402327,0.37469614,0.32903317,0.38324463,0.33592123,0.30278036,0.32130378,0.38675955,0.37576702,0.3948498,0.115812816,0.06993679,0.08026862,0.07528985,0.08531195,0.08557801,0.056640267,0.0955452,0.10411967,0.120913446,0.10158633,0.055923305,0.11013486,0.08043495,0.029670566,0.04819396,0.11364971,0.112934,0.12173998
70,0.3923394,0.33834898,0.342685,0.35181648,0.36183852,0.35691124,0.33316684,0.3720718,0.38064626,0.39744002,0.3781129,0.33244997,0.38666147,0.33911753,0.30619717,0.32472053,0.3901763,0.3789633,0.3982666,0.12234281,0.07646681,0.086798646,0.08181985,0.091841966,0.09210803,0.06317031,0.10207519,0.11064974,0.12744346,0.1081164,0.06245338,0.11666493,0.086543635,0.036200583,0.05472397,0.12017979,0.119464055,0.12827
71,0.40541112,0.35057718,0.3549132,0.36488813,0.37491024,0.36913943,0.34623855,0.3851435,0.393718,0.41051176,0.3911847,0.34552163,0.39973316,0.3513457,0.31926882,0.33779222,0.40324798,0.39119148,0.41133827,0.12846002,0.082583986,0.09291581,0.08793706,0.09795914,0.098225206,0.06928745,0.1081924,0.116766885,0.13356063,0.11423354,0.06857048,0.12278208,0.09226606,0.042317748,0.060841113,0.12629688,0.1255812,0.13438714
72,0.41451126,0.3590901,0.36342615,0.37398827,0.38401037,0.37765238,0.35533866,0.3942436,0.40281814,0.41961187,0.40028477,0.35462177,0.40883327,0.35985857,0.32836902,0.34689242,0.41234815,0.3997044,0.4204384,0.13655496,0.09067894,0.10101077,0.09603199,0.10605408,0.10632016,0.07738243,0.116287336,0.12486185,0.14165556,0.122328505,0.07666549,0.13087703,0.09983866,0.050412692,0.068936095,0.1343919,0.13367617,0.14248213
73,0.43259376,0.37600574,0.38034183,0.39207077,0.40209287,0.39456803,0.37342122,0.4123261,0.42090064,0.43769437,0.41836727,0.37270427,0.42691582,0.37677425,0.34645146,0.36497492,0.43043065,0.41662002,0.43852085,0.14377448,0.09789847,0.10823026,0.10325152,0.11327358,0.113539666,0.08460193,0.123506844,0.13208136,0.1488751,0.12954804,0.08388501,0.13809651,0.10659228,0.057632193,0.07615559,0.14161138,0.1408957,0.14970164
74,0.44607788,0.38861972,0.39295575,0.4055549,0.415577,0.407182,0.3869053,0.42581028,0.4343847,0.45117843,0.43185145,0.3861884,0.4403999,0.38938826,0.35993558,0.37845898,0.44391477,0.42923397,0.45200503,0.15064915,0.1047731,0.11510491,0.11012616,0.12014826,0.12041432,0.0914766,0.13038151,0.13895597,0.15574977,0.13642265,0.090759695,0.14497118,0.11302331,0.06450685,0.083030276,0.14848603,0.1477703,0.1565763
75,0.46714753,0.40832978,0.41266584,0.42662454,0.43664664,0.42689204,0.40797496,0.44687986,0.45545435,0.47224814,0.45292103,0.40725797,0.4614696,0.40909827,0.38100523,0.39952868,0.46498442,0.44894403,0.47307462,0.15981042,0.113934375,0.12426621,0.11928746,0.1293095,0.1295756,0.10063788,0.13954276,0.14811727,0.16491105,0.14558393,0.09992092,0.15413247,0.12159343,0.07366816,0.09219155,0.15764733,0.15693161,0.16573757
76,0.48333144,0.42346936,0.42780536,0.4428084,0.45247817,0.44203156,0.4241588,0.46306378,0.4716382,0.48811382,0.46910495,0.42344183,0.47765344,0.42423785,0.39718914,0.41571248,0.48116827,0.46408355,0.48925847,0.16805188,0.122175865,0.13250771,0.12752889,0.13755102,0.1378171,0.10887936,0.14778425,0.1563588,0.1731525,0.15382545,0.10816243,0.16237397,0.12930311,0.081909634,0.100433044,0.16588883,0.1651731,0.17397904
77,0.49713373,0.43638104,0.4407171,0.4566108,0.46538985,0.4549433,0.43796122,0.47686613,0.48544067,0.5010256,0.4829073,0.4372443,0.49100757,0.43714952,0.4109915,0.42951488,0.49497068,0.47699535,0.50306094,0.17595467,0.13007866,0.14026345,0.13543168,0.14545377,0.14571987,0.11678214,0.15568705,0.16426155,0.18105529,0.1617282,0.11606519,0.17027675,0.13669592,0.08981241,0.10833581,0.17379159,0.17307588,0.18188183
78,0.51546025,0.45352495,0.45786095,0.47493726,0.48253375,0.4720872,0.45628768,0.4951926,0.5037671,0.51816946,0.5012338,0.45557076,0.50815135,0.45429343,0.42931795,0.44784135,0.5132971,0.4941392,0.52138734,0.18839173,0.1425157,0.15189792,0.14786877,0.15789083,0.15815693,0.12921919,0.1681241,0.17669864,0.19349235,0.1741653,0.12850225,0.18271375,0.14833042,0.102249466,0.12077287,0.18622866,0.18551289,0.19431889
79,0.52990925,0.46704155,0.4713776,0.48938626,0.49605036,0.4856038,0.47073668,0.50964165,0.5182161,0.5316861,0.51568276,0.47001976,0.521668,0.4678101,0.44376695,0.4622904,0.52774614,0.50765586,0.5358364,0.19920689,0.15333083,0.16201515,0.1586839,0.16870597,0.16897206,0.1400343,0.17893925,0.18751377,0.20430748,0.18498036,0.1393174,0.19352889,0.15844764,0.11306458,0.13158798,0.19704373,0.19632801,0.20513402
80,0.54240304,0.47872913,0.48306513,0.50188005,0.50773793,0.4972914,0.48323047,0.52213544,0.5307099,0.54337364,0.5281766,0.48251355,0.5333556,0.4794976,0.45626074,0.47478414,0.54023993,0.51934344,0.5483302,0.20943,0.16355395,0.17157856,0.168907,0.17892908,0.17919515,0.15025744,0.18916236,0.19773687,0.21453059,0.19520348,0.14954053,0.20375201,0.16801108,0.12328769,0.1418111,0.20726687,0.20655115,0.21535714
81,0.55328834,0.488912,0.4932481,0.5127654,0.51792085,0.50747424,0.49411577,0.53302073,0.5415952,0.55355656,0.5390619,0.49339885,0.54353845,0.48968053,0.4671461,0.4856695,0.55112517,0.5295263,0.5592155,0.21918628,0.17331025,0.1807053,0.17866328,0.18868539,0.18895145,0.1600137,0.19891864,0.20749313,0.22428691,0.20495978,0.15929675,0.21350831,0.17713779,0.13304399,0.15156737,0.21702316,0.21630743,0.22511342
82,0.5716166,0.50605756,0.51039356,0.5310936,0.53506637,0.5246198,0.512444,0.5513489,0.5599234,0.5707021,0.55739015,0.5117271,0.56068397,0.50682604,0.4854743,0.50399774,0.5694534,0.5466718,0.5775437,0.23409127,0.18821524,0.19464853,0.19356827,0.20359036,0.20385647,0.17491874,0.21382366,0.22239815,0.23919189,0.21986482,0.17420179,0.22841328,0.191081,0.14794901,0.1664724,0.2319282,0.23092678,0.24001843
83,0.5856641,0.51919854,0.5235346,0.5451411,0.5482074,0.5377608,0.5264915,0.5653964,0.573971,0.5838431,0.5714376,0.52577466,0.573825,0.5199671,0.4995218,0.5180452,0.583501,0.55981284,0.59159124,0.24706489,0.20118886,0.20678495,0.20654194,0.21656397,0.21683009,0.18789235,0.22679725,0.23537175,0.25216556,0.23283842,0.1871754,0.24138695,0.20321745,0.16092263,0.179446,0.24490179,0.2430632,0.25299203
84,0.59804094,0.53077674,0.53511274,0.55751795,0.5597856,0.54933894,0.53886837,0.57777333,0.58634776,0.59542125,0.58381444,0.5381514,0.5854032,0.5315453,0.5118987,0.53042203,0.5958778,0.571391,0.603968,0.2593081,0.21343204,0.21823812,0.21878514,0.22880715,0.22907329,0.20013553,0.2390404,0.24761492,0.26440874,0.2450816,0.19941857,0.25363013,0.21467058,0.17316581,0.1916892,0.257145,0.25451633,0.26523522
85,0.6180842,0.5495267,0.55386263,0.5775612,0.5785355,0.5680888,0.55081123,0.5978166,0.6063911,0.6141711,0.60385776,0.5581947,0.6041531,0.5502952,0.53194195,0.5413484,0.6159211,0.5901409,0.62401134,0.2709467,0.22478966,0.22912571,0.23042375,0.24044582,0.24071187,0.21177416,0.25067908,0.2592536,0.27604735,0.25672022,0.21105725,0.26526874,0.22555816,0.18480442,0.20332783,0.26878363,0.2654039,0.2768739
86,0.632508,0.5626843,0.5681829,0.5928692,0.59285563,0.5824091,0.5590743,0.61312455,0.6216991,0.62849134,0.6191657,0.57350266,0.61847323,0.5646153,0.5472499,0.5496115,0.631229,0.6044611,0.6393193,0.28211087,0.23523337,0.23956943,0.24158785,0.25160992,0.25187606,0.2229383,0.2618432,0.2704177,0.28721154,0.26788437,0.22222136,0.2764329,0.23600188,0.19596857,0.21449196,0.27994776,0.27584764,0.288038
87,0.65401816,0.5736124,0.58969307,0.6158632,0.6143658,0.6009787,0.57148623,0.63611853,0.6446931,0.6500016,0.64215976,0.5964967,0.6399835,0.583114,0.56496304,0.5620234,0.654223,0.62597126,0.66231334,0.29290998,0.24533567,0.24967173,0.25238705,0.2624091,0.26267523,0.23373745,0.27264237,0.28121686,0.29801062,0.27868354,0.23302051,0.287232,0.24610418,0.20676772,0.22529113,0.29074693,0.28594998,0.29883718
88,0.67030317,0.5818859,0.60597795,0.63327146,0.6306508,0.6092521,0.580883,0.65352684,0.6621013,0.6662865,0.659568,0.613905,0.6562685,0.5913875,0.57435983,0.5714202,0.67163134,0.6422562,0.67972153,0.30343518,0.25518167,0.25951773,0.2629122,0.27293432,0.2732004,0.24426264,0.28316754,0.2917421,0.3085358,0.2892087,0.24354573,0.2977572,0.25595018,0.21729292,0.23581633,0.30127215,0.29579598,0.30936235
89,0.68449813,0.58909756,0.6201731,0.6484457,0.6448459,0.61646384,0.5890739,0.66870105,0.6772756,0.6804816,0.6747423,0.62907916,0.6704635,0.59859914,0.5825507,0.5796111,0.68680555,0.65645134,0.69489586,0.31376126,0.26484144,0.26917747,0.2732383,0.28326038,0.2834037,0.25458872,0.29349363,0.30206814,0.3188619,0.2995348,0.25387177,0.3080833,0.26560992,0.22761899,0.24614242,0.31159818,0.30545574,0.31968844
90,0.6969832,0.5954405,0.6326581,0.661792,0.6573309,0.6228068,0.5962781,0.6820473,0.69062185,0.6929666,0.68808854,0.6424254,0.6829485,0.6049421,0.5897549,0.58681524,0.70015186,0.6689364,0.70824206,0.32394937,0.27437204,0.2787081,0.28342634,0.29344845,0.29293436,0.26477677,0.3036817,0.31225622,0.32905,0.3097229,0.26405984,0.3182714,0.27514055,0.23780707,0.2563305,0.32178622,0.31498635,0.3298765
91,0.7081009,0.6010887,0.64377576,0.67367655,0.6684485,0.628455,0.6024196,0.6939319,0.7025064,0.7040843,0.69997305,0.65431,0.69406617,0.61059034,0.59617,0.59323037,0.7120364,0.68005395,0.7201267,0.33745575,0.28700688,0.2913429,0.29693276,0.3069548,0.30556914,0.27828315,0.31718814,0.32576257,0.34255633,0.32322922,0.27756625,0.33177775,0.2877754,0.25131345,0.2698368,0.33529258,0.32762116,0.3433829
92,0.7280559,0.61122674,0.6637307,0.6950081,0.68840355,0.63859296,0.6125576,0.7152634,0.7238379,0.72403926,0.72130454,0.67564154,0.7140212,0.6207284,0.60768455,0.6047449,0.7333679,0.700009,0.7414581,0.34982818,0.29858094,0.302917,0.3093052,0.31932727,0.3171432,0.29065558,0.32956052,0.338135,0.35492885,0.33560175,0.2899387,0.34415025,0.29934946,0.2636859,0.28220928,0.34766507,0.3391952,0.3557553
93,0.7422322,0.61842895,0.67430323,0.7101622,0.7025798,0.6457952,0.6197598,0.7304176,0.73899215,0.73821557,0.7364587,0.69079566,0.7281975,0.6279305,0.61586463,0.612925,0.7485221,0.7141853,0.7566124,0.361869,0.3098448,0.3141808,0.32134604,0.3313681,0.32840705,0.30269644,0.34160137,0.3501759,0.36696965,0.3476425,0.30197954,0.35619104,0.3106133,0.27572674,0.29425013,0.3597059,0.3504591,0.36779618
94,0.76317257,0.62906754,0.6849418,0.7325471,0.7235202,0.65643376,0.6303984,0.75280243,0.761377,0.7591559,0.75884354,0.7131806,0.7491379,0.6385692,0.6279477,0.62500805,0.7709069,0.73512566,0.7789972,0.37362522,0.32084233,0.32517838,0.33310217,0.34312427,0.3394046,0.3144526,0.3533575,0.36193204,0.37872583,0.35939872,0.31373566,0.36794722,0.32161087,0.28748292,0.30600628,0.3714621,0.36145663,0.3795523
95,0.77808154,0.636642,0.6925162,0.7484845,0.7384291,0.6640082,0.63797283,0.7687398,0.7773143,0.7730276,0.774781,0.72911793,0.76404685,0.64614356,0.6363125,0.6336109,0.7868443,0.7500347,0.7949345,0.385155,0.33162814,0.3359642,0.34463203,0.35465407,0.35019046,0.32598242,0.3648874,0.37346184,0.3902556,0.37092856,0.3252655,0.379477,0.33239663,0.29901272,0.31753612,0.38299185,0.37224245,0.39108214
96,0.7976915,0.6466047,0.70247895,0.7694472,0.7580392,0.67397094,0.64793557,0.78970253,0.7982771,0.7829904,0.7957437,0.7492896,0.78365684,0.65610635,0.6462752,0.64492637,0.807807,0.76953554,0.8158973,0.39650816,0.34224868,0.34658474,0.35598516,0.36600724,0.36081097,0.3373356,0.3762405,0.38481498,0.40160882,0.38228166,0.33661866,0.39083022,0.34301722,0.3103659,0.32888928,0.39434505,0.38286296,0.4024353
97,0.81162184,0.65368193,0.70955616,0.7843384,0.7716143,0.68104815,0.6550128,0.80388117,0.8131682,0.79006755,0.81063485,0.76321983,0.79758716,0.66318357,0.65335244,0.6529644,0.82269824,0.7766127,0.83078843,0.41045445,0.355295,0.359631,0.36993143,0.3799535,0.37385726,0.35128182,0.39018682,0.3987612,0.415555,0.39622802,0.3505649,0.40477645,0.35606351,0.32431215,0.34283552,0.40829128,0.39590925,0.41638154
98,0.8234854,0.65970916,0.7155835,0.7970204,0.77764153,0.68707544,0.66104,0.8107267,0.82585025,0.79609483,0.8233169,0.7750835,0.8094508,0.6692108,0.65937966,0.65981007,0.83538026,0.78264,0.8434705,0.42340565,0.36741048,0.37174657,0.38288265,0.39290476,0.3859728,0.36423308,0.403138,0.4117125,0.42850626,0.40917915,0.36351615,0.41772765,0.368179,0.3372634,0.3557868,0.42124254,0.4080248,0.4293328
99,0.8396658,0.66792953,0.7238038,0.81431687,0.78586185,0.6952958,0.6692603,0.82006323,0.8431467,0.8043152,0.84061337,0.7912639,0.82563114,0.6774311,0.6676,0.66914654,0.85231227,0.7908603,0.86076695,0.4360456,0.37923473,0.38357082,0.3955226,0.4055447,0.39779705,0.37687302,0.41577792,0.4243524,0.4411462,0.4218191,0.3761561,0.4303676,0.3800033,0.3499033,0.36842668,0.43388247,0.41984904,0.44197267
100,0.8506897,0.67353016,0.7294044,0.82610124,0.7914625,0.7008964,0.674861,0.8264243,0.85493106,0.8099157,0.8523977,0.8022878,0.8366551,0.68303174,0.6732006,0.6755076,0.8633362,0.796461,0.87255126,0.44841003,0.39080143,0.3951375,0.4078871,0.41790915,0.4093637,0.38923752,0.42814243,0.43671697,0.4535107,0.4341836,0.3885206,0.4427321,0.3915699,0.3622678,0.38079125,0.44624692,0.43141562,0.45433712
101,0.86011237,0.6783172,0.7341914,0.8350571,0.79624957,0.7056834,0.67964804,0.8318613,0.86500365,0.81470287,0.8624702,0.81171036,0.8460777,0.68781877,0.6779877,0.6809446,0.87275875,0.801248,0.88262385,0.46054596,0.4021542,0.4064902,0.42002296,0.43004507,0.42071646,0.4013734,0.44027835,0.44885284,0.46564656,0.44631952,0.40065646,0.45486796,0.4029227,0.37440366,0.39292705,0.45838284,0.4427684,0.46647304
102,0.8730129,0.6848713,0.74074554,0.8420971,0.80280364,0.71223754,0.68620217,0.8393053,0.8787941,0.8212569,0.8762607,0.82461095,0.8589783,0.6943729,0.6845418,0.6883886,0.8856594,0.807802,0.89257205,0.47249395,0.4133312,0.4176672,0.431971,0.44199306,0.43189347,0.4133214,0.45222634,0.4608009,0.4775946,0.45826757,0.41260445,0.466816,0.41409972,0.3863517,0.40487504,0.47033083,0.4539454,0.47842103
103,0.87939113,0.6892012,0.7450754,0.84642696,0.80713356,0.7165674,0.690532,0.84422296,0.8879046,0.8255868,0.8852188,0.8331335,0.86750084,0.6987028,0.6888716,0.6933063,0.89418197,0.81213194,0.89748985,0.48428887,0.42436504,0.42870104,0.44376594,0.45337385,0.4429273,0.42511636,0.46402127,0.47259575,0.48900956,0.47006243,0.42439938,0.47861093,0.42513353,0.39814663,0.41667002,0.48212582,0.46497923,0.49021596
104,0.8831089,0.69291896,0.74879324,0.8501448,0.8108513,0.72028524,0.6942498,0.8484456,0.8957272,0.82930464,0.89253664,0.8404514,0.8748187,0.7024206,0.6925894,0.6975289,0.9014998,0.8158497,0.9017124,0.49596035,0.43528336,0.4396193,0.45543736,0.46429217,0.45384556,0.43678778,0.4756927,0.48426718,0.49992788,0.48173392,0.4360708,0.48990977,0.43605185,0.4098181,0.42834145,0.49379718,0.47589755,0.50188744
105,0.8863425,0.6961525,0.75202674,0.85337836,0.81408495,0.7235187,0.6974834,0.8521182,0.902531,0.8325381,0.89890134,0.8468161,0.88118345,0.7056541,0.69582313,0.70120156,0.9078646,0.8190833,0.905385,0.51012975,0.44853836,0.45287442,0.46960676,0.47754717,0.46710062,0.45095718,0.48986208,0.49843657,0.5131829,0.49590325,0.4502402,0.5031648,0.44930685,0.42398745,0.44251084,0.5079666,0.48915255,0.5160568
106,0.8908023,0.7006123,0.7564866,0.85783815,0.8185446,0.7279785,0.70194316,0.85718346,0.9119148,0.836998,0.9076797,0.85559446,0.8883445,0.7101139,0.7002828,0.7062668,0.9166429,0.8235431,0.91045034,0.52330834,0.46086657,0.46520257,0.48278534,0.48987544,0.47942883,0.46413577,0.5030407,0.51161516,0.5255111,0.5090819,0.46341878,0.51549304,0.46163505,0.4371661,0.45568943,0.5211452,0.5014807,0.52923536
107,0.89369345,0.7035035,0.7593777,0.8607293,0.82143587,0.7308697,0.70483434,0.8604672,0.9179982,0.83988917,0.9133705,0.8612852,0.8912357,0.7130052,0.70317405,0.70955056,0.92233366,0.82643425,0.9137341,0.54025644,0.47672105,0.4810571,0.4997335,0.50572985,0.49528337,0.48108393,0.51998883,0.5285634,0.5413656,0.52603,0.480367,0.5313476,0.47748953,0.4541142,0.47263765,0.5380934,0.51733536,0.54618365
108,0.89622194,0.7060319,0.76190615,0.86325777,0.8239643,0.7333982,0.7073628,0.863339,0.9233183,0.84241754,0.9183473,0.8662621,0.8937641,0.7155335,0.7057025,0.7124224,0.92731047,0.8289627,0.91660583,0.55548245,0.49096453,0.49530065,0.5149595,0.5199734,0.50952685,0.49630994,0.53521484,0.5437894,0.5556091,0.541256,0.495593,0.54559106,0.49173307,0.46934026,0.48786366,0.5533194,0.5315787,0.56140953
109,0.8993583,0.70916826,0.76504254,0.86639416,0.82710063,0.73653454,0.71049917,0.86690116,0.92991745,0.8455539,0.9245207,0.87243545,0.8969005,0.7186699,0.7088388,0.7159845,0.93348384,0.832099,0.9201679,0.57013017,0.50466704,0.509003,0.5296072,0.53367585,0.52322924,0.5109576,0.54986256,0.558437,0.56931156,0.5559037,0.5102406,0.55929345,0.5054355,0.48398793,0.50251126,0.56796706,0.5452812,0.57605714
110,0.9014939,0.7113039,0.7671782,0.86852974,0.8292362,0.7386702,0.71263474,0.8693268,0.93441105,0.84768957,0.9287242,0.876639,0.8990361,0.7208055,0.7109744,0.7184101,0.9376874,0.8342347,0.9225936,0.584256,0.5178813,0.5222173,0.54373294,0.5468901,0.5364435,0.52508336,0.5639883,0.57256275,0.5825258,0.5700295,0.52436644,0.57250774,0.51864976,0.4981137,0.516637,0.5820928,0.55849546,0.590183
111,0.90337986,0.71318984,0.7690641,0.8704157,0.8311222,0.74055606,0.71452075,0.8714688,0.9372183,0.8495755,0.93243647,0.8803512,0.90092206,0.72269154,0.71286047,0.72055215,0.94139963,0.8361206,0.9247356,0.5979318,0.53067464,0.5350107,0.5574088,0.55968344,0.5492369,0.53875923,0.57766414,0.5862386,0.59531915,0.58370537,0.5380423,0.5853011,0.5314431,0.5117895,0.53031296,0.59576863,0.5712888,0.6038588
112,0.9050536,0.7148636,0.7707378,0.87208945,0.8327959,0.7422299,0.7161944,0.8733698,0.9391192,0.85124916,0.9341324,0.88364565,0.9025958,0.7243652,0.7145341,0.7224532,0.9446941,0.83779436,0.9266366,0.61122274,0.54310787,0.547444,0.5706997,0.57211673,0.5616702,0.5471074,0.59095514,0.5995296,0.60775244,0.59699625,0.55133325,0.5977344,0.5438764,0.52508044,0.5376446,0.6090596,0.58372205,0.6171498
113,0.9065536,0.7163636,0.7722379,0.87358946,0.834296,0.7437298,0.71769446,0.87507343,0.94082296,0.8527492,0.93563247,0.8865981,0.9040958,0.72586524,0.7160341,0.7241568,0.9476466,0.8392944,0.92834026,0.62859136,0.5599302,0.56426626,0.5886825,0.5889391,0.5784925,0.55681425,0.6089378,0.61751235,0.6245748,0.61497897,0.5693159,0.6145567,0.5606987,0.54306316,0.5473515,0.6270423,0.6005444,0.6351325
114,0.9079092,0.7177192,0.77359354,0.87494504,0.83565164,0.7450854,0.71905017,0.8766131,0.9423626,0.85410494,0.9369881,0.8892665,0.9054514,0.7272209,0.7173898,0.72569644,0.95031494,0.84064996,0.92987996,0.643237,0.568135,0.57891184,0.60433835,0.6035847,0.5931381,0.5652652,0.6245937,0.6331682,0.6392204,0.6306349,0.5849718,0.62920237,0.5753444,0.5587191,0.5558023,0.64269817,0.6151901,0.6507884
115,0.909143,0.71895295,0.77482724,0.8761788,0.8368853,0.7463192,0.7202838,0.8780143,0.9437638,0.85533863,0.93822175,0.89169484,0.9066852,0.7284546,0.71862346,0.7270977,0.9527433,0.8418837,0.93128115,0.6572129,0.57523537,0.59288776,0.6192784,0.6175606,0.6026016,0.5733296,0.6395337,0.6481082,0.65319633,0.6455749,0.5999118,0.6431783,0.58473694,0.56680644,0.56386673,0.65763825,0.62916595,0.66572833
116,0.9102719,0.72008187,0.77595615,0.8773078,0.8380142,0.74744815,0.7214128,0.87929654,0.94504607,0.85646755,0.9393507,0.89391696,0.9078141,0.7295835,0.71975243,0.7283799,0.95496535,0.84301263,0.93256336,0.6757434,0.5846497,0.61141837,0.6390871,0.6360912,0.61201596,0.58402216,0.65934247,0.66791695,0.6717268,0.66538364,0.6197206,0.66170883,0.5941513,0.577499,0.5745594,0.677447,0.6476965,0.6855372
117,0.9113097,0.7211197,0.776994,0.87834555,0.8390521,0.748486,0.7224506,0.8804753,0.94622487,0.8575054,0.9403886,0.8959598,0.9088519,0.73062134,0.72079027,0.72955865,0.9570082,0.8440505,0.93374217,0.69706815,0.5954836,0.632743,0.66188276,0.6574158,0.62284976,0.596327,0.68213814,0.69071263,0.6930515,0.6881792,0.64251626,0.68303347,0.6049852,0.5898038,0.5868642,0.70024264,0.6690212,0.70833284
118,0.9126862,0.7224962,0.7783705,0.87972206,0.84042865,0.74986243,0.7238271,0.8820387,0.94778824,0.8588819,0.94176507,0.8986691,0.91022843,0.7319979,0.72216684,0.7311221,0.95971763,0.845427,0.93530554,0.71475047,0.604467,0.6504254,0.6807848,0.6750981,0.6318332,0.60579777,0.7010402,0.70961475,0.71073383,0.70708144,0.6614183,0.7007157,0.61396855,0.60000694,0.59706736,0.7191447,0.6867035,0.7272349
119,0.9135968,0.7234068,0.7792811,0.8806326,0.8413392,0.750773,0.72473764,0.8830729,0.9488224,0.8597924,0.94267565,0.9004614,0.911139,0.7329084,0.7230773,0.7321563,0.9615098,0.84633756,0.93633974,0.734539,0.6145204,0.6702138,0.70193833,0.69488657,0.64188665,0.6158512,0.7221937,0.73076826,0.73052233,0.7282349,0.68257177,0.7205042,0.62402195,0.6114254,0.60848576,0.74029815,0.70649207,0.74838847
120,0.9147846,0.7245947,0.780469,0.88182044,0.84252703,0.75196093,0.7259255,0.88442206,0.95017153,0.8609803,0.9438635,0.90279955,0.91232693,0.7340963,0.72426516,0.73350537,0.963848,0.8475254,0.9376889,0.75549734,0.62516814,0.6810424,0.7243424,0.7158449,0.65253437,0.626499,0.74459773,0.7531723,0.7514807,0.75063884,0.70497584,0.7414626,0.6346697,0.6235189,0.6205792,0.7627022,0.72745043,0.7707925
121,0.915561,0.725371,0.7812453,0.8825968,0.8433033,0.7527372,0.7267019,0.8853038,0.95105326,0.8617566,0.9446398,0.9043275,0.91310316,0.73487264,0.72504157,0.7343871,0.96537596,0.8483017,0.9385706,0.77259076,0.63385236,0.6897266,0.742615,0.7329384,0.6612186,0.6351832,0.7628704,0.77144486,0.7685741,0.7689115,0.7232485,0.7585561,0.64335394,0.6333822,0.6304425,0.7809748,0.7445439,0.78906506
122,0.91656756,0.7263776,0.7822519,0.8836034,0.84431,0.7537438,0.7277085,0.886447,0.9521966,0.8627632,0.9456464,0.90630895,0.9141098,0.73587924,0.7260482,0.7355304,0.9673574,0.8493084,0.9397139,0.7935685,0.64451,0.70038426,0.76503974,0.7539161,0.67187625,0.6458408,0.78529507,0.79386955,0.7808956,0.7913363,0.74516654,0.7795338,0.65401155,0.6441805,0.6425472,0.8033996,0.7655216,0.8114898
123,0.91721016,0.7270202,0.78289455,0.884246,0.8449526,0.7543864,0.72835106,0.88717693,0.9529264,0.8634059,0.94628906,0.9075738,0.9147524,0.73652184,0.7266907,0.73626024,0.96862227,0.84995097,0.94044375,0.8096397,0.6526749,0.70854914,0.7822195,0.76998734,0.68004113,0.6540057,0.8024749,0.8110494,0.78906053,0.808516,0.7612378,0.79560506,0.6621765,0.6523454,0.65182066,0.82057947,0.7756057,0.82866967
124,0.9180199,0.7278298,0.7837041,0.8850557,0.84576225,0.7551961,0.7291608,0.8880965,0.953846,0.86421555,0.94709873,0.90916747,0.91556203,0.73733145,0.72750044,0.7371799,0.97021586,0.85076064,0.94136333,0.82930917,0.6626679,0.71854204,0.80324584,0.7806002,0.69003403,0.6639987,0.8140871,0.8320758,0.79905343,0.8295423,0.7809072,0.81527454,0.6721694,0.6623384,0.66317046,0.84160566,0.78559864,0.849696
125,0.9185428,0.7283527,0.784227,0.88557863,0.84628516,0.755719,0.7296837,0.8886904,0.9544399,0.86473846,0.94762164,0.9101968,0.91608495,0.73785436,0.72802335,0.7377738,0.97124517,0.8512835,0.9419572,0.84373975,0.6699992,0.72587353,0.8186718,0.7879316,0.6973654,0.67133003,0.8224139,0.84750175,0.8063849,0.8449683,0.79533774,0.8297051,0.6795009,0.66966975,0.6714972,0.8563862,0.79293,0.86512196
126,0.9190289,0.7288388,0.7847131,0.8860647,0.8467712,0.7562051,0.7301698,0.88924253,0.954992,0.8652245,0.9481077,0.9111535,0.916571,0.7383405,0.7285094,0.7383259,0.9722019,0.85176957,0.9425093,0.86118984,0.6788646,0.73473895,0.8356788,0.79679704,0.7062309,0.68019557,0.83248305,0.8661555,0.81525034,0.8636221,0.81278783,0.84715515,0.68836623,0.67853516,0.68156636,0.8738363,0.80179536,0.8837758
127,0.91964114,0.7294512,0.7853254,0.88667697,0.84738356,0.7568174,0.73078203,0.88993794,0.95568746,0.86583686,0.94872004,0.9123587,0.9171834,0.7389529,0.72912174,0.7390213,0.97340715,0.85238194,0.9432048,0.87347823,0.68510765,0.74098194,0.84233356,0.80304,0.7124739,0.68643856,0.83957374,0.87929153,0.8214933,0.8767582,0.8250763,0.85944355,0.6946092,0.68477815,0.6886571,0.8861247,0.8080385,0.8928406
128,0.9200164,0.72982633,0.7857006,0.88705224,0.8477587,0.7571926,0.7311573,0.8903641,0.95611364,0.866212,0.94909525,0.91309726,0.91755855,0.73932797,0.7294969,0.7394475,0.9741457,0.85275716,0.94363093,0.8820153,0.6918253,0.74769956,0.8490511,0.80975765,0.71919155,0.6931562,0.84720343,0.89342606,0.8282109,0.89038396,0.8382988,0.87266606,0.7013269,0.6914958,0.69628674,0.8993472,0.814756,0.9004702
129,0.920509,0.7303189,0.7861932,0.8875448,0.8482513,0.7576852,0.7316499,0.89092356,0.9566731,0.8667046,0.9495878,0.9140668,0.9180511,0.7398206,0.7299895,0.7400069,0.97511524,0.8532497,0.94419044,0.88690954,0.69671947,0.75259376,0.8539454,0.8146519,0.72408575,0.69805044,0.85276216,0.9037242,0.8331052,0.90001756,0.8479322,0.88229954,0.70622116,0.6963901,0.7018455,0.90898067,0.8196503,0.90602905
130,0.92081314,0.7306231,0.7864974,0.887849,0.8485555,0.75798935,0.731954,0.891269,0.95701855,0.8670088,0.949892,0.9146655,0.91835535,0.7401248,0.7302937,0.7403524,0.97571397,0.8535539,0.94453585,0.89206725,0.7018772,0.75775146,0.859103,0.8198095,0.72924346,0.703208,0.85862017,0.9145763,0.83826286,0.9101694,0.8580842,0.8896094,0.7113788,0.7015477,0.70770353,0.9191326,0.82480794,0.91188693
131,0.9211094,0.7309193,0.7867936,0.8881452,0.84885174,0.7582856,0.7322503,0.8916055,0.95735496,0.86730504,0.9501882,0.91524863,0.9186515,0.74042094,0.7305899,0.74068886,0.976297,0.8538501,0.9448723,0.89583457,0.70564455,0.76151884,0.8628704,0.82357687,0.7330108,0.7069754,0.862899,0.92250323,0.84203017,0.9175848,0.8654996,0.8933767,0.7151462,0.70531505,0.71198237,0.926548,0.82857525,0.9161658
132,0.921378,0.73118806,0.78706235,0.88841385,0.84912044,0.7585543,0.7325189,0.8919107,0.95766014,0.8675737,0.9504569,0.9157774,0.9189203,0.7406897,0.73085856,0.740994,0.9768259,0.8541188,0.9451775,0.89905083,0.7088608,0.7647351,0.8660866,0.8267932,0.7362271,0.7101916,0.866552,0.9292706,0.8452464,0.92391545,0.8718303,0.896593,0.7183624,0.7085313,0.71563536,0.9328787,0.8317916,0.9198188
133,0.9216231,0.7314331,0.7873074,0.88865894,0.8493655,0.7587993,0.73276395,0.89218897,0.95793843,0.8678187,0.95070195,0.91625977,0.9191653,0.74093467,0.73110354,0.74127233,0.9773083,0.85436386,0.9454558,0.9025599,0.7123698,0.7682441,0.8695957,0.83030224,0.73973614,0.7137008,0.87053746,0.9362869,0.84875554,0.93082255,0.8787372,0.900102,0.72187155,0.7120404,0.7196208,0.9397856,0.8353006,0.9238043
134,0.9218481,0.73165804,0.7875323,0.8888838,0.8495904,0.7590243,0.73298895,0.8924445,0.9581939,0.8680437,0.9509269,0.91670257,0.91939026,0.7411597,0.7313286,0.7415278,0.977751,0.8545888,0.9457113,0.90507424,0.7148842,0.77075845,0.87211007,0.83281666,0.74225044,0.71621513,0.8733932,0.9391427,0.85126984,0.934153,0.8836863,0.90261644,0.7243858,0.71455485,0.72247654,0.94473475,0.837815,0.92666
135,0.92205566,0.7318656,0.7877399,0.8890915,0.8497979,0.75923187,0.73319644,0.8926802,0.95842963,0.86825126,0.9511345,0.9171111,0.9195978,0.7413672,0.7315361,0.7417636,0.9781595,0.85479635,0.945947,0.9079725,0.7177825,0.7736568,0.8750083,0.8357148,0.7451488,0.71911335,0.87668496,0.94243443,0.8541682,0.9370513,0.88939095,0.9055147,0.72728413,0.717453,0.7257683,0.9504394,0.84071326,0.9299518
136,0.9222481,0.7320581,0.7879324,0.88928396,0.84999055,0.7594243,0.733389,0.89289886,0.9586484,0.8684438,0.95132697,0.91749007,0.9197903,0.74155974,0.7317287,0.7419822,0.9785385,0.8549889,0.9461657,0.90993255,0.7197425,0.77561677,0.8769684,0.837675,0.74710876,0.72107345,0.87891114,0.94466066,0.8561282,0.93901145,0.8932491,0.9074747,0.7292441,0.71941304,0.7279945,0.9542975,0.8426733,0.932178
137,0.9224275,0.7322375,0.7881118,0.8894633,0.85016984,0.7596037,0.7335683,0.8931026,0.95885205,0.8686231,0.9515063,0.91784304,0.9199697,0.7417391,0.73190796,0.74218595,0.97889155,0.8551682,0.9463694,0.9116233,0.7214332,0.7773075,0.8786591,0.83936554,0.7487995,0.7227641,0.8808314,0.9465808,0.8578189,0.940702,0.8965768,0.90916544,0.73093486,0.7211037,0.7299148,0.95762527,0.844364,0.9340982
138,0.92259514,0.7324051,0.7882794,0.889631,0.85033756,0.7597714,0.7337361,0.893293,0.95904255,0.86879086,0.951674,0.9181732,0.92013735,0.7419068,0.73207575,0.7423764,0.97922164,0.8553359,0.94655985,0.9135291,0.72333914,0.7792134,0.880565,0.84127146,0.7507054,0.72467,0.8829961,0.94874555,0.8597248,0.942608,0.9003283,0.91107136,0.7328408,0.72300965,0.7320794,0.9613767,0.84626997,0.93626297
139,0.9227525,0.7325624,0.7884367,0.8897883,0.8504948,0.7599287,0.7338934,0.89347166,0.9592212,0.8689481,0.9518313,0.9184828,0.92029464,0.74206406,0.732233,0.742555,0.97953117,0.8554932,0.9467385,0.91482884,0.7246389,0.78051317,0.88186467,0.8425712,0.7520051,0.72596973,0.88447225,0.9502218,0.8610245,0.9439077,0.9028865,0.9123711,0.7341405,0.7243094,0.7335556,0.963935,0.8475696,0.9377391
140,0.9229005,0.7327105,0.78858477,0.8899363,0.8506429,0.7600767,0.7340414,0.8936398,0.9593893,0.8690962,0.9519794,0.9187741,0.9204427,0.7422122,0.7323811,0.74272317,0.97982264,0.85564125,0.9469067,0.91596127,0.72577125,0.78164554,0.8829971,0.84370357,0.7531375,0.7271021,0.8857584,0.95150787,0.86215687,0.9450401,0.9051155,0.91350347,0.7352729,0.72544175,0.73484176,0.96616393,0.848702,0.9390252
141,0.9230401,0.7328501,0.78872436,0.8900759,0.8507825,0.76021636,0.734181,0.89379835,0.9595479,0.86923575,0.95211893,0.919049,0.92058223,0.7423517,0.73252064,0.7428756,0.9800974,0.85578084,0.94706523,0.9169461,0.7267561,0.7826304,0.88398194,0.84468853,0.7541223,0.72808707,0.886877,0.9526265,0.86314183,0.94602495,0.90705407,0.9144883,0.7362578,0.7264267,0.73596036,0.9681025,0.84968686,0.9401438
142,0.9231721,0.7329821,0.7888564,0.89020795,0.8509144,0.7603484,0.734313,0.89394253,0.95969784,0.8693677,0.95225096,0.91930884,0.9207143,0.74248374,0.73265266,0.7430076,0.9803572,0.85591286,0.94721514,0.9178083,0.7276183,0.78349257,0.8848441,0.84555066,0.7549845,0.7289492,0.8878562,0.95360565,0.86400396,0.94688714,0.908751,0.9153505,0.7371199,0.72728884,0.73693955,0.9697995,0.85054904,0.94112307
143,0.92329717,0.73310715,0.78898144,0.890333,0.8510395,0.7604734,0.73443806,0.8940676,0.9598399,0.8694928,0.95237607,0.91955495,0.9208393,0.7426088,0.7327777,0.74313265,0.98060334,0.856038,0.94735724,0.9185673,0.7283773,0.7842516,0.8856031,0.84630966,0.75574356,0.7297082,0.8887183,0.9544678,0.86476296,0.9476461,0.910245,0.9161095,0.7378789,0.72804785,0.7378016,0.97129345,0.85130805,0.9419851
144,0.92341596,0.7332259,0.78910017,0.8904518,0.85115826,0.76059216,0.73455685,0.8941864,0.95997244,0.86961156,0.95249474,0.91978866,0.9209581,0.7427276,0.7328965,0.74325144,0.98083705,0.85615665,0.947492,0.91923887,0.72904885,0.7849231,0.8862747,0.8469813,0.7564151,0.73037976,0.889481,0.95523053,0.8654345,0.94831777,0.91156685,0.91678107,0.7385505,0.7287194,0.7385644,0.9726153,0.8519797,0.9427479
145,0.9235287,0.73333865,0.78921294,0.8905645,0.85127103,0.7607049,0.7346695,0.89429903,0.9600852,0.86972433,0.9526075,0.9200106,0.9210709,0.74284023,0.73300916,0.7433641,0.9810591,0.8562695,0.94762015,0.92005646,0.7298664,0.7857407,0.88709223,0.8477987,0.75723267,0.73119724,0.8904096,0.956159,0.86625206,0.9491353,0.91317606,0.9175986,0.739368,0.7295369,0.73949295,0.97422445,0.85279715,0.94367635
146,0.9236361,0.733446,0.7893203,0.8906719,0.8513784,0.7608123,0.734777,0.8944065,0.96019256,0.8698317,0.95271486,0.920222,0.9211782,0.7429477,0.7331166,0.74347156,0.9812704,0.85637677,0.94774204,0.9205807,0.73039067,0.78626496,0.88761646,0.84832305,0.7577569,0.7317215,0.891005,0.95675445,0.8667763,0.9496595,0.91420794,0.9181229,0.73989224,0.7300611,0.74008834,0.9752564,0.85332143,0.94427186
147,0.92373836,0.7335484,0.7894227,0.8907742,0.8514807,0.7609146,0.7348792,0.8945088,0.96029496,0.86993396,0.9528172,0.9204233,0.9212806,0.74305,0.73321885,0.74357384,0.9814718,0.8564791,0.9478583,0.9210575,0.73086745,0.78674173,0.88809335,0.8487998,0.7582337,0.7321984,0.89154655,0.9572961,0.8672531,0.95013636,0.91514647,0.91859967,0.7403691,0.730538,0.7406299,0.97619486,0.8537982,0.9448134
148,0.923836,0.733646,0.78952026,0.8908718,0.8515783,0.7610122,0.73497677,0.89460635,0.96039253,0.87003165,0.9529148,0.92061543,0.9213782,0.74314755,0.7333164,0.7436714,0.9816639,0.85657674,0.94796914,0.92148,0.73129,0.7871643,0.88851583,0.84922236,0.75865626,0.7326209,0.8920265,0.95777595,0.86767566,0.9505588,0.91597813,0.9190222,0.7407916,0.73096055,0.7411097,0.97702664,0.85422075,0.94529325
149,0.9239292,0.73373914,0.7896134,0.89096504,0.8516716,0.7611054,0.7350701,0.8946996,0.96048576,0.8701248,0.95300806,0.92079896,0.92147136,0.7432408,0.7334097,0.74376464,0.98184735,0.85666996,0.948075,0.9219923,0.7318022,0.7876766,0.88902813,0.84973466,0.7591685,0.7331332,0.8926083,0.9583578,0.86818796,0.9510712,0.9169865,0.91953444,0.7413039,0.73147285,0.74169165,0.9780349,0.854733,0.9458751
150,0.9240183,0.7338283,0.7897026,0.89105415,0.8517607,0.7611945,0.73515916,0.8947887,0.96057487,0.8702139,0.95309716,0.9209743,0.9215605,0.7433299,0.7334988,0.7438538,0.98202276,0.8567591,0.94817185,0.92231375,0.7321237,0.78799796,0.8893496,0.850056,0.75948995,0.7334546,0.89297336,0.95872283,0.86850935,0.9513925,0.91761917,0.9198559,0.7416253,0.73179424,0.7420567,0.97866756,0.85505444,0.9462401
151,0.9241036,0.73391354,0.7897878,0.89113945,0.8518459,0.7612798,0.73524445,0.894874,0.96066016,0.8702992,0.95318246,0.9211422,0.92164576,0.7434152,0.7335841,0.7439391,0.9821906,0.85684437,0.94825715,0.92261374,0.7324237,0.788298,0.8896496,0.85035616,0.75979,0.73375463,0.8933141,0.95906365,0.86880946,0.9516926,0.9182098,0.92015594,0.74192536,0.7320943,0.7423975,0.9792582,0.85535455,0.946581
152,0.9241852,0.73399514,0.7898694,0.89122105,0.8519275,0.7613614,0.73532605,0.8949556,0.96074176,0.8703808,0.95326406,0.92130286,0.92172736,0.7434968,0.7336657,0.74402064,0.98227966,0.85692596,0.94833875,0.92288107,0.732691,0.7885653,0.88991684,0.85062337,0.7600573,0.7340219,0.8936177,0.95936716,0.86907667,0.95195985,0.91873586,0.9204232,0.7421926,0.73236156,0.742701,0.97978425,0.85562176,0.9468845
153,0.9242634,0.7340734,0.7899477,0.8912993,0.8520057,0.7614397,0.7354043,0.89503384,0.96082,0.870459,0.95334226,0.9214569,0.9218056,0.74357504,0.73374397,0.7440989,0.9823579,0.8570042,0.94841695,0.92312,0.73292994,0.7888043,0.89015585,0.8508624,0.7602962,0.7342609,0.8938891,0.9596386,0.8693157,0.95219886,0.9192062,0.92066216,0.74243164,0.73260057,0.7429555,0.98025465,0.8558607,0.94715595
154,0.9243384,0.7341483,0.7900227,0.8913742,0.85208076,0.7615146,0.7354793,0.8951088,0.96089494,0.87053406,0.95341724,0.9215634,0.92188054,0.74365,0.73381895,0.7441738,0.98243284,0.8570791,0.9484919,0.9234006,0.7332105,0.7890848,0.89043635,0.8511429,0.7605768,0.7345414,0.89417094,0.95995706,0.86959624,0.95247936,0.9197584,0.9209427,0.74271214,0.73288107,0.74323595,0.9808068,0.85614127,0.9474746
155,0.92441046,0.7342204,0.7900947,0.8914463,0.8521528,0.76158667,0.73555136,0.8951808,0.96096694,0.87060606,0.9534893,0.9216355,0.9219526,0.743722,0.733891,0.74424595,0.9825049,0.85715115,0.94856393,0.92358047,0.73339045,0.78926474,0.8906163,0.8513228,0.7607567,0.73472136,0.8943508,0.960137,0.8697761,0.9526593,0.9201125,0.92112267,0.742892,0.73306096,0.7434159,0.98116094,0.8563212,0.9476789
156,0.9244794,0.73428947,0.79016376,0.8915153,0.85222185,0.7616557,0.7356203,0.89524984,0.961036,0.8706751,0.9535583,0.92170453,0.9220217,0.7437911,0.73396,0.7443149,0.982574,0.8572203,0.948633,0.9238101,0.7336201,0.7894944,0.8908459,0.8515525,0.7609863,0.73495096,0.89458054,0.9603666,0.8700057,0.95288897,0.92056453,0.9213523,0.74312174,0.7332906,0.7436456,0.981613,0.8565509,0.94793975
157,0.9245459,0.7343558,0.7902301,0.8915817,0.85228825,0.7617221,0.7356868,0.8953163,0.96110237,0.87074155,0.9536248,0.92177093,0.922088,0.7438575,0.73402643,0.74438137,0.9826403,0.8572866,0.9486994,0.9239524,0.73376244,0.78963673,0.89098823,0.85169476,0.76112866,0.7350933,0.8947228,0.960509,0.87014806,0.95303124,0.92084473,0.9214946,0.7432641,0.733433,0.7437879,0.9818932,0.85669315,0.9481014
158,0.9246096,0.7344196,0.7902939,0.8916455,0.8523519,0.76178586,0.73575044,0.89538,0.9611662,0.8708052,0.95368844,0.92183465,0.9221518,0.7439212,0.7340901,0.7444451,0.9827041,0.8573504,0.94876313,0.9240937,0.73390365,0.78977793,0.89112955,0.851836,0.7612699,0.73523456,0.8948641,0.9606502,0.8702893,0.9531725,0.9211228,0.92163587,0.7434053,0.7335742,0.74392915,0.9821712,0.8568344,0.94824713
159,0.92467093,0.73448086,0.79035515,0.89170676,0.85241324,0.76184714,0.73581177,0.8954413,0.9612274,0.87086654,0.9537498,0.9218959,0.9222131,0.7439825,0.7341514,0.7445064,0.9827654,0.8574116,0.9488244,0.92425674,0.7340667,0.789941,0.8912925,0.85199904,0.761433,0.73539764,0.89502716,0.9608133,0.87045234,0.9533355,0.92144364,0.9217989,0.74356836,0.7337373,0.74409217,0.98235124,0.85699743,0.9484102
160,0.9247298,0.7345398,0.79041415,0.89176565,0.8524722,0.7619061,0.7358707,0.8955003,0.96128637,0.8709255,0.95380867,0.9219549,0.922272,0.7440415,0.7342104,0.74456525,0.9828243,0.8574706,0.94888335,0.92436105,0.734171,0.79004526,0.8913969,0.85210335,0.76153725,0.73550195,0.8951314,0.9609176,0.87055665,0.9534399,0.9215861,0.9219032,0.7436726,0.73384154,0.7441965,0.9824555,0.8571018,0.9485146
161,0.9247865,0.7345965,0.7904708,0.8918224,0.8525288,0.7619628,0.73592734,0.8955569,0.96134305,0.87098217,0.95386535,0.92201155,0.9223287,0.7440981,0.734267,0.744622,0.982881,0.85752726,0.94894,0.92449194,0.734302,0.7901763,0.8915278,0.85223436,0.7616682,0.73563284,0.89526236,0.9610485,0.8706876,0.95357084,0.921717,0.9220342,0.74380356,0.73397243,0.74432737,0.98258644,0.85723275,0.94864553
162,0.9248411,0.7346511,0.7905254,0.89187694,0.85258347,0.7620173,0.73598194,0.89561146,0.96139765,0.8710367,0.95391995,0.9220661,0.9223833,0.74415267,0.73432153,0.74467653,0.9829356,0.85758185,0.94899464,0.92457825,0.7343882,0.79026246,0.891614,0.85232055,0.76175445,0.7357191,0.8953486,0.96113473,0.87077385,0.9536571,0.92180324,0.9221204,0.7438898,0.7340587,0.7444137,0.9826727,0.857319,0.9487318
163,0.92489374,0.73470366,0.79057795,0.8919295,0.8526361,0.76206994,0.73603463,0.89566416,0.9614502,0.8710894,0.9539726,0.9221187,0.9224359,0.74420536,0.7343743,0.74472916,0.9829882,0.8576345,0.94904727,0.924666,0.7344759,0.7903502,0.8917018,0.8524083,0.7618422,0.7358069,0.89543635,0.96122247,0.8708616,0.9537448,0.92189103,0.92220813,0.74397755,0.7341465,0.7445014,0.9827604,0.8574067,0.94881946
164,0.92494434,0.73475426,0.7906286,0.8919802,0.85268664,0.76212054,0.7360852,0.89571476,0.9615008,0.87113994,0.9540232,0.9221693,0.9224865,0.74425596,0.7344248,0.7447798,0.9830388,0.8576851,0.9490979,0.9247469,0.73455685,0.79043114,0.8917827,0.85248923,0.7619231,0.7358877,0.89551723,0.9613034,0.8709426,0.9538257,0.9219719,0.9222891,0.7440585,0.7342274,0.7445823,0.9828414,0.8574876,0.94890046
165,0.92499316,0.73480314,0.7906774,0.892029,0.85273546,0.7621694,0.736134,0.8957636,0.96154964,0.87118876,0.954072,0.92221814,0.9225353,0.7443048,0.73447365,0.74482864,0.9830876,0.85773385,0.9491466,0.9248215,0.73463154,0.7905058,0.89185727,0.85256386,0.7619978,0.7359624,0.895592,0.96137804,0.87101716,0.95390034,0.92204654,0.9223637,0.7441332,0.73430204,0.7446569,0.98291606,0.85756224,0.948975
166,0.9250401,0.73485017,0.79072446,0.89207596,0.85278255,0.7622164,0.7361811,0.89581054,0.9615967,0.87123585,0.954119,0.92226523,0.9225823,0.74435186,0.73452073,0.7448756,0.9831347,0.85778093,0.9491937,0.9248908,0.7347008,0.7905751,0.89192665,0.8526332,0.762067,0.7360317,0.89566123,0.96144736,0.8710865,0.95396966,0.92211586,0.922433,0.74420244,0.7343714,0.7447263,0.9829853,0.85763156,0.94904435
167,0.9250855,0.73489547,0.79076976,0.89212126,0.8528278,0.76226175,0.7362264,0.8958559,0.961642,0.8712811,0.95416427,0.9223106,0.9226277,0.7443971,0.73456603,0.7449209,0.98318,0.8578262,0.94923896,0.9249553,0.73476535,0.79063964,0.89199114,0.8526977,0.76213163,0.7360962,0.8957258,0.96151185,0.871151,0.9540342,0.9221804,0.9224976,0.744267,0.73443586,0.7447908,0.98304987,0.85769606,0.94910884
168,0.9251292,0.73493916,0.79081345,0.892165,0.8528715,0.76230544,0.73627007,0.8958996,0.9616857,0.8713248,0.954208,0.9223543,0.9226714,0.7444408,0.7346097,0.74496466,0.9832237,0.85786986,0.94928265,0.9250156,0.73482555,0.79069984,0.89205146,0.852758,0.76219183,0.7361565,0.895786,0.9615721,0.8712113,0.9540945,0.9222407,0.9225578,0.7443272,0.7344961,0.74485105,0.9831101,0.8577564,0.94916916
169,0.92517143,0.7349814,0.7908557,0.89220726,0.85291374,0.7623477,0.7363123,0.89594185,0.961728,0.87136704,0.9542503,0.92239654,0.92271364,0.74448305,0.734652,0.7450069,0.98326594,0.8579122,0.9493249,0.9250721,0.73488206,0.79075634,0.8921079,0.85281444,0.7622483,0.73621297,0.8958425,0.96162856,0.87126774,0.9541509,0.92229706,0.9226143,0.74438375,0.7345526,0.74490756,0.9831666,0.8578128,0.9492256
