,106,122,133,17,2,218,254,282,294,30,301,302,33,335,339,341,362,5,6,106,122,133,17,2,218,254,282,294,30,301,302,33,335,339,341,362,5,6
0,0.025071893,0.029622562,0.025951304,0.0022818148,0.021910992,0.031157628,0.029951263,0.016262762,0.022992197,0.03267642,0.019886136,-0.00012541816,0.016011816,0.034898654,0.010792114,0.027090374,0.03470794,0.033073887,0.039189503,0.025071893,0.029622562,0.025951304,0.0022818148,0.021910992,0.031157628,0.029951263,0.016262762,0.022992197,0.03267642,0.019886136,-0.00012541816,0.016011816,0.034898654,0.010792114,0.027090374,0.03470794,0.033073887,0.039189503
1,-4.38378e-05,0.011102147,0.0074308813,-0.00016238629,0.0033905879,0.012637205,0.011430837,-2.25766e-05,-9.758748e-05,0.014155995,-0.00012864791,-0.00031062236,-6.7296176e-05,0.016378239,-7.728301e-05,0.008569956,0.0019570366,0.014553454,0.0064385757,-4.38378e-05,0.011102147,0.0074308813,-0.00016238629,0.0033905879,0.012637205,0.011430837,-2.25766e-05,-9.758748e-05,0.014155995,-0.00012864791,-0.00031062236,-6.7296176e-05,0.016378239,-7.728301e-05,0.008569956,0.0019570366,0.014553454,0.0064385757
2,-5.303383e-05,0.010182537,0.006511271,-0.00017158217,0.0024709702,0.01171761,0.010511234,-3.1772626e-05,-0.0001138702,0.013236392,-0.00014493056,-0.00031981824,-7.6492055e-05,0.015458621,-8.647911e-05,0.007650353,0.00032876432,0.013633866,0.0048103184,-5.303383e-05,0.010182537,0.006511271,-0.00017158217,0.0024709702,0.01171761,0.010511234,-3.1772626e-05,-0.0001138702,0.013236392,-0.00014493056,-0.00031981824,-7.6492055e-05,0.015458621,-8.647911e-05,0.007650353,0.00032876432,0.013633866,0.0048103184
3,-6.109685e-05,0.009376243,0.0057049766,-0.00017964504,0.0016646907,0.010911308,0.00970494,-3.9835646e-05,-0.00012813463,0.012430102,-0.00015919513,-0.00032788128,-8.455522e-05,0.014652327,-9.454213e-05,0.006844051,-1.097694e-05,0.012827568,0.003383845,-6.109685e-05,0.009376243,0.0057049766,-0.00017964504,0.0016646907,0.010911308,0.00970494,-3.9835646e-05,-0.00012813463,0.012430102,-0.00015919513,-0.00032788128,-8.455522e-05,0.014652327,-9.454213e-05,0.006844051,-1.097694e-05,0.012827568,0.003383845
4,-6.7034736e-05,0.0087824315,0.0051111653,-0.00018558331,0.0010708645,0.0103174895,0.009111129,-4.577376e-05,-0.00013863601,0.01183629,-0.00016789972,-0.00033381954,-9.049319e-05,0.014058527,-0.00010048017,0.0062502325,-2.147831e-05,0.012233749,0.0023337156,-6.7034736e-05,0.0087824315,0.0051111653,-0.00018558331,0.0010708645,0.0103174895,0.009111129,-4.577376e-05,-0.00013863601,0.01183629,-0.00016789972,-0.00033381954,-9.049319e-05,0.014058527,-0.00010048017,0.0062502325,-2.147831e-05,0.012233749,0.0023337156
5,-7.103398e-05,0.008382529,0.0047112554,-0.0001895821,0.0006709695,0.009917587,0.008711219,-4.977278e-05,-0.00014570764,0.011436388,-0.0001718983,-0.0003378184,-9.449236e-05,0.013658617,-0.00010447919,0.00585033,-2.8549655e-05,0.011833847,0.0016265512,-7.103398e-05,0.008382529,0.0047112554,-0.0001895821,0.0006709695,0.009917587,0.008711219,-4.977278e-05,-0.00014570764,0.011436388,-0.0001718983,-0.0003378184,-9.449236e-05,0.013658617,-0.00010447919,0.00585033,-2.8549655e-05,0.011833847,0.0016265512
6,-7.3564275e-05,0.008129507,0.004458256,-0.00019211239,0.00041795522,0.009664573,0.008458197,-5.2303076e-05,-0.00015018314,0.011183359,-0.0001744286,-0.0003403487,-9.7022654e-05,0.013405595,-0.000107009335,0.0055973157,-3.3025444e-05,0.011580817,0.0011789724,-7.3564275e-05,0.008129507,0.004458256,-0.00019211239,0.00041795522,0.009664573,0.008458197,-5.2303076e-05,-0.00015018314,0.011183359,-0.0001744286,-0.0003403487,-9.7022654e-05,0.013405595,-0.000107009335,0.0055973157,-3.3025444e-05,0.011580817,0.0011789724
7,-7.500313e-05,0.007985584,0.0043143183,-0.00019355178,0.00027401745,0.00952065,0.008314274,-5.3742227e-05,-0.0001527322,0.011039443,-0.00017586812,-0.00034178785,-9.84618e-05,0.01326168,-0.00010844856,0.0054534003,-3.5574583e-05,0.011436902,0.00092407316,-7.500313e-05,0.007985584,0.0043143183,-0.00019355178,0.00027401745,0.00952065,0.008314274,-5.3742227e-05,-0.0001527322,0.011039443,-0.00017586812,-0.00034178785,-9.84618e-05,0.01326168,-0.00010844856,0.0054534003,-3.5574583e-05,0.011436902,0.00092407316
8,-7.5586286e-05,0.007927276,0.004256025,-0.00019413463,0.00021571666,0.009462349,0.008255973,-5.4325385e-05,-0.00015377015,0.010981135,-0.00017645098,-0.00034237085,-9.9044664e-05,0.013203368,-0.00010903172,0.0053950846,-3.6612226e-05,0.011378594,0.0008203238,-7.5586286e-05,0.007927276,0.004256025,-0.00019413463,0.00021571666,0.009462349,0.008255973,-5.4325385e-05,-0.00015377015,0.010981135,-0.00017645098,-0.00034237085,-9.9044664e-05,0.013203368,-0.00010903172,0.0053950846,-3.6612226e-05,0.011378594,0.0008203238
9,-7.54638e-05,0.00793954,0.004268281,-0.00019401214,0.00022798032,0.009474598,0.008268237,-5.42026e-05,-0.00015356153,0.010993399,-0.0001763285,-0.00034224844,-9.89224e-05,0.0132156275,-0.00010890908,0.0054073483,-3.6403984e-05,0.011390857,0.0008411333,-7.54638e-05,0.00793954,0.004268281,-0.00019401214,0.00022798032,0.009474598,0.008268237,-5.42026e-05,-0.00015356153,0.010993399,-0.0001763285,-0.00034224844,-9.89224e-05,0.0132156275,-0.00010890908,0.0054073483,-3.6403984e-05,0.011390857,0.0008411333
10,-7.476129e-05,0.008009791,0.0043385327,-0.00019330948,0.00029823184,0.009544857,0.008338481,-5.350016e-05,-0.00015232853,0.011063628,-0.00017562583,-0.00034154564,-9.821974e-05,0.013285883,-0.000108206645,0.0054775923,-3.5170837e-05,0.011461116,0.00096446276,-7.476129e-05,0.008009791,0.0043385327,-0.00019330948,0.00029823184,0.009544857,0.008338481,-5.350016e-05,-0.00015232853,0.011063628,-0.00017562583,-0.00034154564,-9.821974e-05,0.013285883,-0.000108206645,0.0054775923,-3.5170837e-05,0.011461116,0.00096446276
11,-7.360622e-05,0.008125305,0.0044540316,-0.00019215442,0.0004137531,0.009660363,0.008453995,-5.2345094e-05,-0.00015029564,0.011179157,-0.00017447092,-0.00034039072,-9.706452e-05,0.013401393,-0.000107051426,0.0055931136,-3.3137796e-05,0.011576615,0.0011677667,-7.360622e-05,0.008125305,0.0044540316,-0.00019215442,0.0004137531,0.009660363,0.008453995,-5.2345094e-05,-0.00015029564,0.011179157,-0.00017447092,-0.00034039072,-9.706452e-05,0.013401393,-0.000107051426,0.0055931136,-3.3137796e-05,0.011576615,0.0011677667
12,-7.2125345e-05,0.008273385,0.0046021193,-0.00019067383,0.00056181103,0.009808436,0.008602068,-5.086429e-05,-0.00014768615,0.011327222,-0.00017299004,-0.00033891006,-9.558387e-05,0.013549473,-0.00010557062,0.0057411864,-3.052838e-05,0.01172471,0.0014286935,-7.2125345e-05,0.008273385,0.0046021193,-0.00019067383,0.00056181103,0.009808436,0.008602068,-5.086429e-05,-0.00014768615,0.011327222,-0.00017299004,-0.00033891006,-9.558387e-05,0.013549473,-0.00010557062,0.0057411864,-3.052838e-05,0.01172471,0.0014286935
13,-7.043458e-05,0.008442476,0.004771203,-0.00018898293,0.0007309243,0.009977534,0.008771159,-4.9173384e-05,-0.00014470443,0.011496328,-0.0001712992,-0.00033721916,-9.389296e-05,0.013718564,-0.00010387979,0.0059102774,-2.7546883e-05,0.0118937865,0.0017268583,-7.043458e-05,0.008442476,0.004771203,-0.00018898293,0.0007309243,0.009977534,0.008771159,-4.9173384e-05,-0.00014470443,0.011496328,-0.0001712992,-0.00033721916,-9.389296e-05,0.013718564,-0.00010387979,0.0059102774,-2.7546883e-05,0.0118937865,0.0017268583
14,-6.8629306e-05,0.008623004,0.004951738,-0.0001871775,0.0009114444,0.010158062,0.008951701,-4.7367885e-05,-0.00014151953,0.011676855,-0.0001694937,-0.00033541382,-9.208776e-05,0.013899099,-0.00010207444,0.00609082,-2.4361685e-05,0.0120743215,0.0020453483,-6.8629306e-05,0.008623004,0.004951738,-0.0001871775,0.0009114444,0.010158062,0.008951701,-4.7367885e-05,-0.00014151953,0.011676855,-0.0001694937,-0.00033541382,-9.208776e-05,0.013899099,-0.00010207444,0.00609082,-2.4361685e-05,0.0120743215,0.0020453483
15,-6.678313e-05,0.008807622,0.0051363707,-0.00018533133,0.0010960773,0.010342695,0.009136327,-4.5521632e-05,-0.00013826176,0.011861466,-0.00016764752,-0.00033356756,-9.0241505e-05,0.014083721,-0.000100228266,0.006275438,-2.1103919e-05,0.012258954,0.0023711473,-6.678313e-05,0.008807622,0.0051363707,-0.00018533133,0.0010960773,0.010342695,0.009136327,-4.5521632e-05,-0.00013826176,0.011861466,-0.00016764752,-0.00033356756,-9.0241505e-05,0.014083721,-0.000100228266,0.006275438,-2.1103919e-05,0.012258954,0.0023711473
16,-6.4948945e-05,0.008991018,0.005319752,-0.00018349744,0.001279451,0.010526076,0.009319708,-4.3687818e-05,-0.00013502478,0.012044862,-0.00016581349,-0.00033173352,-8.840747e-05,0.014267106,-9.839423e-05,0.006458819,-1.7867014e-05,0.01244235,0.0026948452,-6.4557345e-05,0.009030186,0.005358942,-0.00018310561,0.0013186336,0.010565266,0.00935889,-4.3295993e-05,-0.00013433196,0.012084059,-0.00016539246,-0.00033134175,-8.801572e-05,0.014306277,-9.800262e-05,0.006497994,-1.7174258e-05,0.012481511,0.002764091
17,-6.316401e-05,0.009169504,0.005498238,-0.00018171265,0.0014579445,0.010704577,0.009498201,-4.1903106e-05,-0.00013187401,0.012223378,-0.00016293443,-0.00032994858,-8.6622385e-05,0.014445599,-9.6609365e-05,0.0066373125,-1.4716237e-05,0.012620829,0.0030099228,-6.276548e-05,0.009209365,0.0055380985,-0.00018131382,0.0014977977,0.010744438,0.009538069,-4.1504278e-05,-0.0001311694,0.0122632235,-0.00016223006,-0.00032955006,-8.622385e-05,0.014485456,-9.621084e-05,0.0066771805,-1.4011785e-05,0.012660697,0.003080368
18,-6.1452236e-05,0.009340718,0.0056694597,-0.00018000028,0.0016291663,0.010875784,0.009669423,-4.0190815e-05,-0.00012885123,0.01239457,-0.00015991174,-0.00032823658,-8.491054e-05,0.014616806,-9.4897296e-05,0.006808527,-1.1693537e-05,0.012792043,0.003312178,-6.105296e-05,0.009380616,0.0057093576,-0.00017960131,0.0016690493,0.010915689,0.009709321,-3.9791837e-05,-0.00012814633,0.012434475,-0.00015920668,-0.00032783754,-8.4511485e-05,0.014656723,-9.4498246e-05,0.006848432,-1.0988339e-05,0.012831949,0.0033826977
19,-5.982764e-05,0.009503178,0.005831912,-0.00017837583,0.0017916262,0.011038244,0.009831861,-3.856629e-05,-0.00012598306,0.012557022,-0.00015704341,-0.00032661206,-8.328602e-05,0.014779262,-9.327277e-05,0.0069709793,-8.825064e-06,0.012954481,0.0035990104,-5.943678e-05,0.009542242,0.0058709905,-0.0001779849,0.0018306896,0.011077315,0.009870954,-3.817551e-05,-0.00012529246,0.012596093,-0.00015635297,-0.00032622114,-8.289523e-05,0.014818337,-9.288199e-05,0.0070100576,-8.134618e-06,0.012993567,0.003668055
20,-5.8298854e-05,0.009656042,0.0059847757,-0.00017684698,0.0019444674,0.0111911,0.009984739,-3.7037506e-05,-0.00012328349,0.012709893,-0.00015434413,-0.00032508327,-8.175738e-05,0.014932137,-9.174399e-05,0.007123843,-6.125793e-06,0.013107359,0.0038689524,-5.712479e-05,0.009773441,0.006102182,-0.00017567314,0.0020618737,0.011308506,0.0101021305,-3.586352e-05,-0.000121208424,0.012827292,-0.00015226907,-0.00032390936,-8.058332e-05,0.015049536,-9.057e-05,0.007241249,-4.0507316e-06,0.013224762,0.0040764585
21,-5.686961e-05,0.009798951,0.006127678,-0.0001754181,0.0020873845,0.011334024,0.010127634,-3.560856e-05,-0.00012076012,0.012852803,-0.00015182063,-0.00032365404,-8.032814e-05,0.015075043,-9.031497e-05,0.0072667524,-3.6022811e-06,0.01325028,0.004121311,-5.5670214e-05,0.009918898,0.0062476397,-0.00017421856,0.0022073463,0.011453964,0.010247588,-3.440909e-05,-0.00011863999,0.01297275,-0.00014970065,-0.00032245455,-7.9128666e-05,0.0151949935,-8.911543e-05,0.007386707,-1.482442e-06,0.013370223,0.0043333024
22,-5.554117e-05,0.00993181,0.0062605515,-0.00017408936,0.0022202581,0.011466883,0.010260507,-3.4279823e-05,-0.00011841394,0.012985662,-0.00014947429,-0.0003223256,-7.89997e-05,0.015207909,-8.898638e-05,0.0073996186,-1.2560934e-06,0.013383124,0.00435593,-5.4347664e-05,0.010051176,0.0063799024,-0.00017289586,0.0023396164,0.011586241,0.010379858,-3.3086166e-05,-0.00011630475,0.013105024,-0.0001473654,-0.00032113193,-7.780589e-05,0.01532726,-8.779272e-05,0.007518977,8.529425e-05,0.013502482,0.0045668334
23,-5.4311677e-05,0.010054752,0.0063834935,-0.00017285987,0.0023431852,0.011589818,0.010383457,-3.3050328e-05,-0.00011624254,0.013108607,-0.00014730319,-0.0003210961,-7.77702e-05,0.015330851,-8.775688e-05,0.0075225607,9.151548e-05,0.013506077,0.0045730695,-5.2194595e-05,0.010266468,0.006595202,-0.00017074279,0.002554901,0.011801533,0.010595165,-3.093332e-05,-0.00011250094,0.013320327,-0.00014356144,-0.00031897903,-7.565312e-05,0.015542556,-8.5639804e-05,0.007734284,0.0004656911,0.013717782,0.004947223
24,-5.317889e-05,0.010168046,0.0064967796,-0.0001717271,0.0024564788,0.011703104,0.010496743,-3.191747e-05,-0.00011424176,0.013221897,-0.00014530211,-0.00031996338,-7.663734e-05,0.015444133,-8.662395e-05,0.0076358467,0.00029160827,0.013619367,0.00477314,-5.1027237e-05,0.010383204,0.0067119375,-0.00016957574,0.002671644,0.011918269,0.010711893,-2.9766112e-05,-0.0001104398,0.013437051,-0.00014150045,-0.00031781173,-7.4485615e-05,0.015659295,-8.447252e-05,0.007851005,0.00067178905,0.013834525,0.0051533207
25,-5.199894e-05,0.010286041,0.006614782,-0.00017054714,0.0025744885,0.011821106,0.010614738,-3.073752e-05,-0.00011215761,0.013339892,-0.00014321796,-0.00031878336,-7.5457465e-05,0.015562128,-8.544407e-05,0.007753849,0.00050002337,0.013737362,0.004981555,-5.0005987e-05,0.010485314,0.0068140477,-0.00016855448,0.0027737617,0.012020387,0.010814011,-2.874486e-05,-0.00010863669,0.013539173,-0.00013969734,-0.00031679048,-7.3464435e-05,0.015761416,-8.3451196e-05,0.00795313,0.00085210055,0.013936646,0.005333647
26,-5.1037965e-05,0.010382108,0.0067108497,-0.00016958646,0.0026705563,0.011917181,0.010710813,-2.9776915e-05,-0.000110460816,0.013435964,-0.00014152146,-0.00031782239,-7.449649e-05,0.0156582,-8.44834e-05,0.007849924,0.0006697029,0.013833437,0.005151257,-4.9101338e-05,0.010575786,0.00690452,-0.00016764968,0.0028642416,0.012110852,0.0109044835,-2.7840137e-05,-0.00010703928,0.0136296265,-0.00013809979,-0.0003158859,-7.255971e-05,0.015851874,-8.254662e-05,0.008043602,0.001011841,0.0140271,0.00549338
27,-5.0168484e-05,0.010469064,0.006797798,-0.00016871697,0.0027574971,0.012004137,0.0107977465,-2.8907432e-05,-0.00010892525,0.013522934,-0.0001399856,-0.0003169532,-7.362701e-05,0.015745156,-8.361384e-05,0.007936865,0.00082325935,0.013920393,0.0053048134,-4.7413185e-05,0.0107446015,0.007073343,-0.00016596138,0.0030330345,0.012279667,0.011073306,-2.6152133e-05,-0.00010405592,0.013798457,-0.00013511673,-0.00031419762,-7.0871414e-05,0.016020693,-8.085839e-05,0.008212417,0.0013101771,0.014195915,0.0057917163
28,-4.8530248e-05,0.0106328875,0.006961629,-0.00016707875,0.0029213205,0.012167953,0.010961585,-2.72692e-05,-0.00010602981,0.013686746,-0.0001370903,-0.00031531497,-7.1988776e-05,0.015908979,-8.197561e-05,0.008100696,0.0011127889,0.014084201,0.005594313,-4.661031e-05,0.010824867,0.007153608,-0.00016515896,0.0031132996,0.012359932,0.011153564,-2.5349407e-05,-0.00010263882,0.013878729,-0.00013369948,-0.00031339502,-7.006883e-05,0.016100962,-8.005582e-05,0.0082926825,0.0014518946,0.014276184,0.0059334263
29,-4.7744437e-05,0.010711461,0.0070401877,-0.00016629278,0.0029999018,0.012246534,0.011040151,-2.6483387e-05,-0.00010464244,0.013765324,-0.00013570278,-0.000314529,-7.1202965e-05,0.015987553,-8.118987e-05,0.008179277,0.0012515411,0.014162783,0.005733095,-4.4634566e-05,0.011022463,0.0073512048,-0.00016318276,0.003310904,0.012557529,0.011351168,-2.337329e-05,-9.914674e-05,0.014076315,-0.00013020723,-0.00031141913,-6.809309e-05,0.016298555,-7.807977e-05,0.008490279,0.0018011108,0.014473785,0.006282635
30,-4.707843e-05,0.010778084,0.0071068183,-0.00016562677,0.0030665249,0.012313142,0.011106782,-2.581708e-05,-0.000103465914,0.013831932,-0.00013452642,-0.00031386307,-7.053681e-05,0.016054168,-8.0523714e-05,0.008245893,0.0013691932,0.014229406,0.00585074,-4.391223e-05,0.011094682,0.007423438,-0.00016246058,0.0033831224,0.012629762,0.011423394,-2.2651106e-05,-9.787172e-05,0.014148548,-0.00012893222,-0.00031069687,-6.737068e-05,0.016370773,-7.735759e-05,0.008562498,0.0019285828,0.014546014,0.0064101294
31,-4.6502424e-05,0.01083567,0.0071644112,-0.00016505085,0.0031241253,0.01237075,0.011164375,-2.5241225e-05,-0.00010244846,0.013889536,-0.00013350896,-0.00031328684,-6.996095e-05,0.016111765,-7.9947786e-05,0.008303486,0.0014709234,0.0142869875,0.00595247,-4.3356045e-05,0.011150315,0.007479042,-0.00016190425,0.0034387559,0.012685381,0.011479005,-2.2094995e-05,-9.688988e-05,0.014204178,-0.0001279503,-0.00031014046,-6.681442e-05,0.0164264,-7.68014e-05,0.008618124,0.0020267963,0.014601637,0.006508328
32,-4.6002344e-05,0.010885708,0.0072144344,-0.00016455069,0.0031741485,0.0124207735,0.011214405,-2.4740844e-05,-0.000101564896,0.013939556,-0.00013262569,-0.00031278675,-6.946057e-05,0.016161792,-7.94474e-05,0.008353524,0.001559265,0.014337014,0.006040804,-4.290834e-05,0.011195086,0.0075238273,-0.00016145654,0.0034835264,0.012730151,0.011523791,-2.1647214e-05,-9.609937e-05,0.014248937,-0.00012715987,-0.00030969284,-6.636679e-05,0.016471177,-7.635355e-05,0.008662894,0.002105847,0.0146464035,0.006587364
33,-4.5567078e-05,0.0109292045,0.0072579533,-0.00016411542,0.0032176375,0.01246427,0.011257909,-2.430603e-05,-0.00010079659,0.013983067,-0.0001318571,-0.00031235165,-6.902545e-05,0.016205296,-7.901244e-05,0.008397013,0.0016361251,0.014380522,0.0061176643,-4.254408e-05,0.011231519,0.007560253,-0.00016109242,0.0035199523,0.012766577,0.011560217,-2.1282882e-05,-9.545617e-05,0.014285363,-0.00012651666,-0.00030932867,-6.6002605e-05,0.016507603,-7.598929e-05,0.00869932,0.002170153,0.014682833,0.006651692
34,-4.5189336e-05,0.010966979,0.007295713,-0.00016373783,0.003255412,0.012502037,0.011295669,-2.3928284e-05,-0.00010012932,0.014020827,-0.00013118982,-0.0003119742,-6.864786e-05,0.016243067,-7.863462e-05,0.00843478,0.0017028302,0.014418293,0.006184362,-4.2247102e-05,0.01126121,0.0075899586,-0.00016079523,0.0035496578,0.012796275,0.011589922,-2.09859e-05,-9.493157e-05,0.014315069,-0.00012599207,-0.00030903166,-6.570562e-05,0.016537305,-7.5692384e-05,0.008729026,0.0022226125,0.014712535,0.006704159
35,-4.48627e-05,0.010999642,0.007328391,-0.00016341089,0.0032880902,0.012534715,0.011328347,-2.3601651e-05,-9.95519e-05,0.014053505,-0.00013061255,-0.00031164728,-6.832123e-05,0.016275745,-7.8307836e-05,0.008467458,0.0017605722,0.014450975,0.006242119,-4.118271e-05,0.011367649,0.0076963753,-0.00015973121,0.0036560744,0.012902707,0.011696331,-1.992166e-05,-9.3050374e-05,0.0144215,-0.00012411087,-0.00030796742,-6.464124e-05,0.016643733,-7.462799e-05,0.00883545,0.0024107397,0.014818955,0.0068922862
36,-4.358351e-05,0.011127569,0.0074563175,-0.00016213178,0.0034160167,0.012662642,0.0114562735,-2.2322312e-05,-9.729035e-05,0.014181424,-0.0001283507,-0.00031036808,-6.7042034e-05,0.016403675,-7.702864e-05,0.008595377,0.0019867495,0.014578879,0.006468281,-4.0882973e-05,0.011397645,0.0077263713,-0.00015943118,0.0036860928,0.012932703,0.011726342,-1.9621402e-05,-9.252056e-05,0.014451489,-0.00012358121,-0.0003076674,-6.434135e-05,0.016673733,-7.432803e-05,0.008865446,0.0024637133,0.014848974,0.0069452524
37,-4.3222604e-05,0.011163667,0.007492408,-0.00016177066,0.0034521148,0.012698732,0.011492372,-2.1961405e-05,-9.6652875e-05,0.014217533,-0.00012771353,-0.00031000687,-6.6680834e-05,0.016439755,-7.666781e-05,0.008631483,0.0020504966,0.014614996,0.0065320283,-4.0680767e-05,0.011417821,0.007746555,-0.00015922941,0.003706254,0.012952901,0.011746511,-1.9419715e-05,-9.2164126e-05,0.014471684,-0.00012322485,-0.0003074655,-6.413929e-05,0.016693912,-7.412627e-05,0.0088856295,0.0024993643,0.014869139,0.006980881
38,-4.1616335e-05,0.011324294,0.007653035,-0.00016016453,0.0036127418,0.012859367,0.011652999,-2.0354986e-05,-9.381316e-05,0.0143781565,-0.00012487381,-0.00030840075,-6.507471e-05,0.016600389,-7.506147e-05,0.00879211,0.0023344457,0.014775623,0.0068159774,-4.0540843e-05,0.011431836,0.0077605844,-0.00015908905,0.003720276,0.0129669085,0.01176054,-1.9279792e-05,-9.191647e-05,0.014485702,-0.00012297712,-0.00030732527,-6.399922e-05,0.016707942,-7.3985975e-05,0.008899644,0.0025241077,0.014883157,0.0070056617
39,-4.123725e-05,0.011362188,0.0076909363,-0.00015978559,0.0036506206,0.012897253,0.011690885,-1.9976198e-05,-9.31444e-05,0.01441605,-0.0001242049,-0.00030802182,-6.469577e-05,0.01663829,-7.468253e-05,0.008829996,0.002401337,0.014813505,0.0068828687,-4.044749e-05,0.011441156,0.0077698976,-0.00015899606,0.0037296042,0.012976237,0.011769861,-1.9186436e-05,-9.175204e-05,0.014495026,-0.00012281246,-0.00030723205,-6.390586e-05,0.016717255,-7.389284e-05,0.008908972,0.0025405735,0.014892481,0.00702212
40,-3.9821414e-05,0.011503778,0.007832512,-0.00015836969,0.0037922114,0.013038848,0.011832461,-1.856029e-05,-9.064182e-05,0.01455763,-0.000121702324,-0.00030660577,-6.327987e-05,0.01677987,-7.3266696e-05,0.008971579,0.002651602,0.014955107,0.0071331337,-4.039146e-05,0.011446767,0.0077755153,-0.0001589398,0.0037351996,0.0129818395,0.011775471,-1.9130408e-05,-9.1652495e-05,0.014500629,-0.00012271329,-0.00030717588,-6.384984e-05,0.01672285,-7.383682e-05,0.008914582,0.0025505126,0.014898095,0.007032059
41,-3.94924e-05,0.011536665,0.007865392,-0.00015804089,0.0038251057,0.013071738,0.011865355,-1.8231422e-05,-9.006157e-05,0.01459052,-0.00012112237,-0.00030627704,-6.2950996e-05,0.016812757,-7.293776e-05,0.009004474,0.0027096272,0.014987983,0.007191159,-4.0365307e-05,0.011449382,0.007778123,-0.00015891365,0.0037378296,0.012984462,0.011778086,-1.9104107e-05,-9.160638e-05,0.014503237,-0.00012266672,-0.0003071499,-6.3823834e-05,0.016725488,-7.381067e-05,0.008917198,0.0025551543,0.0149006955,0.007036701
42,-3.9310602e-05,0.011554882,0.007883623,-0.0001578588,0.0038433298,0.013089944,0.011883587,-1.8048957e-05,-8.97403e-05,0.01460873,-0.0001208008,-0.00030609503,-6.276898e-05,0.01683098,-7.275566e-05,0.009022698,0.002741754,0.0150061995,0.0072232634,-3.9837138e-05,0.011502191,0.007830925,-0.00015838548,0.003790632,0.013037261,0.011830881,-1.8576235e-05,-9.06726e-05,0.01455605,-0.00012173295,-0.00030662178,-6.329574e-05,0.01677828,-7.3282565e-05,0.008969992,0.002648525,0.014953509,0.0071300715
43,0.009711124,0.020946577,0.017275315,-6.394192e-05,0.013235021,0.022481639,0.02127527,0.0075867698,0.0076313987,0.024000429,0.0045253485,-0.00021217807,0.003114812,0.026222676,0.0021161363,0.018414386,0.01934718,0.024397891,0.023828715,-3.9780065e-05,0.0115079135,0.007836647,-0.00015832826,0.0037963465,0.013042986,0.011836611,-1.8518866e-05,-9.0571266e-05,0.014561769,-0.000121631696,-0.00030656465,-6.323874e-05,0.016784012,-7.3225274e-05,0.008975722,0.0026586577,0.014959224,0.0071402118
44,0.01571026,0.024339642,0.020668373,-3.0011013e-05,0.016628075,0.025874708,0.024668332,0.010979816,0.01363058,0.027393486,0.010524504,-0.00017824731,0.0066501796,0.029615726,0.0055091903,0.021807455,0.025346324,0.027790956,0.02982786,-3.977619e-05,0.011508301,0.007837042,-0.00015832439,0.0037967265,0.01304337,0.011836991,-1.851514e-05,-9.056427e-05,0.014562171,-0.00012162476,-0.0003065606,-6.323457e-05,0.016784385,-7.3221396e-05,0.008976102,0.0026593506,0.014959622,0.007140897
45,0.043966636,0.04032087,0.03664961,0.012980111,0.03260931,0.041855946,0.04064957,0.026961077,0.04188691,0.044695754,0.03878088,-1.8435047e-05,0.03490656,0.045596965,0.021490429,0.037788685,0.053602703,0.0437722,0.058084235,-3.980234e-05,0.011505686,0.00783442,-0.00015835068,0.0037941337,0.01304074,0.011834376,-1.854129e-05,-9.0610236e-05,0.014559526,-0.00012167096,-0.0003065869,-6.3260864e-05,0.016781777,-7.3247626e-05,0.008973479,0.0026547387,0.014957011,0.0071362704
46,0.049536906,0.043471374,0.039800115,0.016130615,0.03575981,0.04500645,0.043800075,0.030994106,0.04745719,0.050266027,0.04435115,0.0013069883,0.04047683,0.04874746,0.024640933,0.040939182,0.059172973,0.04692269,0.06365452,-3.984928e-05,0.011500992,0.007829726,-0.00015839763,0.0037894472,0.01303605,0.011829689,-1.8588378e-05,-9.0692934e-05,0.014554843,-0.00012175358,-0.00030663385,-6.3307656e-05,0.016777087,-7.329449e-05,0.008968793,0.0026464686,0.014952302,0.007128015
47,0.07695997,0.058981307,0.05531005,0.040286098,0.051269747,0.06051638,0.05931001,0.05841716,0.07488023,0.07768909,0.07177421,0.027245846,0.06789988,0.06425739,0.040150866,0.056449123,0.08659603,0.062432617,0.09107756,-3.991075e-05,0.01149486,0.007823601,-0.00015845895,0.003783293,0.013029922,0.011823565,-1.8649323e-05,-9.080104e-05,0.0145487115,-0.000121861696,-0.0003066951,-6.336905e-05,0.016770948,-7.3355804e-05,0.008962661,0.0026356652,0.01494617,0.007117212
48,0.08231691,0.06201117,0.05833991,0.045643076,0.054299608,0.06354624,0.06233987,0.063774124,0.08023724,0.08304605,0.07713116,0.03260284,0.07325685,0.06728726,0.04318073,0.059478983,0.09195301,0.06546249,0.09643453,-3.965974e-05,0.011519931,0.007848673,-0.00015820823,0.0038083717,0.013054997,0.011848636,-1.8398836e-05,-9.035706e-05,0.014573783,-0.00012141771,-0.00030644445,-6.311826e-05,0.016796023,-7.310517e-05,0.008987747,0.0026800334,0.0149712525,0.0071615726
49,0.08446403,0.0632256,0.059554324,0.047790207,0.055514045,0.064760655,0.06355429,0.06592124,0.08238434,0.08519318,0.07927829,0.034749955,0.075403966,0.06850168,0.044395145,0.060693406,0.094100125,0.066676915,0.098581664,-3.968805e-05,0.011517115,0.007845849,-0.00015823646,0.003805548,0.013052177,0.011845805,-1.842685e-05,-9.0407055e-05,0.014570974,-0.00012146741,-0.00030647276,-6.3146574e-05,0.016793206,-7.3133335e-05,0.008984908,0.0026750788,0.01496844,0.0071566105
50,0.08493609,0.0634926,0.05982134,0.048262242,0.055781066,0.06502766,0.0638213,0.0663933,0.08285639,0.085665226,0.07975035,0.035221998,0.07587601,0.068768695,0.04466216,0.06096042,0.09457217,0.06694392,0.09905372,-3.9742437e-05,0.011511676,0.00784041,-0.00015829093,0.003800109,0.013046738,0.011840373,-1.848124e-05,-9.0502646e-05,0.014565531,-0.00012156308,-0.00030652687,-6.320096e-05,0.016787767,-7.3187795e-05,0.008979477,0.0026655048,0.014962986,0.007147044
51,0.114699654,0.08032622,0.07665498,0.07802579,0.07890396,0.08186131,0.080654934,0.09615685,0.112619966,0.11542877,0.109513886,0.06498557,0.105639584,0.08560233,0.061495796,0.07779404,0.12433574,0.09242402,0.12881728,-3.8760005e-05,0.011609927,0.007938668,-0.00015730827,0.0038983673,0.013144996,0.011938632,-1.749873e-05,-8.876487e-05,0.014663786,-0.00011982567,-0.0003055445,-6.221831e-05,0.016886018,-7.220514e-05,0.009077728,0.0028392524,0.015061244,0.007320799
52,0.11926372,0.08290764,0.07923638,0.08258985,0.083468035,0.0844427,0.08323634,0.10072091,0.11718404,0.11999285,0.114077955,0.069549605,0.11020364,0.08818372,0.06407718,0.08037545,0.1288998,0.096988074,0.13338134,-3.866218e-05,0.011619687,0.007948443,-0.00015721067,0.0039081275,0.013154764,0.011948392,-1.740113e-05,-8.859269e-05,0.014673557,-0.000119653116,-0.0003054469,-6.212071e-05,0.016895786,-7.2107534e-05,0.009087503,0.002856508,0.015071012,0.0073380396
53,0.1587219,0.10522433,0.101553075,0.122048035,0.12292619,0.10675941,0.10555303,0.1401791,0.15664217,0.15945101,0.15353611,0.109007776,0.1496618,0.110500425,0.0863939,0.10269215,0.16835797,0.13644624,0.1728395,0.009636514,0.020904277,0.017233007,-6.436467e-05,0.013192724,0.022439338,0.02123297,0.0075444803,0.0075568184,0.02395811,0.004450768,-0.00021260112,0.0030724928,0.026180364,0.0020738244,0.018372085,0.019272603,0.02435559,0.02375415
54,0.20691198,0.1324797,0.14917368,0.1702381,0.17111628,0.14553925,0.13280839,0.18836918,0.20483229,0.2076411,0.2017262,0.15719786,0.19785188,0.13775578,0.11364925,0.12994748,0.21654806,0.18463632,0.22102958,0.013204917,0.022922508,0.019251253,-4.4182463e-05,0.015210949,0.024457574,0.023251217,0.009562701,0.011125222,0.025976375,0.008019142,-0.0001924187,0.0050907657,0.028198611,0.0040920675,0.02039032,0.022840977,0.02637383,0.027322512
55,0.21960783,0.14070654,0.16186953,0.18293396,0.18381211,0.15823509,0.13998902,0.20106503,0.21752813,0.22033694,0.21442205,0.16989371,0.21054775,0.14619601,0.12082989,0.13712813,0.2292439,0.19733216,0.2337254,0.014768321,0.02380678,0.020135526,-3.5339668e-05,0.016095228,0.02534185,0.024135474,0.010446988,0.012688629,0.026860628,0.009582564,-0.00018357605,0.0059750155,0.029082868,0.0049763396,0.021274582,0.024404395,0.02725811,0.02888593
56,0.22654513,0.14764383,0.16880684,0.18987125,0.1907494,0.1651724,0.14391273,0.20800233,0.22446543,0.22727424,0.22135934,0.17683104,0.21748504,0.15313333,0.12623438,0.14105183,0.2361812,0.20426947,0.24066272,0.02574642,0.030015755,0.02634449,0.0026749894,0.022304203,0.03155082,0.030344453,0.016655955,0.023666713,0.033069614,0.020560663,-0.000121486184,0.016686328,0.03529184,0.011185303,0.027483568,0.0353825,0.03346707,0.039864045
57,0.2650798,0.18617854,0.20734152,0.22840595,0.22928411,0.20370707,0.18165356,0.24653703,0.2630001,0.26580894,0.259894,0.21536571,0.25601977,0.191668,0.16476907,0.1778104,0.2747159,0.24280417,0.27919745,0.027681064,0.031109974,0.027438715,0.0037692115,0.023398407,0.032645047,0.031438667,0.017750163,0.025601339,0.034163848,0.022495307,-0.000110544184,0.018620986,0.03638606,0.012279533,0.028577778,0.037317112,0.0345613,0.041798662
58,0.27526343,0.19636214,0.21752512,0.23858953,0.23946771,0.21389067,0.19183716,0.25672063,0.2731837,0.27599254,0.27007765,0.22554931,0.26620334,0.2018516,0.17495267,0.187994,0.2848995,0.25298777,0.28938103,0.04777628,0.042475395,0.038804144,0.015134655,0.034763835,0.04401046,0.042804107,0.02923346,0.04569657,0.048505396,0.04259052,0.00031103194,0.0387162,0.0477515,0.023644961,0.039943207,0.05741233,0.045926727,0.06189388
59,0.28098363,0.20208234,0.22324535,0.24430978,0.24518794,0.2196109,0.19755737,0.26244083,0.27890393,0.28171274,0.27579787,0.23126954,0.27192354,0.2075718,0.18067288,0.19371422,0.2906197,0.25870797,0.29510126,0.05167339,0.044679567,0.0410083,0.017338816,0.03696801,0.046214644,0.045008264,0.033130586,0.049593687,0.052402515,0.046487622,0.0025152043,0.042613313,0.04995566,0.025849115,0.042147383,0.06130947,0.048130892,0.065791
60,0.30658355,0.22768226,0.24884528,0.2699097,0.27078786,0.24521083,0.22315732,0.2880408,0.30450386,0.3073127,0.3013978,0.25686947,0.2975235,0.23317176,0.20627281,0.21931416,0.31621966,0.28430793,0.3207012,0.05380723,0.04588645,0.04221519,0.018545706,0.038174886,0.047421522,0.04621515,0.035264432,0.051727533,0.05453635,0.048621453,0.004093118,0.04474716,0.05116255,0.027056012,0.04335425,0.06344329,0.049337782,0.06792485
61,0.34210604,0.26320475,0.28436777,0.3054322,0.30631033,0.2807333,0.25867978,0.32356325,0.34002635,0.3428352,0.3369203,0.29239193,0.333046,0.26869422,0.2417953,0.25483662,0.35174212,0.3198304,0.35622367,0.07762942,0.059359774,0.055688508,0.04095555,0.051648207,0.060894847,0.05968847,0.059086613,0.07554968,0.07835854,0.07244366,0.02791531,0.06856933,0.06463586,0.040529326,0.05682759,0.08726546,0.06281109,0.091747016
62,0.3532372,0.27433592,0.2954989,0.31656334,0.3174415,0.29186445,0.26981094,0.33469442,0.35115752,0.35396633,0.34805146,0.30352306,0.34417713,0.27982536,0.25292644,0.2659678,0.36287326,0.33096156,0.3673548,0.08284194,0.062307913,0.058636658,0.046168074,0.054596364,0.06384298,0.06263662,0.064299166,0.08076223,0.08357106,0.07765618,0.033127848,0.07378186,0.067584015,0.043477472,0.059775736,0.09247799,0.06575926,0.096959546
63,0.36011955,0.28121826,0.30238125,0.32344568,0.32432383,0.2987468,0.27669328,0.34157676,0.35803986,0.36084867,0.35493377,0.3104054,0.35105947,0.2867077,0.25980878,0.27285013,0.36975563,0.33784387,0.37423715,0.08606025,0.06412816,0.060456898,0.049386386,0.056416605,0.06566323,0.064456865,0.067517444,0.08398055,0.08678937,0.08087449,0.036346145,0.07700017,0.069404244,0.045297716,0.06159597,0.09569633,0.06757948,0.10017787
64,0.36490905,0.28600776,0.30717075,0.32823518,0.32911333,0.3035363,0.2814828,0.34636626,0.36282936,0.36563817,0.3597233,0.3151949,0.35584897,0.2914972,0.26459828,0.27763963,0.3745451,0.3426334,0.37902668,0.0883681,0.06543346,0.06176221,0.05169424,0.05772192,0.06696853,0.06576217,0.069825314,0.08628841,0.08909724,0.08318235,0.03865401,0.07930804,0.07070956,0.04660302,0.06290128,0.098004185,0.06888478,0.10248574
65,0.38470784,0.30580652,0.32696953,0.34803396,0.3489121,0.32333508,0.30128157,0.366165,0.3826281,0.38543692,0.37952206,0.3349937,0.37564775,0.311296,0.28439707,0.29743838,0.3943439,0.36243218,0.39882544,0.09766497,0.0706916,0.067020334,0.060991123,0.06298004,0.07222666,0.07102029,0.07912218,0.09558527,0.0983941,0.09247924,0.04795087,0.08860493,0.07596769,0.05186115,0.06815941,0.10730106,0.07538934,0.111782596
66,0.39118773,0.3122864,0.33344942,0.35451385,0.35539198,0.32981497,0.30776146,0.3726449,0.389108,0.39191684,0.38600194,0.34147358,0.38212764,0.31777588,0.29087695,0.3039183,0.4008238,0.36891207,0.40530533,0.100608826,0.07235658,0.06868533,0.06393496,0.064813115,0.073891655,0.072685294,0.08206601,0.09852913,0.101337954,0.09542307,0.050894722,0.09154874,0.07763268,0.05352614,0.0698244,0.11024489,0.07833318,0.114726424
67,0.39543322,0.3165319,0.33769494,0.35875937,0.3596375,0.33406046,0.31200695,0.3768904,0.39335352,0.39616233,0.39024743,0.3457191,0.38637313,0.32202137,0.29512244,0.3081638,0.40506926,0.37315756,0.40955085,0.10280996,0.073601514,0.06993025,0.06613608,0.067014255,0.075136594,0.07393022,0.08426717,0.10073026,0.10353908,0.09762421,0.053095836,0.09374987,0.07887761,0.054771066,0.07106934,0.11244604,0.08053431,0.11692758
68,0.39861703,0.31971574,0.34087875,0.36194316,0.36282128,0.33724427,0.31519076,0.3800742,0.3965373,0.39934614,0.39343128,0.34890288,0.38955694,0.32520518,0.29830626,0.3113476,0.4082531,0.37634137,0.41273466,0.10468483,0.074661925,0.070990674,0.06801098,0.06888913,0.076197,0.07499062,0.08614203,0.102605104,0.10541395,0.09949908,0.054970726,0.09562477,0.079938024,0.05583148,0.072129734,0.114320904,0.082409196,0.11880244
69,0.40109548,0.3221942,0.3433572,0.36442164,0.36529976,0.33972272,0.3176692,0.38255268,0.39901575,0.4018246,0.3959097,0.35138136,0.39203542,0.3273621,0.3007847,0.31382605,0.41073155,0.37881982,0.4152131,0.12405793,0.08561893,0.08194767,0.08738407,0.08826222,0.08715399,0.08594763,0.10551512,0.12197821,0.12478705,0.118872166,0.07434383,0.11499786,0.09089502,0.06678849,0.08308674,0.133694,0.10178232,0.13817558
70,0.40309435,0.32419306,0.34535608,0.36642054,0.36729863,0.34172162,0.3196681,0.38455158,0.40101466,0.4038235,0.3979086,0.35338023,0.3940343,0.3289338,0.3027836,0.31582496,0.41273043,0.3808187,0.41721198,0.12925898,0.08856057,0.084889315,0.09258511,0.09346328,0.09009563,0.08888927,0.11071618,0.1271793,0.1299881,0.12407323,0.07954489,0.12019889,0.09383666,0.069730125,0.08602837,0.13889505,0.10698338,0.14337662
71,0.43279138,0.34834903,0.3750531,0.39611754,0.39699566,0.37141865,0.34717417,0.4142486,0.4307117,0.4335205,0.42760563,0.38307726,0.42373133,0.35228437,0.33248064,0.345522,0.44242746,0.41051573,0.446909,0.13318413,0.09078058,0.08710933,0.096510276,0.09738845,0.09231565,0.091109276,0.11464133,0.13110445,0.13391326,0.12799838,0.08347004,0.12412405,0.09605667,0.07195014,0.0882484,0.1428202,0.11090854,0.1473018
72,0.4410252,0.3548232,0.38328695,0.40435135,0.40522948,0.37965247,0.35364833,0.4224824,0.4389455,0.4417543,0.43583944,0.39131108,0.43196514,0.35875854,0.34071445,0.3527243,0.45066124,0.41874954,0.45514283,0.14817917,0.09926147,0.09559022,0.1115053,0.112383485,0.10079655,0.09959018,0.12963638,0.14609948,0.1489083,0.14299342,0.09846507,0.13911909,0.10453758,0.08043104,0.09672929,0.15781525,0.12590355,0.16229679
73,0.47226736,0.37938875,0.41452911,0.43559352,0.43647164,0.40835738,0.37821388,0.45372456,0.47018766,0.4729965,0.4670816,0.42255324,0.4632073,0.38332406,0.37195665,0.37728983,0.48190343,0.44999173,0.48638502,0.15373603,0.10240435,0.0987331,0.11706218,0.11794034,0.10393944,0.102733046,0.13519324,0.15165633,0.15446515,0.14855026,0.10402194,0.14467594,0.10768045,0.083573915,0.09987217,0.1633721,0.13146041,0.16785367
74,0.48308748,0.3878965,0.42534924,0.44641367,0.44729182,0.41686517,0.3867216,0.4645447,0.48100778,0.48381665,0.47790173,0.43337336,0.47402745,0.39183185,0.38183796,0.38579762,0.49272358,0.46081188,0.4972051,0.15833704,0.10500662,0.10133537,0.12166318,0.12254134,0.10654171,0.105335325,0.13979426,0.15625735,0.15906616,0.15315127,0.10862294,0.14927694,0.11028272,0.08617619,0.102474436,0.16797313,0.1360614,0.17245466
75,0.51252884,0.41104606,0.45479062,0.47585502,0.4767332,0.4400147,0.4098712,0.4939861,0.5104492,0.51325804,0.5073431,0.46281478,0.5034688,0.4149814,0.4049875,0.40894717,0.52216494,0.49025324,0.5266465,0.17555536,0.11474495,0.117817074,0.13888149,0.13975966,0.11628002,0.11507365,0.15701255,0.17347565,0.17628448,0.1703696,0.12584125,0.16649528,0.120021045,0.09591451,0.11221276,0.18519142,0.15327972,0.18967296
76,0.5243298,0.42032504,0.46469706,0.48765597,0.48853415,0.44929367,0.41915017,0.505787,0.5222501,0.525059,0.51914406,0.47461572,0.51526976,0.42426038,0.4142665,0.41822612,0.5339659,0.5020542,0.53844744,0.1822842,0.11855069,0.1245459,0.14561033,0.14648849,0.12091146,0.118879385,0.1637414,0.18020448,0.1830133,0.17709842,0.13257009,0.1732241,0.12382678,0.09972024,0.11601849,0.19192025,0.16000855,0.1964018
77,0.53306204,0.42719114,0.4715632,0.4963883,0.4972664,0.4561598,0.42601627,0.5145193,0.5309824,0.53379124,0.5278763,0.48334798,0.524002,0.4311265,0.42113262,0.42509228,0.54269814,0.5107865,0.5471797,0.1880073,0.12178759,0.13026899,0.15133342,0.15221158,0.12663454,0.12211629,0.16946448,0.18592757,0.18873641,0.18282151,0.13829318,0.17894721,0.12706368,0.102957144,0.11925539,0.19764335,0.16573164,0.2021249
78,0.55406445,0.44370514,0.4880772,0.5173906,0.51826876,0.4726738,0.44253024,0.5355216,0.5519847,0.5547936,0.54887867,0.50435036,0.5450044,0.44764048,0.4376466,0.44160625,0.56370056,0.5317888,0.56818205,0.2179113,0.13901003,0.16017301,0.18123743,0.18211558,0.15653858,0.13902938,0.1993685,0.21583161,0.21864042,0.21272555,0.16819718,0.20885122,0.1444995,0.11987025,0.1361685,0.2275474,0.19563568,0.2320289
79,0.5638989,0.45143792,0.49580994,0.5272251,0.52810323,0.48040655,0.450263,0.54535615,0.5618192,0.56462806,0.55871314,0.51418483,0.5548389,0.45537323,0.44537935,0.449339,0.573535,0.5416233,0.5780165,0.22822696,0.1493257,0.1704887,0.19155312,0.19243127,0.16685426,0.14486378,0.2096842,0.2261473,0.2289561,0.2230412,0.17851287,0.2191669,0.15481518,0.12791625,0.14200291,0.23786306,0.2059513,0.24234456
80,0.5716144,0.45750454,0.50187653,0.53494054,0.5358187,0.48647317,0.4563296,0.5530716,0.5695347,0.5723436,0.56642866,0.52190036,0.56255436,0.46143985,0.45144597,0.45540562,0.5812505,0.5493388,0.58573204,0.23673642,0.15783513,0.17899814,0.20006254,0.2009407,0.17536369,0.15331016,0.21819362,0.23465669,0.23746553,0.23155066,0.1870223,0.22767636,0.16332462,0.13642567,0.14946699,0.24637249,0.21446064,0.2508539
81,0.5783421,0.46279445,0.50716645,0.54166824,0.5425464,0.49176311,0.46161956,0.5597993,0.57626235,0.5790712,0.57315636,0.528628,0.56928205,0.46672976,0.45673588,0.46069553,0.5879782,0.5560665,0.5924597,0.24456441,0.16566314,0.18682612,0.20789054,0.2087687,0.18319169,0.16113816,0.22602162,0.24248472,0.24529353,0.23937866,0.1948503,0.23550436,0.17115262,0.14425367,0.157295,0.2542005,0.2222887,0.25868195
82,0.602055,0.48143974,0.52581173,0.56538117,0.5662593,0.5104084,0.4802648,0.5835122,0.5999753,0.60278416,0.59686923,0.5523409,0.592995,0.4853751,0.47538117,0.47934085,0.6116911,0.5797794,0.6161726,0.2787672,0.19986594,0.22102892,0.24209335,0.24297151,0.21739447,0.19534096,0.26022443,0.2766875,0.27949634,0.27358145,0.22905311,0.26970714,0.2053554,0.17845647,0.1914978,0.2884033,0.25649148,0.29288474
83,0.6119333,0.48920697,0.533579,0.57525945,0.5761376,0.5181756,0.48803207,0.5933905,0.60985357,0.61266243,0.6067475,0.56221926,0.60287327,0.4931423,0.4831484,0.48710808,0.6215694,0.58965766,0.6260509,0.29166386,0.21276256,0.23392558,0.25499,0.25586814,0.23029113,0.20823759,0.27312106,0.2895842,0.29239297,0.28647807,0.24194974,0.2826038,0.21825203,0.19135311,0.20439446,0.30129993,0.26938814,0.30578142
84,0.619499,0.49515584,0.53952783,0.5828252,0.58370334,0.5241245,0.4939809,0.6009562,0.6174193,0.6202282,0.6143133,0.569785,0.610439,0.4990912,0.48909727,0.49305695,0.62913513,0.59722346,0.6336167,0.30252913,0.22362784,0.24479085,0.26585528,0.2667334,0.2411564,0.21910286,0.28398636,0.30044946,0.30325827,0.29734337,0.252815,0.29346907,0.2291173,0.20221838,0.21525973,0.3121652,0.28025344,0.31664672
85,0.6432856,0.51385903,0.55823106,0.6066117,0.6074899,0.54282767,0.5126841,0.6247428,0.64120585,0.6396872,0.63809985,0.5935715,0.63422555,0.5177944,0.50780046,0.5117601,0.6529217,0.61730105,0.6574032,0.31263134,0.23373005,0.25489306,0.2759575,0.27683562,0.25125858,0.22920507,0.29408854,0.31055164,0.31336045,0.30744556,0.26291725,0.30357128,0.23921952,0.2123206,0.22536191,0.32226744,0.2903556,0.32674888
86,0.65355355,0.52193266,0.5663047,0.61687976,0.6177579,0.5509013,0.52075773,0.6350108,0.6514739,0.6477608,0.6483678,0.6038395,0.6444935,0.525868,0.5158741,0.5198338,0.66318965,0.6253747,0.6676712,0.32223034,0.24332902,0.26449203,0.28555644,0.2864346,0.26085758,0.23880404,0.3036875,0.3201506,0.32295942,0.31704456,0.2725162,0.31317022,0.24881849,0.22191957,0.23496088,0.33186638,0.29995456,0.33634782
87,0.67823267,0.54133767,0.5857097,0.6415588,0.63989365,0.5703063,0.54016274,0.6596899,0.676153,0.6671658,0.67304695,0.62851864,0.66917264,0.545273,0.5352791,0.53923875,0.6878688,0.6447797,0.6923503,0.33148268,0.2525814,0.2737444,0.29480883,0.29568696,0.27010995,0.24805641,0.31293988,0.32940298,0.33221182,0.3262969,0.2817686,0.32242262,0.25807086,0.23117194,0.24421325,0.34111878,0.30920693,0.3456002
88,0.68933153,0.5500646,0.5944366,0.65265775,0.6486206,0.57903326,0.54888964,0.67078876,0.68725187,0.6758928,0.6841458,0.6396175,0.6802715,0.55399996,0.54400605,0.5479657,0.69896764,0.65350664,0.7034492,0.34049496,0.26159367,0.2827567,0.3038211,0.30469924,0.2791222,0.2570687,0.32195216,0.33841527,0.34122407,0.3353092,0.29078084,0.3314349,0.26708314,0.24018422,0.25322554,0.35013103,0.31821924,0.35461247
89,0.6977334,0.5566709,0.6010429,0.66105956,0.6552269,0.58563954,0.555496,0.6791906,0.6956537,0.68249905,0.6925476,0.6480193,0.6886734,0.56060624,0.55061233,0.554572,0.7073695,0.6601129,0.711851,0.34934357,0.27044225,0.29160523,0.31266966,0.31354782,0.28797078,0.26591727,0.33080074,0.34726384,0.35007265,0.3441578,0.2996294,0.34028345,0.27593172,0.24903277,0.2620741,0.35897958,0.32706782,0.36346108
90,0.705042,0.5624176,0.60678965,0.66836816,0.6609736,0.59138626,0.5612427,0.68649924,0.7029623,0.6882458,0.6998562,0.655328,0.695982,0.56635296,0.55635905,0.5603187,0.7146781,0.66585964,0.71915966,0.35808575,0.27918446,0.30034748,0.3214119,0.32229006,0.29671302,0.2746595,0.33954298,0.3560061,0.3588149,0.3529,0.30837166,0.3490257,0.28467393,0.257775,0.27081636,0.36772186,0.33581012,0.37220338
91,0.7115354,0.56752324,0.61189526,0.6748615,0.6660792,0.5964919,0.5663483,0.69299257,0.70945567,0.69335145,0.7063496,0.6618213,0.7024753,0.5714586,0.56146467,0.5654244,0.72117144,0.67096525,0.725653,0.3818696,0.3029683,0.3241313,0.34519574,0.34607387,0.32049686,0.29844335,0.3633268,0.3797899,0.3825987,0.37668383,0.33215547,0.3728095,0.30845776,0.28155884,0.2946002,0.39150566,0.35959396,0.39598724
92,0.7355804,0.58642966,0.6308017,0.69890654,0.68498564,0.61539835,0.5852547,0.71703756,0.7335007,0.71225786,0.73039466,0.6858663,0.72652036,0.590365,0.5803711,0.5843308,0.7452165,0.6898717,0.74969804,0.39370847,0.31480718,0.3359702,0.35703462,0.35791278,0.33233574,0.3102822,0.37516567,0.39162877,0.39443758,0.3885227,0.34399435,0.38464838,0.32029665,0.29339772,0.30643904,0.4033445,0.37143278,0.40782607
93,0.7455131,0.5942397,0.63861173,0.70883924,0.6927957,0.62320834,0.5930648,0.7269703,0.7434334,0.72006786,0.74032736,0.69579905,0.73645306,0.59817505,0.58818114,0.5921408,0.75514925,0.6976817,0.75963074,0.404488,0.3255867,0.34674972,0.36781415,0.36869228,0.34311527,0.32106176,0.3859452,0.4024083,0.40521714,0.3993022,0.35477388,0.39542794,0.33002967,0.30417725,0.31721857,0.41412407,0.38221234,0.4186056
94,0.7673991,0.61144847,0.6558205,0.7307252,0.71000445,0.6404171,0.61027354,0.7484421,0.7653194,0.7372766,0.76221335,0.717685,0.75833905,0.6153838,0.6053899,0.60934955,0.7770352,0.7148905,0.78151673,0.41496974,0.33433607,0.3572315,0.37829593,0.37917405,0.35359702,0.3315435,0.39642695,0.41289005,0.4156989,0.40978402,0.36525562,0.4059097,0.33827138,0.31465903,0.32770035,0.42460585,0.3926941,0.42908737
95,0.7774126,0.619322,0.663694,0.74073875,0.717878,0.64829063,0.6181471,0.75631565,0.7753329,0.7451502,0.77222687,0.7276985,0.76835257,0.62325734,0.6132634,0.6172231,0.7870487,0.722764,0.7915302,0.42526346,0.34242994,0.36752522,0.38858965,0.38946778,0.36389077,0.34125507,0.4067207,0.4231838,0.4259926,0.42007774,0.37554938,0.4162034,0.34636527,0.32495275,0.33799407,0.43489957,0.4029878,0.4393811
96,0.7961247,0.63403517,0.6784072,0.75945085,0.73259115,0.66300386,0.63286024,0.7710288,0.79404503,0.7598634,0.790939,0.74641067,0.7870647,0.63797057,0.6279766,0.6319363,0.80576086,0.73747724,0.81024235,0.43543237,0.35042566,0.37769413,0.39875853,0.3996367,0.37405965,0.34925076,0.41688958,0.43335268,0.43616152,0.43024662,0.38571826,0.42637232,0.35436097,0.33512163,0.34816298,0.44506845,0.4131566,0.4495499
97,0.8053857,0.641317,0.68568903,0.76871186,0.739873,0.6702857,0.6401421,0.77831066,0.80330604,0.7671452,0.8002,0.7556716,0.7963257,0.6452524,0.63525844,0.63921815,0.8150219,0.7447591,0.81950337,0.4562966,0.36683103,0.39855835,0.41962278,0.4205009,0.3949239,0.36565617,0.4377538,0.4542169,0.4570257,0.45111084,0.40658247,0.44723654,0.37076637,0.35598588,0.36473215,0.46593267,0.43402082,0.47041413
98,0.812082,0.6465823,0.6909543,0.7754082,0.7451383,0.67555094,0.6454074,0.78357595,0.8100024,0.77241045,0.80689627,0.76236796,0.803022,0.6505176,0.6405237,0.6444834,0.82171816,0.7500243,0.82619965,0.46855718,0.37647143,0.4108189,0.4318833,0.43276143,0.40544006,0.37529653,0.45001435,0.46647748,0.46928632,0.4633714,0.41884306,0.4594971,0.38040674,0.36824644,0.3743725,0.47819325,0.44628143,0.4826747
99,0.8282806,0.65931904,0.70369107,0.79114527,0.757875,0.68828773,0.6581441,0.79631275,0.8262009,0.78514725,0.8230949,0.77856654,0.81922054,0.66325444,0.65326047,0.6572202,0.8379167,0.7627611,0.8423982,0.47999874,0.38546783,0.42226046,0.4433249,0.44420305,0.4144365,0.38429296,0.46145594,0.47791904,0.48072788,0.47481295,0.43028462,0.47093868,0.38940316,0.3794093,0.38336894,0.4896348,0.457723,0.4941163
100,0.8361737,0.6655254,0.7098974,0.7973516,0.76408136,0.694494,0.66435045,0.802519,0.834094,0.7913535,0.830988,0.7864596,0.8271136,0.6694607,0.6594668,0.66342646,0.8458098,0.7689674,0.8502914,0.49121302,0.39428553,0.43347478,0.45453918,0.45541736,0.4232542,0.39311066,0.47267026,0.48913333,0.49194217,0.48602727,0.4414989,0.48215297,0.39822087,0.38822702,0.39218664,0.5008491,0.46893728,0.50533056
101,0.84161067,0.6698004,0.7141724,0.8016266,0.7683564,0.69876903,0.6686255,0.80679405,0.83953094,0.79562855,0.83642495,0.7918966,0.8316648,0.67373574,0.6637418,0.6677015,0.8512468,0.7732424,0.85572827,0.5022663,0.40297663,0.44452804,0.46559244,0.4664706,0.43194526,0.40180176,0.4837235,0.50018656,0.50299543,0.49708053,0.45255217,0.4932062,0.40691197,0.3969181,0.40087774,0.51190233,0.47999054,0.51638377
102,0.8539037,0.68052775,0.72489977,0.81235397,0.7790838,0.70949644,0.6793528,0.81752145,0.85317403,0.80635595,0.8500679,0.8055396,0.84239215,0.6844631,0.67446923,0.6784289,0.86488974,0.7839698,0.8693713,0.51319337,0.41156852,0.45545512,0.47651955,0.4773977,0.44053715,0.41039366,0.49465057,0.5111137,0.5139225,0.5080076,0.46347928,0.5041333,0.41550386,0.40550998,0.40946963,0.5228295,0.49091765,0.5273109
103,0.85915667,0.68578076,0.7301528,0.817607,0.78433675,0.7147494,0.68460584,0.82277447,0.85985476,0.81160897,0.85674864,0.81222034,0.84764516,0.6897161,0.6797222,0.68368185,0.8715705,0.7892228,0.87542635,0.524018,0.42007983,0.46445185,0.48734415,0.4882223,0.44904846,0.41890493,0.50547516,0.52193826,0.52474713,0.5188322,0.4743039,0.5149579,0.42401513,0.41402128,0.41798094,0.53365403,0.5017421,0.5381354
104,0.8625917,0.6892158,0.7335878,0.821042,0.78777176,0.7181844,0.68804085,0.8262095,0.8642234,0.815044,0.8611173,0.81658894,0.8510802,0.6931511,0.6831572,0.6871169,0.87593913,0.7926578,0.8788614,0.5347564,0.42852336,0.47289538,0.49808258,0.49896073,0.457492,0.4273485,0.5162136,0.5326767,0.53548557,0.52957064,0.48504233,0.5256964,0.4324587,0.42246482,0.42642447,0.54439247,0.5124807,0.54887384
105,0.86546266,0.6920867,0.7364588,0.823913,0.79064274,0.7210554,0.69091177,0.8290804,0.8678746,0.81791496,0.86476856,0.8202402,0.85395116,0.6960221,0.6860282,0.68998784,0.8795904,0.79552877,0.88173234,0.55395067,0.44361567,0.4879877,0.5172768,0.5181549,0.4725843,0.44244078,0.53540784,0.55187094,0.5546798,0.5487649,0.5042366,0.54489064,0.447551,0.4375571,0.44151676,0.5635868,0.53167486,0.5680681
106,0.87339604,0.70002013,0.74439216,0.83184636,0.7985762,0.7289888,0.6988452,0.83701384,0.87796426,0.82584834,0.8748582,0.83032984,0.8618846,0.70395553,0.69396156,0.6979213,0.88968,0.8034622,0.8896658,0.5662345,0.45327437,0.4976464,0.5295607,0.53043884,0.482243,0.45209947,0.5476917,0.5641548,0.5669637,0.5610488,0.51652044,0.5571745,0.4572097,0.44721583,0.45117545,0.57587063,0.54395884,0.580352
107,0.8773121,0.70393616,0.7483082,0.8357624,0.80249214,0.7329048,0.70276123,0.8409298,0.8829446,0.82976437,0.87983865,0.8353103,0.86580056,0.7078715,0.6978776,0.7018373,0.8946604,0.8073782,0.89358175,0.58990943,0.4718898,0.5162618,0.55323565,0.5541138,0.5008584,0.4707149,0.57136667,0.58782977,0.59063864,0.5847237,0.5401954,0.5808494,0.4758251,0.46583125,0.46979088,0.59954554,0.56763375,0.6040269
108,0.87969506,0.70631915,0.7506912,0.8381454,0.8048752,0.7352878,0.7051442,0.84331286,0.88597536,0.8321473,0.88286924,0.8383409,0.86818355,0.7102545,0.7002606,0.70422024,0.8976911,0.8097612,0.89596474,0.6035873,0.48264462,0.52701664,0.56691355,0.5677917,0.51161325,0.4814697,0.58504456,0.60150766,0.60431653,0.5984016,0.5538733,0.5945273,0.48657998,0.47658607,0.48054576,0.61322343,0.58131164,0.6177048
109,0.885189,0.71181303,0.75618505,0.8436393,0.810369,0.7407817,0.7106381,0.8488067,0.8929624,0.83764124,0.8898564,0.84532803,0.8736775,0.7157484,0.70575446,0.7097142,0.9046782,0.8152551,0.9014586,0.6160306,0.49242863,0.5368006,0.5793568,0.58023494,0.5213973,0.49125373,0.5974878,0.6139509,0.6167598,0.61084485,0.56631655,0.60697055,0.49636397,0.48637006,0.49032974,0.6256667,0.5937548,0.63014805
110,0.8881208,0.7147448,0.7591168,0.8465711,0.8133008,0.74371344,0.7135699,0.85173845,0.89669096,0.840573,0.89358497,0.8490566,0.87660927,0.71868014,0.70868623,0.7126459,0.9084068,0.8181868,0.9043904,0.6280587,0.5018862,0.5462582,0.5913849,0.592263,0.5308549,0.50071126,0.6095159,0.625979,0.6277144,0.62287295,0.57834464,0.61899865,0.5058216,0.49582765,0.49978733,0.6376948,0.60532814,0.6421762
111,0.8899178,0.7165419,0.7609139,0.8483681,0.81509787,0.7455105,0.71536696,0.85353553,0.8989765,0.84237003,0.89587045,0.85134214,0.8784063,0.7204772,0.7104833,0.71444297,0.9106923,0.8199839,0.9061874,0.6397264,0.5110604,0.55543244,0.60305256,0.6039307,0.5400291,0.5098855,0.62118363,0.6376467,0.6368886,0.6345407,0.5900123,0.6306664,0.51499575,0.50500184,0.50896156,0.6493625,0.6145024,0.6538439
112,0.89140534,0.7180294,0.7624014,0.84985566,0.8165854,0.7469981,0.71685445,0.8550231,0.90086836,0.8438576,0.8977623,0.85323393,0.87989384,0.7219648,0.71197087,0.7159305,0.9125841,0.82147145,0.907675,0.6510561,0.5199689,0.56434095,0.6143823,0.6152605,0.54893756,0.518794,0.63251334,0.64897645,0.6457971,0.6458704,0.6013421,0.6419961,0.52390426,0.51391035,0.51787,0.6606922,0.6234108,0.66517365
113,0.89266294,0.719287,0.763659,0.8511132,0.81784296,0.7482556,0.71811205,0.8562806,0.9024677,0.8451152,0.89936167,0.8548333,0.8811514,0.7232223,0.7132284,0.7171881,0.9141835,0.822729,0.90893257,0.67401963,0.5380249,0.5823969,0.6373458,0.6365809,0.5669936,0.53685,0.65547687,0.67193997,0.6638531,0.6688339,0.6243056,0.6649596,0.54196024,0.5319663,0.53592604,0.68365574,0.641467,0.6881373
114,0.8937317,0.7203558,0.76472783,0.85218203,0.8189118,0.74932444,0.7191809,0.85734946,0.903827,0.84618396,0.900721,0.8561926,0.8822202,0.72429115,0.71429724,0.7182569,0.9155428,0.8237979,0.9100014,0.68701047,0.54823947,0.5926115,0.6503366,0.64679545,0.5772081,0.54706454,0.66846764,0.68493074,0.6740677,0.6818247,0.6372964,0.6779504,0.5521748,0.5421809,0.5461406,0.6966465,0.6516814,0.701128
115,0.89464486,0.7212689,0.7656409,0.8530951,0.8198249,0.7502375,0.72009397,0.8582626,0.9049883,0.84709704,0.90188223,0.85722405,0.8831333,0.7252042,0.7152103,0.71917,0.91670406,0.82471097,0.9109145,0.6984964,0.5572708,0.6016428,0.66182256,0.6558268,0.58623946,0.55609584,0.67995363,0.6964167,0.683099,0.6933107,0.6487823,0.6894364,0.56120616,0.55121225,0.5551719,0.7081325,0.6607128,0.712614
116,0.89542997,0.722054,0.766426,0.8538802,0.82061005,0.75102264,0.7208791,0.85904765,0.90598685,0.8478822,0.9028808,0.8580092,0.8839184,0.72598934,0.71599543,0.71995515,0.91770256,0.825496,0.9116996,0.72056603,0.57462394,0.61899596,0.6838922,0.6731799,0.6035926,0.573449,0.7020232,0.7184863,0.70045215,0.71538025,0.67085195,0.711506,0.5785593,0.5685654,0.5725251,0.7302021,0.67806596,0.73468363
117,0.89611065,0.72273475,0.7671068,0.854561,0.82129073,0.7517034,0.7215598,0.8597284,0.90685254,0.8485629,0.9037465,0.8586899,0.8845991,0.7266701,0.7166762,0.72063583,0.91856825,0.82617676,0.91238034,0.7441765,0.5931887,0.6375607,0.70750266,0.69174474,0.6221574,0.5920138,0.72563374,0.74209684,0.7190169,0.7389908,0.6944624,0.7351165,0.5971241,0.5871301,0.59108984,0.7538126,0.6966307,0.7582941
118,0.89960754,0.72623163,0.7706036,0.85805786,0.8247876,0.75520027,0.7250567,0.8632253,0.9112999,0.8520598,0.90819377,0.8621868,0.888096,0.730167,0.720173,0.7241327,0.9230156,0.82967365,0.91587716,0.757222,0.60344625,0.64781827,0.72054815,0.7020022,0.6324149,0.6022713,0.7386792,0.75514233,0.72927445,0.7520362,0.7075079,0.748162,0.6073816,0.5973877,0.6013473,0.7668581,0.70688814,0.7713395
119,0.901278,0.72790205,0.7722741,0.85972834,0.8264581,0.75687075,0.7267271,0.86489576,0.9134243,0.85373026,0.9103183,0.86385727,0.8897665,0.73183745,0.7218435,0.7258032,0.92514014,0.8313441,0.91754764,0.7743133,0.61688495,0.66125697,0.7376394,0.7154409,0.6458536,0.61571,0.7538786,0.7722336,0.74271315,0.76912755,0.7245992,0.7652532,0.6208203,0.6108264,0.6147861,0.7839494,0.720327,0.78843087
120,0.9049736,0.73159766,0.7759697,0.8634239,0.83015364,0.7605663,0.73042274,0.8685913,0.9181243,0.85742587,0.9148518,0.8675529,0.89346206,0.735533,0.7255391,0.7294988,0.92984015,0.8350397,0.92124325,0.79271716,0.6313558,0.67572784,0.7560433,0.7299118,0.6603245,0.6301809,0.76834947,0.7906375,0.757184,0.78753144,0.74300313,0.78365713,0.63529116,0.62529725,0.62925696,0.8023533,0.73479784,0.8068347
121,0.9068292,0.7334532,0.77782524,0.8652795,0.83200926,0.7624219,0.7322783,0.8704469,0.9204843,0.8592814,0.9167074,0.8694084,0.8953177,0.7373886,0.7273947,0.73135436,0.9322,0.8368953,0.9230988,0.8040858,0.6402948,0.6846669,0.7674119,0.73885083,0.6692635,0.63911986,0.7772885,0.80200607,0.766123,0.7989,0.75437164,0.7950257,0.6442302,0.6342363,0.63819593,0.81372184,0.7437368,0.81820333
122,0.91071266,0.73733675,0.7817088,0.869163,0.83589274,0.7663054,0.73616177,0.8743304,0.92542326,0.8631649,0.9205908,0.8732919,0.8992011,0.7412721,0.7312782,0.73523784,0.93713903,0.84077877,0.9269823,0.8226917,0.6549245,0.69929653,0.7860178,0.7534805,0.68389314,0.6537496,0.79191816,0.820612,0.7807527,0.8175059,0.7729776,0.8136316,0.65885985,0.64886594,0.6528256,0.8323278,0.75836647,0.8368092
123,0.91275865,0.73938274,0.78375477,0.87120897,0.8379387,0.7683514,0.7382078,0.8763764,0.92802536,0.86521095,0.92263687,0.87533796,0.90124714,0.7433181,0.73332417,0.7372839,0.93974113,0.84282476,0.92902833,0.83341235,0.66335416,0.7077262,0.7951804,0.76191014,0.6923228,0.66217923,0.8003478,0.8313327,0.78918236,0.8282267,0.7836984,0.8243524,0.6672895,0.6572956,0.6612553,0.8430485,0.7667961,0.84752995
124,0.91631407,0.7429381,0.7873101,0.8747644,0.8414941,0.7719068,0.7417632,0.87993175,0.9325471,0.8687663,0.9261923,0.8788933,0.9048025,0.7468735,0.7368795,0.74083924,0.94426286,0.8463802,0.9325837,0.8502298,0.6768539,0.7212259,0.8086802,0.7754099,0.7058225,0.67567897,0.81384754,0.8485016,0.8026821,0.84539557,0.80086726,0.83871835,0.68078923,0.6707953,0.67475504,0.86021745,0.7802959,0.8646989
125,0.918316,0.74494004,0.78931206,0.87676626,0.843496,0.7739087,0.7437651,0.8819337,0.9350931,0.8707682,0.92819417,0.88089526,0.90680444,0.7488754,0.73888147,0.7428412,0.9468089,0.84838206,0.93458563,0.8578768,0.6845008,0.72887284,0.81632704,0.78305686,0.71346945,0.6833259,0.82149446,0.85822695,0.810329,0.8551209,0.81059253,0.8463652,0.68843615,0.67844224,0.68240196,0.8699427,0.78794277,0.87414634
126,0.9192068,0.74583083,0.79020286,0.8776571,0.8443869,0.7747995,0.7446559,0.8828245,0.93622607,0.87165904,0.929085,0.8817861,0.90769523,0.74976623,0.73977226,0.743732,0.94794184,0.8492729,0.9354765,0.8699426,0.6965667,0.7409387,0.8283929,0.7951227,0.72553533,0.6953918,0.83356035,0.87357223,0.82239485,0.87046623,0.8259378,0.8584311,0.70050204,0.6905081,0.6944678,0.885288,0.8000088,0.8862123
127,0.9226951,0.74931914,0.79369116,0.88114536,0.8478751,0.77828777,0.7481442,0.8863128,0.9406624,0.8751473,0.93257326,0.88527435,0.9111835,0.7532545,0.74326056,0.7472202,0.9523781,0.85276115,0.9389647,0.8767597,0.70338374,0.74775577,0.83520997,0.8019398,0.73235244,0.7022088,0.84037745,0.88224214,0.82921195,0.8791361,0.8346077,0.86524814,0.7073191,0.69732517,0.7012849,0.8939579,0.8068258,0.8930294
128,0.92476207,0.75138617,0.7957582,0.8832124,0.84994215,0.7803548,0.75021124,0.8883798,0.9432912,0.8772143,0.9346403,0.8873414,0.91325057,0.75532144,0.74532753,0.74928725,0.95500696,0.8548282,0.94103175,0.88504946,0.7116735,0.7560455,0.8434997,0.81022954,0.7406422,0.7104986,0.8486672,0.89278495,0.8375017,0.88967896,0.8451506,0.87353796,0.7156089,0.7056149,0.70957464,0.9045008,0.8151155,0.901319
129,0.9278798,0.7545039,0.7988759,0.8863301,0.8530599,0.78347254,0.753329,0.89149755,0.9472564,0.88033205,0.937758,0.8904592,0.9163683,0.75843924,0.74844533,0.752405,0.9589721,0.857946,0.94414955,0.89038515,0.71700925,0.76138127,0.84883547,0.8155653,0.7459779,0.7158343,0.85400295,0.89957094,0.8428374,0.8964649,0.8519365,0.87887365,0.7209446,0.7109507,0.7149103,0.9112867,0.8204513,0.90665483
130,0.9298534,0.7564775,0.8008495,0.8883037,0.85503346,0.7854461,0.75530255,0.8934711,0.94976634,0.8823056,0.93973154,0.8924327,0.9183418,0.7604128,0.7504189,0.7543786,0.96148205,0.8599195,0.94612306,0.89690983,0.72353387,0.7679059,0.85536015,0.8220899,0.75250256,0.72235894,0.8605275,0.9078689,0.84936213,0.9047629,0.8594891,0.8853983,0.72746927,0.71747535,0.721435,0.91958475,0.82697594,0.9131795
131,0.9305848,0.7572088,0.80158085,0.8890351,0.85576487,0.7861775,0.7560339,0.89420253,0.95069647,0.88303703,0.94046295,0.89316404,0.91907316,0.7611442,0.75115025,0.75510997,0.96241224,0.8606509,0.9468544,0.9012753,0.7278993,0.77227134,0.8597256,0.8264553,0.75686795,0.7267244,0.86489296,0.9134208,0.8537275,0.9103148,0.8638545,0.8897637,0.73183465,0.72184074,0.7258004,0.9251366,0.8313413,0.9175449
132,0.93116826,0.7577923,0.8021643,0.8896185,0.85634834,0.7867609,0.75661737,0.894786,0.95143855,0.88362044,0.9410464,0.8937475,0.91965663,0.76172763,0.7517337,0.75569344,0.96315426,0.8612343,0.9474379,0.90453136,0.7311554,0.7755274,0.8629816,0.8297114,0.760124,0.72998047,0.86814904,0.9175619,0.8569836,0.9144095,0.86711055,0.8930198,0.73509073,0.7250968,0.7290565,0.92927766,0.8345974,0.9208009
133,0.931663,0.7582871,0.8026591,0.89011323,0.85684305,0.7872557,0.7571121,0.8952807,0.9520678,0.88411516,0.94154114,0.8942423,0.9201514,0.76222235,0.75222844,0.75618815,0.9637835,0.8617291,0.94793266,0.9095443,0.7361683,0.78054035,0.86799455,0.8347243,0.76513696,0.7349934,0.873162,0.92393726,0.86199653,0.91942245,0.8721235,0.89803267,0.74010366,0.7301097,0.7340694,0.9356531,0.83961034,0.9258139
134,0.93208426,0.75870836,0.8030804,0.8905346,0.8572644,0.78767705,0.75753343,0.89570206,0.9526036,0.8845365,0.9419625,0.89466363,0.92057276,0.7626437,0.7526498,0.7566095,0.96431935,0.86215043,0.948354,0.9129172,0.73954123,0.7839133,0.8713675,0.8380973,0.76850986,0.7383663,0.8765349,0.928227,0.86536944,0.92279536,0.87549645,0.90140563,0.74347657,0.7334827,0.7374424,0.9399428,0.84298325,0.9291868
135,0.9324447,0.7590687,0.80344075,0.89089495,0.8576247,0.78803736,0.7578938,0.8960624,0.9530619,0.88489693,0.94232285,0.89502394,0.9209331,0.76300406,0.75301015,0.7569698,0.96477765,0.86251074,0.9487143,0.9178246,0.7444487,0.78882074,0.87627494,0.8430047,0.77341735,0.74327374,0.88144237,0.93446827,0.87027687,0.92770284,0.88040394,0.90631306,0.74838406,0.73839015,0.7423498,0.94618404,0.84789073,0.93409425
136,0.9327546,0.7593786,0.80375063,0.8912049,0.85793465,0.78834724,0.7582037,0.8963723,0.953456,0.8852068,0.9426328,0.8953338,0.921243,0.76331395,0.75332004,0.75727975,0.96517175,0.8628206,0.9490242,0.92100924,0.74763334,0.79200536,0.87945956,0.8461894,0.77660197,0.7464584,0.88462704,0.9385185,0.87346154,0.93088746,0.8835886,0.90949774,0.7515687,0.74157476,0.7455345,0.95023423,0.8510754,0.937279
137,0.93302345,0.7596475,0.8040196,0.89147377,0.8582035,0.7886161,0.75847256,0.89664114,0.953798,0.8854757,0.9429016,0.89560276,0.9215119,0.7635828,0.7535889,0.75754863,0.96551377,0.86308956,0.94929314,0.9229462,0.74957025,0.7939423,0.88139653,0.84812623,0.7785389,0.7483953,0.8865639,0.9409818,0.8753984,0.9328244,0.88552547,0.91143465,0.7535056,0.7435117,0.74747133,0.9526976,0.85301226,0.93921584
138,0.93325925,0.7598833,0.80425537,0.89170957,0.85843927,0.788852,0.75870836,0.89687693,0.95409787,0.8857115,0.9431374,0.89583856,0.9217477,0.7638187,0.7538247,0.7577844,0.96581364,0.86332536,0.94952893,0.92652714,0.7531512,0.7975232,0.88497746,0.85170716,0.7821198,0.75197625,0.8901448,0.945536,0.8789794,0.9364053,0.8891064,0.9150155,0.7570865,0.7470926,0.7510523,0.9572517,0.85659325,0.9427968
139,0.9334689,0.760093,0.804465,0.8919192,0.85864896,0.7890616,0.758918,0.8970866,0.9543645,0.8859211,0.9433471,0.8960481,0.9219573,0.76402825,0.7540344,0.75799406,0.9660803,0.8635349,0.94973856,0.9290054,0.7556294,0.80000144,0.8874557,0.85418546,0.7845981,0.7544545,0.8926231,0.94868785,0.8814576,0.9388836,0.8915847,0.9174938,0.7595648,0.74957085,0.75353056,0.96040356,0.8590715,0.94527507
140,0.9336586,0.76028264,0.80465466,0.8921089,0.8588387,0.7892513,0.7591077,0.89727634,0.95460576,0.88611084,0.9435368,0.8962379,0.92214704,0.76421803,0.75422406,0.7581838,0.96632147,0.8637247,0.9499283,0.93040544,0.7570295,0.8014015,0.88885576,0.8555855,0.78599817,0.7558546,0.89402324,0.9504684,0.8828577,0.94028366,0.89298475,0.9188939,0.7609648,0.7509709,0.7549306,0.9621842,0.86047155,0.9466751
141,0.9338335,0.7604576,0.8048296,0.8922838,0.8590136,0.7894262,0.75928265,0.8974513,0.95482826,0.8862857,0.9437117,0.89641285,0.922322,0.7643929,0.754399,0.75835866,0.966544,0.86389965,0.9501032,0.9316156,0.7582396,0.80261165,0.89006585,0.85679567,0.7872083,0.7570647,0.89523333,0.95200753,0.88406783,0.94149375,0.8941949,0.920104,0.762175,0.7521811,0.75614077,0.96372324,0.8616817,0.9478853
142,0.93399817,0.76062214,0.8049942,0.8924484,0.8591782,0.78959084,0.7594472,0.89761585,0.9550376,0.88645035,0.9438763,0.8965774,0.92248654,0.76455754,0.7545636,0.7585233,0.9667533,0.8640642,0.9502678,0.9326904,0.7593144,0.80368644,0.89114064,0.85787046,0.7882831,0.7581395,0.8963081,0.9533744,0.88514256,0.94256854,0.8952697,0.9211788,0.76324975,0.75325584,0.75721556,0.96509016,0.8627565,0.94896007
143,0.9341565,0.7607806,0.8051526,0.89260674,0.85933656,0.7897492,0.7596056,0.8977742,0.955239,0.88660866,0.94403464,0.8967357,0.9226449,0.76471585,0.754722,0.75868165,0.9669547,0.8642226,0.95042616,0.9336487,0.7602728,0.80464476,0.892099,0.85882884,0.78924143,0.7590979,0.89726645,0.95459324,0.88610095,0.94352686,0.896228,0.92213714,0.76420814,0.75421417,0.7581739,0.966309,0.8637148,0.94991845
144,0.9343117,0.7609358,0.8053078,0.892762,0.85949177,0.7899044,0.75976086,0.89792943,0.9554364,0.88676393,0.94418985,0.89689094,0.9228001,0.7648711,0.7548772,0.7588369,0.9671522,0.8643778,0.9505814,0.9345063,0.76113033,0.8055024,0.8929566,0.8596863,0.790099,0.7599554,0.89812404,0.9556838,0.88695854,0.9443845,0.89708555,0.92299473,0.7650657,0.75507176,0.7590315,0.9673996,0.8645724,0.9507759
145,0.93446666,0.7610907,0.8054627,0.892917,0.85964674,0.7900594,0.7599158,0.89808446,0.9556335,0.8869189,0.9443449,0.89704597,0.9229551,0.7650261,0.7550321,0.75899184,0.96734923,0.86453277,0.95073634,0.9369834,0.76360744,0.80797946,0.8954337,0.8621634,0.7925761,0.7624325,0.90060115,0.9588342,0.88943565,0.94686157,0.89956266,0.92547184,0.7675428,0.75754887,0.7615085,0.97054994,0.8670494,0.953253
146,0.9346238,0.7612479,0.8056199,0.8930741,0.8598039,0.7902165,0.76007295,0.8982415,0.9558333,0.887076,0.94450194,0.897203,0.9231122,0.7651832,0.7551893,0.759149,0.9675491,0.8646899,0.9508935,0.9388333,0.76545733,0.8098294,0.8972836,0.8640133,0.79442596,0.7642824,0.90245104,0.9611869,0.89128554,0.9487115,0.90141255,0.92732173,0.76939267,0.75939876,0.7633585,0.97290266,0.8688994,0.9551029
147,0.93478495,0.76140904,0.80578107,0.89323527,0.8599651,0.7903777,0.7602341,0.89840275,0.95603836,0.8872372,0.94466317,0.89736426,0.92327344,0.7653444,0.7553505,0.7593101,0.96775407,0.8648511,0.9510547,0.93952626,0.7661503,0.8105224,0.8979766,0.86470634,0.795119,0.76497537,0.903144,0.96206826,0.89197856,0.9494045,0.9021055,0.9280147,0.7700857,0.7600918,0.76405144,0.97378397,0.86959237,0.95579594
148,0.9349518,0.7615759,0.8059479,0.8934021,0.8601319,0.7905445,0.76040095,0.8985696,0.95625055,0.887404,0.94483,0.8975311,0.9234403,0.7655112,0.7555173,0.75947696,0.96796626,0.86501795,0.9512215,0.940111,0.766735,0.8111071,0.8985613,0.86529106,0.7957037,0.7655601,0.9037287,0.96270883,0.8925632,0.9499892,0.90269023,0.9285995,0.77067035,0.76067644,0.76463616,0.97452766,0.8701771,0.95638067
149,0.9351257,0.7617498,0.8061218,0.893576,0.8603058,0.79071844,0.7605748,0.89874345,0.9564717,0.88757795,0.9450039,0.89770496,0.92361414,0.76568514,0.75569123,0.7596509,0.96818745,0.8651918,0.9513954,0.942123,0.7687471,0.8131191,0.9005733,0.8673031,0.7977157,0.76757216,0.90574074,0.96472085,0.89457524,0.9520012,0.9047023,0.9306115,0.7726824,0.7626885,0.76664823,0.97700304,0.87218916,0.95839274
150,0.9353075,0.76193154,0.80630356,0.89375776,0.8604876,0.79090023,0.7607566,0.89892524,0.9567028,0.8877597,0.94518566,0.89788675,0.92379594,0.7658669,0.75587296,0.7598327,0.96841854,0.8653736,0.9515772,0.9437945,0.7704185,0.81479055,0.9022448,0.8689745,0.79938716,0.7692436,0.9074122,0.9663922,0.8962467,0.95367265,0.9063737,0.93228287,0.77435386,0.7643599,0.7683196,0.9786745,0.87386054,0.96006405
151,0.93549806,0.76212215,0.8064942,0.8939484,0.86067814,0.7910908,0.7609472,0.89911586,0.95694524,0.8879503,0.9453763,0.89807737,0.9239865,0.7660575,0.7560635,0.76002324,0.96866095,0.86556417,0.95176774,0.9442779,0.7709019,0.815274,0.9027282,0.8694579,0.7998706,0.769727,0.90789557,0.96687573,0.89673007,0.95415604,0.90685713,0.9327663,0.77483726,0.76484334,0.76880306,0.9791579,0.874344,0.96054757
152,0.9356979,0.76232195,0.806694,0.89414823,0.860878,0.7912906,0.761147,0.8993156,0.95719934,0.88815016,0.9455761,0.89827716,0.92418635,0.7662573,0.75626343,0.7602231,0.96891516,0.86576396,0.9519676,0.94467294,0.771297,0.815669,0.90312326,0.869853,0.8002656,0.77012205,0.9082907,0.96727073,0.89712524,0.9545511,0.9072522,0.9331613,0.7752323,0.7652384,0.7691981,0.9795529,0.87473905,0.9609426
153,0.93590736,0.76253146,0.8069035,0.8943577,0.86108744,0.7915001,0.76135653,0.89952517,0.95746577,0.88835967,0.9457856,0.8984867,0.9243958,0.7664668,0.7564729,0.7604326,0.9691815,0.86597353,0.9521771,0.9450282,0.77165216,0.81602424,0.90347844,0.8702082,0.80062085,0.7704773,0.90864587,0.9676259,0.8974804,0.95490634,0.9076074,0.93351656,0.77558756,0.7655936,0.7695533,0.97990817,0.87509423,0.9612978
154,0.93612677,0.76275086,0.8071229,0.8945771,0.86130685,0.7917195,0.76157594,0.8997445,0.95774484,0.888579,0.946005,0.8987061,0.92461526,0.7666862,0.7566923,0.76065195,0.96946055,0.8661929,0.9523965,0.9463572,0.7729812,0.81735325,0.9048075,0.87153727,0.8019499,0.7718063,0.90997493,0.968955,0.89880943,0.95623535,0.90893644,0.93484557,0.7769166,0.76692265,0.77088237,0.9812372,0.8764233,0.9626268
155,0.936356,0.7629801,0.8073521,0.8948063,0.86153615,0.79194874,0.7618052,0.8999738,0.9580364,0.88880825,0.9462342,0.8989353,0.9248445,0.76691544,0.7569215,0.76088125,0.96975213,0.8664222,0.95262575,0.9476037,0.7742278,0.8185998,0.906054,0.8727838,0.80319643,0.7730529,0.9112215,0.97020155,0.900056,0.9574819,0.910183,0.93609214,0.77816314,0.7681692,0.7721289,0.98248374,0.8776698,0.9638734
156,0.93659514,0.76321924,0.80759126,0.89504546,0.8617752,0.79218787,0.7620443,0.9002129,0.9583405,0.88904744,0.94647336,0.8991744,0.92508364,0.7671546,0.75716066,0.7611203,0.9700563,0.86666125,0.9528648,0.9488614,0.77548546,0.8198575,0.90731174,0.8740415,0.8044541,0.7743105,0.91247916,0.9714592,0.90131366,0.9587396,0.9114407,0.93734986,0.7794208,0.7694269,0.77338654,0.9837414,0.87892747,0.96513104
157,0.9368439,0.7634679,0.80783993,0.8952942,0.86202395,0.79243654,0.762293,0.9004616,0.9586568,0.8892961,0.94672203,0.8994231,0.92533225,0.76740324,0.75740933,0.76136905,0.9703725,0.86691,0.95311356,0.9501327,0.77675676,0.82112885,0.90858305,0.8753128,0.80572546,0.7755819,0.91375047,0.9727306,0.90258497,0.96001095,0.912712,0.9386212,0.78069216,0.7706982,0.7746579,0.98501277,0.88019884,0.9664024
158,0.9371019,0.76372594,0.808098,0.8955522,0.8622819,0.7926946,0.762551,0.9007196,0.958985,0.8895541,0.94698006,0.89968115,0.92559034,0.76766133,0.75766736,0.7616271,0.97070074,0.867168,0.9533716,0.9503736,0.7769976,0.8213697,0.9088239,0.87555367,0.80596626,0.7758227,0.91399133,0.9729714,0.90282583,0.9602518,0.91295284,0.938862,0.78093296,0.77093905,0.77489877,0.98525363,0.88043964,0.9666433
159,0.9373689,0.76399297,0.80836505,0.89581925,0.86254895,0.79296166,0.76281804,0.9009866,0.95932454,0.8898212,0.9472471,0.8999482,0.92585737,0.76792836,0.7579344,0.7618941,0.9710403,0.86743504,0.9536386,0.95123154,0.7778556,0.8222276,0.90968186,0.87641156,0.80682427,0.77668065,0.9148493,0.9738293,0.90368384,0.9611097,0.9138108,0.9397199,0.7817909,0.771797,0.7757567,0.9861115,0.8812976,0.9675012
160,0.9376445,0.7642685,0.80864054,0.89609474,0.8628245,0.79323715,0.7630936,0.90126216,0.959675,0.8900967,0.94752264,0.9002237,0.9261329,0.76820385,0.75820994,0.76216966,0.9713908,0.86771053,0.95391417,0.9522193,0.77884334,0.82321537,0.91066957,0.8773994,0.807812,0.77766836,0.915837,0.97481704,0.9046715,0.96209747,0.91479856,0.9407077,0.7827787,0.77278477,0.7767444,0.9870993,0.88228536,0.96848893
161,0.9379282,0.7645523,0.8089243,0.8963785,0.8631083,0.7935209,0.76337737,0.901546,0.9600359,0.89038044,0.9478064,0.9005075,0.92641664,0.76848763,0.75849366,0.7624534,0.97175163,0.8679943,0.9541979,0.95289886,0.7795229,0.8238949,0.9113491,0.87807894,0.8084915,0.77834797,0.91651654,0.97549665,0.9053511,0.962777,0.91547805,0.9413873,0.78345823,0.7734643,0.77742404,0.9877789,0.88296485,0.9691685
162,0.9382195,0.7648435,0.8092156,0.89666975,0.86339957,0.79381216,0.7636686,0.9018372,0.96040636,0.8906717,0.94809765,0.90079874,0.9267079,0.76877886,0.75878495,0.76274467,0.9721221,0.8682856,0.9544892,0.9537147,0.7803387,0.8247108,0.912165,0.8788948,0.8093074,0.7791638,0.9173324,0.9763125,0.9061669,0.9635929,0.9162939,0.9422031,0.7842741,0.7742802,0.77823985,0.9885947,0.8837807,0.96998435
163,0.93851787,0.7651419,0.8095139,0.8969682,0.86369795,0.7941106,0.763967,0.9021356,0.9607858,0.8909701,0.9483961,0.9010972,0.9270063,0.7690773,0.75908333,0.76304305,0.9725015,0.868584,0.95478755,0.953831,0.78045505,0.8248271,0.9122813,0.8790111,0.80942374,0.7792801,0.91744876,0.9764288,0.90628326,0.9637092,0.91641027,0.9423194,0.7843904,0.7743965,0.77835613,0.98871094,0.88389707,0.97010064
164,0.9388226,0.7654467,0.80981874,0.89727294,0.86400276,0.79441535,0.7642718,0.90244037,0.9611735,0.89127487,0.9487008,0.9014019,0.92731106,0.76938206,0.75938815,0.76334786,0.9728892,0.86888874,0.9550924,0.95391136,0.7805354,0.8249075,0.9123616,0.87909144,0.8095041,0.7793605,0.91752905,0.97650915,0.9063636,0.9637895,0.9164906,0.9423998,0.78447074,0.7744768,0.77843654,0.9887914,0.8839774,0.97018105
165,0.93913347,0.7657575,0.8101295,0.8975837,0.8643135,0.79472613,0.7645826,0.90275115,0.9615686,0.89158565,0.9490116,0.90171266,0.92762184,0.7696928,0.7596989,0.7636586,0.97328436,0.8691995,0.9554031,0.9539832,0.7806073,0.8249793,0.9124335,0.8791633,0.809576,0.77943236,0.917601,0.9765811,0.9064355,0.9638614,0.9165625,0.9424717,0.7845426,0.7745487,0.7785084,0.9888633,0.88404936,0.97025293
166,0.9394494,0.76607347,0.8104455,0.8978997,0.86462945,0.7950421,0.76489854,0.9030671,0.96197045,0.8919017,0.9493276,0.9020287,0.9279378,0.7700088,0.7600149,0.76397455,0.9736862,0.8695155,0.95571905,0.954049,0.780673,0.82504505,0.91249925,0.87922907,0.80964166,0.77949804,0.9176667,0.9766468,0.90650123,0.96392715,0.91662824,0.94253737,0.78460836,0.77461445,0.7785741,0.988929,0.88411504,0.9703186
167,0.93977016,0.7663942,0.8107663,0.8982205,0.86495024,0.7953629,0.7652193,0.9033879,0.962368,0.8922224,0.9496483,0.9023495,0.9282586,0.7703296,0.7603357,0.76429534,0.9740942,0.8698363,0.9560399,0.9541098,0.7807338,0.8251059,0.9125601,0.8792899,0.8097025,0.7795589,0.91772753,0.9767076,0.90656203,0.963988,0.91668904,0.9425982,0.7846692,0.7746753,0.77863497,0.98898983,0.88417584,0.9703795
168,0.9400951,0.7667191,0.8110912,0.8985454,0.86527514,0.7956878,0.7655442,0.9037128,0.9626929,0.8925473,0.9499733,0.9026744,0.9285835,0.7706545,0.7606606,0.76462024,0.9745074,0.8701612,0.95636475,0.95416707,0.78079116,0.8251632,0.9126174,0.8793472,0.80975986,0.77961624,0.91778487,0.9767649,0.90661937,0.9640452,0.9167464,0.9426555,0.7847265,0.7747326,0.77869225,0.9890471,0.8842332,0.9704368
169,0.9404235,0.7670476,0.8114196,0.8988738,0.86560357,0.7960162,0.76587266,0.9040413,0.96302134,0.89287573,0.9503017,0.9030028,0.9289119,0.7709829,0.76098895,0.76494867,0.9749251,0.8704896,0.9566932,0.95422184,0.7808459,0.82521796,0.91267216,0.879402,0.8098146,0.77967095,0.9178396,0.97681963,0.9066741,0.96410006,0.9168011,0.9427103,0.7847812,0.7747873,0.778747,0.9891018,0.8842879,0.97049147
