,106,122,133,17,2,218,254,282,294,30,301,302,33,335,339,341,362,5,6
0,0.045829177,0.01206398,0.008629382,0.010898411,0.01499629,0.028851867,0.013532639,0.032974243,0.036442637,0.05975288,0.035527587,-0.00013852239,0.03935659,0.02536279,-0.00020889103,-1.859784e-05,0.04469949,0.039700985,0.058959484
1,-0.00110448,-0.0014421331,-0.0014764785,-0.0014537883,-0.0014128101,-0.0012742531,-0.0014274453,-0.0012330306,-0.0011983466,-0.00096524355,-0.0012074959,-0.0017012954,-0.0011692059,-0.0013091444,-0.0017716634,-0.0015813708,-0.0011157787,-0.0011657631,-0.0009731793
2,-0.0017724072,-0.0021100617,-0.002144407,-0.002121718,-0.0020807385,-0.0019421815,-0.002095375,-0.001900959,-0.001866275,-0.0016331708,-0.0018754256,-0.0023692239,-0.0018371355,-0.0019770742,-0.002439593,-0.0022492993,-0.0017837071,-0.0018336916,-0.0016411077
3,-0.002073766,-0.002411418,-0.0024457644,-0.002423074,-0.0023820947,-0.002243538,-0.0023967314,-0.0022023153,-0.0021676326,-0.0019345295,-0.0021767819,-0.0026705812,-0.0021384917,-0.0022784304,-0.0027409494,-0.0025506567,-0.0020850634,-0.002135049,-0.0019424653
4,-0.002220006,-0.002557658,-0.0025920044,-0.002569314,-0.0025283347,-0.002389779,-0.0025429714,-0.0023485564,-0.0023138726,-0.0020807695,-0.002323023,-0.0028168212,-0.0022847317,-0.0024246704,-0.0028871882,-0.0026968967,-0.0022313045,-0.002281289,-0.0020887041
5,-0.0022975933,-0.0026352464,-0.002669593,-0.0026469028,-0.0026059235,-0.0024673664,-0.0026205587,-0.0024261437,-0.00239146,-0.0021583568,-0.0024006104,-0.00289441,-0.0023623204,-0.0025022577,-0.0029647779,-0.0027744854,-0.0023088933,-0.0023588776,-0.0021662926
6,-0.0023412537,-0.0026789068,-0.0027132523,-0.0026905632,-0.0026495839,-0.0025110268,-0.0026642203,-0.002469803,-0.0024351203,-0.0022020172,-0.0024442696,-0.002938069,-0.0024059808,-0.002545918,-0.0030084383,-0.0028181444,-0.0023525523,-0.0024025368,-0.002209953
7,-0.0023661638,-0.0027038169,-0.0027381622,-0.002715472,-0.0026744937,-0.002535937,-0.0026891301,-0.0024947142,-0.0024600304,-0.0022269273,-0.0024691797,-0.002962979,-0.0024308907,-0.0025708282,-0.0030333484,-0.0028430545,-0.0023774623,-0.002427447,-0.002234863
8,-0.002379527,-0.0027171802,-0.0027515255,-0.0027288364,-0.0026878559,-0.0025493002,-0.0027024937,-0.0025080764,-0.0024733949,-0.0022402906,-0.002482543,-0.0029763423,-0.002444254,-0.0025841915,-0.0030467105,-0.0028564166,-0.0023908257,-0.002440809,-0.0022482264
9,-0.0023832093,-0.0027208626,-0.002755208,-0.0027325188,-0.0026915395,-0.0025529824,-0.002706176,-0.00251176,-0.002477076,-0.002243973,-0.0024862266,-0.002980026,-0.0024479365,-0.0025878751,-0.003050394,-0.0028601014,-0.0023945093,-0.0024444924,-0.0022519086
10,-0.0023594461,-0.0026970995,-0.0027314448,-0.0027087557,-0.0026677751,-0.0025292193,-0.0026824127,-0.0024879957,-0.0024533127,-0.0022202097,-0.002462462,-0.0029562616,-0.0024241733,-0.0025641108,-0.0030266296,-0.002836336,-0.002370745,-0.002420728,-0.0022281455
11,-0.0023190558,-0.002656709,-0.0026910554,-0.0026683651,-0.0026273858,-0.0024888287,-0.002642021,-0.0024476051,-0.0024129222,-0.0021798194,-0.002422073,-0.0029158723,-0.0023837828,-0.0025237203,-0.0029862404,-0.0027959466,-0.0023303544,-0.002380339,-0.002187755
12,-0.0022607313,-0.0025983846,-0.00263273,-0.0026100408,-0.0025690615,-0.0024305044,-0.002583699,-0.002389282,-0.002354598,-0.0021214949,-0.0023637484,-0.002857548,-0.0023254585,-0.0024653983,-0.0029279147,-0.0027376222,-0.0022720313,-0.0023220144,-0.0021294306
13,-0.0021839214,-0.0025215745,-0.0025559198,-0.0025332307,-0.0024922513,-0.0023536943,-0.0025068878,-0.0023124719,-0.0022777892,-0.002044685,-0.0022869385,-0.0027807367,-0.0022486483,-0.0023885858,-0.0028511058,-0.0026608133,-0.00219522,-0.0022452043,-0.0020526205
14,-0.0020898425,-0.0024274944,-0.002461841,-0.002439152,-0.0023981726,-0.0022596167,-0.002412808,-0.0022183931,-0.002183709,-0.0019506061,-0.0021928584,-0.002686658,-0.0021545696,-0.0022945069,-0.0027570259,-0.0025667334,-0.0021011413,-0.0021511256,-0.001958543
15,-0.0019819844,-0.0023196375,-0.0023539828,-0.0023312925,-0.0022903131,-0.0021517575,-0.002304951,-0.0021105336,-0.0020758498,-0.0018427479,-0.0020850003,-0.0025787996,-0.0020467115,-0.0021866488,-0.0026491678,-0.002458875,-0.0019932818,-0.0020432675,-0.0018506836
16,-0.0018656945,-0.0022033476,-0.002237693,-0.0022150027,-0.0021740245,-0.0020354677,-0.00218866,-0.0019942438,-0.00195956,-0.0017264568,-0.0019687116,-0.0024625098,-0.0019304216,-0.002070359,-0.002532878,-0.0023425852,-0.0018769931,-0.0019269775,-0.0017343938
17,-0.0017469787,-0.002084632,-0.0021189773,-0.002096287,-0.0020553076,-0.0019167518,-0.002069944,-0.001875528,-0.0018408442,-0.0016077423,-0.0018499946,-0.002343794,-0.0018117058,-0.0019516444,-0.002414162,-0.0022238684,-0.0017582774,-0.0018082618,-0.0016156781
18,-0.0016312051,-0.0019688583,-0.0020032036,-0.0019805133,-0.0019395339,-0.0018009781,-0.0019541704,-0.0017597544,-0.0017250704,-0.0014919686,-0.0017342209,-0.0022280193,-0.0016959321,-0.0018358707,-0.0022983884,-0.0021080947,-0.0016425037,-0.0016924882,-0.0014999032
19,-0.0015223074,-0.0018599605,-0.0018943059,-0.0018716168,-0.0018306362,-0.0016920804,-0.0018452739,-0.0016508567,-0.0016161739,-0.001383071,-0.0016253245,-0.0021191216,-0.0015870344,-0.0017269718,-0.0021894907,-0.001999197,-0.001533606,-0.0015835905,-0.0013910066
20,-0.001422633,-0.0017602885,-0.0017946326,-0.0017719435,-0.0017309642,-0.0015924072,-0.0017455994,-0.0015511834,-0.0015165007,-0.0012833977,-0.0015256512,-0.0020194494,-0.0014873612,-0.0016272985,-0.0020898175,-0.0018995249,-0.0014339328,-0.0014839172,-0.0012913335
21,-0.0013332104,-0.0016708636,-0.0017052102,-0.0016825199,-0.0016415404,-0.0015029848,-0.001656177,-0.001461761,-0.001427077,-0.0011939752,-0.0014362276,-0.0019300269,-0.0013979375,-0.0015378761,-0.002000395,-0.0018101012,-0.0013445091,-0.0013944948,-0.0012019109
22,-0.001254133,-0.0015917849,-0.0016261303,-0.0016034412,-0.0015624618,-0.0014239061,-0.0015770984,-0.0013826822,-0.0013479984,-0.0011148965,-0.00135715,-0.0018509472,-0.00131886,-0.0014587974,-0.0019213164,-0.0017310226,-0.0012654305,-0.0013154161,-0.0011228323
23,-0.0011849224,-0.0015225768,-0.0015569222,-0.0015342318,-0.0014932525,-0.0013546955,-0.001507889,-0.0013134718,-0.001278789,-0.001045686,-0.0012879395,-0.0017817378,-0.0012496494,-0.001389587,-0.001852107,-0.0016618132,-0.0011962211,-0.0012462055,-0.0010536218
24,-0.0011247968,-0.00146245,-0.0014967953,-0.0014741063,-0.0014331269,-0.0012945699,-0.0014477634,-0.0012533474,-0.0012186634,-0.0009855616,-0.0012278139,-0.0017216122,-0.001189524,-0.0013294613,-0.0017919802,-0.0016016876,-0.0011360955,-0.0011860811,-0.0009934962
25,-0.0010517549,-0.0013894081,-0.0014237534,-0.0014010643,-0.001360085,-0.001221528,-0.0013747215,-0.0011803042,-0.0011456227,-0.0009125185,-0.001154772,-0.0016485703,-0.001116482,-0.0012564193,-0.0017189384,-0.0015286457,-0.0010630536,-0.001113038,-0.0009204542
26,-0.0009985256,-0.0013361787,-0.0013705242,-0.0013478339,-0.0013068557,-0.0011682987,-0.0013214921,-0.0011270749,-0.0010923921,-0.00085928914,-0.0011015427,-0.0015953409,-0.0010632527,-0.0012031901,-0.001665709,-0.0014754164,-0.0010098242,-0.0010598087,-0.00086722494
27,-0.00095578074,-0.0012934327,-0.0013277781,-0.0013050878,-0.0012641096,-0.0011255526,-0.0012787461,-0.00108433,-0.0010496461,-0.00081654306,-0.0010587967,-0.0015525948,-0.0010205066,-0.001160444,-0.0016229642,-0.0014326703,-0.0009670782,-0.0010170627,-0.00082447886
28,-0.0009209788,-0.0012586319,-0.0012929772,-0.001270287,-0.0012293076,-0.0010907518,-0.0012439453,-0.0010495281,-0.0010148442,-0.00078174233,-0.0010239958,-0.0015177941,-0.0009857059,-0.0011256433,-0.0015881622,-0.0013978695,-0.0009322774,-0.0009822618,-0.0007896781
29,-0.00089248654,-0.0012301398,-0.0012644851,-0.0012417948,-0.0012008166,-0.0010622585,-0.0012154531,-0.0010210371,-0.0009863531,-0.0007532501,-0.0009955036,-0.0014893019,-0.00095721363,-0.001097151,-0.00155967,-0.0013693762,-0.0009037852,-0.0009537685,-0.0007611859
30,-0.0008690679,-0.0012067222,-0.0012410677,-0.0012183774,-0.0011773979,-0.001038841,-0.0011920345,-0.0009976173,-0.00096293446,-0.0007298326,-0.000972085,-0.0014658832,-0.00093379495,-0.0010737324,-0.0015362524,-0.0013459587,-0.00088036654,-0.000930351,-0.0007377672
31,-0.000849725,-0.0011873782,-0.0012217235,-0.0011990344,-0.001158055,-0.0010194981,-0.0011726916,-0.0009782756,-0.0009435916,-0.00071048853,-0.00095274206,-0.0014465404,-0.0009144521,-0.0010543894,-0.0015169084,-0.0013266158,-0.00086102367,-0.0009110081,-0.00071842433
32,-0.0008336377,-0.001171292,-0.0012056375,-0.0011829471,-0.001141969,-0.0010034108,-0.0011566043,-0.00096218823,-0.0009275055,-0.00069440244,-0.0009366548,-0.001430453,-0.000898366,-0.0010383034,-0.0015008223,-0.0013105285,-0.00084493635,-0.000894922,-0.000702337
33,-0.00081722974,-0.0011548828,-0.0011892283,-0.001166538,-0.0011255586,-0.0009870016,-0.0011401951,-0.0009457791,-0.0009110963,-0.0006779933,-0.0009202456,-0.0014140438,-0.0008819568,-0.0010218942,-0.0014844132,-0.0012941193,-0.0008285272,-0.00087851286,-0.00068592787
34,-0.0008046019,-0.001142255,-0.0011766016,-0.0011539113,-0.001112932,-0.000974375,-0.0011275684,-0.0009331524,-0.0008984685,-0.0006653654,-0.00090761896,-0.0014014172,-0.000869329,-0.0010092675,-0.0014717852,-0.0012814926,-0.00081590057,-0.000865885,-0.0006733012
35,-0.00079396367,-0.0011316156,-0.0011659622,-0.0011432719,-0.0011022926,-0.00096373673,-0.001116929,-0.00092251296,-0.00088782905,-0.0006547272,-0.00089698075,-0.0013907778,-0.0008586907,-0.0009986281,-0.001461147,-0.0012708545,-0.0008052623,-0.0008552468,-0.0006626618
36,-0.000784775,-0.0011224281,-0.0011567747,-0.0011340844,-0.0010931051,-0.0009545481,-0.0011077416,-0.0009133255,-0.0008786416,-0.0006455397,-0.00088779326,-0.0013815904,-0.00084950327,-0.0009894407,-0.0014519584,-0.0012616658,-0.00079607364,-0.0008460593,-0.0006534743
37,-0.00077665685,-0.00111431,-0.0011486566,-0.0011259663,-0.001084987,-0.00094642997,-0.0010996234,-0.00090520736,-0.00087052345,-0.0006374204,-0.0008796739,-0.0013734722,-0.00084138394,-0.0009813225,-0.0014438402,-0.0012535476,-0.0007879567,-0.00083793997,-0.00064535614
38,-0.00076929806,-0.0011069524,-0.0011412977,-0.0011186086,-0.0010776293,-0.00093907234,-0.0010922658,-0.0008978486,-0.0008631658,-0.00063006283,-0.00087231636,-0.0013661146,-0.0008340263,-0.0009739637,-0.0014364826,-0.0012461889,-0.0007805967,-0.00083058234,-0.0006379986
39,-0.00076244236,-0.0011000955,-0.0011344409,-0.0011117506,-0.0010707712,-0.0009322154,-0.0010854077,-0.00089099165,-0.00085630774,-0.0006232059,-0.0008654582,-0.0013592576,-0.00082716823,-0.0009671068,-0.0014296257,-0.0012393319,-0.0007737398,-0.00082372426,-0.00063114165
40,-0.0006349504,-0.00097260356,-0.0010069502,-0.0009842598,-0.00094328047,-0.0008047235,-0.00095791696,-0.0007635009,-0.00072881696,-0.0004957151,-0.0007379675,-0.0012317657,-0.00069967745,-0.00083961606,-0.0013021338,-0.0011118412,-0.00064624904,-0.0006962347,-0.0005036497
41,-0.0005699336,-0.0009075868,-0.0009419322,-0.00091924187,-0.0008782625,-0.00073970674,-0.000892899,-0.00069848297,-0.0006638002,-0.00043069778,-0.00067295076,-0.0011667489,-0.0006346607,-0.0007745981,-0.001237117,-0.0010468244,-0.0005812323,-0.00063121674,-0.00043863177
42,-0.0005272007,-0.00086485385,-0.0008991992,-0.0008765101,-0.00083553075,-0.0006969726,-0.00085016724,-0.00065575005,-0.00062106724,-0.00038796483,-0.0006302178,-0.0011240148,-0.00059192773,-0.0007318652,-0.0011943841,-0.0010040903,-0.0005384993,-0.0005884838,-0.0003958994
43,-0.0004979694,-0.0008356237,-0.00086996914,-0.0008472788,-0.00080629945,-0.0006677437,-0.00082093594,-0.0006265199,-0.00059183594,-0.00035873413,-0.0006009865,-0.0010947859,-0.0005626964,-0.00070263504,-0.0011651528,-0.00097486016,-0.00050926924,-0.0005592537,-0.00036666988
44,-0.00031802236,-0.0006556761,-0.0006900215,-0.0006673312,-0.000626353,-0.00048779487,-0.00064098835,-0.0004465723,-0.00041188954,-0.00017878652,-0.00042103944,-0.0009148371,-0.00038275003,-0.0005226862,-0.0009852063,-0.0007949126,-0.00032932044,-0.00037930487,-0.00018672108
45,-0.00023238301,-0.0005700362,-0.00060438155,-0.0005816913,-0.00054071186,-0.0004021567,-0.0005553484,-0.00036093293,-0.00032625019,-9.314716e-05,-0.0003353995,-0.0008291972,-0.00029710948,-0.00043704806,-0.0008995664,-0.00070927263,-0.00024368106,-0.0002936655,-0.000101082325
46,-0.00017577708,-0.00051342964,-0.000547775,-0.00052508473,-0.00048410535,-0.00034555016,-0.00049874187,-0.00030432642,-0.00026964248,-3.6541223e-05,-0.00027879418,-0.00077259063,-0.00024050415,-0.00038044155,-0.00084295985,-0.0006526661,-0.00018707513,-0.00023705959,-4.44746e-05
47,0.006851852,-0.00026913465,-0.00030348063,-0.00028079093,-0.00023981153,-0.00010125458,-0.00025444804,-6.0030816e-05,-2.5348067e-05,0.020775437,-3.4497974e-05,-0.0005282962,0.00037914515,-0.00013614654,-0.0005986643,-0.0004083711,0.005722046,0.0007236004,0.01998198
48,0.018611133,-0.00015154183,-0.00018588781,-0.00016319752,-0.00012221873,0.0016338229,-0.00013685465,0.0057561994,0.009224474,0.03253472,0.008309543,-0.00041070342,0.012138486,-1.8553734e-05,-0.00048107147,-0.00029077887,0.017481327,0.012482882,0.03174132
49,0.03310716,-6.5809486e-06,-4.0926934e-05,-1.8237828e-05,0.0022741556,0.016129851,0.00081056356,0.020252228,0.023720503,0.047030747,0.022805572,-0.00026574312,0.026634514,0.012640715,-0.00033611237,-0.00014581859,0.031977415,0.02697891,0.04623729
50,0.04149598,0.007730603,0.0042960644,0.006565094,0.010662973,0.024518609,0.009199381,0.028640926,0.03210932,0.055419564,0.03119433,-0.00018185556,0.035023272,0.021029532,-0.0002522242,-6.193042e-05,0.040366173,0.035367727,0.054626107
51,0.047359407,0.013594151,0.010159552,0.012428522,0.01652646,0.030382037,0.015062809,0.034504473,0.037972808,0.061282992,0.037057757,-0.00012322069,0.04088682,0.02689296,-0.00019358992,-3.2961368e-06,0.04622972,0.041231155,0.060489595
52,0.051401436,0.01763612,0.014201522,0.016470492,0.02056837,0.034424067,0.019104779,0.038546443,0.042014718,0.06532502,0.041099787,-8.280098e-05,0.04492873,0.03093493,-0.00015316963,0.0037124157,0.05027163,0.045273125,0.064531505
53,0.05402726,0.020262003,0.016827404,0.019096434,0.023194373,0.03704995,0.021730721,0.041172266,0.04464072,0.067950904,0.04372567,-5.6542158e-05,0.04755467,0.033560812,-0.0001269108,0.0063382983,0.052897513,0.047899008,0.06715751
54,0.055543184,0.021777868,0.01834327,0.02061218,0.024710119,0.038565874,0.023246467,0.04268813,0.046156466,0.06946671,0.045241535,-4.1383504e-05,0.049070477,0.03507662,-0.00011175274,0.007854164,0.05441332,0.049414814,0.06867325
55,0.05619198,0.022426665,0.018992066,0.021261156,0.025358975,0.03921467,0.023895323,0.043336987,0.046805322,0.070115566,0.04589033,-3.489554e-05,0.049719334,0.035725474,-0.00010526418,0.00850296,0.055062234,0.05006373,0.06932211
56,0.05616802,0.022402704,0.018968165,0.021237195,0.025335133,0.03919071,0.023871422,0.043313026,0.04678142,0.070091665,0.04586637,-3.513455e-05,0.049695373,0.035701573,-0.0001055032,0.008479059,0.055038214,0.05003977,0.06929815
57,0.06984317,0.036077797,0.03264326,0.03491229,0.039010227,0.052865744,0.037546515,0.05698812,0.060456514,0.08376682,0.059541464,0.010161638,0.063370466,0.049376667,0.003124833,0.022154152,0.06871331,0.06371486,0.08297324
58,0.074717045,0.04095167,0.03751707,0.0397861,0.04388398,0.057739675,0.042420328,0.061861932,0.06533027,0.08864057,0.064415336,0.01503545,0.06824434,0.05425048,0.007998586,0.027028024,0.07358718,0.06858873,0.08784711
59,0.08035022,0.046584904,0.043150365,0.045419395,0.049517334,0.06337285,0.04805368,0.06749529,0.07096368,0.094273925,0.07004857,0.020668805,0.07387763,0.059883833,0.01363194,0.0326612,0.079220474,0.07422197,0.09348041
60,0.08367115,0.049905896,0.046471298,0.048740268,0.052838206,0.06669378,0.051374555,0.07081616,0.07428455,0.0975948,0.0733695,0.023989677,0.077198505,0.063204706,0.016952813,0.035982132,0.08254135,0.0775429,0.09680128
61,0.086099625,0.05233431,0.04889977,0.0511688,0.055266738,0.069122255,0.053803027,0.07324463,0.076713026,0.10002333,0.075798035,0.02641815,0.07962698,0.06563324,0.019381285,0.038410604,0.08496982,0.07997143,0.09922981
62,0.08782631,0.054060936,0.050626338,0.052895367,0.056993306,0.07084894,0.055529654,0.07497132,0.07843959,0.1017499,0.07752466,0.028144777,0.081353605,0.067359746,0.021107912,0.04013723,0.086696506,0.08169806,0.10095638
63,0.088968515,0.0552032,0.0517686,0.05403763,0.05813557,0.071991146,0.056671858,0.07611352,0.07958186,0.10289216,0.078666866,0.02928698,0.08249587,0.06850207,0.022250116,0.041279554,0.08783877,0.082840264,0.102098584
64,0.089624286,0.05585903,0.05242449,0.05469346,0.0587914,0.072646976,0.057327747,0.07676935,0.080237746,0.10354793,0.079322696,0.02994287,0.0831517,0.0691579,0.022905946,0.041935325,0.08849454,0.083496094,0.102754414
65,0.097225964,0.06346065,0.06002611,0.06229514,0.06639302,0.080248654,0.06492931,0.08437091,0.087839305,0.11114961,0.086924314,0.03754449,0.09075326,0.07675952,0.030507624,0.049537003,0.09609616,0.09109771,0.11035609
66,0.109713435,0.07594806,0.07251358,0.07478255,0.07888049,0.092736065,0.07741684,0.09685844,0.10032678,0.12363708,0.099411786,0.05003196,0.10324073,0.08924699,0.042995095,0.062024415,0.10858363,0.10358524,0.122843504
67,0.11527991,0.08151454,0.07807994,0.08034897,0.08444685,0.09830254,0.082983196,0.10242486,0.105893195,0.12920344,0.10497826,0.05559838,0.10880715,0.09481335,0.048561454,0.06759083,0.11415005,0.1091516,0.12840992
68,0.13185412,0.0980888,0.09465426,0.09692329,0.10102117,0.11487675,0.09955746,0.118999064,0.12246746,0.14577776,0.12155241,0.07217258,0.12538141,0.11138767,0.06513578,0.084165156,0.13072431,0.12572587,0.14498425
69,0.14005858,0.1062932,0.10285866,0.10512769,0.10922557,0.12308121,0.10776198,0.12720358,0.13067192,0.15398216,0.12975693,0.08037698,0.13358593,0.11959207,0.07334018,0.0923695,0.13892877,0.13393027,0.1531887
70,0.14701831,0.113253,0.10981852,0.11208749,0.11618543,0.13004094,0.114721715,0.13416332,0.13763171,0.16094202,0.13671666,0.08733678,0.14054567,0.12655187,0.08029997,0.09932929,0.1458885,0.14089012,0.1601485
71,0.1530506,0.119285226,0.11585063,0.11811966,0.122217596,0.13607323,0.120754,0.14019567,0.14366394,0.16697413,0.14274895,0.09336907,0.1465779,0.13258415,0.08633214,0.10536152,0.1519208,0.14692235,0.16618073
72,0.16921115,0.13544583,0.1320113,0.13428026,0.1383782,0.15223384,0.13691455,0.15635616,0.15982449,0.1831348,0.15890956,0.109529614,0.16273844,0.14874464,0.10249281,0.12152213,0.16808134,0.16308296,0.18234122
73,0.17755795,0.14379269,0.14035803,0.14262712,0.14672494,0.16058064,0.14526129,0.16470295,0.16817129,0.19148165,0.16725636,0.11787641,0.17108536,0.15709144,0.110839605,0.12986887,0.1764282,0.17142963,0.19068813
74,0.19823551,0.16447014,0.16103554,0.16330463,0.16740257,0.18125814,0.16593885,0.18538052,0.1888488,0.21215916,0.18793386,0.13855392,0.19176286,0.17776895,0.13151711,0.15054643,0.1971057,0.1921072,0.21136558
75,0.2093491,0.17558372,0.17214918,0.17441821,0.17851615,0.19237173,0.17705244,0.19649404,0.19996244,0.22327274,0.19904739,0.14966762,0.20287639,0.18888265,0.14263076,0.16166008,0.20821923,0.20322073,0.22247922
76,0.22862059,0.19485521,0.19142067,0.19368976,0.19778764,0.21164322,0.19632393,0.2157656,0.21923393,0.24254423,0.21831894,0.16893905,0.22214794,0.20815414,0.16190225,0.18093151,0.22749078,0.22249234,0.24175066
77,0.24052215,0.20675677,0.20332223,0.2055912,0.20968914,0.22354478,0.20822555,0.22766715,0.23113549,0.25444573,0.2302205,0.18084061,0.23404944,0.22005564,0.17380375,0.19283313,0.23939234,0.23439384,0.25365222
78,0.25120115,0.21743578,0.21400118,0.21627027,0.22036809,0.23422384,0.21890455,0.23834616,0.24181443,0.26512474,0.2408995,0.19151962,0.24472845,0.23073465,0.1844827,0.20351207,0.2500713,0.24507284,0.26433128
79,0.26951927,0.2357539,0.23231936,0.23458833,0.2386862,0.2525419,0.23722255,0.25666422,0.26013255,0.28344285,0.25921756,0.20983768,0.2630465,0.2490527,0.20280081,0.22183019,0.2683894,0.26339096,0.28264934
80,0.28102404,0.24725866,0.24382412,0.24609315,0.25019097,0.26404667,0.24872732,0.268169,0.27163732,0.29494762,0.2707224,0.2213425,0.2745514,0.26055747,0.21430558,0.23333496,0.27989423,0.27489567,0.2941541
81,0.29992533,0.26616,0.2627254,0.26499444,0.26909232,0.28294796,0.26762867,0.28707033,0.2905386,0.3138489,0.28962368,0.24024379,0.29345262,0.27945882,0.23320687,0.25223625,0.29879546,0.29379702,0.31305546
82,0.3120978,0.27833247,0.27489793,0.27716696,0.28126478,0.29512042,0.27980113,0.29924273,0.30271113,0.32602143,0.30179614,0.2524163,0.30562508,0.29163128,0.24537945,0.26440883,0.31096798,0.30596948,0.32522792
83,0.33121753,0.2974522,0.29401767,0.29628664,0.30038458,0.31424016,0.29773253,0.31836253,0.3218308,0.3451411,0.32091588,0.271536,0.32474482,0.30531532,0.26449913,0.28352845,0.33008772,0.32508928,0.3443476
84,0.3438958,0.31013048,0.30669588,0.30896485,0.3130628,0.32691836,0.30653954,0.33104074,0.33450907,0.35781944,0.33359408,0.2842142,0.3374231,0.31412238,0.2771774,0.2962067,0.34276593,0.33776748,0.35702586
85,0.35562897,0.31849968,0.31842905,0.32069802,0.32479596,0.3386516,0.31471175,0.3427739,0.3462423,0.3695526,0.34532732,0.29594743,0.34915626,0.32229453,0.28891057,0.30793995,0.35449916,0.34950066,0.3687591
86,0.38269633,0.33734465,0.34549636,0.34776545,0.35186332,0.36199135,0.3335567,0.36984134,0.37330967,0.39661998,0.37239468,0.3230148,0.37622362,0.34113955,0.315978,0.3350073,0.38156652,0.37656808,0.39582646
87,0.39808172,0.34799284,0.3608818,0.36315084,0.36724877,0.37263954,0.34420496,0.38522673,0.38869506,0.4120053,0.38778007,0.3384002,0.39160907,0.3517878,0.33136332,0.34757376,0.3969519,0.39195347,0.41121185
88,0.42124164,0.3640991,0.38404167,0.38631076,0.39040864,0.38874573,0.36031103,0.4083866,0.41185492,0.43516523,0.41094,0.36156005,0.41476893,0.36789387,0.35452324,0.3636799,0.42011178,0.41511333,0.4343717
89,0.43702382,0.3750353,0.39982396,0.40209293,0.4061908,0.39968187,0.3712473,0.42416883,0.42763716,0.45094746,0.42672217,0.37734228,0.4305511,0.37883013,0.3656338,0.37461603,0.435894,0.43089557,0.45015395
90,0.46143976,0.39203006,0.4242398,0.42650884,0.43060678,0.4166767,0.38824207,0.44858474,0.45205307,0.47536337,0.45113808,0.4017582,0.45496708,0.39582485,0.38262856,0.39161086,0.46030992,0.45531142,0.47456983
91,0.4778146,0.40338093,0.4406147,0.44288373,0.4469816,0.42802757,0.399593,0.46495962,0.46842796,0.49173823,0.46751297,0.41813308,0.47134194,0.40717578,0.3939795,0.40296173,0.47668478,0.4716863,0.49094468
92,0.49314907,0.41403216,0.4559492,0.45821822,0.4623161,0.43867874,0.4102441,0.48029405,0.48376238,0.5070727,0.48284742,0.4334675,0.4866764,0.41782695,0.40463066,0.41361296,0.4920192,0.4870208,0.5062792
93,0.50756556,0.42405432,0.47036567,0.4726347,0.47673258,0.44870096,0.4202664,0.4947106,0.4981789,0.52148926,0.49726394,0.44788402,0.5010929,0.42784917,0.41465288,0.42363518,0.50643575,0.5014373,0.5206957
94,0.5211979,0.43353724,0.483998,0.486267,0.49036488,0.458184,0.42974937,0.50834286,0.5118112,0.5351215,0.5108962,0.46151635,0.5147252,0.4373322,0.42413586,0.43311816,0.52006805,0.5150696,0.534328
95,0.5412203,0.44751042,0.4984708,0.5062895,0.51038736,0.4721571,0.44372243,0.5283654,0.53183365,0.55514395,0.5309187,0.4815388,0.53474766,0.45130527,0.43810892,0.44709122,0.54009044,0.535092,0.55435044
96,0.55526155,0.4572686,0.508229,0.52033067,0.5244286,0.48191524,0.45348066,0.54240656,0.5458749,0.56918514,0.5449599,0.49558002,0.5487889,0.46106347,0.44786716,0.45684946,0.55413175,0.54913324,0.5683917
97,0.5686984,0.46661937,0.51757973,0.5337675,0.53786534,0.491266,0.46283138,0.55584335,0.5593116,0.582622,0.5583967,0.5090168,0.5622257,0.4704142,0.4572179,0.4662002,0.56756854,0.56257,0.5818285
98,0.58159447,0.47559905,0.5265594,0.5466636,0.5507615,0.5002457,0.47181112,0.5687395,0.5722078,0.5955181,0.5712929,0.52191293,0.5751218,0.47939387,0.4661976,0.47517988,0.5804646,0.57546616,0.59472454
99,0.59404147,0.48427022,0.5352306,0.55911064,0.5632086,0.50891685,0.48048228,0.58118653,0.5846548,0.6079652,0.5837399,0.53436,0.5875689,0.48806503,0.47486877,0.48385105,0.5929117,0.58791316,0.6071716
100,0.6139336,0.49818644,0.54914683,0.57900274,0.5831007,0.5228331,0.4943985,0.6010786,0.60454696,0.62705195,0.603632,0.5542521,0.607461,0.50198126,0.48878503,0.4977673,0.6128038,0.6078053,0.62706375
101,0.6273477,0.50752306,0.5584834,0.59241676,0.5965147,0.5321697,0.50373507,0.61449265,0.617961,0.63638854,0.617046,0.5676662,0.620875,0.5113179,0.49812162,0.5071039,0.62621784,0.6172408,0.6404778
102,0.64860404,0.5224024,0.5733627,0.6136731,0.617771,0.54704905,0.5186144,0.635749,0.6392173,0.6512679,0.6383023,0.5889225,0.6421313,0.5261972,0.51300097,0.52198327,0.64747417,0.63212013,0.6617341
103,0.6628335,0.5323119,0.58327234,0.6279026,0.63200057,0.55695856,0.52852404,0.6499785,0.6534468,0.6611774,0.65253186,0.603152,0.65636086,0.5361068,0.5229105,0.5318928,0.66170365,0.64202976,0.6759635
104,0.6852926,0.54804933,0.59900975,0.6503617,0.6544596,0.572696,0.54426146,0.67243767,0.67590594,0.6769148,0.67499095,0.62561107,0.6788199,0.55184424,0.53864795,0.5476302,0.68416274,0.6577671,0.6984227
105,0.7000913,0.5583644,0.60932475,0.6651604,0.6657578,0.58301103,0.55457646,0.6872363,0.69070464,0.6872299,0.68978965,0.6404097,0.69361866,0.5621592,0.54896295,0.55794525,0.69896144,0.6680822,0.7132214
106,0.7142657,0.56825864,0.61921906,0.6793349,0.67565215,0.5929054,0.56447077,0.7014108,0.70487905,0.6971242,0.70396405,0.65458417,0.707793,0.57205355,0.5588573,0.5678395,0.71313584,0.6779765,0.7273958
107,0.7362859,0.5837177,0.6346781,0.70135504,0.6911112,0.6083644,0.5799298,0.72232234,0.72689927,0.71258324,0.7259843,0.6766044,0.7298132,0.5875126,0.5743163,0.58329856,0.73515606,0.69343555,0.749416
108,0.7506032,0.59371424,0.64467466,0.71567225,0.70110774,0.61836094,0.58992636,0.7323189,0.7412165,0.7225798,0.7403015,0.69092155,0.74413043,0.59750915,0.58431286,0.5932951,0.7494733,0.703432,0.7637332
109,0.7743075,0.6103819,0.66134226,0.73937654,0.71777534,0.63502854,0.60659397,0.7489865,0.76492083,0.7392474,0.7640058,0.7146259,0.7678348,0.61417675,0.60098046,0.6099627,0.7731776,0.7200997,0.78743756
110,0.78885823,0.6205499,0.67151034,0.75392735,0.7279434,0.6451967,0.61676204,0.75915456,0.7794716,0.74941546,0.7785565,0.72917664,0.7823855,0.6243448,0.6111486,0.62013084,0.7877284,0.73026776,0.8019883
111,0.8121628,0.6369531,0.68791354,0.77292585,0.7443466,0.6615998,0.63316524,0.77555776,0.8027762,0.76581866,0.80186117,0.7524813,0.8024378,0.64074796,0.62755173,0.636534,0.811033,0.74667096,0.82529294
112,0.82641983,0.6469257,0.69788605,0.7828984,0.75431913,0.6715723,0.64313775,0.78553027,0.8170332,0.77579117,0.8161181,0.76673824,0.8124103,0.6507206,0.63752425,0.64650655,0.82528996,0.7566435,0.8395499
113,0.83701736,0.65633905,0.7072995,0.7923117,0.76373243,0.6809857,0.6525511,0.7949436,0.8304728,0.7852045,0.8295578,0.7801779,0.8218236,0.66013384,0.6469376,0.6559199,0.8387296,0.7660568,0.85298955
114,0.85116285,0.6704845,0.7214449,0.8064572,0.7778779,0.6951312,0.66669655,0.80908906,0.8505406,0.79935,0.8496255,0.80024564,0.8359691,0.67427933,0.6610831,0.67006534,0.8587974,0.78020227,0.87209743
115,0.8599221,0.6792438,0.7302042,0.81521654,0.78663725,0.7038905,0.67545587,0.8178484,0.8630426,0.8081093,0.86212754,0.8127477,0.8447284,0.68303865,0.66984236,0.67882466,0.8712994,0.7889616,0.88085675
116,0.8735205,0.6928421,0.74380255,0.8288148,0.80023557,0.7174888,0.68905425,0.8314467,0.8823122,0.8217076,0.8813971,0.8320173,0.85832673,0.69663703,0.6834407,0.692423,0.890569,0.8025599,0.8944551
117,0.8816698,0.7009915,0.7519519,0.8369642,0.8083849,0.72563815,0.6972036,0.8395961,0.8939367,0.829857,0.89302164,0.8436418,0.8664761,0.70478636,0.6915901,0.7005724,0.9021935,0.8107093,0.9026044
118,0.89491487,0.71423656,0.7651969,0.85020924,0.82163,0.7388832,0.7104486,0.85284114,0.91268104,0.84310204,0.90887725,0.86238617,0.87972116,0.7180314,0.7048351,0.71381736,0.9207587,0.82395434,0.91584945
119,0.89694047,0.7162621,0.7672225,0.85223484,0.8236556,0.7409088,0.7124742,0.85486674,0.9157859,0.84512764,0.91090286,0.86549103,0.88174677,0.720057,0.7068607,0.71584296,0.9227843,0.82597995,0.91787505
120,0.89879376,0.71811545,0.7690758,0.8540881,0.82550883,0.7427621,0.71432745,0.85672003,0.9186226,0.8469809,0.91275615,0.86832774,0.88360006,0.7219103,0.708714,0.71769625,0.9246376,0.82783324,0.91972834
121,0.9023304,0.7216521,0.77261245,0.85762477,0.82904553,0.7462988,0.71786416,0.8602567,0.92383254,0.8505176,0.91629285,0.87353766,0.8871367,0.72544694,0.71225065,0.72123295,0.9281743,0.8313699,0.923265
122,0.9037191,0.7230408,0.7740012,0.8590135,0.8304342,0.74768746,0.7192528,0.8616454,0.92599833,0.8519063,0.9176815,0.8757034,0.8885254,0.72683567,0.7136394,0.7226217,0.929563,0.8327586,0.9246537
123,0.9071609,0.72648257,0.77744293,0.86245525,0.833876,0.75112927,0.72269464,0.86508715,0.92966545,0.85534805,0.92112327,0.88075644,0.8919672,0.7302774,0.7170811,0.72606343,0.9330048,0.83620036,0.92809546
124,0.9083432,0.7276649,0.77862525,0.86363757,0.83505833,0.7523116,0.72387695,0.86626947,0.93084776,0.85653037,0.9223056,0.8826144,0.8931495,0.73145974,0.71826345,0.72724575,0.9341871,0.8373827,0.9292778
125,0.9115751,0.7308967,0.78185713,0.86686945,0.83829015,0.7555434,0.72710884,0.86950135,0.93407965,0.85976225,0.92553747,0.88734853,0.8963814,0.7346916,0.72149533,0.7304776,0.93741894,0.84061456,0.93250966
126,0.91257375,0.73189545,0.78285587,0.8678681,0.8392889,0.7565421,0.7281075,0.8705,0.9350783,0.8607609,0.9265362,0.8889304,0.89738005,0.73569036,0.722494,0.7314763,0.9384177,0.84161323,0.9335084
127,0.91379106,0.7331127,0.7840731,0.86908543,0.84050614,0.7577594,0.72932476,0.87171733,0.9362956,0.86197823,0.92775345,0.8907958,0.89859736,0.7369076,0.7237113,0.73269355,0.9396349,0.84283054,0.93472564
128,0.916301,0.7356227,0.78658307,0.8715954,0.84301615,0.7602694,0.73183477,0.8742273,0.9388056,0.8644882,0.9302634,0.8944681,0.9011073,0.73941755,0.72622126,0.73520356,0.94214493,0.8453405,0.9372356
129,0.917103,0.7364247,0.78738505,0.87239736,0.84381807,0.7610713,0.7326367,0.8750292,0.93960756,0.86529016,0.9310654,0.8957344,0.9019093,0.74021953,0.72702324,0.7360055,0.94294685,0.8461425,0.9380376
130,0.91932046,0.7386421,0.7896025,0.87461483,0.84603554,0.7632888,0.73485416,0.8772467,0.94182503,0.8675076,0.93328285,0.89897656,0.90412676,0.742437,0.72924066,0.73822296,0.9451643,0.84835994,0.94025505
131,0.9199932,0.7393149,0.7902753,0.8752876,0.84670836,0.76396155,0.7355269,0.8779195,0.9424978,0.8681804,0.9339556,0.90004545,0.9047995,0.74310976,0.7299135,0.7388958,0.9458371,0.8490327,0.9409278
132,0.92085934,0.74018097,0.7911414,0.87615365,0.8475744,0.76482767,0.73639303,0.87878555,0.94336385,0.86904645,0.9348217,0.90136945,0.9056656,0.7439759,0.7307795,0.7397618,0.9467032,0.8498988,0.9417939
133,0.92169,0.7410117,0.79197204,0.87698436,0.8484051,0.7656584,0.73722374,0.87961626,0.94419456,0.86987716,0.9356524,0.9026306,0.9064963,0.7448065,0.73161024,0.74059254,0.9475339,0.85072947,0.94262457
134,0.92366517,0.74298686,0.7939472,0.87895954,0.8503803,0.76763356,0.7391989,0.88159144,0.94616973,0.87185234,0.93762755,0.90548915,0.90847147,0.7467817,0.7335854,0.7425677,0.9495091,0.85270464,0.94459975
135,0.9241333,0.74345493,0.79441535,0.8794277,0.85084844,0.76810163,0.73966706,0.8820596,0.94663787,0.8723205,0.9380957,0.90623724,0.9089396,0.74724984,0.73405355,0.7430358,0.94997716,0.8531728,0.9450679
136,0.92482185,0.74414355,0.7951039,0.8801162,0.851537,0.76879025,0.7403556,0.8827481,0.9473264,0.873009,0.93878424,0.90728366,0.90962815,0.7479384,0.7347421,0.7437244,0.9506658,0.85386133,0.94575644
137,0.9262695,0.74559116,0.7965516,0.88156384,0.8529846,0.7702378,0.7418032,0.88419574,0.94877404,0.87445664,0.94023186,0.90938485,0.9110758,0.7493861,0.7361897,0.745172,0.9521134,0.855309,0.94720405
138,0.92669713,0.74601877,0.7969792,0.8819915,0.8534122,0.77066547,0.74223083,0.8846234,0.9492017,0.8748843,0.9406595,0.91005826,0.91150343,0.7498137,0.7366174,0.7455996,0.952541,0.8557366,0.9476317
139,0.9281542,0.74747586,0.7984363,0.88344854,0.8548693,0.77212256,0.7436879,0.88608044,0.95065874,0.87634134,0.9421166,0.91216505,0.91296047,0.7512708,0.7380744,0.7470567,0.95356524,0.8571937,0.9490888
140,0.9284787,0.7478004,0.7987608,0.8837731,0.85519385,0.7724471,0.7440125,0.886405,0.9509833,0.8766659,0.94244117,0.9126889,0.913285,0.75159526,0.73839897,0.74738127,0.9535705,0.85751826,0.94941336
141,0.92899513,0.7483168,0.7992772,0.8842895,0.85571027,0.7729635,0.7445289,0.8869214,0.9514997,0.8771823,0.9429575,0.9134733,0.91380143,0.7521117,0.7389154,0.7478977,0.95357835,0.8580346,0.9499297
142,0.93028736,0.749609,0.8005694,0.88558173,0.85700244,0.7742557,0.74582106,0.8882136,0.95279187,0.8784745,0.94424975,0.9153352,0.91509366,0.7534039,0.74020755,0.74918985,0.95359695,0.85932684,0.95122194
143,0.9305505,0.7498722,0.8008326,0.8858449,0.85726565,0.7745189,0.7460843,0.8884768,0.9530551,0.8787377,0.94451296,0.91576135,0.9153568,0.7536671,0.74047077,0.74945307,0.9536012,0.85959005,0.95148516
144,0.9309971,0.75031877,0.8012791,0.88629144,0.8577122,0.7749654,0.74653083,0.88892335,0.95350164,0.87918425,0.94495946,0.9164377,0.9158034,0.7541136,0.7409173,0.7498996,0.953608,0.86003655,0.95193166
145,0.93144304,0.7507647,0.8017251,0.8867374,0.8581581,0.77541137,0.74697673,0.8893693,0.9535321,0.8796302,0.9454054,0.91690004,0.91624933,0.7545596,0.7413633,0.7503456,0.95361465,0.8604825,0.9523776
146,0.9325675,0.7518891,0.80284953,0.88786185,0.85928255,0.7765358,0.7481012,0.8904937,0.9535482,0.8807546,0.94652987,0.9180244,0.9173738,0.755684,0.7424877,0.75146997,0.9536308,0.86160696,0.95350206
147,0.9327757,0.75209737,0.8030578,0.88807005,0.8594908,0.776744,0.74830943,0.89070195,0.9535516,0.88096285,0.9467381,0.9182327,0.917582,0.7558923,0.7426959,0.7516782,0.95363414,0.8618152,0.9537103
148,0.93315476,0.75247645,0.8034368,0.88844913,0.8598699,0.77712315,0.7486885,0.89108104,0.9535573,0.88134193,0.9471172,0.91861176,0.91796106,0.7562713,0.743075,0.7520573,0.95363986,0.8621943,0.95378244
149,0.93353575,0.75285745,0.8038178,0.8888301,0.86025083,0.7775041,0.74906945,0.891462,0.953563,0.8817229,0.94749814,0.91899276,0.91834205,0.7566523,0.743456,0.75243825,0.9536456,0.86257523,0.95378816
150,0.9339127,0.7532343,0.80419475,0.88920707,0.8606278,0.777881,0.7494464,0.8918389,0.9535686,0.8820998,0.9478751,0.9193697,0.91871893,0.75702924,0.74383295,0.7528152,0.9536512,0.8629522,0.95379376
151,0.9348057,0.7541274,0.80508775,0.89010006,0.8615208,0.778774,0.75033945,0.89273196,0.9535814,0.88299286,0.9487681,0.9202627,0.919612,0.75792223,0.74472594,0.75370824,0.95366395,0.86384517,0.9538065
152,0.9349881,0.7543098,0.8052702,0.89028245,0.8617032,0.7789565,0.75052184,0.89291435,0.95358425,0.88317525,0.9489505,0.9204451,0.9197944,0.7581047,0.74490833,0.75389063,0.95366687,0.8640276,0.95380944
153,0.9358697,0.7551913,0.80615175,0.89116406,0.86258477,0.779838,0.7514034,0.89379597,0.9535969,0.8840568,0.9498321,0.9213267,0.920676,0.75898623,0.74578995,0.7547722,0.95367944,0.8649092,0.9538221
154,0.9359935,0.7553152,0.80627555,0.89128786,0.8627086,0.7799618,0.7515272,0.89391977,0.953599,0.88418067,0.9499559,0.9214505,0.9207998,0.75911003,0.74591374,0.75489604,0.9536815,0.865033,0.95382416
155,0.93627316,0.75559485,0.8065552,0.8915675,0.86298823,0.7802415,0.75180686,0.89419943,0.9536032,0.88446033,0.95023555,0.92173016,0.92107946,0.7593897,0.7461934,0.7551757,0.95368576,0.86531264,0.9538284
156,0.9371889,0.7565106,0.807471,0.8924833,0.86390406,0.78115726,0.7527227,0.8951152,0.95361626,0.8853761,0.9511513,0.9226459,0.9219952,0.76030546,0.7471092,0.7560915,0.9536988,0.8662284,0.9538414
157,0.9372517,0.7565734,0.80753374,0.89254606,0.8639668,0.7812201,0.75278544,0.89517796,0.95361745,0.88543886,0.95121413,0.9227087,0.922058,0.7603682,0.747172,0.75615424,0.9537,0.86629117,0.95384264
158,0.9380762,0.7573979,0.8083583,0.89337057,0.86479133,0.7820446,0.75360996,0.8960025,0.95362926,0.8862634,0.95203865,0.9235332,0.9228825,0.7611928,0.74799645,0.75697875,0.9537118,0.86711574,0.9538544
159,0.93811387,0.7574355,0.8083959,0.89340824,0.86482894,0.7820822,0.75364757,0.8960401,0.9536301,0.88630104,0.95207626,0.9235709,0.92292017,0.7612304,0.7480341,0.7570164,0.95371264,0.86715335,0.9538553
160,0.93891835,0.75824,0.8092004,0.8942127,0.8656334,0.7828867,0.7544521,0.8968446,0.9536416,0.8871055,0.95288074,0.92437536,0.92372465,0.7620349,0.7488386,0.75782084,0.95372415,0.86795783,0.9538667
161,0.9389215,0.7582432,0.80920357,0.8942159,0.86563665,0.78288984,0.75445527,0.8968478,0.95364195,0.8871087,0.9528839,0.9243785,0.9237278,0.76203805,0.74884176,0.75782406,0.9537245,0.867961,0.9538671
162,0.93910605,0.75842774,0.8093881,0.8944004,0.8658211,0.7830744,0.75463974,0.8970323,0.9536448,0.8872932,0.95306844,0.92456305,0.92391235,0.7622226,0.7490263,0.7580086,0.95372736,0.8681455,0.95386994
163,0.93930566,0.75862736,0.8095877,0.89460003,0.8660208,0.783274,0.7548394,0.89723194,0.95364785,0.88749284,0.95326805,0.92476267,0.92411196,0.7624222,0.7492259,0.75820816,0.9537304,0.86834514,0.953873
164,0.93998104,0.75930274,0.8102631,0.8952754,0.8666962,0.7839494,0.75551474,0.8979073,0.95365745,0.8881682,0.95364827,0.92543805,0.92478734,0.7630976,0.7499013,0.7588836,0.95374,0.8690205,0.9538826
165,0.9400107,0.75933236,0.8102928,0.8953051,0.8667258,0.78397906,0.7555444,0.89793694,0.9536581,0.8881979,0.9536489,0.9254677,0.92481697,0.76312727,0.749931,0.7589132,0.95374066,0.8690502,0.95388323
166,0.9401852,0.7595068,0.81046724,0.8954795,0.86690027,0.7841535,0.7557189,0.8981114,0.9536607,0.8883723,0.9536516,0.92564213,0.9249914,0.76330173,0.7501054,0.7590877,0.95374334,0.86922467,0.9538859
167,0.94037014,0.75969183,0.8106522,0.8956645,0.8670853,0.7843385,0.7559039,0.8982964,0.9536635,0.8885573,0.95365435,0.92582715,0.92517644,0.7634867,0.7502904,0.7592727,0.9537461,0.8694096,0.9538887
168,0.94056004,0.75988173,0.8108421,0.8958544,0.8672752,0.7845284,0.7560938,0.8984863,0.9536663,0.8887472,0.9536572,0.92601705,0.92536634,0.7636766,0.7504803,0.7594626,0.95374894,0.8695995,0.9538915
169,0.9407522,0.7600739,0.81103426,0.8960466,0.86746734,0.78472054,0.7562859,0.8986785,0.9536692,0.8889394,0.9536601,0.9262092,0.9255585,0.76386875,0.75067246,0.75965476,0.95375174,0.8697917,0.9538944
